{
  "observation_dim": 40,
  "action_dim": 4,
  "structure": "mlp_gru",
  "rnn_type": "gru",
  "gru_input_dim": 16,
  "gru_hidden_dim": 16,
  "gru_num_layers": 1,
  "activation": "elu",
  "use_observation_normalization": false,
  "observation_mean": [
    0.0,
    0.0,
    0.0,
    0.0,
    0.0,
    0.0,
    0.0,
    0.0,
    0.0,
    0.0,
    0.0,
    0.0,
    0.0,
    0.0,
    0.0,
    0.0,
    0.0,
    0.0,
    0.0,
    0.0,
    0.0,
    0.0,
    0.0,
    0.0,
    0.0,
    0.0,
    0.0,
    0.0,
    0.0,
    0.0,
    0.0,
    0.0,
    0.0,
    0.0,
    0.0,
    0.0,
    0.0,
    0.0,
    0.0,
    0.0
  ],
  "observation_inv_std": [
    1.0,
    1.0,
    1.0,
    1.0,
    1.0,
    1.0,
    1.0,
    1.0,
    1.0,
    1.0,
    1.0,
    1.0,
    1.0,
    1.0,
    1.0,
    1.0,
    1.0,
    1.0,
    1.0,
    1.0,
    1.0,
    1.0,
    1.0,
    1.0,
    1.0,
    1.0,
    1.0,
    1.0,
    1.0,
    1.0,
    1.0,
    1.0,
    1.0,
    1.0,
    1.0,
    1.0,
    1.0,
    1.0,
    1.0,
    1.0
  ],
  "actor_encoder_dims": [
    40,
    16,
    16,
    16
  ],
  "actor_head_dims": [
    16,
    4
  ],
  "actor_encoder_weights": [
    [
      -1.8526371717453003,
      -0.5188990235328674,
      0.9499871730804443,
      -0.06344220042228699,
      2.0018370151519775,
      -0.24435806274414062,
      -2.664538860321045,
      -0.04474974796175957,
      1.1726690530776978,
      0.11489900201559067,
      -1.8473436832427979,
      0.08878502994775772,
      5.185179710388184,
      2.8629331588745117,
      0.10943073034286499,
      -4.07987117767334,
      -1.6256910562515259,
      0.3608954846858978,
      0.3243042230606079,
      -0.9757558703422546,
      -1.7174310684204102,
      0.06626634299755096,
      -0.01950717158615589,
      0.031040405854582787,
      -0.066676564514637,
      0.1776515543460846,
      -0.06769011169672012,
      -0.04822728782892227,
      0.04532525688409805,
      -0.01132835354655981,
      0.10753124207258224,
      -0.08541208505630493,
      -1.002428412437439,
      -0.49767830967903137,
      -0.39039313793182373,
      -0.9428296089172363,
      0.14173364639282227,
      0.10934393852949142,
      0.106900654733181,
      0.14518147706985474,
      0.00797512847930193,
      -0.14385932683944702,
      0.20771510899066925,
      0.20332938432693481,
      -0.7972179055213928,
      -0.7474542260169983,
      0.9546361565589905,
      0.04067878797650337,
      -0.07323669642210007,
      -0.04384506493806839,
      0.3055649399757385,
      0.20993365347385406,
      -2.586266040802002,
      -0.8485584259033203,
      0.0003102432528976351,
      0.18974007666110992,
      -0.1028061956167221,
      0.5633326768875122,
      -0.7694857716560364,
      1.4262268543243408,
      0.8314234614372253,
      -0.8944694399833679,
      -0.790586531162262,
      -0.09536554664373398,
      0.017391879111528397,
      -0.1498596966266632,
      -0.9173852801322937,
      -0.7946996688842773,
      -0.23671986162662506,
      -0.045418549329042435,
      -0.19912734627723694,
      1.7177115678787231,
      1.11346435546875,
      0.06013965979218483,
      0.33104100823402405,
      -0.8222455382347107,
      -0.10456699877977371,
      0.025527028366923332,
      0.026639653369784355,
      0.46736228466033936,
      0.5091561079025269,
      -0.6063514947891235,
      0.07758966833353043,
      -0.1183338612318039,
      -1.2104572057724,
      1.1704596281051636,
      1.0816694498062134,
      -0.2589535117149353,
      -0.8720359802246094,
      -0.3154129385948181,
      0.7828814387321472,
      0.013914791867136955,
      -1.1833319664001465,
      5.048613548278809,
      -0.1485251635313034,
      0.9305797219276428,
      -1.6066876649856567,
      -0.29527249932289124,
      0.2917972207069397,
      0.46711990237236023,
      0.1874791979789734,
      0.1028846949338913,
      -0.026985224336385727,
      0.10469216108322144,
      -0.018128832802176476,
      0.06731075048446655,
      -0.04400433599948883,
      0.19137702882289886,
      -0.07036521285772324,
      -0.019468199461698532,
      -0.0942833200097084,
      0.2905025780200958,
      -0.09240248054265976,
      0.06330189108848572,
      0.540143609046936,
      2.2955408096313477,
      0.043879419565200806,
      0.15734387934207916,
      -0.8554654121398926,
      0.7936084270477295,
      2.757927656173706,
      -1.0249425172805786,
      1.0964206457138062,
      -0.15023791790008545,
      0.40927016735076904,
      1.6210583448410034,
      -0.9461255669593811,
      -0.13849245011806488,
      0.9368340373039246,
      -1.4833120107650757,
      -0.08555271476507187,
      -0.11605313420295715,
      -5.176017761230469,
      0.297441691160202,
      0.09467818588018417,
      1.32577645778656,
      -0.5740807056427002,
      0.15071973204612732,
      0.5756784677505493,
      1.1672894954681396,
      0.46921923756599426,
      -0.46394333243370056,
      0.2099306285381317,
      0.037916459143161774,
      0.009526919573545456,
      -0.013942563906311989,
      -0.5108687877655029,
      0.33870038390159607,
      0.08140747249126434,
      0.023657407611608505,
      0.012191547080874443,
      0.48777639865875244,
      -0.08926279842853546,
      0.32480403780937195,
      -0.1044871062040329,
      1.5444673299789429,
      -0.23020169138908386,
      -0.05544162541627884,
      0.16505485773086548,
      -0.2601911127567291,
      1.2134305238723755,
      0.48251262307167053,
      0.12571117281913757,
      -0.44716876745224,
      1.0115885734558105,
      -0.7798620462417603,
      -0.09465651959180832,
      -0.7083166241645813,
      -0.6707682013511658,
      -0.24162675440311432,
      0.9591493010520935,
      -0.5465859770774841,
      -4.279232501983643,
      0.40621745586395264,
      0.7008974552154541,
      0.29250428080558777,
      -0.6815991401672363,
      0.07503554224967957,
      -0.10352720320224762,
      0.7994293570518494,
      0.8015840649604797,
      0.8883480429649353,
      0.2926308512687683,
      -0.04148873686790466,
      0.021336684003472328,
      0.18000610172748566,
      0.9816064834594727,
      0.5002625584602356,
      -0.0033925939351320267,
      -0.07969199866056442,
      0.23644153773784637,
      0.8087062835693359,
      0.7118010520935059,
      0.015637598931789398,
      0.9464850425720215,
      -1.1599024534225464,
      -0.21805423498153687,
      -0.34864798188209534,
      -0.11615139245986938,
      -0.007719679269939661,
      0.2086513340473175,
      0.5362511873245239,
      0.9498998522758484,
      0.07642710208892822,
      2.6110920906066895,
      1.3344100713729858,
      -2.212581157684326,
      -0.22087983787059784,
      0.06431321799755096,
      -1.3358887434005737,
      -0.02499683015048504,
      -0.03736322373151779,
      -1.8181750774383545,
      -0.5737186670303345,
      -0.08104021847248077,
      -0.1945343315601349,
      -0.8810079097747803,
      0.989212155342102,
      -1.4804240465164185,
      1.3622616529464722,
      -3.8962647914886475,
      0.10903329402208328,
      0.10775518417358398,
      0.019360654056072235,
      0.07252494990825653,
      0.5727300643920898,
      -0.09021450579166412,
      0.07822093367576599,
      0.06800045073032379,
      -0.03226432949304581,
      0.6065826416015625,
      0.39534831047058105,
      0.3001234233379364,
      0.9376984238624573,
      -0.313241571187973,
      0.25989022850990295,
      -0.07806447893381119,
      -0.013677184469997883,
      -0.6743820905685425,
      0.0841328427195549,
      -4.259076118469238,
      -1.0773203372955322,
      1.4114890098571777,
      0.018516112118959427,
      -1.5739225149154663,
      -1.1400943994522095,
      0.9787906408309937,
      0.16323186457157135,
      -1.6216686964035034,
      1.220924973487854,
      1.7923154830932617,
      0.1110968366265297,
      5.569463729858398,
      3.700848340988159,
      -0.02292131632566452,
      -2.0514445304870605,
      -1.0375686883926392,
      0.3446521461009979,
      1.0074483156204224,
      -1.5837764739990234,
      0.839851438999176,
      -0.02585894800722599,
      -0.024734346196055412,
      0.01612011529505253,
      0.1382056623697281,
      -0.15164101123809814,
      -0.032457612454891205,
      -0.026885323226451874,
      -0.0671825185418129,
      -0.05265408381819725,
      -0.1680908203125,
      -0.8744302988052368,
      -0.13632720708847046,
      0.06626787781715393,
      0.3650645911693573,
      2.159472942352295,
      -0.16822654008865356,
      0.09004015475511551,
      -0.17552471160888672,
      0.14771567285060883,
      -0.5949550271034241,
      -2.044325590133667,
      -0.09339191019535065,
      0.005948744714260101,
      -3.598494052886963,
      0.023638291284441948,
      3.93233060836792,
      0.005266356747597456,
      -2.3684349060058594,
      -0.42328694462776184,
      2.383371353149414,
      -0.016268741339445114,
      -0.7384492754936218,
      6.403439044952393,
      -0.16774870455265045,
      0.5555785298347473,
      -2.226384162902832,
      0.7253997325897217,
      1.6104508638381958,
      -0.10338059067726135,
      4.089495658874512,
      -0.05101556330919266,
      -0.06318628787994385,
      0.15699473023414612,
      0.010628599673509598,
      0.10972017794847488,
      0.04922326281666756,
      -0.019841952249407768,
      -0.09460432082414627,
      0.03471424803137779,
      0.17329001426696777,
      -0.5255034565925598,
      0.007456192281097174,
      0.7307924628257751,
      0.3274981677532196,
      0.6282421350479126,
      0.14776988327503204,
      -0.17629016935825348,
      0.11194780468940735,
      0.047995004802942276,
      1.7374333143234253,
      -1.2035809755325317,
      0.19300968945026398,
      0.10238421708345413,
      0.7130166888237,
      0.9320967793464661,
      -0.6856330037117004,
      -0.02735874243080616,
      0.5529011487960815,
      -0.6201229095458984,
      -0.2579359710216522,
      -0.060689717531204224,
      -1.974076509475708,
      1.758273720741272,
      -0.1702490597963333,
      1.4977223873138428,
      -2.0202791690826416,
      -1.1552073955535889,
      0.6949242353439331,
      0.22259162366390228,
      -2.2183635234832764,
      -0.11342202126979828,
      -0.14663678407669067,
      -0.12348517775535583,
      0.13351643085479736,
      0.34996259212493896,
      0.06469908356666565,
      -0.20038700103759766,
      0.01735212281346321,
      -0.05216103792190552,
      0.22266006469726562,
      -0.880760908126831,
      0.5686646699905396,
      0.7864908576011658,
      -0.772316038608551,
      1.1487139463424683,
      0.5452434420585632,
      0.11131970584392548,
      -0.0625615194439888,
      0.15420649945735931,
      -0.5294634103775024,
      -0.9597665071487427,
      0.12554728984832764,
      0.07886069267988205,
      -0.25997138023376465,
      2.4332528114318848,
      0.9073162078857422,
      -0.019794905558228493,
      0.35496100783348083,
      -2.331364870071411,
      -0.06940726190805435,
      -0.032269977033138275,
      -1.1994558572769165,
      2.38578724861145,
      -0.08676578849554062,
      0.32925963401794434,
      -1.2360419034957886,
      0.3157411217689514,
      0.6134631633758545,
      1.0585647821426392,
      1.0501223802566528,
      0.0824364498257637,
      -0.37777069211006165,
      0.09283683449029922,
      0.04391438513994217,
      -0.339900940656662,
      0.09673456102609634,
      -0.24815477430820465,
      -0.14308218657970428,
      -0.11472664028406143,
      -0.37443315982818604,
      0.6388865113258362,
      0.5533077120780945,
      -1.377228856086731,
      -0.8531462550163269,
      -0.4003824293613434,
      -0.38821589946746826,
      0.9456408023834229,
      0.2380433976650238,
      0.10389669984579086,
      0.5877676606178284,
      -0.05464162304997444,
      0.4947932958602905,
      -0.2829732894897461,
      0.22348842024803162,
      0.38627704977989197,
      0.31674036383628845,
      -0.33697208762168884,
      -0.6123819947242737,
      -0.45767083764076233,
      1.1697412729263306,
      -0.34220021963119507,
      -1.6070562601089478,
      5.626713752746582,
      0.20989932119846344,
      -0.3955976963043213,
      2.6642191410064697,
      0.42588838934898376,
      2.2309787273406982,
      0.6722863912582397,
      -0.98879075050354,
      -0.12298014014959335,
      -0.20563243329524994,
      -0.008690792135894299,
      0.09071364253759384,
      0.8856784701347351,
      -0.06621676683425903,
      -0.2405998855829239,
      -0.22312124073505402,
      0.012236201204359531,
      0.6106890439987183,
      0.391189306974411,
      0.7719128131866455,
      -0.6758589744567871,
      -0.052096035331487656,
      0.9755721092224121,
      0.1086050495505333,
      -0.13708654046058655,
      0.025206083431839943,
      -0.09723637253046036,
      -0.47209301590919495,
      -0.5834177136421204,
      0.16131004691123962,
      -0.3424086570739746,
      1.3418004512786865,
      -1.368914246559143,
      -1.765703558921814,
      -0.10253380984067917,
      -0.6630966067314148,
      1.7899649143218994,
      0.8399441242218018,
      -0.33087363839149475,
      4.725548267364502,
      -0.19159547984600067,
      0.07259746640920639,
      0.43726077675819397,
      -0.3091927468776703,
      1.3129431009292603,
      -0.03282037749886513,
      -2.5699758529663086,
      -1.5453566312789917,
      0.08201262354850769,
      -0.2786390483379364,
      -0.13939572870731354,
      -0.02098461240530014,
      -0.026159705594182014,
      0.12734322249889374,
      -0.11256907135248184,
      -0.04410819336771965,
      -0.008125274442136288,
      0.08789440989494324,
      -0.9057856202125549,
      -0.7010384798049927,
      -0.34951093792915344,
      -0.16838589310646057,
      -0.22494475543498993,
      0.1945825070142746,
      -0.2625861167907715,
      0.10286042839288712,
      -0.26730790734291077,
      -0.34244024753570557,
      -0.7769315242767334,
      -6.15054988861084,
      -0.03035847283899784,
      -1.0700520277023315,
      0.4402581453323364,
      0.14850537478923798,
      0.18770618736743927,
      -0.4557473361492157,
      -0.3019549548625946,
      1.0542067289352417,
      0.09342924505472183,
      1.0521169900894165,
      2.5698444843292236,
      0.16765013337135315,
      -0.7024471163749695,
      -1.3923524618148804,
      -5.7705979347229,
      0.4147437810897827,
      0.01327423844486475,
      0.7580364942550659,
      0.03762710839509964,
      0.09692485630512238,
      0.026075312867760658,
      0.07906600832939148,
      -0.2939109802246094,
      -0.07057782262563705,
      -0.04307172819972038,
      0.002525338903069496,
      -0.056439388543367386,
      0.027090026065707207,
      0.003148665651679039,
      -0.050327036529779434,
      0.005381532944738865,
      -0.1920270472764969,
      0.6377750039100647,
      -0.08890467882156372,
      -0.06927309185266495,
      -0.029448270797729492,
      0.06254323571920395,
      -0.42369961738586426,
      -4.768795490264893,
      0.004225640557706356,
      0.13337378203868866,
      0.7104861736297607,
      -1.2565910816192627,
      -0.32539135217666626,
      -0.18782402575016022,
      -2.666001319885254,
      0.7709184288978577,
      2.1452255249023438,
      0.034273456782102585,
      -0.35519513487815857,
      8.486173629760742,
      -0.256413072347641,
      0.8311807513237,
      -3.044780969619751,
      0.03951742872595787,
      2.122204542160034,
      0.06844921410083771,
      -1.4806914329528809,
      0.04829368367791176,
      -0.02092610113322735,
      -0.030121488496661186,
      -0.007613894063979387,
      0.012942899949848652,
      -0.06185253709554672,
      0.05513516813516617,
      0.014606501907110214,
      0.02740340307354927,
      0.04707663506269455,
      0.14212331175804138,
      0.06196550279855728,
      -0.024933692067861557,
      0.08776506036520004,
      0.3721712827682495,
      0.10789023339748383,
      -0.06865978986024857,
      -0.10353165119886398,
      0.12085185945034027,
      0.9783685207366943,
      -1.4893364906311035,
      2.872318983078003,
      -0.21122528612613678,
      -1.7334741353988647,
      0.31819504499435425,
      1.4980895519256592,
      -0.09082535654306412,
      -0.16793379187583923,
      -0.8056485056877136,
      0.22030583024024963,
      0.05226864665746689,
      -1.085166573524475,
      2.6618804931640625,
      0.2909749150276184,
      0.3395025432109833,
      -3.2923569679260254,
      0.8715662360191345,
      -1.2088515758514404,
      -0.23857223987579346,
      1.9728158712387085,
      -0.03012913279235363,
      0.14724887907505035,
      0.0014175151009112597,
      0.1370314657688141,
      -0.3015083372592926,
      0.08919540047645569,
      0.11482789367437363,
      0.009670799598097801,
      -0.10340698808431625,
      -0.09657523781061172,
      -0.22146983444690704,
      -0.23602840304374695,
      -0.6259565949440002,
      -0.29173851013183594,
      0.664465606212616,
      0.34822139143943787,
      -0.4802761673927307,
      0.17757466435432434,
      0.09583999961614609,
      5.246776103973389,
      -2.474346876144409,
      1.1133325099945068,
      -0.09973761439323425,
      0.1850883662700653,
      0.7631197571754456,
      -0.5956396460533142,
      0.01654266193509102,
      0.7674694061279297,
      -1.213651180267334,
      -0.8003382682800293,
      -0.09163808822631836,
      -6.294127941131592,
      0.49194997549057007,
      -0.1523314118385315,
      1.4885406494140625,
      -0.7361572980880737,
      -0.23088310658931732,
      1.3128905296325684,
      2.1986753940582275,
      0.5044006109237671,
      0.012221666052937508,
      -0.09848497062921524,
      -0.00046412216033786535,
      -0.07879548519849777,
      -0.09956646710634232,
      -0.05877421796321869,
      0.08283373713493347,
      0.05593334138393402,
      0.12217019498348236,
      -0.019438570365309715,
      0.5698593854904175,
      0.31844285130500793,
      0.38471662998199463,
      -0.34940847754478455,
      -1.8908944129943848,
      -0.1209360882639885,
      -0.1071476936340332,
      0.1898561716079712,
      -0.09022903442382812
    ],
    [
      0.1756809502840042,
      -0.29665684700012207,
      -0.24535208940505981,
      -0.6762674450874329,
      -0.46746307611465454,
      -0.42725327610969543,
      -0.40400469303131104,
      0.3648301362991333,
      0.4187554121017456,
      0.07956407964229584,
      0.12787385284900665,
      -0.08795657753944397,
      -1.0115538835525513,
      0.23096570372581482,
      -0.027012651786208153,
      -0.07950451970100403,
      0.2559497058391571,
      -0.7085866928100586,
      -0.3786141872406006,
      -0.36172494292259216,
      -0.5088469386100769,
      0.36950287222862244,
      -0.3180250823497772,
      0.046607162803411484,
      -0.32483989000320435,
      -0.022060442715883255,
      0.3216646611690521,
      1.0792880058288574,
      0.01989862136542797,
      0.3097709119319916,
      -0.15393884479999542,
      0.10101550817489624,
      -0.19538988173007965,
      -0.11344338953495026,
      -0.32613176107406616,
      -0.062153998762369156,
      -0.012213231064379215,
      -0.23143692314624786,
      -0.5901792645454407,
      -0.7122043371200562,
      0.31522876024246216,
      0.05323623865842819,
      0.07890476286411285,
      -0.20169246196746826,
      0.7056618332862854,
      0.08927984535694122,
      -0.47498810291290283,
      0.03840629756450653,
      -0.01426742970943451,
      0.3553604185581207,
      0.3278883099555969,
      -0.36078161001205444,
      -0.20291602611541748,
      0.0828995481133461,
      -0.1943637877702713,
      -0.15138055384159088,
      0.13242648541927338,
      -0.11775720119476318,
      -0.1013319194316864,
      0.070402130484581,
      -0.09203510731458664,
      -1.4238371849060059,
      0.22661170363426208,
      -0.3319718539714813,
      0.3850894868373871,
      0.5239156484603882,
      0.30913081765174866,
      0.20711679756641388,
      0.11789006739854813,
      0.33567970991134644,
      0.10774704068899155,
      -0.41895806789398193,
      0.276686429977417,
      0.1563054919242859,
      0.7521387934684753,
      -0.10227809101343155,
      -0.6800260543823242,
      0.17330402135849,
      -0.5573800802230835,
      -0.19643782079219818,
      -0.2028399407863617,
      -0.3420570194721222,
      0.19446849822998047,
      -0.06956829875707626,
      -0.20307184755802155,
      -0.13075459003448486,
      -0.035560693591833115,
      -0.24766261875629425,
      -0.07389989495277405,
      0.18707731366157532,
      -0.46087947487831116,
      -0.2142496109008789,
      -0.7723941802978516,
      -0.7049338817596436,
      -0.6240442395210266,
      0.5022891163825989,
      0.08051372319459915,
      -0.2692626118659973,
      0.27433112263679504,
      -0.3857593536376953,
      -0.25949934124946594,
      0.574607789516449,
      0.08847499638795853,
      0.00783253088593483,
      0.3829956650733948,
      -0.5246850848197937,
      0.20249967277050018,
      0.4120122790336609,
      0.06470870226621628,
      -0.34971219301223755,
      0.3203151822090149,
      -0.3669625520706177,
      -0.31874653697013855,
      0.4948408901691437,
      -0.21816986799240112,
      0.2862255573272705,
      0.3022250533103943,
      -0.2616329789161682,
      0.4895634353160858,
      0.1998596340417862,
      -0.5793074369430542,
      0.2066420316696167,
      0.22065886855125427,
      -0.11133529245853424,
      0.26567041873931885,
      -0.9432455897331238,
      0.20311757922172546,
      -0.06744659692049026,
      0.019469816237688065,
      0.018819307908415794,
      -0.14514589309692383,
      0.24890895187854767,
      0.33147865533828735,
      -0.1490580141544342,
      0.6798397302627563,
      -0.6891297698020935,
      -0.570685088634491,
      -0.34889787435531616,
      0.15280663967132568,
      0.07801494747400284,
      0.5827587842941284,
      -0.6131920218467712,
      -0.6214157938957214,
      -0.7822858095169067,
      0.00587588082998991,
      -0.24916772544384003,
      0.009751229546964169,
      0.11225493997335434,
      -0.2163010984659195,
      -0.39336490631103516,
      0.30247023701667786,
      0.4216993451118469,
      -0.14925134181976318,
      0.28946712613105774,
      0.38437461853027344,
      0.21244116127490997,
      0.4685854911804199,
      0.8263673186302185,
      -1.2122241258621216,
      0.3000640571117401,
      0.2651005685329437,
      -0.3616254925727844,
      0.027529848739504814,
      -0.45118972659111023,
      -0.3042300343513489,
      -0.014677511528134346,
      0.04232586920261383,
      -0.054982297122478485,
      0.14632275700569153,
      -0.03941930830478668,
      -0.27682995796203613,
      -0.16852599382400513,
      0.19829502701759338,
      -0.7154006361961365,
      -0.6377267837524414,
      -0.5075494647026062,
      0.6674780249595642,
      0.489280641078949,
      -0.6437594890594482,
      0.2462754249572754,
      0.18675507605075836,
      0.5637988448143005,
      -0.3796648681163788,
      0.613947331905365,
      -0.862443208694458,
      0.08841288089752197,
      0.9026725888252258,
      0.27907270193099976,
      0.009417420253157616,
      -0.33793821930885315,
      -0.18726274371147156,
      0.19698676466941833,
      0.1862785518169403,
      -0.3630908727645874,
      -0.4289464056491852,
      -0.1120554655790329,
      -0.09374281018972397,
      -0.5356459021568298,
      -0.06148907542228699,
      0.4290667176246643,
      -0.162706658244133,
      -0.16982418298721313,
      0.055269066244363785,
      -0.16826431453227997,
      0.44925737380981445,
      -0.7949705719947815,
      0.14472869038581848,
      -0.23194445669651031,
      -1.1856765747070312,
      -0.21994371712207794,
      0.29720577597618103,
      0.18064332008361816,
      -0.004543238785117865,
      -0.5860716104507446,
      -0.10845958441495895,
      0.295326292514801,
      0.4184039533138275,
      -0.4492194354534149,
      0.12084236741065979,
      -0.09851324558258057,
      0.3581663966178894,
      -0.7646282911300659,
      -0.729150116443634,
      0.36885952949523926,
      -0.550574779510498,
      0.39882850646972656,
      0.1838170886039734,
      0.16499774158000946,
      0.34292715787887573,
      0.16825765371322632,
      -1.2617326974868774,
      0.2171769142150879,
      0.012646195478737354,
      0.10012803226709366,
      -0.039281293749809265,
      -0.28319787979125977,
      0.13412414491176605,
      0.2647736966609955,
      -0.08225879818201065,
      -0.03114955499768257,
      0.0037489563692361116,
      0.32117870450019836,
      -0.5535820722579956,
      0.21168653666973114,
      0.14127767086029053,
      0.04778144508600235,
      -0.5113791227340698,
      -0.6564744114875793,
      -0.06619720906019211,
      -0.1638338714838028,
      -0.16776801645755768,
      0.17930039763450623,
      -0.6956968307495117,
      -0.4999064803123474,
      0.05530306324362755,
      0.049226000905036926
    ],
    [
      -0.03748932480812073,
      -0.04351278394460678,
      0.010357946157455444,
      -0.31756699085235596,
      0.09528446197509766,
      0.28899526596069336,
      0.11677833646535873,
      -0.011761756613850594,
      -0.12542195618152618,
      -0.19238203763961792,
      0.09671755880117416,
      0.10941420495510101,
      0.33538946509361267,
      0.020649900659918785,
      0.2542032301425934,
      0.05191534757614136,
      0.20555806159973145,
      0.007743396330624819,
      -0.09514211118221283,
      -0.03528263792395592,
      0.0974017009139061,
      0.44399547576904297,
      0.2851368188858032,
      -0.10476315766572952,
      -0.10908110439777374,
      -0.23502956330776215,
      0.06051243096590042,
      -0.17908205091953278,
      0.20207829773426056,
      -0.6688913702964783,
      -0.10504481196403503,
      0.5562388300895691,
      0.24275460839271545,
      0.4083724319934845,
      -0.3003288209438324,
      -0.19895926117897034,
      -0.31057208776474,
      -0.17028319835662842,
      0.38119620084762573,
      -0.04017002508044243,
      0.19348156452178955,
      0.2551194131374359,
      0.009929709136486053,
      -0.029207229614257812,
      0.2970326244831085,
      -0.2736932039260864,
      -0.3665919005870819,
      -0.5916911363601685,
      0.4005695879459381,
      -0.07986035197973251,
      -0.31136828660964966,
      0.27594760060310364,
      0.012041401118040085,
      0.7560157179832458,
      0.16424185037612915,
      0.13388453423976898,
      -0.1810808628797531,
      0.058779701590538025,
      0.24878442287445068,
      -0.022300004959106445,
      -0.2473347932100296,
      0.2016172558069229,
      -0.13128702342510223,
      -0.5181394219398499,
      0.24430353939533234,
      0.1773613840341568,
      0.2000524252653122,
      -0.0210956372320652,
      -0.1124582588672638,
      -0.23937441408634186,
      -0.48755866289138794,
      -0.16559161245822906,
      0.19363246858119965,
      -0.02726229652762413,
      0.5008101463317871,
      -0.34220558404922485,
      -0.043894845992326736,
      0.006197638344019651,
      -0.6554012298583984,
      -0.269330233335495,
      0.020409315824508667,
      -0.1024768278002739,
      -0.26524317264556885,
      0.29879844188690186,
      -0.11066138744354248,
      0.38584059476852417,
      -0.06066136807203293,
      0.20848047733306885,
      0.04096047580242157,
      0.25427284836769104,
      0.3414086401462555,
      -0.19861088693141937,
      -0.1589721292257309,
      -0.3891741633415222,
      0.024653838947415352,
      0.02220814861357212,
      0.24341490864753723,
      -0.4034859240055084,
      -0.4610983431339264,
      -0.2042885273694992,
      -0.024074038490653038,
      -0.53128981590271,
      -0.19210489094257355,
      -0.08564825356006622,
      -0.42932456731796265,
      0.04099687188863754,
      -0.5301470160484314,
      0.04299014434218407,
      0.35968440771102905,
      -0.01838023029267788,
      0.00022604508558288217,
      -0.49938684701919556,
      -0.09425195306539536,
      0.028138967230916023,
      -0.0009873030940070748,
      -0.04148070514202118,
      -0.014506196603178978,
      -0.36866092681884766,
      0.18171970546245575,
      0.08108764886856079,
      -0.014224973507225513,
      0.4379428029060364,
      0.2216387689113617,
      0.12886956334114075,
      0.1257503628730774,
      -0.14469261467456818,
      0.125578373670578,
      -0.15331032872200012,
      0.01685941033065319,
      -0.18165640532970428,
      -0.03748033568263054,
      -0.679503858089447,
      0.7171156406402588,
      -0.1461801826953888,
      0.045402489602565765,
      -0.30660107731819153,
      -0.38200485706329346,
      0.04000519588589668,
      -0.35733985900878906,
      -0.04928968474268913,
      -0.37420058250427246,
      -0.14782853424549103,
      0.05345761403441429,
      -0.3509567081928253,
      -0.47891566157341003,
      -0.2710392475128174,
      0.02185073122382164,
      -0.13923627138137817,
      -0.11795299500226974,
      0.16421261429786682,
      0.006742625031620264,
      -0.13828350603580475,
      -0.059109169989824295,
      -0.06155654042959213,
      0.46926116943359375,
      0.2524922788143158,
      0.1973530799150467,
      -0.32744133472442627,
      0.23811057209968567,
      -0.5424336194992065,
      -0.06692352890968323,
      0.1631377935409546,
      -0.09226614981889725,
      -0.5480152368545532,
      -0.08589398115873337,
      -0.05191868543624878,
      0.1594526767730713,
      -0.17386895418167114,
      0.47627973556518555,
      0.13976933062076569,
      0.1572033166885376,
      -0.1547936499118805,
      -0.1316073089838028,
      -0.03410337120294571,
      -0.024431368336081505,
      0.22992394864559174,
      0.1051524430513382,
      0.3676527142524719,
      -0.05719474330544472,
      -0.3900220990180969,
      0.0852515771985054,
      0.5594229102134705,
      -0.4256373941898346,
      0.4747193455696106,
      -0.1117834523320198,
      0.18991969525814056,
      -0.1797644942998886,
      0.09898365288972855,
      0.21638426184654236,
      0.0063077108934521675,
      0.06725592911243439,
      0.10020212829113007,
      -0.4509891867637634,
      0.21018490195274353,
      0.6985934972763062,
      -0.1296463906764984,
      -0.33013856410980225,
      0.018409540876746178,
      0.03011457994580269,
      -0.20131978392601013,
      -0.42898234724998474,
      0.082074373960495,
      -0.07755854725837708,
      0.34051570296287537,
      -0.178927943110466,
      0.044144343584775925,
      0.0960104912519455,
      0.22580325603485107,
      -0.2899742126464844,
      0.1774158477783203,
      -0.648138165473938,
      -0.1538526862859726,
      -0.004169340245425701,
      0.3430238366127014,
      0.12087801843881607,
      0.24371874332427979,
      0.000895050005055964,
      -0.04102621227502823,
      -0.26213034987449646,
      -0.1263633817434311,
      0.003697357140481472,
      0.2507668137550354,
      -0.226896271109581,
      0.19585900008678436,
      0.5045062303543091,
      0.04631447046995163,
      -0.24623847007751465,
      -0.015565447509288788,
      -0.045888036489486694,
      -0.29620790481567383,
      -0.286077618598938,
      -0.05927181988954544,
      0.141668438911438,
      -0.015892531722784042,
      -0.07706707715988159,
      0.05411488190293312,
      -0.17971006035804749,
      0.1645478457212448,
      -0.02120051719248295,
      0.05010877549648285,
      0.053377680480480194,
      -0.19336140155792236,
      0.3425385057926178,
      0.4199414551258087,
      -0.19204160571098328,
      0.1497621387243271,
      0.20041106641292572,
      0.20209269225597382,
      0.01587880775332451,
      0.20945830643177032,
      -0.2865213453769684,
      0.0560724250972271,
      -0.194158136844635,
      -0.1017669141292572,
      -0.12787272036075592,
      -0.0351235456764698
    ]
  ],
  "actor_encoder_biases": [
    [
      -0.22373449802398682,
      0.2501703202724457,
      -0.08673198521137238,
      -0.18783684074878693,
      -0.5325685739517212,
      -0.22059161961078644,
      0.009485148824751377,
      -0.19554544985294342,
      -0.07901111245155334,
      -0.021510908380150795,
      -0.1960543692111969,
      -0.1289275586605072,
      0.14042997360229492,
      -0.09024214744567871,
      0.029448410496115685,
      -0.10867825150489807
    ],
    [
      -0.061607204377651215,
      -0.2654587924480438,
      -0.1302371621131897,
      0.10510922968387604,
      -0.3639286756515503,
      -0.11362569779157639,
      -0.19634205102920532,
      -0.22425638139247894,
      -0.2635665535926819,
      -0.19184455275535583,
      -0.23596680164337158,
      -1.0584173202514648,
      -0.28601816296577454,
      -0.2913059592247009,
      0.14225345849990845,
      0.25314801931381226
    ],
    [
      -0.02554474025964737,
      -0.1360076367855072,
      0.2536121606826782,
      -0.07554201781749725,
      -0.22513654828071594,
      -0.14759190380573273,
      -0.007614626083523035,
      0.11799126863479614,
      0.21299855411052704,
      -0.06994748115539551,
      0.0985272228717804,
      0.08595570176839828,
      -0.1457110345363617,
      0.14469163119792938,
      0.02726193517446518,
      -0.0016889051767066121
    ]
  ],
  "actor_head_weights": [
    [
      0.1908317506313324,
      -0.13770908117294312,
      0.2574538588523865,
      -0.0038844747468829155,
      0.1827826052904129,
      -0.3208483159542084,
      0.4371289610862732,
      -0.22495390474796295,
      -0.1202361136674881,
      -0.04928632080554962,
      0.027436763048171997,
      0.09162229299545288,
      -0.3307585120201111,
      -0.07843384891748428,
      0.6444219350814819,
      -0.160792276263237,
      -0.42253363132476807,
      -0.05691421777009964,
      0.11128441244363785,
      0.025828707963228226,
      0.24618583917617798,
      -0.7355493307113647,
      -0.4252488315105438,
      0.1938725858926773,
      0.004098162986338139,
      0.24196839332580566,
      -0.1398114413022995,
      0.14911942183971405,
      0.2555697560310364,
      0.12707725167274475,
      0.3713887929916382,
      -0.01452107634395361,
      -0.11201692372560501,
      -0.09461095184087753,
      0.05402408167719841,
      0.08757393807172775,
      0.007804421242326498,
      0.1415124386548996,
      -0.253073126077652,
      -0.4997008144855499,
      0.26763293147087097,
      0.10213161259889603,
      0.0013021217891946435,
      -0.1472381204366684,
      -0.6546236276626587,
      -0.3720047175884247,
      -0.05879777669906616,
      0.6935166120529175,
      0.027336059138178825,
      -0.49979665875434875,
      -0.0140413548797369,
      0.2552281320095062,
      0.009281398728489876,
      0.08610812574625015,
      0.1429147720336914,
      0.01910639926791191,
      0.8576454520225525,
      0.058260902762413025,
      -0.3916996121406555,
      -0.07770750671625137,
      0.39134645462036133,
      -0.19864721596240997,
      -0.12285556644201279,
      0.16757480800151825
    ]
  ],
  "actor_head_biases": [
    [
      0.5885317921638489,
      0.4314703643321991,
      0.5704191327095032,
      0.3849789500236511
    ]
  ],
  "gru_weight_ih": [
    -0.933691680431366,
    0.713718056678772,
    -0.43309587240219116,
    -0.6810554265975952,
    -0.4766300320625305,
    0.0410318560898304,
    -1.3424659967422485,
    -0.3554742932319641,
    -1.7491412162780762,
    -0.48063671588897705,
    -0.9836708307266235,
    -0.851499080657959,
    -0.25449034571647644,
    2.354329824447632,
    -0.01431362982839346,
    1.0830005407333374,
    -1.4975988864898682,
    0.7992748022079468,
    1.1848227977752686,
    1.7839887142181396,
    0.16876253485679626,
    0.8876292109489441,
    -1.7858344316482544,
    -0.005822423845529556,
    -0.7365866899490356,
    1.304435133934021,
    1.8579344749450684,
    -0.42854249477386475,
    1.1679713726043701,
    -0.9443371891975403,
    -0.03406466916203499,
    -0.06416702270507812,
    0.08046972006559372,
    -0.3898696303367615,
    -0.9714860320091248,
    -0.5634863972663879,
    -0.9415309429168701,
    0.6522883176803589,
    -0.6287310123443604,
    0.38894885778427124,
    -0.9447492957115173,
    0.4951527416706085,
    0.5687254667282104,
    0.1847091168165207,
    -0.8585538268089294,
    1.3966182470321655,
    -1.0972273349761963,
    -1.8136035203933716,
    0.5897658467292786,
    0.05558823421597481,
    0.278025358915329,
    -0.7219306826591492,
    -0.6438798904418945,
    -1.1597124338150024,
    -0.2733682096004486,
    1.391591191291809,
    0.03554772585630417,
    -0.6811294555664062,
    -0.22902452945709229,
    -0.33872613310813904,
    -0.5457879900932312,
    -0.14291097223758698,
    -0.23382310569286346,
    0.43291300535202026,
    -1.0993812084197998,
    -1.191319465637207,
    -0.912766695022583,
    -0.011752952821552753,
    0.7437258958816528,
    0.33500298857688904,
    -0.5313178896903992,
    0.06161879003047943,
    -0.8719018697738647,
    -1.5026659965515137,
    -0.4898131191730499,
    1.282182216644287,
    0.0721622109413147,
    -0.7948400974273682,
    0.2511778473854065,
    0.8844051361083984,
    0.17280767858028412,
    0.889094889163971,
    0.558750569820404,
    0.23570534586906433,
    0.4318068027496338,
    0.4709838628768921,
    -0.48256558179855347,
    -0.804255485534668,
    -0.8436262607574463,
    -0.48554515838623047,
    0.2916974723339081,
    -0.6035006046295166,
    -0.6287534832954407,
    0.4935368001461029,
    -0.3104013204574585,
    -0.10556931048631668,
    1.613543152809143,
    -0.5261538028717041,
    0.5407881140708923,
    0.6993808746337891,
    -0.5197187662124634,
    -0.920464277267456,
    -0.1483452469110489,
    -0.018077706918120384,
    -0.8257638812065125,
    0.23821644484996796,
    -0.05793219059705734,
    -0.20125751197338104,
    0.3779575228691101,
    -0.4928544759750366,
    0.6316162943840027,
    -1.4049330949783325,
    -0.7117821574211121,
    -0.31389036774635315,
    -0.4357461631298065,
    0.19998228549957275,
    0.22515811026096344,
    0.3619428873062134,
    -0.176746666431427,
    -0.7912511825561523,
    -0.12689653038978577,
    0.3224602937698364,
    0.625635027885437,
    -0.2506732642650604,
    0.4116884469985962,
    -0.38673824071884155,
    0.3025256097316742,
    0.13560578227043152,
    0.2821841239929199,
    -0.9728859663009644,
    1.1454784870147705,
    0.9200698733329773,
    1.9314671754837036,
    -0.3429505527019501,
    2.290645122528076,
    -1.1483618021011353,
    -1.3981670141220093,
    0.09498259425163269,
    -1.1484748125076294,
    -0.18535803258419037,
    -0.350889652967453,
    -0.005676222965121269,
    0.5061099529266357,
    -1.1158113479614258,
    -0.15765026211738586,
    -0.5481604337692261,
    -0.3479005992412567,
    -1.4576201438903809,
    -0.2514273226261139,
    0.05839334428310394,
    0.10200638324022293,
    0.3843382000923157,
    -0.07293643802404404,
    0.583320677280426,
    0.05383820831775665,
    0.43173786997795105,
    -0.7350417375564575,
    -0.8496081233024597,
    0.5577515363693237,
    0.11570009589195251,
    -0.12322277575731277,
    0.04761205613613129,
    -0.32006990909576416,
    -0.6465252041816711,
    0.433976411819458,
    0.18315614759922028,
    -0.14973244071006775,
    -0.3806227445602417,
    -0.20938554406166077,
    0.4323236346244812,
    0.3602851331233978,
    0.17224350571632385,
    0.7719409465789795,
    -0.6760647296905518,
    0.005545413121581078,
    0.3413645625114441,
    -0.6443188190460205,
    0.15292933583259583,
    -0.9940850734710693,
    1.2647405862808228,
    0.7708646655082703,
    1.3284419775009155,
    -1.0789583921432495,
    -0.5012537240982056,
    -0.5527632236480713,
    -0.4848715662956238,
    -0.6939460039138794,
    0.5648624897003174,
    0.4302074909210205,
    0.8921394348144531,
    0.30616965889930725,
    0.9768393635749817,
    0.46587514877319336,
    -0.5599180459976196,
    -0.5404263138771057,
    -0.5983904600143433,
    0.14142046868801117,
    1.426256775856018,
    -1.9758262634277344,
    1.7317211627960205,
    1.0718330144882202,
    -0.36006104946136475,
    -0.7309434413909912,
    0.3657911419868469,
    -1.380144715309143,
    -0.5504591464996338,
    -0.9820116758346558,
    0.5824964046478271,
    0.544745683670044,
    0.18631614744663239,
    -0.43192818760871887,
    -1.3366785049438477,
    -0.17273062467575073,
    -0.3150373697280884,
    0.450539767742157,
    -0.9806486368179321,
    -0.7570334672927856,
    0.5545645952224731,
    0.16852489113807678,
    0.14811363816261292,
    1.1509363651275635,
    1.1478432416915894,
    0.024532128125429153,
    0.26695525646209717,
    1.389211893081665,
    0.38106489181518555,
    1.7232997417449951,
    1.7738611698150635,
    -0.4599968194961548,
    -0.8993605375289917,
    0.3702208399772644,
    1.3399251699447632,
    0.8760223984718323,
    0.019520770758390427,
    0.8219056725502014,
    0.8070996403694153,
    2.3720498085021973,
    0.08896832168102264,
    0.4343165159225464,
    0.7868136763572693,
    1.0013409852981567,
    1.6266419887542725,
    -0.21206198632717133,
    0.5192937254905701,
    -1.4173977375030518,
    -0.5578047037124634,
    -1.546844244003296,
    -0.1784728467464447,
    0.4240513741970062,
    0.5954768657684326,
    0.4048477113246918,
    0.24434487521648407,
    0.20229500532150269,
    0.43738093972206116,
    -0.8960233330726624,
    -0.4706152379512787,
    -1.3118094205856323,
    -0.6642593145370483,
    -1.6908835172653198,
    -0.9211253523826599,
    1.2189033031463623,
    0.16810515522956848,
    0.15627504885196686,
    -1.2039130926132202,
    0.268824964761734,
    0.10619901120662689,
    -0.3696189224720001,
    -1.3004006147384644,
    -0.9610916972160339,
    1.5247210264205933,
    -0.7455733418464661,
    -0.27562132477760315,
    -0.47026804089546204,
    -0.32165494561195374,
    0.17542381584644318,
    -0.359018474817276,
    2.470973014831543,
    0.8484601378440857,
    -0.17238390445709229,
    -0.0311505738645792,
    -0.2840847969055176,
    -0.9210548996925354,
    -0.07296106964349747,
    0.2085849493741989,
    -1.137824535369873,
    -0.9095317721366882,
    -0.2914789915084839,
    0.3940136432647705,
    -0.5962327718734741,
    -0.5556928515434265,
    0.3525245487689972,
    2.158735752105713,
    -0.0007126533892005682,
    -0.345231831073761,
    1.4048757553100586,
    -0.46889370679855347,
    -0.11424674093723297,
    0.8330958485603333,
    -0.7646607160568237,
    -0.395862877368927,
    -0.704570472240448,
    0.6703450083732605,
    1.0670921802520752,
    0.39019888639450073,
    0.03677152842283249,
    -0.30747920274734497,
    -0.056258946657180786,
    0.1405198574066162,
    0.4112357497215271,
    -0.436579167842865,
    0.2577257454395294,
    0.3604483902454376,
    -0.09519260376691818,
    -0.33204060792922974,
    0.4404698610305786,
    -0.04180283471941948,
    0.20249220728874207,
    0.5298445224761963,
    0.19995418190956116,
    -0.4123692810535431,
    -0.7800384163856506,
    -1.0164690017700195,
    0.5793613195419312,
    0.9561521410942078,
    0.2121344953775406,
    0.6712200045585632,
    -0.844101071357727,
    1.32249915599823,
    -0.7645524144172668,
    1.1714838743209839,
    0.9178851842880249,
    -0.41120219230651855,
    -0.23270665109157562,
    0.7645168304443359,
    -0.4710807204246521,
    0.2449493110179901,
    -0.07020746171474457,
    -0.22752337157726288,
    -0.65647292137146,
    1.1471025943756104,
    0.6118390560150146,
    0.18195264041423798,
    -0.28533482551574707,
    0.9051974415779114,
    -0.2949991226196289,
    0.47925031185150146,
    0.46646401286125183,
    -0.36291491985321045,
    -0.8957142233848572,
    -0.7041201591491699,
    0.1324203908443451,
    -0.4092724621295929,
    0.52290278673172,
    -0.37092459201812744,
    0.08139608800411224,
    0.2606290280818939,
    1.1677712202072144,
    -0.5519409775733948,
    1.173271656036377,
    -0.08807757496833801,
    0.24810731410980225,
    -0.655064582824707,
    -0.17766064405441284,
    0.4043295383453369,
    0.8871638774871826,
    -0.6679794192314148,
    0.7551701068878174,
    0.12068571150302887,
    0.11337918043136597,
    0.3590114414691925,
    -0.39706337451934814,
    0.20656569302082062,
    0.6927230358123779,
    0.4955102205276489,
    0.6449837684631348,
    -0.034757401794195175,
    -0.45633769035339355,
    0.3106660842895508,
    -0.6699151396751404,
    -0.0727900043129921,
    0.7899948358535767,
    -0.29990503191947937,
    0.11014265567064285,
    1.1874465942382812,
    -0.05713516101241112,
    0.16220740973949432,
    0.030484648421406746,
    1.4528353214263916,
    0.16444356739521027,
    -1.357699990272522,
    0.8133792877197266,
    0.6542783379554749,
    0.2239115685224533,
    -0.8427831530570984,
    -0.34077775478363037,
    -1.6758122444152832,
    -0.1945987045764923,
    -0.003967321012169123,
    1.11477530002594,
    0.6227438449859619,
    -0.234771728515625,
    0.854774534702301,
    0.3732200264930725,
    -1.1800230741500854,
    0.19369500875473022,
    -0.5229120254516602,
    0.45724913477897644,
    -0.26091229915618896,
    -0.474123477935791,
    0.22150646150112152,
    -0.15265801548957825,
    -0.43044722080230713,
    0.045086998492479324,
    0.5553953051567078,
    0.25468146800994873,
    0.29048073291778564,
    0.2018406093120575,
    1.128764271736145,
    -0.4927985370159149,
    -0.1880718171596527,
    0.23320429027080536,
    -0.3031337857246399,
    -0.2668113112449646,
    -0.8604258298873901,
    -0.38857004046440125,
    0.07148069143295288,
    -0.4527890086174011,
    0.3087005019187927,
    0.5044993162155151,
    0.5073323249816895,
    1.303510069847107,
    -1.0353987216949463,
    -0.8707038760185242,
    0.353410929441452,
    -0.39538681507110596,
    0.2252049744129181,
    0.5030764937400818,
    1.043227195739746,
    -0.1504458487033844,
    -0.6631603837013245,
    -0.2853456437587738,
    -0.14760416746139526,
    0.3250279724597931,
    -0.174720898270607,
    -0.8872682452201843,
    0.36852818727493286,
    0.02380356565117836,
    0.48556792736053467,
    0.1149374321103096,
    -0.2747728228569031,
    -0.05833131819963455,
    0.216176375746727,
    -0.10329142212867737,
    0.029214268550276756,
    0.03800441324710846,
    -0.24644142389297485,
    -0.19134368002414703,
    0.26540160179138184,
    0.3798457682132721,
    -0.10205588489770889,
    0.2577824592590332,
    -0.24601437151432037,
    0.001299516879953444,
    0.005258616060018539,
    -0.6429077386856079,
    0.7121021747589111,
    0.017881769686937332,
    -1.3919403553009033,
    -0.5261138677597046,
    0.3686498999595642,
    -0.6116688847541809,
    0.3206242024898529,
    -0.6900074481964111,
    -0.49163302779197693,
    0.5607521533966064,
    1.2859702110290527,
    2.222291946411133,
    1.0279244184494019,
    0.12792745232582092,
    1.166722059249878,
    0.10199739784002304,
    0.820002019405365,
    -0.41249552369117737,
    0.18751269578933716,
    0.11519990861415863,
    -0.08126776665449142,
    0.39043644070625305,
    -0.5517411828041077,
    0.18006189167499542,
    0.09955617785453796,
    -0.1533733308315277,
    0.2384583204984665,
    1.1582461595535278,
    -0.22071051597595215,
    0.44331732392311096,
    -0.303640216588974,
    -0.12805746495723724,
    0.6391098499298096,
    -0.19744715094566345,
    0.5631651282310486,
    0.5385155081748962,
    0.8591880798339844,
    -0.17248854041099548,
    -0.18824559450149536,
    0.1621398776769638,
    -0.3135829269886017,
    -1.0584664344787598,
    0.6875052452087402,
    -0.19814017415046692,
    -0.27722620964050293,
    -0.12419344484806061,
    1.1703613996505737,
    0.08713791519403458,
    0.31399527192115784,
    0.18084201216697693,
    -0.003683827118948102,
    -0.16659708321094513,
    -0.10863024741411209,
    -0.18467210233211517,
    0.017359992489218712,
    -0.5511789917945862,
    0.2348342090845108,
    -0.16747762262821198,
    -0.4991605579853058,
    -0.09764781594276428,
    0.048549991101026535,
    -0.1890352964401245,
    -0.07520276308059692,
    0.15316584706306458,
    -0.24319088459014893,
    -0.007933538407087326,
    -0.5160404443740845,
    0.6174596548080444,
    -0.020176760852336884,
    0.2957795262336731,
    -0.33278384804725647,
    -0.00906196516007185,
    0.21474102139472961,
    0.24503600597381592,
    -0.3228486180305481,
    -0.0632767528295517,
    -0.39965835213661194,
    -0.04261533543467522,
    -0.07551047205924988,
    0.39039045572280884,
    0.7015685439109802,
    0.5049370527267456,
    0.08173258602619171,
    -0.47913458943367004,
    -0.20546355843544006,
    -0.46640685200691223,
    -0.03450670465826988,
    -0.07280084490776062,
    -0.35317033529281616,
    0.14004774391651154,
    0.042969249188899994,
    0.2375069260597229,
    0.6578466892242432,
    -0.4807746708393097,
    0.21844637393951416,
    -0.23187777400016785,
    0.02571680396795273,
    -0.16891056299209595,
    0.17915856838226318,
    -0.3152150511741638,
    -0.21680830419063568,
    0.5142772197723389,
    -0.04414234682917595,
    0.15115401148796082,
    -0.39144665002822876,
    -0.5605801343917847,
    -0.663149356842041,
    -0.0730452612042427,
    -0.08383592963218689,
    0.44207635521888733,
    0.2256377637386322,
    0.1865352839231491,
    0.5501932501792908,
    -0.38575512170791626,
    0.6408729553222656,
    0.4903659224510193,
    0.30103227496147156,
    -0.14221729338169098,
    -0.5437588095664978,
    0.4017028212547302,
    0.17260435223579407,
    -0.13401475548744202,
    -0.25537440180778503,
    -0.49681735038757324,
    -0.7154480218887329,
    0.13429760932922363,
    -0.04937567934393883,
    0.09370984137058258,
    0.052691083401441574,
    0.2658233046531677,
    0.112595334649086,
    0.1126888170838356,
    0.027964480221271515,
    0.057125531136989594,
    -0.06385968625545502,
    -1.0288723707199097,
    -0.024603717029094696,
    -0.086408831179142,
    -0.3153119385242462,
    0.039017871022224426,
    -0.1533890813589096,
    -0.16370834410190582,
    0.10434108227491379,
    -0.08211106806993484,
    0.4815009534358978,
    -0.1645515412092209,
    -0.0029290448874235153,
    0.12509286403656006,
    0.12363108992576599,
    -0.22916622459888458,
    -0.05693599954247475,
    -0.5858569145202637,
    0.10443593561649323,
    -0.3544904291629791,
    -0.39940568804740906,
    -0.05059662088751793,
    -0.2266145944595337,
    0.04487098008394241,
    0.09514576941728592,
    0.19857031106948853,
    -0.015174193307757378,
    -0.3784767985343933,
    -0.16830816864967346,
    -0.17979860305786133,
    -0.2560109496116638,
    0.05160325765609741,
    0.01695430837571621,
    0.06817447394132614,
    -0.054893672466278076,
    -0.2784699499607086,
    0.1728048175573349,
    0.4827978014945984,
    -0.11557717621326447,
    -0.11241786181926727,
    -0.006358341779559851,
    0.06748463213443756,
    0.1221453994512558,
    -0.47438520193099976,
    0.07906203716993332,
    -0.30671635270118713,
    0.3194195628166199,
    0.03827808424830437,
    -0.13133278489112854,
    -0.2104879468679428,
    0.051799140870571136,
    -0.1661481410264969,
    -0.04196230322122574,
    -0.13425032794475555,
    0.03628403693437576,
    0.018512731418013573,
    0.030759574845433235,
    0.30159956216812134,
    0.44337964057922363,
    0.14890265464782715,
    -0.2267182171344757,
    -0.07728061825037003,
    0.20793317258358002,
    0.3748133182525635,
    0.1563146561384201,
    0.5147585868835449,
    0.8009292483329773,
    -0.04491468146443367,
    -0.0695372223854065,
    0.04552651569247246,
    -0.09928034245967865,
    -0.5461015701293945,
    0.10527484118938446,
    -0.1089835837483406,
    0.02265869826078415,
    0.43014734983444214,
    0.20895734429359436,
    0.4681221842765808,
    0.06942738592624664,
    0.12318307161331177,
    0.14464721083641052,
    -0.07544830441474915,
    -0.16676336526870728,
    -0.05106464773416519,
    -0.330958753824234,
    0.1842145472764969,
    -0.42465847730636597,
    0.283607542514801,
    -0.009688125923275948,
    0.0752684473991394,
    0.04251525551080704,
    0.09978611767292023,
    -0.03271552175283432,
    0.2492523342370987,
    -0.15878090262413025,
    -0.4982426166534424,
    0.2166459858417511,
    0.20429855585098267,
    -0.0059140510857105255,
    0.3447750508785248,
    0.49152079224586487,
    0.24042941629886627,
    -0.12294578552246094,
    0.2883036732673645,
    -0.09510013461112976,
    -0.30549290776252747,
    -0.8758459091186523,
    -0.8106537461280823,
    0.7228311896324158,
    -0.10703301429748535,
    0.2958620488643646,
    -0.2268509864807129,
    -0.29512304067611694,
    0.6550224423408508,
    0.8299155235290527,
    -0.28096452355384827,
    -0.4634694457054138,
    -0.3458285629749298,
    -0.31168606877326965,
    -0.49683091044425964,
    0.30088984966278076,
    -0.1454191356897354,
    0.14745213091373444,
    -0.3817768096923828,
    -0.30808335542678833,
    -0.28593528270721436,
    -0.032198552042245865,
    -0.08273861557245255,
    0.21615958213806152,
    -0.017575308680534363,
    -0.24175770580768585,
    -0.03400953486561775,
    -0.5095032453536987,
    0.11203691363334656,
    -0.2332717627286911,
    0.20625221729278564,
    -0.0726805031299591,
    -0.01154788676649332,
    0.48277464509010315,
    0.11674322932958603,
    -0.038436975330114365,
    0.2780420780181885,
    0.05067029967904091,
    -0.1010090783238411,
    -0.11697708815336227,
    -0.07874345034360886,
    -0.24518127739429474,
    0.04464968293905258,
    -0.3671325147151947,
    -0.22845305502414703,
    -0.07622485607862473,
    0.01582597754895687,
    0.02931702882051468,
    -0.004412797745317221,
    0.1938004195690155,
    0.21812668442726135,
    -0.17317739129066467,
    0.2881523668766022,
    -0.04025021195411682,
    0.5740110278129578,
    0.19537557661533356,
    0.04008639603853226,
    -0.2619606852531433,
    -0.11188241839408875,
    0.5299690961837769,
    -0.19382977485656738,
    -0.06577268987894058,
    0.36274516582489014,
    -0.03606602922081947
  ],
  "gru_weight_hh": [
    0.8128060698509216,
    1.77154541015625,
    -0.6934021711349487,
    0.22302024066448212,
    0.09573723375797272,
    1.9990602731704712,
    -1.4447554349899292,
    0.4040446877479553,
    -0.10854990780353546,
    -0.9466988444328308,
    -1.1467581987380981,
    -0.6367330551147461,
    1.7542818784713745,
    0.28625163435935974,
    -1.5305311679840088,
    -0.8514776825904846,
    -0.7233275175094604,
    -0.8427174091339111,
    -0.35240334272384644,
    0.915985107421875,
    -0.5242516994476318,
    0.11843618005514145,
    -0.25701963901519775,
    0.26366645097732544,
    -0.8995144963264465,
    0.23483730852603912,
    -1.2479188442230225,
    1.0202882289886475,
    -1.169269323348999,
    0.9180033802986145,
    -0.49939677119255066,
    0.3569967448711395,
    0.2595818340778351,
    0.06390146166086197,
    0.3781105577945709,
    0.8368434906005859,
    -1.7337168455123901,
    0.012157722376286983,
    -1.2348666191101074,
    0.20207655429840088,
    0.2436295747756958,
    -0.020629141479730606,
    -0.3901544511318207,
    1.2986600399017334,
    1.4467905759811401,
    -3.3946521282196045,
    0.2856923043727875,
    0.5946271419525146,
    0.3006281852722168,
    -0.024025235325098038,
    1.3006197214126587,
    0.7730874419212341,
    -0.7246257662773132,
    0.4626815915107727,
    0.342229962348938,
    -0.425477534532547,
    1.008756399154663,
    0.18530447781085968,
    0.07600608468055725,
    -0.16441965103149414,
    0.1906737983226776,
    0.14301370084285736,
    -0.7504388689994812,
    0.450604647397995,
    -0.7020193338394165,
    1.5794469118118286,
    -1.4310628175735474,
    -0.12559084594249725,
    1.6114405393600464,
    1.4648716449737549,
    -2.6705892086029053,
    -1.5438790321350098,
    0.4242207109928131,
    -0.414093941450119,
    0.8803554773330688,
    0.548366367816925,
    2.1980130672454834,
    0.8013166189193726,
    -0.8513703942298889,
    1.6210448741912842,
    -1.1490429639816284,
    -0.031229790300130844,
    -0.9407252669334412,
    -0.22484244406223297,
    -1.1983016729354858,
    0.5902756452560425,
    -0.31403112411499023,
    0.26887282729148865,
    0.04950863495469093,
    -1.0658907890319824,
    0.1280551701784134,
    0.4298989474773407,
    -2.705728054046631,
    -0.5800786018371582,
    -0.12332765758037567,
    -1.503259539604187,
    -1.1273455619812012,
    -1.5975048542022705,
    1.1235039234161377,
    -0.007722001522779465,
    -0.9018497467041016,
    0.6965109705924988,
    -0.010281398892402649,
    -0.9210296273231506,
    0.6378970146179199,
    -0.3411206901073456,
    -0.8828979730606079,
    -0.20336587727069855,
    0.33840233087539673,
    -0.35211461782455444,
    0.5646941661834717,
    -0.2966458201408386,
    -0.36617225408554077,
    0.809261679649353,
    0.35289591550827026,
    0.1362292468547821,
    0.3334306478500366,
    -0.2759997844696045,
    -0.12025917321443558,
    0.11025791615247726,
    -0.4954056143760681,
    0.17033223807811737,
    -0.262964129447937,
    0.23058651387691498,
    1.4985431432724,
    -0.284056693315506,
    -0.15569444000720978,
    -0.42021283507347107,
    1.5353221893310547,
    0.4905131161212921,
    -0.1059531420469284,
    -0.18737506866455078,
    0.0020508875604718924,
    0.2084483504295349,
    -0.315983384847641,
    -0.374271035194397,
    2.0203938484191895,
    0.17678676545619965,
    0.2581768333911896,
    0.5384491086006165,
    -0.055810004472732544,
    -0.9433190822601318,
    0.7846744060516357,
    -0.5056766867637634,
    -1.127593994140625,
    0.5996748805046082,
    0.3113395571708679,
    -0.6003791689872742,
    0.592873215675354,
    0.6410722136497498,
    -0.08022693544626236,
    -1.6564992666244507,
    -0.6673601865768433,
    -1.1103993654251099,
    -1.1005840301513672,
    0.49565964937210083,
    1.9760346412658691,
    0.2668594419956207,
    -0.26993152499198914,
    -0.5888161659240723,
    -0.8869220614433289,
    0.43997323513031006,
    -0.2910354733467102,
    0.4742759168148041,
    0.3504428267478943,
    -0.7297948002815247,
    -0.6535813212394714,
    -0.88124680519104,
    -0.2686670124530792,
    -0.3471295237541199,
    -0.9531694650650024,
    0.08818856626749039,
    -0.5631575584411621,
    -1.15810227394104,
    0.7688107490539551,
    -0.15025387704372406,
    0.3649933934211731,
    -0.18952825665473938,
    -1.5239627361297607,
    -0.9466491937637329,
    -0.26703891158103943,
    -0.4246082007884979,
    -1.3016554117202759,
    0.02846555784344673,
    -1.0015759468078613,
    -0.14342711865901947,
    -0.8381093144416809,
    0.16653838753700256,
    1.2306404113769531,
    -0.15968024730682373,
    -0.08071982115507126,
    0.592958390712738,
    0.5849012136459351,
    0.034451670944690704,
    -0.02683127485215664,
    1.214943289756775,
    -0.460235059261322,
    1.0044118165969849,
    -0.7110068798065186,
    -0.006537831388413906,
    0.14166660606861115,
    -0.8889315128326416,
    -0.9273443222045898,
    1.1437920331954956,
    1.571921944618225,
    0.14174339175224304,
    0.24271081387996674,
    0.036934055387973785,
    0.49828043580055237,
    0.1025550439953804,
    1.4455127716064453,
    -0.517777144908905,
    0.13119560480117798,
    1.0461312532424927,
    0.29364123940467834,
    -2.5686802864074707,
    -0.30436789989471436,
    1.1522934436798096,
    0.686931848526001,
    -2.3350369930267334,
    1.7435003519058228,
    0.11435100436210632,
    0.006543726660311222,
    -0.9366421103477478,
    0.1518651694059372,
    0.30669474601745605,
    0.4717211425304413,
    -0.49635154008865356,
    0.5143693685531616,
    1.6087827682495117,
    -0.7464879155158997,
    -0.04325047880411148,
    -0.991413950920105,
    1.2743514776229858,
    0.8104534149169922,
    0.24247170984745026,
    -0.34633034467697144,
    1.8243340253829956,
    0.9056922197341919,
    -1.6237834692001343,
    0.2816307246685028,
    1.4271284341812134,
    0.3299112021923065,
    -0.4472258388996124,
    -0.8779148459434509,
    1.0977404117584229,
    -1.207348346710205,
    -0.441480815410614,
    -0.8345190286636353,
    -0.6257964372634888,
    1.248861312866211,
    -0.8286930322647095,
    2.169402837753296,
    0.8252861499786377,
    0.15013904869556427,
    -0.18742358684539795,
    0.7140687704086304,
    0.21420958638191223,
    0.8665631413459778,
    1.9854282140731812,
    -1.4145987033843994,
    0.4350295066833496,
    0.7904787063598633,
    0.7111225724220276,
    -0.48851478099823,
    0.4080020487308502,
    0.2557260990142822,
    -0.0054674879647791386,
    1.0965542793273926,
    -0.9630741477012634,
    0.0664370208978653,
    -0.4882555603981018,
    -0.26837849617004395,
    0.7577535510063171,
    0.27413785457611084,
    -0.3422367572784424,
    -0.9292860627174377,
    -0.5999390482902527,
    -1.1709277629852295,
    1.003434658050537,
    0.24087963998317719,
    -0.08056128025054932,
    -0.9820371270179749,
    -0.8028302192687988,
    4.314962863922119,
    0.08337055146694183,
    0.06518697738647461,
    -1.6083992719650269,
    1.5571179389953613,
    1.1593382358551025,
    1.0443066358566284,
    -1.5339446067810059,
    -1.5261905193328857,
    -0.05494033917784691,
    0.20942415297031403,
    -0.08178820461034775,
    -0.11288882046937943,
    0.39318540692329407,
    -1.157248616218567,
    -1.1217458248138428,
    -1.0160588026046753,
    0.9083921313285828,
    -0.32092657685279846,
    -2.1007370948791504,
    -0.5004622340202332,
    -0.17705292999744415,
    0.10794750601053238,
    -0.7641875743865967,
    0.06560761481523514,
    -0.06643762439489365,
    0.48634323477745056,
    -0.658496081829071,
    0.30069175362586975,
    0.0861205980181694,
    -0.09574487805366516,
    -0.541997492313385,
    -0.49378833174705505,
    -0.4947865903377533,
    -0.3085513710975647,
    -0.646049439907074,
    -1.2517623901367188,
    0.6296032071113586,
    0.18498466908931732,
    1.5404105186462402,
    0.6021956205368042,
    -0.8757429122924805,
    -1.2221696376800537,
    2.017357349395752,
    -0.055373117327690125,
    -1.6566932201385498,
    -1.0013936758041382,
    -1.5822935104370117,
    0.6478677988052368,
    -0.8413798213005066,
    -0.011670561507344246,
    -0.5986535549163818,
    -0.5616356730461121,
    0.8562113046646118,
    0.8848840594291687,
    -1.7322967052459717,
    0.28103107213974,
    -0.9059500098228455,
    1.3832495212554932,
    0.22278180718421936,
    0.5921871662139893,
    2.2359676361083984,
    -1.1048129796981812,
    -0.7167589068412781,
    -0.603964626789093,
    -0.29383328557014465,
    -1.3005776405334473,
    0.726270854473114,
    1.0186055898666382,
    0.6112550497055054,
    1.2633662223815918,
    1.302366852760315,
    -0.904878556728363,
    -0.44706523418426514,
    0.7766456604003906,
    -0.1785389631986618,
    0.8244204521179199,
    0.19358956813812256,
    -0.15963061153888702,
    0.37131837010383606,
    0.05658591538667679,
    -0.5295711159706116,
    0.20521028339862823,
    -1.382290005683899,
    0.1797086000442505,
    0.10022339969873428,
    -0.7953788638114929,
    -0.8819977641105652,
    1.152556300163269,
    0.06479863077402115,
    0.7284058928489685,
    0.6870614290237427,
    0.15848900377750397,
    1.271562933921814,
    0.15678969025611877,
    -0.25886356830596924,
    0.6380087733268738,
    -0.3825931251049042,
    0.46207690238952637,
    0.22192245721817017,
    -0.8393789529800415,
    -0.27639296650886536,
    -0.612291693687439,
    -1.3583450317382812,
    -1.7571519613265991,
    1.6464591026306152,
    1.814208745956421,
    -1.5070195198059082,
    0.5780693888664246,
    0.8637896776199341,
    0.01916954293847084,
    0.5322942733764648,
    1.311653733253479,
    0.14904554188251495,
    -1.5585039854049683,
    -0.9551432132720947,
    -0.5153651237487793,
    0.861966073513031,
    -1.818603277206421,
    -0.009541288949549198,
    -0.043571047484874725,
    0.570187509059906,
    -1.2687780857086182,
    -1.055542230606079,
    0.9149318337440491,
    -0.3666614294052124,
    0.3697386384010315,
    0.6788895130157471,
    1.8674646615982056,
    -0.24196669459342957,
    0.8714924454689026,
    -0.3598739802837372,
    -0.09569843113422394,
    2.4173614978790283,
    0.3745189309120178,
    -2.0831282138824463,
    -0.43721094727516174,
    -0.4853730797767639,
    -0.5728653073310852,
    -0.703227698802948,
    -1.2885358333587646,
    2.0027780532836914,
    -0.9828819632530212,
    0.7372495532035828,
    1.701744794845581,
    -0.6385994553565979,
    -0.9133589267730713,
    -1.0703290700912476,
    0.3405929505825043,
    0.12523069977760315,
    -0.26404356956481934,
    -1.0553276538848877,
    0.19601285457611084,
    -1.3092279434204102,
    0.05494610592722893,
    1.371486783027649,
    -0.714046061038971,
    -0.6839330792427063,
    0.07965505123138428,
    -0.7304501533508301,
    -1.2967908382415771,
    -0.09289203584194183,
    -0.7343125939369202,
    -0.1914466768503189,
    -0.11355715245008469,
    0.9606992602348328,
    0.17524409294128418,
    -0.36221233010292053,
    -0.19958139955997467,
    -0.3290092647075653,
    -0.18530991673469543,
    -0.1749187558889389,
    0.6448631882667542,
    0.13899147510528564,
    -0.12360336631536484,
    0.07957913726568222,
    0.43270453810691833,
    -0.260286808013916,
    0.8172451257705688,
    0.33332687616348267,
    1.0742344856262207,
    -0.006635058671236038,
    -1.7994970083236694,
    -0.8057496547698975,
    0.4881739616394043,
    0.10106727480888367,
    -1.1060203313827515,
    0.4733614921569824,
    0.35513371229171753,
    1.4362035989761353,
    1.501895785331726,
    -1.0665408372879028,
    -0.27461814880371094,
    -0.7078259587287903,
    -0.32140275835990906,
    1.2586547136306763,
    1.2879348993301392,
    -0.879980742931366,
    1.8199360370635986,
    0.6478622555732727,
    -1.14104425907135,
    0.4630492925643921,
    -1.2871599197387695,
    -0.5782266855239868,
    -0.1404046267271042,
    -0.2128159999847412,
    1.9659521579742432,
    0.5460724234580994,
    0.6473560333251953,
    0.4995978772640228,
    -1.0921990871429443,
    0.8510540723800659,
    1.3727527856826782,
    0.596528947353363,
    -2.4434990882873535,
    -0.44005948305130005,
    0.822937548160553,
    0.05661262199282646,
    0.8123536109924316,
    0.21819867193698883,
    0.5991166234016418,
    -0.13908183574676514,
    -0.1888325959444046,
    0.2942264974117279,
    -0.8993338942527771,
    -0.8068445920944214,
    -0.00928354449570179,
    -0.013746796175837517,
    -0.2408386915922165,
    -0.13606604933738708,
    -0.136384055018425,
    -0.31261157989501953,
    -0.9418916702270508,
    -0.09300002455711365,
    -1.0857467651367188,
    0.1556122601032257,
    0.5449950695037842,
    0.016786718741059303,
    0.23610635101795197,
    -0.27157270908355713,
    -0.19609273970127106,
    -1.102986454963684,
    0.1650765836238861,
    0.5571895241737366,
    0.42844730615615845,
    -1.1367319822311401,
    0.08994696289300919,
    0.09487948566675186,
    0.29493603110313416,
    -0.35375767946243286,
    0.019108371809124947,
    -0.9331587553024292,
    0.1740989089012146,
    0.2579961121082306,
    -0.22778542339801788,
    -0.1938096433877945,
    1.187688946723938,
    -0.4265610873699188,
    -0.645865261554718,
    -0.23489610850811005,
    0.2335442304611206,
    0.0019290911732241511,
    -0.6114339232444763,
    0.07521433383226395,
    -0.06040390580892563,
    0.33054476976394653,
    -0.04401393234729767,
    -0.4966711103916168,
    -0.4257531762123108,
    -0.7547162771224976,
    -0.05732477456331253,
    0.4829213619232178,
    0.9928638339042664,
    -0.512090802192688,
    -0.17831140756607056,
    0.7023634910583496,
    -0.49993714690208435,
    0.6779587268829346,
    0.5374749898910522,
    -0.11168321967124939,
    -0.03443501889705658,
    1.4699188470840454,
    1.0555944442749023,
    -0.18121466040611267,
    -0.7573425769805908,
    -0.5186653137207031,
    -0.3172549903392792,
    -0.08487438410520554,
    0.15570656955242157,
    -0.1120971143245697,
    0.3775079548358917,
    -0.37225067615509033,
    -0.2746603488922119,
    0.5279462337493896,
    -0.4515225887298584,
    -1.121415615081787,
    -0.9101559519767761,
    -0.8502569794654846,
    -0.46051594614982605,
    -1.2401690483093262,
    -0.2766183316707611,
    -0.7748312950134277,
    -1.1813465356826782,
    -0.09887866675853729,
    -0.6787249445915222,
    1.4191932678222656,
    -0.4549502432346344,
    -0.255737841129303,
    -0.7755956053733826,
    -0.1073814108967781,
    -0.042242567986249924,
    -0.7579546570777893,
    0.3302091062068939,
    -0.39023837447166443,
    0.014684164896607399,
    0.050032079219818115,
    -0.27432751655578613,
    0.0841512531042099,
    0.009806745685636997,
    0.47892478108406067,
    -0.12386082857847214,
    0.11419807374477386,
    -0.15181539952754974,
    0.12695854902267456,
    -0.8698974847793579,
    0.0009758587111718953,
    0.13908903300762177,
    -0.6334787607192993,
    0.019742639735341072,
    0.07156996428966522,
    -0.5551823973655701,
    0.10555338859558105,
    -0.03178613632917404,
    0.008352643810212612,
    -0.3075733780860901,
    0.5076863169670105,
    -0.09270892292261124,
    0.10284306854009628,
    -0.6233464479446411,
    0.43959924578666687,
    0.41537410020828247,
    0.16831818222999573,
    0.5629139542579651,
    0.39707711338996887,
    0.0915069431066513,
    0.3177442252635956,
    0.24118539690971375,
    0.07329050451517105,
    -0.413901150226593,
    0.04945124685764313,
    0.21892158687114716,
    0.07660063356161118,
    0.9610143899917603,
    -0.5711799263954163,
    0.5393170118331909,
    0.9045965075492859,
    0.35082533955574036,
    0.46075859665870667,
    0.2827100157737732,
    -0.10919380933046341,
    0.4400947093963623,
    -0.2668917775154114,
    -0.0154928183183074,
    0.6492223739624023,
    -0.5457921624183655,
    -0.5931832194328308,
    -0.14589929580688477,
    0.08192674070596695,
    0.8661701083183289,
    0.2678306996822357,
    -0.41521158814430237,
    0.04840720817446709,
    0.4825519323348999,
    -0.5058916211128235,
    0.08099617063999176,
    0.9192721247673035,
    -0.22248901426792145,
    0.31449049711227417,
    1.3497788906097412,
    0.135961651802063,
    0.6473342776298523,
    -0.31247657537460327,
    0.11021491140127182,
    -0.7854322195053101,
    0.3807210326194763,
    0.3273305296897888,
    0.7931048274040222,
    0.1895865648984909,
    -0.3811383843421936,
    -0.8660987019538879,
    0.0491921491920948,
    0.16508764028549194,
    0.20900070667266846,
    -0.6079711318016052,
    0.38315874338150024,
    -0.5848656892776489,
    1.4048281908035278,
    0.5352092385292053,
    -0.22247172892093658,
    -0.06213594973087311,
    0.0838325023651123,
    -0.1718299835920334,
    -0.17238833010196686,
    -0.5585310459136963,
    -0.2429758608341217,
    -0.5048601627349854,
    0.3311016857624054,
    0.019730182364583015,
    -1.0461933612823486,
    -0.18610361218452454,
    -1.200952172279358,
    -0.19565223157405853,
    0.37014642357826233,
    -0.732323944568634,
    0.02898416854441166,
    -0.6494074463844299,
    0.8214703798294067,
    -0.7820293307304382,
    -0.4760270118713379,
    0.9905765056610107,
    0.004313142038881779,
    -0.2701024115085602,
    0.6361103653907776,
    0.11895189434289932,
    -0.047812383621931076,
    -0.22138018906116486,
    -0.05850088596343994,
    -1.0547065734863281,
    -0.12912195920944214,
    0.10413887351751328,
    -0.14221712946891785,
    0.1523313820362091,
    -1.5713781118392944,
    -0.8627389669418335,
    0.06760530173778534,
    0.13607095181941986,
    0.7365775108337402,
    0.7330994009971619,
    0.2597762942314148,
    0.4231301248073578,
    -0.5719691514968872,
    -0.2758297026157379,
    -0.3728325664997101,
    0.5989882349967957,
    0.8298832774162292,
    0.21224825084209442,
    0.25885632634162903,
    1.5495407581329346,
    0.6586492657661438,
    -0.4932398200035095,
    -0.06008218228816986,
    1.0605837106704712,
    0.3377879559993744,
    0.05083863064646721,
    -0.370948851108551,
    -0.5819340944290161,
    0.44927549362182617,
    -0.3547957241535187,
    0.908327579498291,
    -0.4702323377132416,
    0.5019136071205139,
    -0.9761680960655212,
    0.2884500026702881,
    0.2531197667121887,
    0.16887027025222778,
    0.230905219912529,
    -0.6153678894042969,
    -0.8998394012451172,
    0.09064574539661407,
    0.09980949014425278,
    0.17002077400684357,
    0.2372189611196518,
    0.00665318826213479,
    -0.10618936270475388,
    -0.6092599630355835,
    0.022534912452101707,
    -0.013387557119131088,
    0.18904657661914825,
    0.2580604553222656,
    0.15314815938472748,
    0.1927466243505478,
    0.18344877660274506,
    0.44408902525901794,
    -0.5376089215278625
  ],
  "gru_bias_ih": [
    -1.3148270845413208,
    0.5355578064918518,
    1.5725258588790894,
    0.15373025834560394,
    0.202864870429039,
    0.8500483632087708,
    1.9478451013565063,
    0.7490989565849304,
    -0.02613106369972229,
    -0.11993474513292313,
    0.582234799861908,
    -0.46579229831695557,
    0.9475443959236145,
    -1.7949703931808472,
    -1.1673929691314697,
    0.12625189125537872,
    0.13480815291404724,
    0.013710622675716877,
    -0.10539784282445908,
    -0.3699813485145569,
    -0.6315079927444458,
    -1.5068713426589966,
    -1.4409843683242798,
    -1.6396799087524414,
    -2.1122524738311768,
    -1.2141176462173462,
    -0.9068301916122437,
    -0.44790947437286377,
    1.9160078763961792,
    -1.0729161500930786,
    -1.6424907445907593,
    -0.8309348821640015,
    0.06764303147792816,
    0.13785044848918915,
    0.4188344478607178,
    0.1590753197669983,
    0.30458787083625793,
    -0.13261377811431885,
    0.006152329966425896,
    -0.16904321312904358,
    0.7148377299308777,
    0.11295410245656967,
    -0.11951863020658493,
    -0.19711513817310333,
    -0.32339268922805786,
    -0.3569171130657196,
    0.5278357267379761,
    0.12673737108707428
  ],
  "gru_bias_hh": [
    -1.4943652153015137,
    0.8148600459098816,
    1.3133639097213745,
    0.24469514191150665,
    -0.06775413453578949,
    0.9416986703872681,
    2.2947118282318115,
    0.8870417475700378,
    -0.3228093385696411,
    0.19330498576164246,
    0.8356842994689941,
    -0.5619399547576904,
    0.9913119077682495,
    -2.2632064819335938,
    -0.8093400001525879,
    -0.13392658531665802,
    0.2351522296667099,
    0.42456838488578796,
    -0.1527784764766693,
    -0.5673881769180298,
    -0.6399085521697998,
    -1.9716047048568726,
    -1.5737509727478027,
    -1.6144837141036987,
    -1.9947316646575928,
    -1.275406002998352,
    -0.4965873062610626,
    -0.5446202158927917,
    2.1948797702789307,
    -0.8089156150817871,
    -1.5010913610458374,
    -0.942655622959137,
    -0.4221021234989166,
    -0.46609175205230713,
    0.2860802412033081,
    0.31787267327308655,
    -0.5815829038619995,
    -0.19365623593330383,
    0.03500339016318321,
    0.059059061110019684,
    0.5657585263252258,
    -0.31236791610717773,
    -0.38084447383880615,
    0.3292400538921356,
    -0.131379634141922,
    -0.12257726490497589,
    1.2471777200698853,
    0.2577577233314514
  ]
}