{
  "observation_dim": 35,
  "action_dim": 4,
  "structure": "mlp_gru",
  "rnn_type": "gru",
  "gru_input_dim": 16,
  "gru_hidden_dim": 16,
  "gru_num_layers": 1,
  "activation": "elu",
  "use_observation_normalization": false,
  "normalization_folded_into_first_layer": false,
  "observation_mean": [
    0.0,
    0.0,
    0.0,
    0.0,
    0.0,
    0.0,
    0.0,
    0.0,
    0.0,
    0.0,
    0.0,
    0.0,
    0.0,
    0.0,
    0.0,
    0.0,
    0.0,
    0.0,
    0.0,
    0.0,
    0.0,
    0.0,
    0.0,
    0.0,
    0.0,
    0.0,
    0.0,
    0.0,
    0.0,
    0.0,
    0.0,
    0.0,
    0.0,
    0.0,
    0.0
  ],
  "observation_inv_std": [
    1.0,
    1.0,
    1.0,
    1.0,
    1.0,
    1.0,
    1.0,
    1.0,
    1.0,
    1.0,
    1.0,
    1.0,
    1.0,
    1.0,
    1.0,
    1.0,
    1.0,
    1.0,
    1.0,
    1.0,
    1.0,
    1.0,
    1.0,
    1.0,
    1.0,
    1.0,
    1.0,
    1.0,
    1.0,
    1.0,
    1.0,
    1.0,
    1.0,
    1.0,
    1.0
  ],
  "actor_encoder_dims": [
    35,
    16,
    16
  ],
  "actor_encoder_activations": [
    "elu",
    "identity"
  ],
  "actor_head_dims": [
    16,
    4
  ],
  "actor_head_activations": [
    "sigmoid"
  ],
  "actor_encoder_weights": [
    [
      -0.34398946166038513,
      0.7209939956665039,
      -4.6199164390563965,
      0.22476932406425476,
      -0.8609483242034912,
      -0.2815837562084198,
      -0.18119631707668304,
      -0.469408243894577,
      0.9491086006164551,
      -0.22697393596172333,
      -0.264265239238739,
      -0.05220993235707283,
      0.40299656987190247,
      -0.5950714945793152,
      0.12247199565172195,
      -0.11573173105716705,
      0.38302451372146606,
      -4.542525291442871,
      0.23478750884532928,
      -0.24153542518615723,
      0.15059348940849304,
      0.031236940994858742,
      0.03751593455672264,
      -0.027922948822379112,
      -0.009968866594135761,
      -0.6067813634872437,
      -0.043277181684970856,
      0.021994318813085556,
      -0.005281049758195877,
      -0.05983966588973999,
      -0.12305272370576859,
      0.054987285286188126,
      0.13384103775024414,
      0.18552154302597046,
      0.12654250860214233,
      2.141505718231201,
      -1.2583192586898804,
      -0.47756701707839966,
      0.05543634295463562,
      -0.08947823941707611,
      0.42370960116386414,
      -1.012621283531189,
      -0.2505173981189728,
      1.014215111732483,
      -1.2404942512512207,
      0.9973453283309937,
      0.03997388482093811,
      -0.47549617290496826,
      0.2937849462032318,
      -0.08581042289733887,
      3.0366270542144775,
      -1.2194018363952637,
      -1.2241421937942505,
      3.5742814540863037,
      0.18828846514225006,
      -1.12080979347229,
      -0.09201668947935104,
      0.06055320426821709,
      -0.0216696634888649,
      0.032418739050626755,
      -0.434327632188797,
      0.13431930541992188,
      -0.09108850359916687,
      0.20046257972717285,
      0.038880206644535065,
      0.18498077988624573,
      0.2931040823459625,
      -0.30860233306884766,
      -0.23026615381240845,
      0.1487867683172226,
      -0.357356995344162,
      0.8516213893890381,
      0.15167175233364105,
      -0.33114323019981384,
      0.6048451662063599,
      -1.536117434501648,
      -0.9801205396652222,
      -0.31184011697769165,
      -1.6133675575256348,
      1.3991156816482544,
      1.3330131769180298,
      -0.11746419221162796,
      1.4487683773040771,
      1.9093559980392456,
      0.1629401594400406,
      -0.7356739044189453,
      0.23115192353725433,
      1.217051386833191,
      -0.8025966286659241,
      0.5201584696769714,
      -0.2563842236995697,
      0.05548303946852684,
      0.13641686737537384,
      -0.11290544271469116,
      -0.006460361182689667,
      0.5649640560150146,
      -0.42642179131507874,
      0.09833967685699463,
      -0.27732500433921814,
      0.084224633872509,
      -0.10566060990095139,
      -0.018483901396393776,
      0.16008436679840088,
      0.1720266491174698,
      0.14356081187725067,
      0.8582537174224854,
      -0.7173702716827393,
      -0.023619860410690308,
      -0.1440638303756714,
      -1.226449728012085,
      1.2294381856918335,
      2.118288993835449,
      0.17403258383274078,
      -0.09216223657131195,
      -2.1618611812591553,
      0.17657813429832458,
      0.13201579451560974,
      -1.415666937828064,
      1.0941076278686523,
      -0.12373358756303787,
      1.288386583328247,
      -0.7610255479812622,
      0.19131457805633545,
      1.45574152469635,
      3.9924440383911133,
      2.1413087844848633,
      -0.01935657113790512,
      -0.04656360670924187,
      0.01188264787197113,
      -0.003105658572167158,
      -0.23061029613018036,
      0.046355146914720535,
      0.009377606213092804,
      0.009906632825732231,
      -0.024746818467974663,
      -0.0024215285666286945,
      -0.03822076693177223,
      -0.03992569074034691,
      -0.07513641566038132,
      0.020568985491991043,
      -0.5780311226844788,
      0.7046964764595032,
      0.06931689381599426,
      0.09472586214542389,
      2.592758893966675,
      -1.413666009902954,
      -2.298011302947998,
      0.007697848603129387,
      1.3494030237197876,
      0.7112858891487122,
      -0.1400894671678543,
      0.03514544665813446,
      1.482442855834961,
      0.12868475914001465,
      -0.05801825225353241,
      -0.8847649097442627,
      1.245664119720459,
      -0.713985800743103,
      3.6450791358947754,
      -0.7000359296798706,
      -3.0410964488983154,
      0.07495101541280746,
      -0.08679111301898956,
      -0.010135164484381676,
      0.07273053377866745,
      -0.259448766708374,
      0.05103916674852371,
      -0.06331130117177963,
      0.15824198722839355,
      -0.036484669893980026,
      0.30415186285972595,
      -0.07706932723522186,
      -0.010948522947728634,
      -0.16888877749443054,
      -0.1351095288991928,
      -0.035337645560503006,
      -1.5653297901153564,
      0.18050959706306458,
      0.018607575446367264,
      0.43849074840545654,
      -0.7316078543663025,
      0.18980123102664948,
      0.18954883515834808,
      -2.9957122802734375,
      0.2822428047657013,
      3.744800567626953,
      0.04425489902496338,
      0.4928731620311737,
      4.883406639099121,
      -0.23139327764511108,
      -0.36118826270103455,
      -1.078686237335205,
      -0.6633672118186951,
      1.734433889389038,
      -0.3515729606151581,
      -0.09158091247081757,
      0.02533380500972271,
      0.0009684502729214728,
      0.02146286331117153,
      0.035231318324804306,
      0.34201356768608093,
      -0.024533215910196304,
      0.005891838110983372,
      0.0560702383518219,
      0.08589059114456177,
      0.13850262761116028,
      -0.010507829487323761,
      0.06854268908500671,
      0.018005426973104477,
      -0.014919950626790524,
      -0.753210186958313,
      0.9205414652824402,
      -0.13551215827465057,
      0.016445990651845932,
      -1.069024920463562,
      -1.1440236568450928,
      -0.4442368745803833,
      -0.13575905561447144,
      3.583723306655884,
      1.8478118181228638,
      -2.940700054168701,
      0.20536361634731293,
      1.708796501159668,
      -4.497985363006592,
      -0.21113499999046326,
      -0.6063207983970642,
      0.0950823724269867,
      -0.05522235482931137,
      -1.040436863899231,
      -0.9791585803031921,
      0.30612340569496155,
      0.04729733243584633,
      -0.15104787051677704,
      0.015007780864834785,
      0.05921776592731476,
      0.23163597285747528,
      -0.06394314020872116,
      0.003094302024692297,
      0.12278850376605988,
      0.08476950973272324,
      0.33193087577819824,
      0.064766064286232,
      -0.012864481657743454,
      -0.09668797999620438,
      0.12280856817960739,
      1.4819096326828003,
      0.1612083613872528,
      0.2576107084751129,
      0.2369573563337326,
      -0.4656693935394287,
      0.91712486743927,
      -0.26365283131599426,
      0.08015737682580948,
      0.08901870250701904,
      -1.8436263799667358,
      0.34159988164901733,
      0.13683189451694489,
      -1.4085246324539185,
      0.18515215814113617,
      -0.13935314118862152,
      0.7156316637992859,
      0.5791905522346497,
      0.05516507849097252,
      0.3605462610721588,
      1.189301609992981,
      0.06432484090328217,
      -1.4162538051605225,
      -0.9835530519485474,
      -0.08636952191591263,
      0.03206722438335419,
      0.21775344014167786,
      0.019428135827183723,
      0.010168413631618023,
      -0.011032734997570515,
      0.06199164316058159,
      0.2652900516986847,
      -0.03424812853336334,
      -0.05542576313018799,
      0.1203666403889656,
      -0.16531996428966522,
      -1.1675260066986084,
      -0.6632724404335022,
      0.5727615356445312,
      -0.9824984669685364,
      -0.37020739912986755,
      0.8520341515541077,
      -0.12487640231847763,
      -1.3187992572784424,
      -2.860544204711914,
      -0.7124080657958984,
      2.2084157466888428,
      -1.4591927528381348,
      -0.04075692221522331,
      2.1610870361328125,
      1.2998740673065186,
      -1.0478540658950806,
      -1.4851514101028442,
      1.1329296827316284,
      -7.226847171783447,
      -1.1083070039749146,
      -1.9853463172912598,
      -0.0613555833697319,
      -0.6452901363372803,
      -0.03594367951154709,
      0.3205551505088806,
      0.4380243718624115,
      0.10996592044830322,
      1.420531988143921,
      -0.34570980072021484,
      0.11219312250614166,
      1.3155173063278198,
      -0.32069769501686096,
      -0.3843642771244049,
      -0.4473409354686737,
      0.7692760229110718,
      -0.4813084304332733,
      0.016683513298630714,
      -0.05363108962774277,
      0.33500224351882935,
      0.2289477288722992,
      -3.193167209625244,
      2.0629122257232666,
      -0.13028432428836823,
      -0.1914595067501068,
      4.067582607269287,
      -0.014221481047570705,
      0.17219489812850952,
      3.325108051300049,
      0.5238050222396851,
      -0.048163872212171555,
      -0.299233615398407,
      -0.3792459964752197,
      0.24278029799461365,
      -0.8922587633132935,
      -3.0551321506500244,
      0.43987834453582764,
      0.2640191912651062,
      -0.41994309425354004,
      0.017244819551706314,
      0.04186205193400383,
      0.34519776701927185,
      0.11332802474498749,
      0.03771180287003517,
      0.07223057001829147,
      0.007301837205886841,
      0.27358904480934143,
      0.06518930941820145,
      -0.02901564911007881,
      0.07475558668375015,
      -0.09477309882640839,
      0.5423898696899414,
      0.7725722193717957,
      0.16061745584011078,
      -0.19936178624629974,
      0.39287829399108887,
      2.925089120864868,
      0.5173425078392029,
      0.19373145699501038,
      1.1777019500732422,
      -3.656682014465332,
      -1.5158828496932983,
      -0.09373053163290024,
      -3.3580799102783203,
      -1.9712867736816406,
      0.034741371870040894,
      0.09852419048547745,
      0.6289619207382202,
      -0.2605467438697815,
      1.280117154121399,
      5.350982189178467,
      0.22422169148921967,
      -0.07524630427360535,
      -0.0006030575023032725,
      0.05425020679831505,
      -0.07726145535707474,
      0.16428282856941223,
      0.017853617668151855,
      -0.08137306571006775,
      0.03181007504463196,
      -0.009245370514690876,
      -0.017004817724227905,
      -0.011266053654253483,
      0.21058693528175354,
      -0.15211784839630127,
      -0.016512872651219368,
      0.2785146236419678,
      2.599202871322632,
      -0.051038969308137894,
      -0.11317512392997742,
      -0.5925770401954651,
      0.11816760152578354,
      0.2461022287607193,
      0.15099108219146729,
      0.8616258502006531,
      0.6435161828994751,
      -2.9011261463165283,
      0.09475881606340408,
      -0.13615943491458893,
      -2.676269292831421,
      -0.28279241919517517,
      0.5241908431053162,
      3.3617701530456543,
      -0.6031611561775208,
      -2.852274179458618,
      -2.1426401138305664,
      0.19810888171195984,
      -0.0096163060516119,
      0.0010696807876229286,
      0.04778289049863815,
      0.021159078925848007,
      -0.026904525235295296,
      0.02706722542643547,
      0.0020623053424060345,
      0.03977854922413826,
      0.02594226785004139,
      0.06078134477138519,
      -0.4758210778236389,
      0.46511945128440857,
      0.5079296827316284,
      -0.49216753244400024,
      0.6211208701133728,
      -0.46796080470085144,
      -0.34528428316116333,
      0.16004151105880737,
      2.408823013305664,
      1.7550119161605835,
      -2.5814850330352783,
      0.13198739290237427,
      0.9340425729751587,
      -2.249122381210327,
      -0.7330304384231567,
      -0.009410129860043526,
      -2.0388433933258057,
      -1.5528384447097778,
      0.004285563249140978,
      0.9718074798583984,
      -0.6707953810691833,
      0.289423406124115,
      -3.2885935306549072,
      4.403499603271484,
      -1.8520989418029785,
      -0.08805011957883835,
      0.01921958290040493,
      0.08317109197378159,
      -0.011030093766748905,
      -0.17975762486457825,
      -0.0032494000624865294,
      0.10748916864395142,
      -0.0584309920668602,
      0.04583296179771423,
      -0.2454175055027008,
      -0.09935248643159866,
      0.0023635358083993196,
      0.058751482516527176,
      -0.12247561663389206,
      -1.0893374681472778,
      -1.937014102935791,
      -1.0139076709747314,
      -0.37031763792037964,
      0.18255023658275604,
      -0.33582136034965515,
      0.8056538105010986,
      0.11938809603452682,
      1.3919752836227417,
      0.03413743898272514,
      -1.1058695316314697,
      -0.09339692443609238,
      0.6679825186729431,
      -1.824225902557373,
      -0.051855482161045074,
      -1.175011396408081,
      -0.256220281124115,
      -1.2018752098083496,
      -3.0404183864593506,
      2.399688482284546,
      -0.038302600383758545,
      -0.2868216037750244,
      0.09786169975996017,
      0.056633930653333664,
      -0.010872802697122097,
      -0.8536124229431152,
      0.14947372674942017,
      0.1109931692481041,
      0.04573933407664299,
      0.11172695457935333,
      -0.280317485332489,
      0.03328298404812813,
      -0.06570543348789215,
      0.27006620168685913,
      -0.21044757962226868,
      0.900179922580719,
      0.7335814833641052,
      -1.2698091268539429,
      -0.4713176488876343,
      0.1125674918293953,
      1.111423373222351,
      0.5511900782585144,
      -0.49424684047698975,
      0.34667736291885376,
      -2.1381373405456543,
      -0.08049699664115906,
      -0.5914167165756226,
      -1.253485918045044,
      0.4635222852230072,
      0.5413833260536194,
      0.3528611660003662,
      1.0999722480773926,
      0.21048831939697266,
      0.01112641952931881,
      4.795551776885986,
      0.32732275128364563,
      1.1362954378128052,
      0.5760922431945801,
      0.07362706959247589,
      0.04786062240600586,
      0.33709338307380676,
      0.13200581073760986,
      0.17285680770874023,
      -0.008320487104356289,
      -0.09705359488725662,
      0.3421150743961334,
      0.04330920800566673,
      -0.07193582504987717,
      -0.009817028418183327,
      -0.10497304052114487,
      0.6288199424743652,
      0.6810413002967834,
      0.5028557181358337,
      -0.9012216329574585,
      0.4414733946323395,
      -1.328594446182251,
      -1.302127718925476,
      -0.205593541264534,
      1.189523458480835,
      0.6237956881523132,
      0.7085375785827637,
      -0.31575825810432434,
      1.1858552694320679,
      -0.5365661978721619,
      0.4252853989601135,
      0.5939947366714478,
      3.867365598678589,
      0.9106339812278748,
      0.8389424085617065,
      -3.5052456855773926,
      0.11705482006072998,
      0.2618328928947449,
      -0.0714108794927597,
      -0.03739438205957413,
      0.0881611555814743,
      -0.46160969138145447,
      -0.14008373022079468,
      -0.42251163721084595,
      0.05156763270497322,
      -0.0899520069360733,
      -0.03077087551355362,
      0.5194743871688843,
      -1.0048779249191284,
      -0.5356826782226562,
      0.14283481240272522
    ],
    [
      0.03575272485613823,
      -0.0790586844086647,
      -0.05203067883849144,
      0.21652695536613464,
      0.00867245253175497,
      -0.13835158944129944,
      -0.04187992215156555,
      0.21352708339691162,
      -0.43878138065338135,
      -0.13544778525829315,
      -0.05209760367870331,
      0.38090309500694275,
      -0.3332706689834595,
      -0.039192426949739456,
      0.25370076298713684,
      -0.34503158926963806,
      0.6992009878158569,
      -0.06856285780668259,
      -0.1388847529888153,
      -0.21882691979408264,
      -0.2949060797691345,
      -0.1351352035999298,
      0.2930542826652527,
      -0.1138518825173378,
      -0.041819795966148376,
      -0.17698003351688385,
      0.13873322308063507,
      -0.09326089918613434,
      0.1664789617061615,
      0.012190285138785839,
      -0.07140571624040604,
      0.13204443454742432,
      -0.14775054156780243,
      0.229658305644989,
      -0.16006116569042206,
      0.3096420168876648,
      0.10038696229457855,
      -0.29107293486595154,
      0.05118120461702347,
      -0.02907731756567955,
      0.05656611546874046,
      0.215743750333786,
      -0.22752410173416138,
      -0.21143774688243866,
      0.2258894294500351,
      -0.28137728571891785,
      -0.19540993869304657,
      0.1511477679014206,
      0.18684938549995422,
      -0.2735561728477478,
      -0.06189940869808197,
      -0.3042669892311096,
      0.14357155561447144,
      0.34117403626441956,
      -0.4819975197315216,
      -0.23632623255252838,
      -0.21209610998630524,
      0.41670113801956177,
      -0.3599265217781067,
      0.16173401474952698,
      0.02243218570947647,
      -0.03418279066681862,
      -0.12599267065525055,
      -0.1132688820362091,
      0.36072975397109985,
      -0.10942069441080093,
      0.1597142219543457,
      0.2465921938419342,
      0.05975557863712311,
      0.3398772180080414,
      -0.1317123919725418,
      -0.12113255262374878,
      0.3031185269355774,
      0.06404967606067657,
      0.36461687088012695,
      0.3857244551181793,
      -0.05750276520848274,
      -0.10760558396577835,
      -0.15850412845611572,
      0.02768692374229431,
      -0.18138666450977325,
      -0.09889780730009079,
      -0.3036917746067047,
      -0.17728936672210693,
      0.3165409564971924,
      -0.18146611750125885,
      -0.2796185612678528,
      -0.0282827727496624,
      0.32213976979255676,
      -0.2529877722263336,
      0.13731235265731812,
      0.07068072259426117,
      0.02806931547820568,
      -0.27957653999328613,
      -0.11226965487003326,
      -0.008814509958028793,
      -0.045248620212078094,
      -0.06600625813007355,
      0.003546316409483552,
      -0.006552478298544884,
      -0.27535849809646606,
      -0.1750229150056839,
      -0.24332241714000702,
      0.6241492629051208,
      0.11092911660671234,
      -0.6569375991821289,
      0.38678067922592163,
      0.12371405959129333,
      0.4733264744281769,
      -0.03945165127515793,
      0.2584383189678192,
      -0.24808183312416077,
      -0.10211252421140671,
      -0.1973922997713089,
      -0.08726392686367035,
      0.30616581439971924,
      0.23748183250427246,
      0.13800935447216034,
      -0.06215885654091835,
      -0.03217649459838867,
      0.18117232620716095,
      0.03948935493826866,
      -0.11527343094348907,
      0.1534440815448761,
      0.11718673259019852,
      0.3263647258281708,
      0.010723298415541649,
      -0.2129327356815338,
      0.9061264991760254,
      0.06099487468600273,
      -0.061467379331588745,
      0.015165305696427822,
      -0.2002112865447998,
      0.455943763256073,
      0.09696777909994125,
      0.19804567098617554,
      0.15430262684822083,
      0.006150581408292055,
      -0.04793504625558853,
      -0.10716293007135391,
      0.043576184660196304,
      0.10540667921304703,
      0.1528749316930771,
      0.2962871789932251,
      0.17543533444404602,
      0.6943701505661011,
      0.09375372529029846,
      0.09558648616075516,
      -0.08467143774032593,
      -0.1130858063697815,
      -0.3057659864425659,
      0.23608848452568054,
      0.552224338054657,
      0.15169420838356018,
      -0.03071465902030468,
      0.5088910460472107,
      0.14218305051326752,
      -0.07641708105802536,
      0.26226121187210083,
      -0.25989916920661926,
      -0.17457684874534607,
      -0.04892195761203766,
      -0.023361384868621826,
      0.1388903707265854,
      0.19710268080234528,
      -0.07706339657306671,
      -0.1702713668346405,
      0.017438409850001335,
      -0.226887047290802,
      0.14285553991794586,
      0.021648317575454712,
      -0.014517896808683872,
      -0.17296966910362244,
      0.09922980517148972,
      -0.21923643350601196,
      -0.144815593957901,
      0.7039743065834045,
      0.044581443071365356,
      0.2081301510334015,
      -0.20706868171691895,
      0.560901939868927,
      -0.40631577372550964,
      0.23997443914413452,
      -0.007224162109196186,
      0.055774904787540436,
      0.1268264651298523,
      0.06867130100727081,
      -0.1351575404405594,
      0.07391156256198883,
      0.22401650249958038,
      -0.09519988298416138,
      0.015678109601140022,
      -0.2244117558002472,
      0.21436741948127747,
      0.1435992568731308,
      0.2129898965358734,
      0.15252920985221863,
      -0.11122334748506546,
      0.16175459325313568,
      0.12565116584300995,
      -0.46787989139556885,
      0.05154196172952652,
      -0.21842513978481293,
      -0.18767505884170532,
      0.22120928764343262,
      0.21396638453006744,
      0.1617291122674942,
      0.40464070439338684,
      -0.2192586213350296,
      -0.08588962256908417,
      0.13238666951656342,
      -0.19495432078838348,
      0.22179870307445526,
      -0.5167478919029236,
      0.31529101729393005,
      -0.017471501603722572,
      0.24845097959041595,
      0.09235574305057526,
      0.058829259127378464,
      0.7121267318725586,
      0.36414897441864014,
      -0.0646761953830719,
      -0.040361255407333374,
      -0.31750214099884033,
      -0.024546297267079353,
      -0.2404658943414688,
      -0.24980348348617554,
      0.09107673168182373,
      -0.15728484094142914,
      -0.6761963367462158,
      0.3884055018424988,
      -0.14697694778442383,
      0.38045766949653625,
      0.22587326169013977,
      -0.16906215250492096,
      0.363364040851593,
      -0.29931849241256714,
      -0.022565258666872978,
      -0.19165630638599396,
      -0.1972975879907608,
      -0.42118576169013977,
      0.08955083787441254,
      -0.21313150227069855,
      -0.31664547324180603,
      0.05635581538081169,
      0.00994784478098154,
      0.04208141565322876,
      0.3001106083393097,
      0.02436739020049572,
      -0.057990554720163345,
      -0.17944370210170746,
      -0.26065587997436523,
      -0.07985999435186386,
      0.07426269352436066,
      0.2634523808956146,
      0.05030514672398567
    ]
  ],
  "actor_encoder_biases": [
    [
      0.337606281042099,
      0.0514228381216526,
      -0.053821586072444916,
      -0.32934147119522095,
      0.19998452067375183,
      0.016925647854804993,
      -0.06414912641048431,
      0.21156753599643707,
      0.16626326739788055,
      -0.14125607907772064,
      -0.1290033906698227,
      -0.24321214854717255,
      -0.14654667675495148,
      -0.0812031477689743,
      -0.10799070447683334,
      -0.26041921973228455
    ],
    [
      -0.22143061459064484,
      -0.11609461903572083,
      0.3473302721977234,
      -0.3245265781879425,
      0.12879548966884613,
      0.2201589196920395,
      -0.035668596625328064,
      -0.18464387953281403,
      -0.19124272465705872,
      0.19668853282928467,
      -0.3101586103439331,
      0.009517338126897812,
      -0.032813943922519684,
      0.27782702445983887,
      0.1139516532421112,
      0.07642702013254166
    ]
  ],
  "actor_head_weights": [
    [
      -0.07129498571157455,
      1.4496418237686157,
      1.6515543460845947,
      0.28898054361343384,
      1.5021066665649414,
      -0.26563531160354614,
      0.28521963953971863,
      1.042657494544983,
      0.09236862510442734,
      -0.299774706363678,
      0.7515942454338074,
      -0.11314205825328827,
      1.4506233930587769,
      0.181207075715065,
      0.25179579854011536,
      0.38520488142967224,
      0.26005828380584717,
      -1.734117031097412,
      -2.6464829444885254,
      0.3214995265007019,
      0.8819740414619446,
      0.13553138077259064,
      0.7092868685722351,
      -0.6686270236968994,
      0.2794596254825592,
      -0.27707478404045105,
      0.3344433009624481,
      0.33201226592063904,
      -0.18775741755962372,
      -0.5461892485618591,
      -0.8200761675834656,
      0.035831473767757416,
      -0.159931942820549,
      0.49168121814727783,
      1.099151849746704,
      0.12024503201246262,
      1.4101313352584839,
      1.2602077722549438,
      -0.09074369817972183,
      -1.966012716293335,
      -0.046793535351753235,
      0.6115031838417053,
      -0.3752189874649048,
      0.49486589431762695,
      -0.13412964344024658,
      -0.33988481760025024,
      -0.44527533650398254,
      -1.418910264968872,
      0.8047057390213013,
      -0.515228271484375,
      -0.10924174636602402,
      0.187686488032341,
      0.8527202606201172,
      -1.9031531810760498,
      -1.217836618423462,
      0.33708927035331726,
      -0.4654971659183502,
      -0.3073253035545349,
      -0.4226296842098236,
      0.34067368507385254,
      -0.2894785702228546,
      -0.38913312554359436,
      0.7428969740867615,
      1.8672696352005005
    ]
  ],
  "actor_head_biases": [
    [
      0.26688018441200256,
      0.4689350128173828,
      0.44471555948257446,
      0.072685606777668
    ]
  ],
  "gru_weight_ih": [
    -0.4959992468357086,
    -0.050163187086582184,
    -0.43253079056739807,
    -1.176002860069275,
    -0.10038734972476959,
    -0.49251842498779297,
    -0.17336857318878174,
    -0.3154717981815338,
    0.8961459994316101,
    0.03840671107172966,
    -0.9220554828643799,
    1.118699312210083,
    1.6949784755706787,
    0.37472042441368103,
    -0.5134119987487793,
    0.35223254561424255,
    0.5528886914253235,
    0.05298454686999321,
    0.09163239598274231,
    -0.37161487340927124,
    -0.05364968627691269,
    0.7259123921394348,
    1.3151767253875732,
    0.13257087767124176,
    0.24795132875442505,
    0.8040773868560791,
    -0.1622384935617447,
    -1.0296320915222168,
    -0.22958986461162567,
    -0.6576547026634216,
    -1.0952571630477905,
    0.23955386877059937,
    0.24481555819511414,
    -0.0549362488090992,
    0.30121371150016785,
    0.026281386613845825,
    0.04496051371097565,
    -0.415375292301178,
    -1.200757622718811,
    0.1433594524860382,
    -0.08416614681482315,
    -0.14144766330718994,
    -0.08062257617712021,
    0.7149325013160706,
    0.21329821646213531,
    0.557044506072998,
    0.3711981177330017,
    0.08430430293083191,
    -0.49443769454956055,
    0.691949188709259,
    -0.11060334742069244,
    -0.23707731068134308,
    1.1531823873519897,
    -2.16291880607605,
    -0.7664946913719177,
    0.01804923079907894,
    0.22746431827545166,
    -0.020006230100989342,
    0.5793476104736328,
    0.6880622506141663,
    2.8138017654418945,
    -0.18778805434703827,
    -0.137664332985878,
    0.893334150314331,
    0.8473225831985474,
    2.1550893783569336,
    -0.6535129547119141,
    -0.5156946778297424,
    0.19798292219638824,
    0.5393953323364258,
    0.13553839921951294,
    0.18640105426311493,
    1.2867180109024048,
    0.538875162601471,
    -0.0996868908405304,
    -0.15076594054698944,
    -0.6215838193893433,
    -0.34304651618003845,
    -0.42318734526634216,
    0.5652461051940918,
    0.02224653773009777,
    -0.41158366203308105,
    0.2554021179676056,
    1.4681073427200317,
    0.7312055230140686,
    -0.5013531446456909,
    -1.0716958045959473,
    -0.10772085189819336,
    0.1012965738773346,
    -0.3659529983997345,
    0.2440660446882248,
    -0.6055063009262085,
    0.03638267144560814,
    -0.09749285131692886,
    -1.2379405498504639,
    0.336848646402359,
    1.488538146018982,
    -0.09886347502470016,
    -0.3738601803779602,
    -1.090075969696045,
    0.46650955080986023,
    0.21314695477485657,
    0.6292634606361389,
    0.2779713273048401,
    0.1490972489118576,
    0.35238397121429443,
    0.5041585564613342,
    -1.3736639022827148,
    -1.04604971408844,
    -0.997501790523529,
    1.1531379222869873,
    -0.5940411686897278,
    -0.08462156355381012,
    0.44883400201797485,
    0.566602349281311,
    -0.31004106998443604,
    -0.212273508310318,
    0.27349451184272766,
    0.2084762454032898,
    0.37535855174064636,
    -0.3627774119377136,
    -0.0731782466173172,
    0.45724302530288696,
    0.9273076057434082,
    0.3510141372680664,
    1.017918586730957,
    0.3653283417224884,
    -0.06994731724262238,
    -0.4883243143558502,
    0.41321733593940735,
    1.043291687965393,
    -0.5853557586669922,
    -1.12507164478302,
    0.6572452187538147,
    -0.44372084736824036,
    -0.7145509123802185,
    0.27307212352752686,
    0.9450245499610901,
    0.1152753084897995,
    0.39361467957496643,
    1.3195114135742188,
    0.27111634612083435,
    -1.2663289308547974,
    0.0867723822593689,
    -0.8587538003921509,
    0.4236530065536499,
    -1.0072240829467773,
    -0.09726812690496445,
    -1.4262638092041016,
    -2.4565021991729736,
    -0.11547773331403732,
    0.6708194017410278,
    -0.20257152616977692,
    -1.8446804285049438,
    0.12232214957475662,
    -0.33231019973754883,
    -0.1757339984178543,
    -1.067840337753296,
    0.4462803900241852,
    0.14016711711883545,
    -0.3388558626174927,
    -1.036420464515686,
    0.5775671601295471,
    1.5721853971481323,
    -0.6389124989509583,
    1.4560192823410034,
    -0.6165578961372375,
    0.5975598096847534,
    -1.1860636472702026,
    0.13873516023159027,
    -0.21908965706825256,
    1.3210391998291016,
    0.4308948218822479,
    1.0290294885635376,
    -1.4418925046920776,
    1.1526178121566772,
    0.5288476943969727,
    -0.6457952260971069,
    -0.44376617670059204,
    0.7031605839729309,
    1.046244502067566,
    -0.0659472718834877,
    1.0162111520767212,
    0.608858048915863,
    -0.696644127368927,
    1.7568002939224243,
    -1.8260315656661987,
    0.8487191796302795,
    1.5473670959472656,
    1.4070665836334229,
    -0.8433337807655334,
    0.23274512588977814,
    2.9311161041259766,
    -0.8481866121292114,
    -0.21167364716529846,
    0.738168478012085,
    -0.4165906310081482,
    -1.2173619270324707,
    -1.0193252563476562,
    -0.4797849655151367,
    0.28712019324302673,
    -0.5060768723487854,
    0.238251730799675,
    0.2161651849746704,
    0.03989177197217941,
    -0.11394809186458588,
    -1.1556490659713745,
    1.1537977457046509,
    -0.41858816146850586,
    -1.3916033506393433,
    3.701871156692505,
    -1.1674014329910278,
    0.7892685532569885,
    -0.7666563987731934,
    0.35222116112709045,
    -0.15302589535713196,
    0.1376154124736786,
    2.5099074840545654,
    -0.7562326192855835,
    -1.524785041809082,
    0.41097453236579895,
    -0.1699468344449997,
    -0.6337049603462219,
    -2.9322612285614014,
    -0.16818416118621826,
    -0.3653735816478729,
    -0.21031564474105835,
    -0.3687022626399994,
    1.4681110382080078,
    -0.3206918239593506,
    0.0861767902970314,
    -0.19326956570148468,
    0.12663935124874115,
    0.19809570908546448,
    0.25110924243927,
    0.2656545042991638,
    0.5578556656837463,
    0.26993319392204285,
    -0.21183018386363983,
    -0.05904809385538101,
    0.36112576723098755,
    0.2475181668996811,
    0.4443542957305908,
    -1.0997456312179565,
    0.43445155024528503,
    0.2614302635192871,
    1.0222002267837524,
    0.11327651888132095,
    -0.21185603737831116,
    -0.4306500554084778,
    0.140151709318161,
    0.4525638818740845,
    0.47924959659576416,
    0.0397680439054966,
    0.18055561184883118,
    -0.5427320599555969,
    0.23289087414741516,
    -0.2951909601688385,
    -0.05250240117311478,
    0.057495445013046265,
    -0.033556606620550156,
    0.36317577958106995,
    -0.3807503283023834,
    0.4919181764125824,
    0.04253315553069115,
    0.023979507386684418,
    0.017650365829467773,
    0.09991136938333511,
    -0.3830219507217407,
    0.011499493382871151,
    -0.31311294436454773,
    -0.019691796973347664,
    0.004355680197477341,
    0.10164272040128708,
    0.08203186839818954,
    -0.09439994394779205,
    -0.4352418780326843,
    0.3181459307670593,
    0.05578892305493355,
    -0.044802647083997726,
    -0.6617127060890198,
    0.3845391869544983,
    -0.2157059907913208,
    -0.10690975189208984,
    -0.2643105089664459,
    -0.15320642292499542,
    -0.026209315285086632,
    -0.05125623568892479,
    -0.06575792282819748,
    -0.320157915353775,
    -2.2831268310546875,
    -0.7858247756958008,
    1.733886480331421,
    -0.5668129920959473,
    0.3613991439342499,
    1.082061529159546,
    -0.2234235256910324,
    1.2140817642211914,
    -0.20847277343273163,
    0.3357100784778595,
    -0.9231373071670532,
    0.3986451029777527,
    1.0262635946273804,
    -1.415132999420166,
    0.18782255053520203,
    -0.10718388855457306,
    -0.09711123257875443,
    -0.015152150765061378,
    0.11558760702610016,
    0.11086293309926987,
    0.23567897081375122,
    -0.3278195858001709,
    -0.2840735912322998,
    -0.12522299587726593,
    0.14244219660758972,
    0.10470172762870789,
    -0.1082087978720665,
    -0.1761932224035263,
    -0.4265202581882477,
    -0.25802451372146606,
    0.6498547196388245,
    0.5746415853500366,
    0.5855201482772827,
    0.10299604386091232,
    -0.16579285264015198,
    0.7635156512260437,
    0.16924594342708588,
    -0.4010125398635864,
    0.2813657522201538,
    -0.47302260994911194,
    -0.3236948549747467,
    -0.8411094546318054,
    -0.5192893147468567,
    -0.30407848954200745,
    -0.7170311808586121,
    0.26879629492759705,
    -0.9918239116668701,
    -0.3143751621246338,
    -0.0190785750746727,
    1.2035788297653198,
    -0.4538211226463318,
    0.26092061400413513,
    -0.21411703526973724,
    -0.34097737073898315,
    0.6754481196403503,
    1.2559820413589478,
    0.9487083554267883,
    1.0102934837341309,
    0.14136622846126556,
    -0.7528692483901978,
    0.27437567710876465,
    0.16887585818767548,
    0.19985686242580414,
    -1.1062498092651367,
    -0.1787966787815094,
    -0.256425142288208,
    -0.217091366648674,
    0.25480955839157104,
    -0.6723928451538086,
    0.1142369955778122,
    -0.26646533608436584,
    -0.61651211977005,
    1.1651417016983032,
    0.15398047864437103,
    -0.060789112001657486,
    0.5741973519325256,
    -0.7044149041175842,
    0.6957046985626221,
    -2.214698076248169,
    1.4939310550689697,
    -0.334661602973938,
    -0.24115177989006042,
    1.399202585220337,
    0.5863080620765686,
    1.0266337394714355,
    0.09754076600074768,
    1.2168294191360474,
    0.8615262508392334,
    0.07711894810199738,
    1.26082444190979,
    -1.8061479330062866,
    0.4851108193397522,
    0.42853373289108276,
    -0.7738953828811646,
    0.6449452638626099,
    0.04544117674231529,
    0.24572551250457764,
    0.2332039177417755,
    0.029726175591349602,
    -0.2435482293367386,
    0.4407763183116913,
    0.09727119654417038,
    0.15111319720745087,
    0.0007013811264187098,
    0.16689655184745789,
    -0.2886878550052643,
    -0.1622556746006012,
    0.07139567285776138,
    -0.4354286193847656,
    -0.362650990486145,
    0.25767752528190613,
    -0.01851002499461174,
    0.3786773383617401,
    -0.2625742554664612,
    0.6949465870857239,
    0.19399021565914154,
    -0.032574236392974854,
    0.15991820394992828,
    0.06736548990011215,
    0.003933991305530071,
    0.0415823832154274,
    0.09081778675317764,
    0.26538944244384766,
    0.04420610889792442,
    0.164408341050148,
    -0.38552990555763245,
    0.5363748073577881,
    -0.38485628366470337,
    -0.2507062256336212,
    -0.38580751419067383,
    -0.06632351875305176,
    -0.10608477890491486,
    -0.23034468293190002,
    0.2577279806137085,
    -0.9196783900260925,
    -0.3746465742588043,
    0.07123365253210068,
    0.05786529555916786,
    1.2085148096084595,
    0.30216261744499207,
    0.133945494890213,
    0.09321494400501251,
    0.13976101577281952,
    -0.23031193017959595,
    0.6362270712852478,
    0.45598265528678894,
    -0.026559332385659218,
    -0.5590616464614868,
    -0.4339313209056854,
    -0.5075376033782959,
    -0.04635538533329964,
    -1.0347938537597656,
    -0.4262833893299103,
    -0.8934122920036316,
    0.7819170951843262,
    -0.776447057723999,
    0.12053177505731583,
    0.05782100930809975,
    -0.5947074294090271,
    -0.6392062902450562,
    0.0852009505033493,
    0.328860342502594,
    0.43996506929397583,
    -0.2504208981990814,
    0.06193731725215912,
    -0.12760832905769348,
    1.0487619638442993,
    0.12454307824373245,
    -1.290726900100708,
    -1.1883940696716309,
    -0.14902666211128235,
    -0.8624194264411926,
    0.30304616689682007,
    1.0574089288711548,
    1.1412277221679688,
    0.047830648720264435,
    0.7576354742050171,
    1.17368483543396,
    -0.44326120615005493,
    -0.03256922960281372,
    -0.3963601589202881,
    -0.4324495494365692,
    -0.6408596038818359,
    0.022699343040585518,
    -0.5741854310035706,
    0.13340240716934204,
    0.04575859755277634,
    -0.4036109149456024,
    0.30264830589294434,
    0.15058034658432007,
    -0.07299359887838364,
    0.0071610258892178535,
    0.2696928083896637,
    -0.14028221368789673,
    0.16701257228851318,
    0.10038472712039948,
    0.08915148675441742,
    -0.041243430227041245,
    -0.1157088503241539,
    -0.02176665887236595,
    -0.044126082211732864,
    0.1758800894021988,
    -0.0017385088140144944,
    0.001471195137128234,
    0.10173813253641129,
    0.07481291145086288,
    0.33210983872413635,
    -0.9344779849052429,
    -1.329047441482544,
    -0.1566302478313446,
    0.5451509952545166,
    0.31278401613235474,
    0.33673420548439026,
    1.2624852657318115,
    -0.3321254849433899,
    1.4267354011535645,
    0.38901054859161377,
    1.119140625,
    -1.658409833908081,
    0.8783726096153259,
    0.7150951623916626,
    1.5013489723205566,
    0.580609142780304,
    -0.2344154715538025,
    -0.36991000175476074,
    0.37642455101013184,
    -0.0028757695108652115,
    -0.8194025158882141,
    0.14404627680778503,
    -0.1082170382142067,
    -0.10746405273675919,
    0.2634315490722656,
    -0.33305609226226807,
    -0.42180725932121277,
    0.35565003752708435,
    0.30086731910705566,
    0.13223446905612946,
    -0.09810225665569305,
    0.2218363732099533,
    0.2468194216489792,
    0.02428455464541912,
    0.1509971171617508,
    -0.17658068239688873,
    -0.21727514266967773,
    -0.17232577502727509,
    -0.09392104297876358,
    -0.33381131291389465,
    -0.03893931582570076,
    0.0622449554502964,
    -0.27486810088157654,
    -0.12402954697608948,
    0.20272135734558105,
    -0.08814112097024918,
    -0.35379064083099365,
    -0.3981015682220459,
    0.11729280650615692,
    0.3776608407497406,
    0.1349637806415558,
    0.011698887683451176,
    -0.05141867324709892,
    -0.7635743021965027,
    0.07499101012945175,
    0.2870822548866272,
    0.17065434157848358,
    0.04753674566745758,
    -0.04556669667363167,
    0.08424761891365051,
    0.1794833540916443,
    1.1126606464385986,
    0.15051423013210297,
    -0.031234033405780792,
    0.19828052818775177,
    -0.049970269203186035,
    -0.07169892638921738,
    0.12789294123649597,
    0.46477335691452026,
    0.37650978565216064,
    0.04604882374405861,
    0.12021860480308533,
    -0.38058847188949585,
    -0.1587706059217453,
    -0.1269032210111618,
    0.1316440850496292,
    0.09764687716960907,
    -0.4305397868156433,
    0.10316156595945358,
    0.2714269459247589,
    -0.12195652723312378,
    0.030993064865469933,
    0.06681296229362488,
    -0.23665322363376617,
    0.23419812321662903,
    -0.07576313614845276,
    0.13386014103889465,
    -0.43878376483917236,
    -0.13807648420333862,
    0.11202004551887512,
    -0.5678899884223938,
    0.0646820142865181,
    0.14343883097171783,
    -0.08988330513238907,
    0.5445947051048279,
    -0.10432534664869308,
    -0.3822089731693268,
    -0.260703444480896,
    0.48455753922462463,
    0.05346657708287239,
    0.30619335174560547,
    -0.25305578112602234,
    0.2642436921596527,
    0.3963340222835541,
    0.3022981882095337,
    0.20678120851516724,
    0.1333717256784439,
    0.16406932473182678,
    -0.4973139464855194,
    0.211885005235672,
    -0.386954665184021,
    0.2122955620288849,
    0.0011882303515449166,
    0.24157476425170898,
    0.5006880164146423,
    -0.17661793529987335,
    -0.013922085985541344,
    -0.19599956274032593,
    0.1540345549583435,
    -0.1466633379459381,
    -0.29193082451820374,
    0.06173441931605339,
    0.10453300923109055,
    0.12989884614944458,
    0.17153392732143402,
    -0.6537631154060364,
    -0.06795329600572586,
    -0.11839895695447922,
    0.22080768644809723,
    -0.07379516959190369,
    -0.1471233367919922,
    -0.22742168605327606,
    0.2691347002983093,
    0.25762200355529785,
    -0.37771332263946533,
    0.34401601552963257,
    0.2591916620731354,
    -0.33796337246894836,
    0.22289054095745087,
    -0.05239509418606758,
    -0.07463320344686508,
    0.3376104533672333,
    0.36479535698890686,
    -0.4315474331378937,
    0.0046043857000768185,
    0.1095268651843071,
    -0.10933339595794678,
    -0.025707220658659935,
    -0.12354349344968796,
    -0.13163317739963531,
    0.10714855790138245,
    -0.15769219398498535,
    0.4617633819580078,
    -0.005320905242115259,
    0.12860482931137085,
    -0.04177376255393028,
    0.25586262345314026,
    0.18810424208641052,
    -0.012213457375764847,
    -0.35139432549476624,
    -0.28210127353668213,
    0.0893445760011673,
    -0.6725168228149414,
    -0.07489388436079025,
    0.5640163421630859,
    -0.06213897466659546,
    0.08869930356740952,
    0.18729259073734283,
    0.014568671584129333,
    -0.09347949922084808,
    -0.16489672660827637,
    -0.10988757759332657,
    -0.2026926875114441,
    0.8046351075172424,
    0.1526428759098053,
    -0.9512700438499451,
    -0.6951135396957397,
    -0.3851849138736725,
    0.017294393852353096,
    0.3425264060497284,
    0.3528367578983307,
    -0.24872790277004242,
    0.17767633497714996,
    0.30108585953712463,
    0.14645396173000336,
    -0.1704983413219452,
    0.08229514211416245,
    -0.33428412675857544,
    0.22276949882507324,
    -0.16319723427295685,
    -0.3542236387729645,
    0.7198401093482971,
    -0.008783643133938313,
    -0.223602294921875,
    -0.3590886890888214,
    0.23403556644916534,
    0.23448237776756287,
    0.1622011959552765,
    -0.5989850759506226,
    -0.6908131837844849,
    -0.5632694363594055,
    -0.05954750254750252,
    -0.4279966950416565,
    -0.4986521303653717,
    -0.0846649780869484,
    -0.3059247136116028,
    -0.24493308365345,
    -0.2537353038787842,
    0.2953791618347168,
    0.12705740332603455,
    -0.3753381073474884,
    -0.36463308334350586,
    -0.08558319509029388,
    -0.32949766516685486,
    0.031682536005973816,
    -0.6591256856918335,
    -0.08766846358776093,
    -0.00527610071003437,
    0.8484476804733276,
    0.20738452672958374,
    0.6586982607841492,
    0.1090443953871727,
    -0.181991308927536,
    0.25712108612060547,
    0.10310329496860504,
    0.1632365584373474,
    -0.009159302338957787,
    0.05201447382569313,
    0.04687272757291794,
    -0.00023876501654740423,
    0.01941600628197193,
    -0.12734590470790863,
    0.5089070796966553,
    -0.2747519314289093,
    -0.2581650912761688,
    0.029756052419543266,
    0.09143514931201935,
    -0.06198854744434357,
    -0.28204697370529175,
    0.007769025396555662,
    -0.1943405270576477,
    -0.2124127596616745,
    0.2569056749343872,
    0.19815045595169067,
    0.11767810583114624,
    -0.04174267500638962,
    0.12605459988117218,
    0.09847350418567657,
    0.20440773665905,
    0.09793965518474579,
    -0.22380077838897705,
    -0.28946226835250854,
    0.15859320759773254,
    0.003207045141607523,
    -0.03532153740525246,
    -0.6092075109481812,
    0.09994668513536453,
    -0.19046151638031006,
    -0.23668330907821655,
    -0.2771340012550354,
    -0.05855748802423477,
    0.2950109541416168,
    0.011830763891339302,
    0.05972251668572426,
    0.35434848070144653,
    0.13566821813583374,
    0.15930573642253876,
    -0.07588355988264084,
    0.35178449749946594,
    0.4180556535720825,
    0.112358458340168
  ],
  "gru_weight_hh": [
    0.35284820199012756,
    0.8270136117935181,
    -0.4011709690093994,
    0.4294349253177643,
    -0.034446779638528824,
    -2.220088481903076,
    -0.4002600610256195,
    0.7838210463523865,
    -1.296399712562561,
    -1.1244981288909912,
    0.12187018990516663,
    -0.32402029633522034,
    0.1244691014289856,
    -0.25361230969429016,
    2.493784189224243,
    0.3388788402080536,
    0.11707503348588943,
    0.6134036183357239,
    -0.1585150510072708,
    -4.644976615905762,
    -0.0342400036752224,
    -0.12960466742515564,
    0.19017021358013153,
    -0.22413648664951324,
    2.8296449184417725,
    0.17136044800281525,
    -0.09797189384698868,
    -1.100769281387329,
    -0.40513142943382263,
    -1.166098952293396,
    -1.4919452667236328,
    -0.6358582377433777,
    0.10097216814756393,
    1.0108474493026733,
    -0.3251670002937317,
    1.689394235610962,
    0.27332931756973267,
    -0.17581774294376373,
    -0.24570760130882263,
    0.0035459683276712894,
    -2.339946746826172,
    -0.11645382642745972,
    0.17580103874206543,
    -0.07651177793741226,
    0.03730471432209015,
    0.5599621534347534,
    0.44756144285202026,
    0.12382432818412781,
    0.9571821689605713,
    0.5912911295890808,
    0.6454558372497559,
    -0.742669939994812,
    0.5723503828048706,
    -0.18134568631649017,
    0.8089030981063843,
    -1.4567736387252808,
    -0.6566334366798401,
    -1.0947259664535522,
    -1.783197045326233,
    0.6807538270950317,
    0.16346825659275055,
    0.2455964982509613,
    -0.08946940302848816,
    0.8870266079902649,
    0.3510265648365021,
    -0.26599761843681335,
    -0.42300713062286377,
    -1.4103081226348877,
    1.6494396924972534,
    -0.3677836060523987,
    0.06543674319982529,
    -1.0676509141921997,
    1.0003108978271484,
    0.11974013596773148,
    0.8345748782157898,
    -0.7127557396888733,
    0.33430495858192444,
    -0.5620219111442566,
    0.9965541362762451,
    0.48095911741256714,
    -2.5198516845703125,
    -0.16262273490428925,
    -0.12234070897102356,
    1.102799654006958,
    -0.28927916288375854,
    -0.4526596665382385,
    -0.07995131611824036,
    0.022357776761054993,
    -0.7618193030357361,
    1.602291464805603,
    -0.10700490325689316,
    0.5559597611427307,
    0.16059638559818268,
    0.13985638320446014,
    -3.6564972400665283,
    -0.35633188486099243,
    0.5020655989646912,
    0.017914973199367523,
    -1.0307456254959106,
    -1.4987112283706665,
    -0.07622084021568298,
    -0.0009593768045306206,
    1.2611347436904907,
    -0.8827390670776367,
    0.6516225337982178,
    -0.4739234149456024,
    -0.2943301200866699,
    -0.417758971452713,
    -0.06260812282562256,
    -0.17836257815361023,
    0.5674607753753662,
    0.45794546604156494,
    0.9032690525054932,
    -0.08083149045705795,
    -0.4575132727622986,
    1.4118379354476929,
    -0.22812479734420776,
    0.12125980854034424,
    0.11719106137752533,
    -0.4209994673728943,
    -0.20032699406147003,
    -1.2091947793960571,
    -0.07386397570371628,
    0.12422776967287064,
    -0.05904330685734749,
    0.4059087336063385,
    3.6878745555877686,
    -0.3147333860397339,
    0.8621194958686829,
    1.2371561527252197,
    0.781192421913147,
    1.3165031671524048,
    -0.38457944989204407,
    -0.877812922000885,
    -0.32474610209465027,
    0.3503194749355316,
    -0.8877459764480591,
    -0.3399968445301056,
    -0.2894635498523712,
    -0.6834452152252197,
    0.27814075350761414,
    -0.15581803023815155,
    0.7379816174507141,
    -0.30622702836990356,
    0.9004787802696228,
    0.6787684559822083,
    0.3363046646118164,
    1.0754400491714478,
    -0.9802318811416626,
    -0.4414443373680115,
    0.9085578918457031,
    1.1603666543960571,
    -0.8565367460250854,
    0.3782751262187958,
    -0.7547005414962769,
    -0.4532432556152344,
    0.4443173408508301,
    -0.052313853055238724,
    1.717594027519226,
    1.224595546722412,
    -0.9331546425819397,
    -0.6240023970603943,
    0.3469603955745697,
    -0.5692176818847656,
    -1.2620947360992432,
    1.2165888547897339,
    0.7201338410377502,
    -1.3425183296203613,
    -0.5727994441986084,
    -0.44055190682411194,
    -1.1375936269760132,
    0.7413772344589233,
    -0.2161874920129776,
    -0.26367977261543274,
    -2.0771327018737793,
    -0.13678018748760223,
    -0.17067638039588928,
    -1.0391623973846436,
    -0.7334279417991638,
    2.1479148864746094,
    -0.6553429961204529,
    -0.9426858425140381,
    0.14455270767211914,
    -1.3597670793533325,
    0.38108721375465393,
    -1.6605383157730103,
    -1.0764697790145874,
    -0.46411338448524475,
    -1.4984543323516846,
    -0.23893237113952637,
    0.23932525515556335,
    -0.6891944408416748,
    0.34345972537994385,
    -1.1592193841934204,
    2.015343427658081,
    1.315822720527649,
    -1.3474743366241455,
    -0.5825589299201965,
    -0.21704816818237305,
    -0.03499669209122658,
    1.732072114944458,
    -0.12424229085445404,
    -1.4157323837280273,
    0.23658517003059387,
    0.4191945791244507,
    -1.016374945640564,
    -1.083777904510498,
    -2.882126808166504,
    -0.47541192173957825,
    0.15261389315128326,
    0.7233320474624634,
    1.2173645496368408,
    -0.8749642968177795,
    -0.6078677773475647,
    -0.8989924788475037,
    -1.4387495517730713,
    0.5046790838241577,
    1.0437345504760742,
    -0.5678136944770813,
    -0.5233860015869141,
    1.7896744012832642,
    -0.7875895500183105,
    -0.1564098298549652,
    -0.7869722843170166,
    -0.6849207878112793,
    0.15893344581127167,
    -0.5960986614227295,
    -0.17924275994300842,
    0.2655152380466461,
    -0.4628397822380066,
    0.18935729563236237,
    -0.3205735385417938,
    0.6638202667236328,
    -0.39508166909217834,
    0.570057213306427,
    -0.8487144112586975,
    -0.33143147826194763,
    0.15651991963386536,
    -0.6963593363761902,
    -0.27474573254585266,
    1.6554920673370361,
    0.045207444578409195,
    -0.0013372476678341627,
    -1.1727644205093384,
    -0.10344836860895157,
    -0.623749315738678,
    0.3416783809661865,
    0.2859223186969757,
    1.4322270154953003,
    -0.789410412311554,
    -0.021942712366580963,
    -0.6383136510848999,
    0.20174452662467957,
    0.3336818516254425,
    3.430917739868164,
    -0.3882644474506378,
    0.10179327428340912,
    0.016606083139777184,
    -0.26808470487594604,
    0.1607743799686432,
    -0.018330182880163193,
    0.012178730219602585,
    -0.07761645317077637,
    0.35595622658729553,
    -0.09276971220970154,
    0.1807449460029602,
    0.2286902666091919,
    -0.22866466641426086,
    -0.37963950634002686,
    -0.2353268712759018,
    -1.804563283920288,
    0.12478630244731903,
    0.13666744530200958,
    0.14524483680725098,
    0.39621615409851074,
    2.1620357036590576,
    -0.6039036512374878,
    0.5387942790985107,
    -0.19890457391738892,
    -0.10552282631397247,
    -0.3585991859436035,
    0.38785645365715027,
    0.051080044358968735,
    0.1708412915468216,
    -0.7332680821418762,
    -0.3870656490325928,
    -0.11622689664363861,
    -0.4366293251514435,
    -1.0355688333511353,
    -1.124111533164978,
    1.2753037214279175,
    -1.9898651838302612,
    1.8114100694656372,
    0.4559026062488556,
    0.2541865110397339,
    -0.49809375405311584,
    -0.5349231362342834,
    1.8312972784042358,
    0.504295289516449,
    -0.6733089089393616,
    0.6139025092124939,
    0.34172317385673523,
    -1.7249740362167358,
    -0.2533753514289856,
    -0.24660351872444153,
    -0.49954530596733093,
    0.6445032358169556,
    -0.7920153737068176,
    -0.010864896699786186,
    0.03672664240002632,
    -0.36144161224365234,
    0.31237703561782837,
    0.3933165371417999,
    -0.03520657494664192,
    -0.044173747301101685,
    -0.34079116582870483,
    -0.12213572859764099,
    -0.3116428852081299,
    0.07660701125860214,
    0.1817789226770401,
    0.8861305713653564,
    -0.7249241471290588,
    0.2346523255109787,
    -0.9970097541809082,
    -0.8677421808242798,
    -0.5601745247840881,
    -0.2926972210407257,
    0.581854522228241,
    0.6164115071296692,
    1.3188368082046509,
    0.8180652260780334,
    -0.052474286407232285,
    0.47036638855934143,
    -0.33575111627578735,
    0.1562662273645401,
    0.5306797027587891,
    -1.1554139852523804,
    -0.15966178476810455,
    -0.7363012433052063,
    -1.1113574504852295,
    0.9458691477775574,
    -1.7642076015472412,
    1.7876732349395752,
    -0.740079402923584,
    2.205026388168335,
    1.5202031135559082,
    0.6454893946647644,
    -0.20424775779247284,
    -0.28995001316070557,
    0.470841646194458,
    3.1504456996917725,
    -0.7452834248542786,
    0.6457359194755554,
    0.5679454803466797,
    1.4655201435089111,
    0.8375788927078247,
    -0.8535873889923096,
    0.4328446090221405,
    -2.5145328044891357,
    -0.21590732038021088,
    0.04524633288383484,
    0.3899804949760437,
    -0.053020454943180084,
    0.8565592765808105,
    -0.40803876519203186,
    0.014759165234863758,
    -1.208590030670166,
    -1.4842383861541748,
    0.9485196471214294,
    -2.2930824756622314,
    -2.1401686668395996,
    -1.1094508171081543,
    0.6721450090408325,
    0.7494955062866211,
    -0.9103250503540039,
    1.6028672456741333,
    0.3267441987991333,
    -0.20072433352470398,
    1.819675087928772,
    -1.4429584741592407,
    -0.26315703988075256,
    1.9924899339675903,
    3.3085381984710693,
    0.7309509515762329,
    -0.46142295002937317,
    -0.6885683536529541,
    0.7279937863349915,
    -0.28385505080223083,
    0.2971191704273224,
    0.14822372794151306,
    0.12038490921258926,
    -0.549314558506012,
    0.09927662461996078,
    0.7177354097366333,
    0.42355969548225403,
    -0.8556801676750183,
    0.9329202771186829,
    -0.06671419739723206,
    -0.3636123538017273,
    -0.39614951610565186,
    0.882910966873169,
    -0.16589444875717163,
    0.5510674715042114,
    0.23883624374866486,
    0.05467111989855766,
    0.29968664050102234,
    0.18165306746959686,
    0.12257520854473114,
    0.08073027431964874,
    -0.3108747899532318,
    0.1244666576385498,
    0.29570266604423523,
    0.3324059247970581,
    -0.06354359537363052,
    0.61266028881073,
    0.6076516509056091,
    0.4241466820240021,
    0.31442543864250183,
    -0.9833296537399292,
    0.42140471935272217,
    -1.5397320985794067,
    0.13051417469978333,
    0.7703973650932312,
    0.36296048760414124,
    -0.23412837088108063,
    -0.07479599863290787,
    1.5346306562423706,
    -0.5079073905944824,
    -0.4423249661922455,
    0.6376461982727051,
    0.9918248057365417,
    -0.30499327182769775,
    -0.8525622487068176,
    1.069846510887146,
    1.5199087858200073,
    0.4117370545864105,
    0.28722864389419556,
    0.506454348564148,
    -0.2612558603286743,
    1.8888901472091675,
    -0.5359998345375061,
    0.31158512830734253,
    -1.0353050231933594,
    -0.13694332540035248,
    1.6080673933029175,
    -0.059073492884635925,
    -0.8105966448783875,
    0.7597281336784363,
    -0.7662537693977356,
    -1.6290440559387207,
    -1.2174254655838013,
    -2.1465141773223877,
    0.7308496236801147,
    -0.5606798529624939,
    -0.008832083083689213,
    1.131496787071228,
    -1.5702333450317383,
    1.37437903881073,
    1.2737411260604858,
    -2.0527098178863525,
    0.24419555068016052,
    0.9025454521179199,
    -0.18324808776378632,
    -1.8605329990386963,
    0.3085395097732544,
    -0.14625683426856995,
    0.48629772663116455,
    2.2963078022003174,
    -0.966192364692688,
    0.2917375862598419,
    0.33475375175476074,
    0.47343623638153076,
    -0.379908949136734,
    0.8203628063201904,
    -0.2982931435108185,
    0.4938116669654846,
    -0.3376508951187134,
    -1.4966955184936523,
    -1.1631015539169312,
    -0.041872844099998474,
    1.207963466644287,
    0.3563835620880127,
    -0.1918683499097824,
    0.13234686851501465,
    -0.051597870886325836,
    0.5182636380195618,
    -0.07506687194108963,
    0.03970847278833389,
    -0.06575269997119904,
    -0.15206372737884521,
    0.10983138531446457,
    0.1656251698732376,
    -0.009873941540718079,
    -0.03467351198196411,
    0.1604219526052475,
    0.5073117613792419,
    -1.3630543947219849,
    -2.2035160064697266,
    0.23440176248550415,
    -2.8582136631011963,
    -0.28318917751312256,
    -1.7670098543167114,
    0.4063618779182434,
    1.341529369354248,
    -0.44771331548690796,
    2.5967841148376465,
    1.6115212440490723,
    1.24384343624115,
    0.7247489094734192,
    0.0027840978000313044,
    -0.588695228099823,
    -0.8436347246170044,
    -1.0033103227615356,
    -0.6090489029884338,
    -0.5851420164108276,
    -0.08499764651060104,
    0.0027780041564255953,
    1.4667242765426636,
    1.3083460330963135,
    -1.6298489570617676,
    0.19876250624656677,
    0.05234002694487572,
    0.9491268396377563,
    -0.21548692882061005,
    0.02866882085800171,
    -0.2899453938007355,
    -0.23996280133724213,
    -1.440956473350525,
    -1.1111879348754883,
    -0.8577263951301575,
    -1.6323227882385254,
    0.3960794508457184,
    -1.5824260711669922,
    -0.585313618183136,
    0.06844104081392288,
    -0.8177118897438049,
    -1.7277789115905762,
    0.3930986523628235,
    0.27691537141799927,
    -0.48989471793174744,
    -1.0871952772140503,
    0.8371177911758423,
    0.24309666454792023,
    -0.641048789024353,
    0.2719755470752716,
    0.3457072079181671,
    -0.8748411536216736,
    3.0551750659942627,
    -0.2599923610687256,
    -0.016915960237383842,
    0.4454391896724701,
    -0.10742653161287308,
    -1.6933430433273315,
    -1.0378832817077637,
    -0.12536993622779846,
    1.046316146850586,
    -0.45818406343460083,
    0.0857277512550354,
    -0.2802806794643402,
    -0.002508723409846425,
    0.3432696759700775,
    -0.3328245282173157,
    -1.3747767210006714,
    -1.0861537456512451,
    -0.12384840101003647,
    -0.06997428089380264,
    0.21726109087467194,
    -0.303877592086792,
    0.446464478969574,
    -0.1951441466808319,
    -0.06957526504993439,
    -0.15791718661785126,
    -0.7352396845817566,
    0.3933835029602051,
    -0.1736796349287033,
    0.32518893480300903,
    -0.6895290017127991,
    0.7203799486160278,
    0.40430572628974915,
    -0.6249259114265442,
    -0.8926612734794617,
    -0.325514018535614,
    -0.0839952901005745,
    -0.06090517342090607,
    -0.33485352993011475,
    0.7574515342712402,
    0.0489046610891819,
    -0.7526424527168274,
    -0.20988984405994415,
    0.3500884473323822,
    0.46907323598861694,
    -0.21157212555408478,
    -0.07894384115934372,
    -0.9388769268989563,
    0.4350607097148895,
    0.7341000437736511,
    -0.20033064484596252,
    -0.6156246662139893,
    -0.8897631168365479,
    0.052117373794317245,
    -0.07329749315977097,
    -0.4535658061504364,
    -0.4809771478176117,
    0.5255911946296692,
    0.6599669456481934,
    -0.46151310205459595,
    -2.6283438205718994,
    0.38205426931381226,
    -0.5422555208206177,
    0.43931326270103455,
    -0.12708596885204315,
    -0.5356985330581665,
    0.851010262966156,
    0.12566053867340088,
    -0.6332693099975586,
    -0.632003903388977,
    -2.371957540512085,
    0.4977110028266907,
    -0.6201409101486206,
    -0.42121177911758423,
    -1.1876070499420166,
    0.5500530004501343,
    -2.0364553928375244,
    -0.346453994512558,
    2.276315689086914,
    0.12341833114624023,
    0.8932235836982727,
    0.8810446858406067,
    0.12447644025087357,
    -0.11336709558963776,
    -0.6140570640563965,
    0.03950074315071106,
    -0.08554718643426895,
    -0.035595979541540146,
    -0.6828980445861816,
    0.31554093956947327,
    0.413577139377594,
    -0.8229208588600159,
    0.9871798157691956,
    0.5125076770782471,
    -0.3492877185344696,
    0.05604322627186775,
    1.5756688117980957,
    0.8479586243629456,
    0.30588263273239136,
    0.30567964911460876,
    -0.0017045685090124607,
    -0.08607590198516846,
    -0.10165862739086151,
    0.11785824596881866,
    -0.02423170767724514,
    -0.32581761479377747,
    0.6001180410385132,
    -1.3744642734527588,
    1.5121160745620728,
    -1.0011730194091797,
    1.486741542816162,
    -0.13152968883514404,
    0.2322378158569336,
    1.2318377494812012,
    0.08610720932483673,
    -0.5601031184196472,
    -0.6031262278556824,
    1.635938286781311,
    0.37062516808509827,
    -0.226679265499115,
    -0.2828819155693054,
    0.2928353548049927,
    0.5057194828987122,
    -0.5293676257133484,
    2.139551877975464,
    0.806324303150177,
    0.06570180505514145,
    -0.9163649678230286,
    -0.14601722359657288,
    -0.06474336981773376,
    0.9581862092018127,
    0.7498194575309753,
    0.05974184721708298,
    0.32806333899497986,
    -0.3568645119667053,
    -0.26387330889701843,
    -1.9603629112243652,
    1.6338446140289307,
    -0.9988704919815063,
    -0.15569756925106049,
    -1.6942644119262695,
    -0.37927260994911194,
    -0.4070785343647003,
    0.5755423307418823,
    -0.39139366149902344,
    0.10999156534671783,
    -0.6116340756416321,
    -0.2578293979167938,
    0.6463420987129211,
    -0.5188485980033875,
    -0.12527696788311005,
    0.6871085166931152,
    0.10600138455629349,
    -1.3224154710769653,
    0.36240506172180176,
    1.1511532068252563,
    -0.9320315718650818,
    0.383537620306015,
    0.13955722749233246,
    0.4837607145309448,
    0.19609634578227997,
    0.6455560326576233,
    0.712848424911499,
    -0.0646095722913742,
    -0.11217688769102097,
    0.46325498819351196,
    -0.9860109686851501,
    -1.1213254928588867,
    0.3434489369392395,
    0.3048080801963806,
    -0.6160591244697571,
    0.23931607604026794,
    2.315504312515259,
    0.04930773004889488,
    -0.6627585291862488,
    -0.6877235174179077,
    -1.1256189346313477,
    -1.4143140316009521,
    -0.30368247628211975,
    -0.5186165571212769,
    0.029446221888065338,
    -0.8080223202705383,
    0.454149454832077,
    -0.3116646409034729,
    1.070391058921814,
    -0.4277242124080658,
    -0.14141219854354858,
    -0.5512351989746094,
    0.5668095350265503,
    0.7919023036956787,
    0.02577883005142212,
    -0.37503480911254883,
    0.06890024244785309,
    -0.26457715034484863,
    0.23400473594665527,
    1.3672434091567993,
    0.5462881922721863,
    -1.3520969152450562,
    -0.06332368403673172,
    -0.051945220679044724,
    0.28462836146354675,
    0.4592808485031128,
    -0.3561953604221344,
    -0.4326840937137604,
    -1.65861177444458,
    -1.7155518531799316,
    1.2842532396316528,
    -0.802445113658905,
    -0.10812419652938843,
    0.06536789983510971,
    1.0348814725875854,
    0.7698109745979309,
    -0.3750022053718567,
    -0.9806873202323914,
    -0.32484716176986694,
    -0.8484980463981628,
    -1.013640284538269,
    0.3258114159107208,
    -0.12873674929141998,
    -0.9416318535804749,
    1.9546455144882202,
    -0.41315940022468567
  ],
  "gru_bias_ih": [
    0.030469859018921852,
    -0.10657419264316559,
    0.8068462610244751,
    1.887155294418335,
    -0.15741322934627533,
    0.13419173657894135,
    -0.2718294560909271,
    -0.5479844808578491,
    0.06332366913557053,
    -0.4550149142742157,
    -0.6318472623825073,
    1.3704191446304321,
    1.4506851434707642,
    -0.2755759656429291,
    0.19876185059547424,
    -0.25279131531715393,
    1.1715949773788452,
    -0.009015964344143867,
    -3.916369676589966,
    0.9096630215644836,
    -1.1923375129699707,
    -2.145009994506836,
    -0.6775314211845398,
    -1.8021912574768066,
    1.1020244359970093,
    0.7336044907569885,
    0.598635733127594,
    -0.005220144987106323,
    -1.5172946453094482,
    0.8261717557907104,
    0.49798235297203064,
    -3.0056164264678955,
    0.3182554244995117,
    0.5738577246665955,
    -0.4052092432975769,
    0.4946262240409851,
    0.4447405934333801,
    -0.5530819296836853,
    0.2568381726741791,
    -0.7281574606895447,
    -0.29729074239730835,
    -0.4144345819950104,
    -0.7515493631362915,
    0.24736452102661133,
    0.5035399198532104,
    -0.18199816346168518,
    -0.10753078758716583,
    -0.08713126927614212
  ],
  "gru_bias_hh": [
    0.2093048244714737,
    0.25215789675712585,
    0.4712989032268524,
    1.4726289510726929,
    -0.24245217442512512,
    0.3198374807834625,
    -0.015301554463803768,
    -0.14395420253276825,
    0.11722812056541443,
    -0.5778823494911194,
    -0.2966528534889221,
    1.4123834371566772,
    1.7579675912857056,
    -0.6896046996116638,
    0.050197139382362366,
    -0.17150917649269104,
    0.9403698444366455,
    -0.34892889857292175,
    -3.6133594512939453,
    0.892859697341919,
    -0.8013051748275757,
    -1.8924661874771118,
    -0.6951541304588318,
    -1.8913911581039429,
    1.1061794757843018,
    0.642148494720459,
    0.3442004323005676,
    -0.05439567193388939,
    -1.5454446077346802,
    0.5690791606903076,
    0.6795350313186646,
    -3.064854860305786,
    0.6228845119476318,
    -1.7263743877410889,
    1.2787668704986572,
    0.3487089276313782,
    -0.1990261971950531,
    1.571252703666687,
    -0.8823531866073608,
    0.720891535282135,
    0.19984214007854462,
    0.534915030002594,
    0.27046874165534973,
    0.6884507536888123,
    0.2035861313343048,
    -1.065176010131836,
    -0.4295107424259186,
    1.9335604906082153
  ],
  "example_input": [
    -1.0,
    -0.9411764740943909,
    -0.8823529481887817,
    -0.8235294222831726,
    -0.7647058963775635,
    -0.7058823704719543,
    -0.6470588445663452,
    -0.5882353186607361,
    -0.529411792755127,
    -0.47058823704719543,
    -0.4117647111415863,
    -0.3529411852359772,
    -0.29411762952804565,
    -0.23529411852359772,
    -0.1764705777168274,
    -0.11764705181121826,
    -0.05882352590560913,
    -3.725290298461914e-09,
    0.05882352590560913,
    0.11764705181121826,
    0.1764705777168274,
    0.23529411852359772,
    0.29411762952804565,
    0.3529411852359772,
    0.4117647111415863,
    0.47058823704719543,
    0.529411792755127,
    0.5882353186607361,
    0.6470588445663452,
    0.7058823704719543,
    0.7647058963775635,
    0.8235294222831726,
    0.8823529481887817,
    0.9411764740943909,
    1.0
  ],
  "example_output": [
    0.1466841995716095,
    0.6740681529045105,
    0.1162131056189537,
    0.44794610142707825
  ],
  "checkpoint_name": "best_checkpoint_model_988.pt",
  "checkpoint_step": -1,
  "requires_obs_normalization": false,
  "compat_reset_output": [
    0.9182206988334656,
    0.2812812030315399,
    0.4385121166706085,
    0.9082461595535278
  ],
  "compat_hover_output": [
    0.9182206988334656,
    0.2812812030315399,
    0.4385121166706085,
    0.9082461595535278
  ],
  "export_format": "rl_tools_checkpoint_blob",
  "policy_distribution": "BetaDistribution",
  "action_output_transform": "beta_mean_sigmoid"
}