{
  "observation_dim": 30,
  "action_dim": 4,
  "structure": "mlp_gru",
  "rnn_type": "gru",
  "gru_input_dim": 16,
  "gru_hidden_dim": 16,
  "gru_num_layers": 1,
  "activation": "elu",
  "use_observation_normalization": false,
  "normalization_folded_into_first_layer": false,
  "observation_mean": [
    0.0,
    0.0,
    0.0,
    0.0,
    0.0,
    0.0,
    0.0,
    0.0,
    0.0,
    0.0,
    0.0,
    0.0,
    0.0,
    0.0,
    0.0,
    0.0,
    0.0,
    0.0,
    0.0,
    0.0,
    0.0,
    0.0,
    0.0,
    0.0,
    0.0,
    0.0,
    0.0,
    0.0,
    0.0,
    0.0
  ],
  "observation_inv_std": [
    1.0,
    1.0,
    1.0,
    1.0,
    1.0,
    1.0,
    1.0,
    1.0,
    1.0,
    1.0,
    1.0,
    1.0,
    1.0,
    1.0,
    1.0,
    1.0,
    1.0,
    1.0,
    1.0,
    1.0,
    1.0,
    1.0,
    1.0,
    1.0,
    1.0,
    1.0,
    1.0,
    1.0,
    1.0,
    1.0
  ],
  "actor_encoder_dims": [
    30,
    16,
    16
  ],
  "actor_encoder_activations": [
    "elu",
    "identity"
  ],
  "actor_head_dims": [
    16,
    4
  ],
  "actor_head_activations": [
    "sigmoid"
  ],
  "actor_encoder_weights": [
    [
      1.149385690689087,
      -0.5116083025932312,
      -6.582728385925293,
      -0.02016329951584339,
      0.3883926272392273,
      0.40600496530532837,
      0.28470659255981445,
      -0.1774551123380661,
      0.40051186084747314,
      0.12400054931640625,
      -0.047010090202093124,
      0.03761399909853935,
      -0.5815529227256775,
      -0.15661919116973877,
      -0.028697459027171135,
      0.44232702255249023,
      -0.12357950955629349,
      -4.61712121963501,
      0.05058731511235237,
      0.2666870057582855,
      -0.1695978194475174,
      -0.005022877361625433,
      0.027114996686577797,
      -0.013665967620909214,
      0.01886940188705921,
      0.648963451385498,
      0.15445029735565186,
      0.015464799478650093,
      0.24482695758342743,
      0.19861465692520142,
      1.9071710109710693,
      5.308971405029297,
      -0.6282463669776917,
      -0.12662002444267273,
      0.009507725946605206,
      1.0775083303451538,
      0.430020809173584,
      0.19892574846744537,
      2.70110821723938,
      -1.0539348125457764,
      -1.9248892068862915,
      0.05949658527970314,
      -0.8913873434066772,
      -2.600292921066284,
      -0.012050291523337364,
      1.3185253143310547,
      2.2925713062286377,
      0.6381048560142517,
      -0.4036923348903656,
      -0.0017861311789602041,
      0.973751425743103,
      -0.10776785761117935,
      0.07922329008579254,
      -0.0009457148844376206,
      -0.03289085626602173,
      -0.16572687029838562,
      -0.4784938097000122,
      0.34119877219200134,
      0.8732393980026245,
      -0.8723739385604858,
      2.1609437465667725,
      1.6405043601989746,
      -1.1894044876098633,
      -0.38503918051719666,
      -0.07147994637489319,
      0.9347176551818848,
      -0.37932687997817993,
      -0.16164375841617584,
      0.5115430355072021,
      0.38106685876846313,
      -0.8434000611305237,
      -0.32697343826293945,
      -1.1759350299835205,
      -0.7079746723175049,
      0.4317406713962555,
      0.15085668861865997,
      1.0173170566558838,
      -0.27976155281066895,
      -0.03125423938035965,
      0.1112780049443245,
      -0.18222865462303162,
      0.2001648247241974,
      0.7629226446151733,
      -0.02318325825035572,
      0.0036544641479849815,
      -1.2505295276641846,
      -0.0901753306388855,
      0.06507239490747452,
      -0.03554682061076164,
      0.10337288677692413,
      -3.6759233474731445,
      2.437897205352783,
      -0.5514495372772217,
      -0.04783155396580696,
      0.0037320556584745646,
      -2.183190107345581,
      0.583142876625061,
      0.0049427407793700695,
      0.6620141863822937,
      0.620281457901001,
      -0.27181848883628845,
      -0.0670294463634491,
      2.5004312992095947,
      -0.4415014088153839,
      0.2231135219335556,
      -3.2603580951690674,
      2.8384628295898438,
      -1.5520530939102173,
      0.009825239889323711,
      0.2915414869785309,
      -0.05101427808403969,
      -0.10052041709423065,
      -0.032054055482149124,
      0.05854478105902672,
      -0.014064115472137928,
      0.15005062520503998,
      -0.3455960154533386,
      0.6598004102706909,
      0.2335376739501953,
      0.04506104812026024,
      0.4339909851551056,
      0.6517202258110046,
      -0.3457755148410797,
      0.1916419118642807,
      3.1234395503997803,
      -0.6872178316116333,
      -3.453700304031372,
      0.3064285218715668,
      0.3691074550151825,
      0.36888381838798523,
      0.5953139662742615,
      0.04522906243801117,
      0.5998376607894897,
      -0.37563467025756836,
      0.04914303123950958,
      -0.2286730259656906,
      0.05884724110364914,
      0.6107527613639832,
      0.2852587401866913,
      -0.14901776611804962,
      -3.8587329387664795,
      0.038883864879608154,
      0.051479704678058624,
      -0.014692233875393867,
      -0.00638439878821373,
      -0.36858123540878296,
      -0.2940855026245117,
      -0.05141783133149147,
      -0.12872377038002014,
      0.08511078357696533,
      -1.20437753200531,
      -0.7892248630523682,
      -0.2701480984687805,
      -0.17651240527629852,
      -1.5651476383209229,
      -0.6290779113769531,
      -0.26462626457214355,
      0.14185449481010437,
      1.5392857789993286,
      -0.475899875164032,
      -1.4717284440994263,
      -0.01293026190251112,
      0.456389456987381,
      -1.5628035068511963,
      0.0029200580902397633,
      -0.5489467978477478,
      0.7123467922210693,
      -0.015111600048840046,
      -1.1668463945388794,
      -1.0097988843917847,
      0.15283584594726562,
      -0.22054173052310944,
      -0.28867411613464355,
      0.07164968550205231,
      0.02455044724047184,
      -0.30695822834968567,
      -0.043148208409547806,
      0.07262729853391647,
      -0.015827948227524757,
      0.3299994170665741,
      -3.3377845287323,
      3.149561882019043,
      0.342149943113327,
      0.025385834276676178,
      -1.0478367805480957,
      -2.7016665935516357,
      -0.06888698786497116,
      0.17451946437358856,
      1.4855492115020752,
      1.5655732154846191,
      -1.3608821630477905,
      -0.12655039131641388,
      2.7447524070739746,
      -1.7504265308380127,
      0.03237196058034897,
      -2.1953489780426025,
      1.4828004837036133,
      0.7093451619148254,
      -0.6372052431106567,
      -0.7504907250404358,
      0.3494889736175537,
      -0.09441763162612915,
      -0.13738501071929932,
      -0.018038248643279076,
      -0.00897611491382122,
      0.04382745921611786,
      -0.5902000069618225,
      0.7866443991661072,
      -0.08690197020769119,
      0.10341142863035202,
      -1.4099209308624268,
      4.29100227355957,
      1.8514922857284546,
      -0.2502807676792145,
      1.4567372798919678,
      -1.4336693286895752,
      -0.48912176489830017,
      -0.06376398354768753,
      1.2413454055786133,
      0.2928895652294159,
      -0.6131761074066162,
      -0.3370888829231262,
      1.5932960510253906,
      -1.149263620376587,
      0.11193357408046722,
      -0.5169000029563904,
      1.7584924697875977,
      0.8784366250038147,
      -0.6642466187477112,
      -0.9011436700820923,
      -1.8621505498886108,
      0.33847934007644653,
      -0.2858651578426361,
      -0.21557077765464783,
      0.003496295539662242,
      -0.5435099005699158,
      -0.08677756041288376,
      0.11318660527467728,
      0.4840466380119324,
      -0.28040775656700134,
      1.4741029739379883,
      0.6968656778335571,
      1.9533474445343018,
      -0.011224786750972271,
      0.014263211749494076,
      1.349042534828186,
      0.09023250639438629,
      -0.13976716995239258,
      -0.6869257688522339,
      -0.03874022513628006,
      0.17888782918453217,
      0.1963540017604828,
      -1.3480249643325806,
      0.7206789255142212,
      -0.13966505229473114,
      0.2866276800632477,
      -0.30878493189811707,
      0.7628629207611084,
      0.06490309536457062,
      -0.07925380766391754,
      -0.010433373041450977,
      -1.3263763189315796,
      -1.0085970163345337,
      -0.1688348948955536,
      -0.07182107120752335,
      2.1538195610046387,
      0.021789098158478737,
      0.06117184832692146,
      0.19537651538848877,
      0.33376285433769226,
      -2.649341344833374,
      -1.5250760316848755,
      -1.6370508670806885,
      -0.2661552131175995,
      -0.9681475162506104,
      -1.4926458597183228,
      0.33677709102630615,
      0.23153507709503174,
      -0.44267335534095764,
      0.9836040735244751,
      -0.2188718169927597,
      0.13375639915466309,
      1.6673263311386108,
      0.4448038637638092,
      -0.0549587607383728,
      -2.095595359802246,
      -2.7059993743896484,
      -1.1151859760284424,
      0.04908566549420357,
      0.11023779958486557,
      1.1208125352859497,
      0.09544842690229416,
      0.05110681429505348,
      -0.039488524198532104,
      0.07509566843509674,
      -0.1349990963935852,
      -0.08009122312068939,
      -0.32124486565589905,
      -0.3976908028125763,
      0.2525988519191742,
      -2.269505500793457,
      -3.732083797454834,
      -0.3119218051433563,
      -0.1712321937084198,
      0.3617766797542572,
      -2.3403148651123047,
      0.985939621925354,
      -0.10253331810235977,
      -1.9862703084945679,
      1.6175891160964966,
      1.4767259359359741,
      0.10913126170635223,
      2.348235607147217,
      2.0123190879821777,
      -0.10768713057041168,
      -1.6066100597381592,
      -1.4344062805175781,
      0.15079118311405182,
      0.9884746074676514,
      -1.227932095527649,
      0.15604211390018463,
      0.07797862589359283,
      -0.2422267645597458,
      -0.016756627708673477,
      -0.020921170711517334,
      0.8651177287101746,
      0.22836756706237793,
      -0.05523085221648216,
      -0.33747398853302,
      0.1299988031387329,
      0.18044701218605042,
      -3.0283689498901367,
      -0.5029897093772888,
      0.053441811352968216,
      -3.0347580909729004,
      0.46761006116867065,
      2.238269805908203,
      0.09765226393938065,
      -1.3980315923690796,
      -0.09027507901191711,
      0.4259011447429657,
      -0.0007261242135427892,
      -0.5801865458488464,
      1.3271920680999756,
      0.26720789074897766,
      0.5068177580833435,
      -1.0476280450820923,
      0.7494341135025024,
      0.45253610610961914,
      0.05338267609477043,
      2.085646867752075,
      0.127846360206604,
      0.20228850841522217,
      0.005033083725720644,
      -0.11132685840129852,
      -0.25041887164115906,
      0.2614348828792572,
      -0.40487024188041687,
      -0.30346450209617615,
      0.39827463030815125,
      -0.33305856585502625,
      -4.011119842529297,
      -0.9261062145233154,
      0.02104746364057064,
      0.9095902442932129,
      0.5117206573486328,
      -0.4476838707923889,
      -0.2703685462474823,
      -2.874089002609253,
      -0.2984190583229065,
      2.13065505027771,
      0.07625654339790344,
      -0.6459129452705383,
      2.644912004470825,
      -0.06173710152506828,
      -0.6142821907997131,
      -3.5676989555358887,
      0.24686434864997864,
      0.1906736195087433,
      0.1303253024816513,
      -1.001160979270935,
      -0.19029153883457184,
      0.08103146404027939,
      0.06935638934373856,
      -0.043359361588954926,
      -0.37973952293395996,
      0.5098127126693726,
      -0.5672501921653748,
      -0.15510836243629456,
      0.1688687801361084,
      3.781527042388916,
      3.3538284301757812,
      0.2283799648284912,
      0.030329694971442223,
      -0.20118483901023865,
      2.601637363433838,
      0.43292656540870667,
      -0.18188925087451935,
      1.8855217695236206,
      -1.356293797492981,
      -1.5593085289001465,
      -0.009565393440425396,
      -2.561475992202759,
      -1.7909353971481323,
      -0.10444217920303345,
      1.4185365438461304,
      1.7143077850341797,
      -0.40861794352531433,
      -0.990405797958374,
      1.079720377922058,
      -0.2459702491760254,
      0.001463432563468814,
      -0.0640411227941513,
      0.05353270843625069,
      0.001532366848550737,
      -0.7630961537361145,
      -0.31062641739845276,
      0.21572482585906982,
      0.3971262276172638,
      -0.42913028597831726,
      1.5634799003601074,
      0.9651476740837097,
      2.147188901901245,
      -0.03182274103164673,
      0.5366727709770203,
      1.3255881071090698,
      -0.6282343864440918,
      -0.4280300438404083,
      1.119462013244629,
      0.3212175965309143,
      -0.8490142822265625,
      -0.20122022926807404,
      -1.549850583076477,
      -1.1317918300628662,
      -0.11368001252412796,
      0.2823200821876526,
      0.3619012236595154,
      0.9508199691772461,
      -0.8666467070579529,
      0.5972428917884827,
      0.17931456863880157,
      -0.14464032649993896,
      -0.11050742119550705,
      -0.12319163233041763,
      -0.0468231663107872,
      1.263735055923462,
      0.78368079662323,
      -0.4027501046657562,
      0.03655194863677025,
      0.17377574741840363,
      4.136798858642578,
      -3.2879345417022705,
      0.540947675704956,
      0.05269428715109825,
      -0.6368663311004639,
      2.4618465900421143,
      -0.8999003171920776,
      -0.08047062903642654,
      -2.251645565032959,
      -0.8455601930618286,
      1.5177775621414185,
      0.1254458874464035,
      -2.534595489501953,
      2.4983386993408203,
      0.01725802570581436,
      1.857956051826477,
      -1.337754487991333,
      0.29082438349723816,
      1.126050353050232,
      0.8942004442214966,
      -0.052820488810539246,
      0.058145541697740555,
      -0.18920694291591644,
      0.08413047343492508,
      0.04324357956647873,
      0.23642295598983765,
      0.08846201747655869,
      -0.08435645699501038,
      0.060712967067956924,
      -0.16425307095050812
    ],
    [
      -0.3331211507320404,
      -0.12501050531864166,
      -0.14528289437294006,
      -0.2317165583372116,
      0.7790435552597046,
      -0.014244095422327518,
      0.01886298507452011,
      0.3542889356613159,
      -0.11492718756198883,
      -0.2713835835456848,
      -0.012234044261276722,
      -0.43948620557785034,
      0.17125564813613892,
      -0.10201194137334824,
      0.05286746472120285,
      0.04732680320739746,
      -0.24314585328102112,
      -0.06326273828744888,
      -0.17544297873973846,
      -0.0012867081677541137,
      0.0872611328959465,
      0.17530807852745056,
      0.3127201199531555,
      -0.15384937822818756,
      -0.16259081661701202,
      -0.07006531953811646,
      0.18691544234752655,
      -0.15739387273788452,
      0.13773705065250397,
      0.1679658591747284,
      -0.016105448827147484,
      0.2578202486038208,
      -0.28116878867149353,
      0.39876872301101685,
      -0.24240656197071075,
      0.19542296230793,
      -0.12046445906162262,
      0.30013731122016907,
      0.7668790817260742,
      0.2319497913122177,
      -0.6198934316635132,
      -0.04316067695617676,
      0.07463530451059341,
      -0.2872161269187927,
      -0.3728090822696686,
      0.10300006717443466,
      0.04992089420557022,
      -0.6095035672187805,
      -0.25196218490600586,
      0.29417434334754944,
      -0.05138983204960823,
      0.4608745276927948,
      -0.16220048069953918,
      -0.24595580995082855,
      -0.27619898319244385,
      -0.1393018364906311,
      -0.09386906772851944,
      -0.1250053346157074,
      0.834363579750061,
      0.012351912446320057,
      -0.023437416180968285,
      0.11602707207202911,
      0.3652375340461731,
      0.19300274550914764,
      0.687077522277832,
      0.20965707302093506,
      0.13437257707118988,
      0.17301461100578308,
      0.23953349888324738,
      0.09798339754343033,
      0.28069764375686646,
      -0.21296650171279907,
      -0.0926756039261818,
      0.17748482525348663,
      0.48421719670295715,
      -0.3478224277496338,
      0.027936559170484543,
      -0.23986604809761047,
      -0.27890580892562866,
      0.3993636667728424,
      0.18163816630840302,
      -0.19878460466861725,
      -0.14301733672618866,
      0.05886280909180641,
      0.3011872470378876,
      -0.10533332079648972,
      0.39569443464279175,
      -0.3373216390609741,
      -0.2685370147228241,
      0.28633469343185425,
      0.22933268547058105,
      -0.34359195828437805,
      0.3947247564792633,
      0.3290826082229614,
      0.17915089428424835,
      0.11459440737962723,
      1.1809695959091187,
      -0.13124167919158936,
      -0.3087364435195923,
      0.14620009064674377,
      -0.15880709886550903,
      0.14076972007751465,
      -0.08447375148534775,
      0.5563217401504517,
      -0.2315143495798111,
      -0.11359373480081558,
      0.20627544820308685,
      0.14209939539432526,
      0.004044362809509039,
      -0.29753822088241577,
      0.06600861251354218,
      -0.08353737741708755,
      -0.16215908527374268,
      0.5710897445678711,
      -0.17628635466098785,
      -0.6167472004890442,
      -0.3013186752796173,
      0.08883543312549591,
      -0.25612518191337585,
      0.1948745995759964,
      -0.3723001480102539,
      -0.017202133312821388,
      0.13240504264831543,
      0.004038265906274319,
      0.22134554386138916,
      0.2986273765563965,
      -0.2855999171733856,
      -0.09072035551071167,
      0.31260374188423157,
      -0.3207533061504364,
      -0.25025391578674316,
      0.05447665974497795,
      -0.24651651084423065,
      0.17267391085624695,
      -0.1801825910806656,
      -0.11454236507415771,
      -0.23644214868545532,
      -0.23645076155662537,
      -0.24112120270729065,
      -0.4620487689971924,
      -0.23585577309131622,
      -0.461639404296875,
      0.09101127833127975,
      0.05587628111243248,
      0.030698735266923904,
      0.5099138021469116,
      -0.3752318024635315,
      -0.171476811170578,
      0.08414983004331589,
      -0.4115438759326935,
      -0.17670957744121552,
      -0.3370596468448639,
      -0.13743019104003906,
      0.22010718286037445,
      -0.06961151957511902,
      -0.2903504967689514,
      -0.2003084272146225,
      -0.19295978546142578,
      -0.531320333480835,
      0.011422010138630867,
      0.46263357996940613,
      0.19188916683197021,
      0.39267489314079285,
      -0.044386837631464005,
      -0.05566038936376572,
      0.21886330842971802,
      0.29973557591438293,
      -0.36690959334373474,
      -0.06780031323432922,
      -0.36003634333610535,
      0.43091854453086853,
      -0.19785535335540771,
      -0.10088425129652023,
      -0.03066307120025158,
      -0.1976379007101059,
      0.13452336192131042,
      0.18947237730026245,
      0.3617253005504608,
      0.23850813508033752,
      0.5005699396133423,
      0.2688913345336914,
      -0.14031676948070526,
      0.005180932115763426,
      0.2496243119239807,
      0.14990076422691345,
      -0.1556282788515091,
      -0.5939729809761047,
      -0.2165028601884842,
      -0.3699267506599426,
      0.24079380929470062,
      -0.21424993872642517,
      -0.14580753445625305,
      -0.042468491941690445,
      -0.2269802689552307,
      -0.06621965765953064,
      0.1619160771369934,
      -0.16250550746917725,
      -0.22596889734268188,
      0.012413732707500458,
      -0.2642870247364044,
      -0.16763225197792053,
      -0.13711853325366974,
      0.2982112169265747,
      -0.08901473134756088,
      0.06683492660522461,
      0.35584399104118347,
      -0.028700055554509163,
      -0.233381450176239,
      0.43069523572921753,
      0.13329504430294037,
      0.34122610092163086,
      -0.038456209003925323,
      -0.29446402192115784,
      0.08368336409330368,
      -0.1720391809940338,
      0.36100175976753235,
      -0.018233712762594223,
      0.35526981949806213,
      0.006731692235916853,
      -0.409412682056427,
      0.41304561495780945,
      -0.03125115856528282,
      0.18239739537239075,
      -0.37042078375816345,
      -0.32113903760910034,
      0.21314993500709534,
      -0.12830530107021332,
      -0.09208708256483078,
      0.049854569137096405,
      -0.14146257936954498,
      0.5764858722686768,
      0.21787701547145844,
      -0.16373662650585175,
      0.11131055653095245,
      -0.5306305885314941,
      0.005698672030121088,
      -0.031506262719631195,
      -0.460350900888443,
      0.06830817461013794,
      0.9896958470344543,
      -0.6506609320640564,
      -0.5613110661506653,
      0.02829575166106224,
      0.40860608220100403,
      -0.036768242716789246,
      -0.16593487560749054,
      -0.002058902755379677,
      0.09938192367553711,
      -0.36981168389320374,
      0.17251618206501007,
      0.2718972861766815,
      0.15505388379096985,
      0.1425241231918335,
      -0.7913368940353394,
      -0.24541118741035461,
      -0.2367023378610611
    ]
  ],
  "actor_encoder_biases": [
    [
      0.011705141514539719,
      -0.1351814717054367,
      -0.18499286472797394,
      -0.018906710669398308,
      -0.27719664573669434,
      0.1356605738401413,
      -0.009357851929962635,
      -0.22819456458091736,
      0.20764270424842834,
      0.01054961048066616,
      -0.1611466109752655,
      -0.22665640711784363,
      -0.13822409510612488,
      0.06504412740468979,
      0.18650083243846893,
      -0.14044739305973053
    ],
    [
      0.14424143731594086,
      0.0938354954123497,
      -0.08111967146396637,
      0.12248864024877548,
      -0.26543301343917847,
      -0.22083677351474762,
      -0.12100134789943695,
      -0.005935161840170622,
      -0.08725406229496002,
      -0.25201648473739624,
      -0.14528369903564453,
      -0.17412781715393066,
      0.009791086427867413,
      0.14142249524593353,
      0.05746159330010414,
      0.04968585819005966
    ]
  ],
  "actor_head_weights": [
    [
      0.5134125351905823,
      1.195125699043274,
      -0.04839107021689415,
      0.3628150522708893,
      0.5850099921226501,
      -0.04847002774477005,
      0.1540641188621521,
      0.2825523614883423,
      -0.08841922879219055,
      -0.45458993315696716,
      -2.5773677825927734,
      0.15299829840660095,
      -0.34271547198295593,
      0.9599820375442505,
      0.5452138185501099,
      -0.16310687363147736,
      -0.2847607135772705,
      0.6190496683120728,
      -1.7920914888381958,
      0.3413093090057373,
      -1.1946203708648682,
      -0.35466328263282776,
      -0.3770586848258972,
      0.15193769335746765,
      -0.36867618560791016,
      0.15762725472450256,
      0.9958842396736145,
      0.5806325078010559,
      0.10491339862346649,
      -0.4638298451900482,
      -0.3169254958629608,
      -0.22251485288143158,
      1.5242754220962524,
      -0.7923781275749207,
      -0.6146502494812012,
      0.3696978688240051,
      0.33124640583992004,
      -0.16655433177947998,
      -0.33275291323661804,
      0.37794676423072815,
      0.000909367750864476,
      -0.6612063050270081,
      -1.315628170967102,
      0.20812498033046722,
      -0.042257487773895264,
      -1.6438864469528198,
      0.535614013671875,
      0.04400364309549332,
      -0.5254155993461609,
      -0.6373119354248047,
      -0.6720234751701355,
      -0.5648683309555054,
      -0.053512103855609894,
      0.3142146170139313,
      -0.3412122130393982,
      1.3949439525604248,
      -0.27654147148132324,
      0.4813515841960907,
      0.2603178024291992,
      0.4101507365703583,
      -0.27143487334251404,
      1.8168606758117676,
      -0.7979432940483093,
      -0.4579552412033081
    ]
  ],
  "actor_head_biases": [
    [
      0.4837586581707001,
      0.2150249481201172,
      0.26497989892959595,
      0.014437808655202389
    ]
  ],
  "gru_weight_ih": [
    -0.8539234399795532,
    -0.3555418848991394,
    -0.563731849193573,
    -2.343512773513794,
    -0.7100849747657776,
    -0.5599658489227295,
    -0.35285770893096924,
    0.28161001205444336,
    0.667713463306427,
    1.440659523010254,
    -0.18153567612171173,
    0.3681296706199646,
    -1.3773045539855957,
    -0.46555963158607483,
    -0.5542455911636353,
    0.2478243112564087,
    0.5913317203521729,
    0.32267773151397705,
    -0.24185776710510254,
    0.5186049342155457,
    0.9764938950538635,
    0.7689603567123413,
    0.014291256666183472,
    -0.538775622844696,
    -1.4813859462738037,
    -0.7047614455223083,
    -0.09955970197916031,
    0.4086931347846985,
    -0.766063928604126,
    -1.3509401082992554,
    0.808552086353302,
    -1.489100694656372,
    0.4488286077976227,
    0.48967912793159485,
    -0.20672781765460968,
    -0.9449604749679565,
    0.06768695265054703,
    0.6951449513435364,
    1.0760252475738525,
    0.3319298326969147,
    1.1527776718139648,
    0.017108872532844543,
    -0.5807639956474304,
    1.1083078384399414,
    -0.5595070123672485,
    -0.252693772315979,
    0.6043699979782104,
    0.2178242951631546,
    1.9119713306427002,
    0.5680468678474426,
    0.6117503643035889,
    1.7439156770706177,
    0.7200504541397095,
    1.1099411249160767,
    0.8343926072120667,
    2.0103020668029785,
    -0.6839746236801147,
    0.5393730401992798,
    0.581284761428833,
    -0.0457678958773613,
    0.3229786157608032,
    -0.9878025054931641,
    1.0739129781723022,
    1.490492343902588,
    -1.5625685453414917,
    -0.2491554617881775,
    1.0556483268737793,
    0.8116455078125,
    -0.9752798080444336,
    -0.7107131481170654,
    0.21004091203212738,
    0.6279134750366211,
    0.6644390821456909,
    0.5149096846580505,
    1.1201194524765015,
    -1.6406965255737305,
    1.2547286748886108,
    1.0947421789169312,
    -0.5951452851295471,
    0.5077303051948547,
    0.36194276809692383,
    -0.39686065912246704,
    -1.160752534866333,
    -0.10004055500030518,
    0.6687183380126953,
    0.6694898009300232,
    -0.7915488481521606,
    -0.740725576877594,
    -0.9117338061332703,
    -0.6934036612510681,
    -0.4440324902534485,
    -1.4903578758239746,
    -0.05384175106883049,
    0.5024710297584534,
    -1.3023630380630493,
    0.7066597938537598,
    -1.3461625576019287,
    1.2253600358963013,
    0.9106788039207458,
    0.5907664895057678,
    -0.03692803159356117,
    0.4920552372932434,
    0.6590262651443481,
    0.0992235392332077,
    0.04044727236032486,
    -1.760911464691162,
    0.5428934097290039,
    -0.7784197330474854,
    -0.02045624516904354,
    0.8603394627571106,
    -1.2623240947723389,
    -0.6741744875907898,
    -0.30562010407447815,
    0.06001110002398491,
    0.1868368685245514,
    -0.12350941449403763,
    0.2013988494873047,
    0.12374842166900635,
    0.49070659279823303,
    0.32942643761634827,
    0.8754467368125916,
    -0.23387476801872253,
    0.22876299917697906,
    0.647652268409729,
    0.48970797657966614,
    0.3344193398952484,
    -0.9665321111679077,
    -0.6781427264213562,
    -2.1060097217559814,
    -1.4986071586608887,
    -1.5824369192123413,
    -0.16651244461536407,
    -0.9988832473754883,
    -2.754441261291504,
    -0.7391113042831421,
    -0.337026447057724,
    0.6125537157058716,
    0.19728009402751923,
    0.26160773634910583,
    -0.4374471604824066,
    -0.07911258935928345,
    0.5903112888336182,
    -1.7358721494674683,
    -0.9266473054885864,
    -0.32639893889427185,
    0.3716588318347931,
    -1.8141288757324219,
    -1.5946574211120605,
    0.7139735817909241,
    1.7425981760025024,
    -0.9669475555419922,
    -0.11473706364631653,
    -0.7860724925994873,
    1.1521918773651123,
    0.5028833150863647,
    1.6147855520248413,
    0.8068904876708984,
    0.38764700293540955,
    -0.8516031503677368,
    -1.49409818649292,
    0.2445966750383377,
    -0.2907255291938782,
    -0.46569526195526123,
    -0.09442808479070663,
    0.3054617941379547,
    -0.33757108449935913,
    -0.968555212020874,
    -0.1435159146785736,
    0.5995509624481201,
    0.10513561218976974,
    0.6822017431259155,
    0.09113737940788269,
    0.048271991312503815,
    0.7194069623947144,
    0.0007251306087709963,
    0.15468600392341614,
    1.3737910985946655,
    -0.25777748227119446,
    0.7466835975646973,
    -0.30686601996421814,
    -0.6699181199073792,
    2.04894757270813,
    0.2966141402721405,
    1.8925334215164185,
    1.280219554901123,
    2.6378865242004395,
    -2.334050416946411,
    0.5316700339317322,
    0.20174293220043182,
    0.37111449241638184,
    -0.2140074074268341,
    1.9770928621292114,
    -0.08492672443389893,
    0.5420219898223877,
    -0.29213982820510864,
    0.895700991153717,
    -0.00011899248056579381,
    0.009551647119224072,
    0.06178291141986847,
    1.6109498739242554,
    -0.8223633766174316,
    -0.11487140506505966,
    -0.08461609482765198,
    -0.9864485263824463,
    -0.59670090675354,
    -0.017392104491591454,
    0.7787310481071472,
    -0.08013635128736496,
    0.16833001375198364,
    0.0360960029065609,
    -0.6764743328094482,
    -0.8492993116378784,
    -0.47744253277778625,
    -0.12755011022090912,
    0.8278464674949646,
    0.3219826817512512,
    -0.5710088610649109,
    -0.7035256624221802,
    0.3580648899078369,
    -0.003715170081704855,
    -0.1336180567741394,
    -0.36126837134361267,
    0.6753420829772949,
    0.5053226947784424,
    -1.2185916900634766,
    0.6523123383522034,
    -0.4350952208042145,
    0.44211146235466003,
    0.7041721343994141,
    0.5384241342544556,
    -0.8162009119987488,
    -1.2422579526901245,
    -0.8140058517456055,
    -0.2809317409992218,
    0.5700232982635498,
    0.9536508321762085,
    0.16914623975753784,
    0.04622204229235649,
    0.30373361706733704,
    0.45914286375045776,
    1.7270700931549072,
    -0.677925169467926,
    0.1040092334151268,
    -0.48624444007873535,
    0.34370461106300354,
    1.6172926425933838,
    -0.9048969745635986,
    0.16115610301494598,
    0.30341434478759766,
    1.8609583377838135,
    -2.413977861404419,
    0.19463330507278442,
    0.25062063336372375,
    0.9901615977287292,
    -0.10474387556314468,
    1.4365822076797485,
    0.5842316150665283,
    -0.3664937913417816,
    0.35045358538627625,
    0.43924281001091003,
    -0.08036692440509796,
    -0.14918625354766846,
    -0.18479138612747192,
    0.27489084005355835,
    0.4336193799972534,
    1.2665495872497559,
    -0.2708527445793152,
    -0.2322591096162796,
    0.327320396900177,
    -0.017593177035450935,
    -0.10978755354881287,
    -0.001192597090266645,
    0.11223161220550537,
    -0.7009292244911194,
    -0.5915312170982361,
    -0.3242385685443878,
    0.13659046590328217,
    -0.2100338637828827,
    -0.051226019859313965,
    -1.439001202583313,
    0.04130663722753525,
    -1.745045781135559,
    -0.19758909940719604,
    -0.24215167760849,
    0.7909273505210876,
    0.48684340715408325,
    -0.6509160995483398,
    -0.7273768186569214,
    -0.5372631549835205,
    -0.14250874519348145,
    -0.7166149020195007,
    0.3860447406768799,
    -0.13287854194641113,
    -9.851364302448928e-05,
    -0.5462242364883423,
    0.8687884211540222,
    0.774562418460846,
    0.6953953504562378,
    -0.06239816173911095,
    -0.4825330376625061,
    0.8192400336265564,
    0.1664978414773941,
    0.23004329204559326,
    -0.7275580167770386,
    0.11903606355190277,
    -0.02467876300215721,
    -0.20447584986686707,
    -0.898102879524231,
    -0.21944168210029602,
    -0.33885136246681213,
    -0.3890210688114166,
    -0.028682151809334755,
    0.7026538848876953,
    0.5593954920768738,
    -0.6876288652420044,
    0.7084812521934509,
    0.08839336037635803,
    -0.4107692241668701,
    1.3404223918914795,
    0.42079776525497437,
    -0.22551694512367249,
    -0.8947024941444397,
    -0.29131653904914856,
    -1.2596030235290527,
    -0.361564576625824,
    -0.718903124332428,
    0.3943575322628021,
    -0.7394292950630188,
    1.0764939785003662,
    0.5131319761276245,
    -0.21059201657772064,
    -0.480469286441803,
    -0.2663266360759735,
    -0.5064672827720642,
    -0.6002328991889954,
    -0.1831343173980713,
    0.41932907700538635,
    -0.637873649597168,
    0.3339745104312897,
    -0.6059768795967102,
    -0.6384298801422119,
    0.13155314326286316,
    -0.33280614018440247,
    -0.41108036041259766,
    0.7710428833961487,
    -0.2668478786945343,
    0.30713316798210144,
    0.1071585938334465,
    0.6877000331878662,
    -0.8855546712875366,
    -0.5851309299468994,
    0.6475303769111633,
    -0.6581311821937561,
    -1.4844146966934204,
    0.26471513509750366,
    -0.9949512481689453,
    -0.8539757132530212,
    -0.54071444272995,
    -0.37392526865005493,
    2.77211856842041,
    0.8451815247535706,
    1.4184796810150146,
    -0.3570737838745117,
    0.49710267782211304,
    -0.5108901262283325,
    2.133042335510254,
    -0.1929677277803421,
    -1.0873523950576782,
    0.10903986543416977,
    -1.1296461820602417,
    -0.13927076756954193,
    -1.941047191619873,
    -0.4706824719905853,
    -1.2666703462600708,
    -1.4357255697250366,
    -1.0030581951141357,
    0.42038801312446594,
    -1.2219822406768799,
    0.36597511172294617,
    0.3301101624965668,
    -1.161570429801941,
    -0.14386765658855438,
    -2.422086715698242,
    -0.6372838020324707,
    -0.5348090529441833,
    0.15128502249717712,
    -0.08385201543569565,
    0.2780306339263916,
    -0.7366363406181335,
    0.2171640247106552,
    0.03104483149945736,
    -0.184988334774971,
    0.36464565992355347,
    -0.1230698749423027,
    -0.5203940868377686,
    0.4531680941581726,
    0.5424081683158875,
    0.1281210333108902,
    -0.08254316449165344,
    0.3024944067001343,
    0.006739753298461437,
    0.03256795555353165,
    -1.3303182125091553,
    0.03391974791884422,
    0.12412922084331512,
    0.03778722137212753,
    -0.9193141460418701,
    -2.1718971729278564,
    -2.231121301651001,
    -0.5184456706047058,
    -1.60658597946167,
    -0.47807610034942627,
    -0.10763220489025116,
    1.1431005001068115,
    -0.6841983795166016,
    -0.14651581645011902,
    0.3419245183467865,
    -0.23240654170513153,
    0.2408151924610138,
    -0.3972073197364807,
    -0.25305336713790894,
    -0.4277123808860779,
    -0.26956427097320557,
    -0.46360331773757935,
    1.3120733499526978,
    0.6246803402900696,
    -0.42017969489097595,
    -0.2711639404296875,
    0.4397834241390228,
    -0.06325230002403259,
    -0.2518375515937805,
    0.03566903993487358,
    0.15962272882461548,
    -1.3009384870529175,
    -0.14226792752742767,
    -0.8413256406784058,
    0.8349338173866272,
    -0.8625329732894897,
    0.4422106444835663,
    0.12192261219024658,
    2.940152406692505,
    1.0517319440841675,
    -0.039937298744916916,
    0.36959582567214966,
    0.25121599435806274,
    -0.9908690452575684,
    1.1534031629562378,
    -0.5511382222175598,
    0.0266300980001688,
    0.23963287472724915,
    0.45998454093933105,
    0.1829761415719986,
    0.17829343676567078,
    0.3701944649219513,
    -0.295195072889328,
    -0.03852390497922897,
    -1.1313825845718384,
    0.471428781747818,
    -0.6094982624053955,
    -0.28680336475372314,
    -0.43025100231170654,
    -0.060449544340372086,
    0.10924259573221207,
    -0.20412428677082062,
    -0.29251646995544434,
    -0.010618693195283413,
    0.3643565773963928,
    -0.48246923089027405,
    -0.4049421548843384,
    0.04918983578681946,
    -0.391797810792923,
    0.1999966949224472,
    0.2784251272678375,
    0.5952236652374268,
    0.12617452442646027,
    0.1327366679906845,
    0.419488787651062,
    -0.020918887108564377,
    -0.27438274025917053,
    0.3155075013637543,
    0.6421822905540466,
    -0.32718154788017273,
    -0.10122878104448318,
    -0.09190052002668381,
    0.05110561475157738,
    -0.2719857692718506,
    0.3537657856941223,
    -0.22991712391376495,
    -0.11823667585849762,
    0.23562303185462952,
    -0.13982021808624268,
    -0.7650448679924011,
    -0.16352516412734985,
    -0.731187105178833,
    -0.2987707853317261,
    -0.9243660569190979,
    1.1556899547576904,
    0.33409935235977173,
    -0.9308990836143494,
    -0.5341640710830688,
    -1.0003275871276855,
    -0.19991986453533173,
    -0.13132250308990479,
    1.5563606023788452,
    -0.049268096685409546,
    -0.34884706139564514,
    -0.8640748858451843,
    -1.7797410488128662,
    0.21901145577430725,
    0.47601616382598877,
    1.185604453086853,
    0.9903963208198547,
    0.30587857961654663,
    -0.42972829937934875,
    -0.05899287760257721,
    0.17082007229328156,
    -0.3752969801425934,
    -0.6879388689994812,
    0.3409847617149353,
    0.3160824775695801,
    -0.014667907729744911,
    0.2757128179073334,
    -0.42478886246681213,
    -0.2404455989599228,
    -0.19983798265457153,
    -0.21906515955924988,
    -0.005490256007760763,
    0.821468710899353,
    1.1755777597427368,
    -0.09540913999080658,
    -0.07654006034135818,
    -0.15096694231033325,
    -0.04795458912849426,
    0.2207656353712082,
    0.15444225072860718,
    -0.05127263069152832,
    -0.011021176353096962,
    -0.1218852624297142,
    -0.2567616403102875,
    0.29623648524284363,
    -0.005275618750602007,
    0.22271662950515747,
    -0.10035250335931778,
    -0.05830588936805725,
    -0.22823841869831085,
    -0.18204855918884277,
    0.18872259557247162,
    -0.3337302803993225,
    0.1545030027627945,
    0.05823305621743202,
    0.9644670486450195,
    -0.027272943407297134,
    0.04053020477294922,
    -0.1339510828256607,
    -0.02548663690686226,
    0.006258636247366667,
    -0.1291549950838089,
    0.3469001352787018,
    -0.07709632813930511,
    -0.05477780103683472,
    0.31717410683631897,
    0.2729789614677429,
    -0.5108295679092407,
    -0.08101958781480789,
    0.7075107097625732,
    0.04648763686418533,
    0.34239891171455383,
    -0.30573779344558716,
    0.34578418731689453,
    -0.203990176320076,
    0.45660942792892456,
    -0.06837281584739685,
    -0.2640121579170227,
    0.025529960170388222,
    0.2049321085214615,
    0.12511323392391205,
    0.08627289533615112,
    0.05477964133024216,
    0.7351701855659485,
    -0.24080605804920197,
    0.08474820852279663,
    0.26020294427871704,
    0.11575042456388474,
    0.4125269055366516,
    -0.044878583401441574,
    0.15791800618171692,
    -0.029769720509648323,
    0.058863066136837006,
    0.1041463315486908,
    0.3938646614551544,
    0.04583802819252014,
    0.1595745086669922,
    -0.7356691956520081,
    0.019185006618499756,
    -0.2604164779186249,
    0.29795682430267334,
    -0.8361853361129761,
    -0.11203362792730331,
    -0.0185245368629694,
    0.3437660336494446,
    0.08020849525928497,
    -0.5596205592155457,
    -0.40756121277809143,
    -0.5519430637359619,
    0.2651195526123047,
    0.16606833040714264,
    -0.41359180212020874,
    -0.18744221329689026,
    0.09222458302974701,
    0.29902875423431396,
    0.7365833520889282,
    0.4160650968551636,
    0.41323062777519226,
    0.4238937199115753,
    0.49067631363868713,
    0.21411526203155518,
    -0.15039178729057312,
    -0.5833126306533813,
    0.39148202538490295,
    -0.577643096446991,
    0.14741916954517365,
    -0.2698312997817993,
    -0.27148324251174927,
    -0.4628051817417145,
    -0.0984066054224968,
    0.04167475178837776,
    0.08955688029527664,
    -0.24149182438850403,
    -0.36485788226127625,
    -0.11987736076116562,
    -0.21695993840694427,
    0.039465390145778656,
    -0.14057449996471405,
    -0.33465775847435,
    -0.2756134271621704,
    -0.016882557421922684,
    -0.2366395890712738,
    -0.10465461015701294,
    0.45681142807006836,
    -0.08259247988462448,
    -0.08938867598772049,
    0.5465857982635498,
    0.1783580631017685,
    -0.06168194115161896,
    0.22434034943580627,
    0.5077224373817444,
    0.25061461329460144,
    0.8401735424995422,
    0.043856430798769,
    -0.08495751023292542,
    0.22457963228225708,
    -0.3240342438220978,
    0.046074386686086655,
    -0.1999434381723404,
    0.12047107517719269,
    -0.3744945824146271,
    -0.3237423002719879,
    -0.41161593794822693,
    -0.3597162067890167,
    -0.8644140958786011,
    -0.8381586074829102,
    -1.1582001447677612,
    -0.2960546910762787,
    -0.29312580823898315,
    -0.13178026676177979,
    -0.49378257989883423,
    0.41251087188720703,
    1.1527498960494995,
    0.16306659579277039,
    -0.39374223351478577,
    -1.4934940338134766,
    0.09237177670001984,
    -0.24236561357975006,
    -0.1074962466955185,
    -0.9010328650474548,
    0.14596447348594666,
    0.12523385882377625,
    0.14574071764945984,
    0.011325322091579437,
    -0.26695767045021057,
    -0.0017470433376729488,
    0.17122423648834229,
    -0.21788877248764038,
    0.29061537981033325,
    0.06587027758359909,
    0.17561274766921997,
    0.03687996417284012,
    -0.35972800850868225,
    -0.16087771952152252,
    0.7596652507781982,
    -0.6337648034095764,
    0.46657735109329224,
    -0.5629109144210815,
    0.4492779076099396,
    0.5230343341827393,
    -0.8772285580635071,
    0.013850909657776356,
    -1.404290795326233,
    -0.38331857323646545,
    0.3370262086391449,
    0.5044771432876587,
    -0.9283370971679688,
    0.2833183705806732,
    0.29123634099960327,
    0.001682219561189413,
    0.07733219116926193,
    -0.19176612794399261,
    -0.6549400687217712,
    -0.16735076904296875,
    0.6910321116447449,
    -0.14863751828670502,
    0.15843798220157623,
    0.05954276770353317,
    -0.07735519856214523,
    -0.2512096166610718,
    -0.5306003093719482,
    -0.0757393017411232,
    0.5792067050933838,
    -0.09468179941177368,
    -0.01503816433250904,
    -0.07099147886037827,
    0.08191841840744019,
    0.500600278377533,
    -0.32182013988494873,
    -0.43469303846359253,
    0.245067298412323,
    -0.3165893256664276,
    0.11891983449459076,
    -0.0435202419757843,
    -0.37513384222984314,
    -0.23343177139759064,
    0.3487177789211273,
    -0.06514507532119751,
    0.37688156962394714,
    -0.09680932015180588,
    -0.6070873141288757,
    -0.43483591079711914,
    0.10876994580030441,
    0.28506776690483093,
    0.2232769876718521,
    -0.09973832964897156,
    0.4971263110637665,
    -0.02674776501953602,
    -1.2201719284057617,
    0.04531358554959297,
    -0.4880751371383667,
    -0.5224595069885254,
    0.24688558280467987,
    0.051726870238780975,
    0.15947167575359344,
    -0.2642262578010559,
    0.8229014873504639,
    0.7910261750221252,
    0.3255190849304199,
    -0.06517516076564789,
    0.6643992066383362,
    1.8245134353637695,
    0.2947802245616913,
    0.5512819886207581,
    -0.12843060493469238,
    0.32638099789619446,
    0.42728307843208313,
    1.2462888956069946,
    1.0314722061157227,
    0.5209848880767822,
    -0.16586679220199585,
    -0.533139705657959,
    -0.4983524680137634
  ],
  "gru_weight_hh": [
    0.2885628938674927,
    -0.7958394289016724,
    1.52534818649292,
    0.19453677535057068,
    1.4214597940444946,
    0.9876366257667542,
    -0.627220094203949,
    0.6610371470451355,
    0.45166251063346863,
    0.7678718566894531,
    2.023540496826172,
    1.0250674486160278,
    -1.0122356414794922,
    1.1421400308609009,
    -0.6454973220825195,
    0.2496204525232315,
    0.4563967287540436,
    1.1307600736618042,
    0.8971318602561951,
    -0.21083885431289673,
    -1.3547887802124023,
    -0.25549522042274475,
    0.2708987593650818,
    -0.9405198693275452,
    0.24187622964382172,
    1.0259060859680176,
    -0.1949901133775711,
    -0.7634230852127075,
    0.9331250786781311,
    -0.05429181084036827,
    -0.7828826308250427,
    -0.1334788054227829,
    -0.13226047158241272,
    0.34319624304771423,
    -0.9836452007293701,
    0.22602537274360657,
    0.18874581158161163,
    -0.44437187910079956,
    -0.36000344157218933,
    0.8348007798194885,
    -1.326393485069275,
    -0.9588003158569336,
    -1.3581312894821167,
    0.8020173907279968,
    -1.793695330619812,
    -1.3976773023605347,
    0.1507449895143509,
    -0.1685340851545334,
    -0.6466701030731201,
    0.3778527081012726,
    -0.7308192849159241,
    -1.0053892135620117,
    -0.8133180737495422,
    0.7735751867294312,
    0.286813884973526,
    -1.2546013593673706,
    -0.8397709131240845,
    -0.30388009548187256,
    -1.0480260848999023,
    0.3185904920101166,
    1.183392882347107,
    -2.1538796424865723,
    1.9696733951568604,
    -0.09785212576389313,
    -1.4651669263839722,
    -0.6250295042991638,
    0.8690282106399536,
    0.2752111852169037,
    -0.390901654958725,
    -0.6037567257881165,
    -1.2545523643493652,
    -0.9635909795761108,
    0.039967406541109085,
    0.1329101026058197,
    1.3388944864273071,
    0.6494417190551758,
    1.049914836883545,
    0.3120194375514984,
    0.7952749729156494,
    0.596706748008728,
    -0.923575758934021,
    1.3277710676193237,
    -1.079674482345581,
    -1.0311554670333862,
    -0.9353687763214111,
    -2.4554858207702637,
    -0.30512765049934387,
    -0.34165865182876587,
    -0.5923633575439453,
    0.5759156942367554,
    -1.2686123847961426,
    1.298793911933899,
    0.5876505970954895,
    2.2336814403533936,
    -0.6783460378646851,
    -2.0765907764434814,
    0.645768940448761,
    -1.0445575714111328,
    1.8382881879806519,
    -2.3609206676483154,
    1.7487373352050781,
    0.905544102191925,
    -1.1040421724319458,
    -1.7384401559829712,
    0.5413411855697632,
    -0.9774717688560486,
    -0.07379055768251419,
    0.22485236823558807,
    -1.7732882499694824,
    -0.933770477771759,
    -1.3458576202392578,
    -1.0026230812072754,
    -1.9829440116882324,
    0.07534471899271011,
    0.5742834210395813,
    -0.40278899669647217,
    0.8044102787971497,
    -0.7433621883392334,
    1.0065014362335205,
    0.42288827896118164,
    -0.5486965179443359,
    -0.6683525443077087,
    0.3442171812057495,
    -0.2783612906932831,
    -0.9736593961715698,
    -0.6658732295036316,
    -0.5247920751571655,
    -0.547730028629303,
    -0.3625386655330658,
    -2.485292673110962,
    1.947182297706604,
    -0.11160201579332352,
    0.4005650579929352,
    1.2723113298416138,
    -1.168256402015686,
    -1.395621418952942,
    -1.5828930139541626,
    -0.008107943460345268,
    -0.57725590467453,
    0.45843392610549927,
    1.683119773864746,
    -1.4675003290176392,
    -1.268690586090088,
    1.0386408567428589,
    -0.3914375901222229,
    1.1769980192184448,
    2.293177366256714,
    0.912280261516571,
    -0.09243236482143402,
    -1.1996526718139648,
    0.55363929271698,
    0.36346808075904846,
    2.014394521713257,
    0.461469829082489,
    2.3036394119262695,
    -0.04463152959942818,
    1.5667418241500854,
    -1.987025499343872,
    0.2804717421531677,
    0.7310118675231934,
    -0.15427745878696442,
    0.1940084546804428,
    0.6540722846984863,
    -0.03956785425543785,
    -0.08605995029211044,
    0.13761799037456512,
    -0.22306862473487854,
    0.1848200559616089,
    -0.5833149552345276,
    -0.24306201934814453,
    0.1584932506084442,
    0.5783510804176331,
    0.09468236565589905,
    -0.056289855390787125,
    -0.2085050344467163,
    -0.012107820250093937,
    0.6660783290863037,
    0.17386776208877563,
    -0.15564113855361938,
    1.140323519706726,
    -1.4983060359954834,
    0.9283730983734131,
    -0.32343295216560364,
    -2.055662155151367,
    0.6130546927452087,
    -1.421776294708252,
    -0.44948524236679077,
    -0.2581747770309448,
    1.9646657705307007,
    -0.9104331135749817,
    0.11818928271532059,
    -0.07723139971494675,
    1.469215989112854,
    -1.7714054584503174,
    0.7553182244300842,
    -0.9614900350570679,
    -1.069279432296753,
    -0.0857846662402153,
    1.6885122060775757,
    -0.7028260827064514,
    1.5231354236602783,
    0.10007073730230331,
    -1.689271330833435,
    -0.8253093957901001,
    1.1063581705093384,
    -1.6694670915603638,
    1.3473033905029297,
    -0.6826728582382202,
    -1.6340793371200562,
    -1.5141664743423462,
    1.3469207286834717,
    -0.6164407730102539,
    -1.5819835662841797,
    0.5468523502349854,
    -1.2246981859207153,
    0.12115227431058884,
    -0.07272302359342575,
    0.3366241157054901,
    -0.9977413415908813,
    1.5440341234207153,
    -2.0000054836273193,
    0.18515336513519287,
    0.09193916618824005,
    -0.15374422073364258,
    0.43662509322166443,
    -0.2812218964099884,
    1.031506896018982,
    -0.1633785218000412,
    0.405720978975296,
    0.4248445928096771,
    0.9854907393455505,
    -0.41543659567832947,
    -0.3575785160064697,
    0.035217393189668655,
    0.24304422736167908,
    -0.463176429271698,
    -0.2576954960823059,
    0.6223806142807007,
    -0.4771870970726013,
    0.2662770748138428,
    -1.010103464126587,
    0.7088325023651123,
    -1.9975452423095703,
    0.5020884275436401,
    0.968048632144928,
    -1.4594813585281372,
    -1.1839746236801147,
    0.3404250144958496,
    -1.151094913482666,
    -0.34440866112709045,
    -1.0237482786178589,
    0.9184974431991577,
    1.4307992458343506,
    -0.00486867967993021,
    1.321390151977539,
    -0.873553454875946,
    -1.6825348138809204,
    -0.49097302556037903,
    0.43028026819229126,
    0.03372059017419815,
    0.22510996460914612,
    0.8939936757087708,
    -0.18605376780033112,
    0.24375371634960175,
    -0.5793774127960205,
    0.22997073829174042,
    0.1829891949892044,
    -0.6735100746154785,
    0.823675274848938,
    0.04142384976148605,
    0.7867873907089233,
    -0.8371343612670898,
    -0.3621554672718048,
    -0.6687293648719788,
    -0.2552124857902527,
    0.038878049701452255,
    -1.5687483549118042,
    -0.9110071063041687,
    2.0778934955596924,
    1.0868910551071167,
    0.8216137290000916,
    -0.1289447695016861,
    0.3341769278049469,
    -1.029860019683838,
    0.8694626688957214,
    2.387195348739624,
    0.11249575763940811,
    -0.9100484251976013,
    0.7433078289031982,
    0.12670275568962097,
    0.7947888970375061,
    -0.18059156835079193,
    1.1443437337875366,
    -0.5422709584236145,
    -0.20081526041030884,
    0.5275202989578247,
    0.28217488527297974,
    0.1503620147705078,
    -0.4757896065711975,
    0.17632582783699036,
    0.3546856939792633,
    0.3863084614276886,
    -0.6128256916999817,
    -0.5117226243019104,
    0.9975147247314453,
    0.8637837171554565,
    0.26672327518463135,
    -0.16623105108737946,
    -0.25075241923332214,
    0.2087201029062271,
    -1.4825913906097412,
    -0.9296973347663879,
    0.40937498211860657,
    -0.7188800573348999,
    -0.19389399886131287,
    0.40195801854133606,
    1.1610190868377686,
    -2.099935293197632,
    -1.0018467903137207,
    0.3067725896835327,
    -0.4539795219898224,
    -0.09461168944835663,
    -1.336935043334961,
    0.19810977578163147,
    0.8154323101043701,
    -0.2722999155521393,
    0.7664129137992859,
    0.5890887975692749,
    0.4927596151828766,
    1.5641045570373535,
    0.06755194813013077,
    0.7510912418365479,
    -0.06746344268321991,
    1.626911997795105,
    0.6547664999961853,
    -0.07508333027362823,
    -1.152359962463379,
    -0.5965650677680969,
    0.08222732692956924,
    0.2074684351682663,
    0.611379861831665,
    -0.32067182660102844,
    -0.37363651394844055,
    -0.17830508947372437,
    0.7535595297813416,
    -0.6093870997428894,
    0.7609803676605225,
    -0.04088405892252922,
    -0.7844114303588867,
    -0.3953339159488678,
    -0.23689131438732147,
    -0.9991204738616943,
    1.1392297744750977,
    0.8613025546073914,
    0.6098692417144775,
    0.13678720593452454,
    1.7130669355392456,
    1.0227855443954468,
    0.7369800806045532,
    -0.468783974647522,
    -0.16488321125507355,
    -0.7673470377922058,
    0.14811570942401886,
    -0.12386804819107056,
    -1.2585370540618896,
    -0.43557655811309814,
    -1.3750041723251343,
    -0.27050596475601196,
    -1.5112512111663818,
    0.5980489253997803,
    0.15823453664779663,
    0.2525269389152527,
    0.23841582238674164,
    1.705234408378601,
    1.9647400379180908,
    0.3998444378376007,
    -1.1729165315628052,
    1.6702580451965332,
    1.376188039779663,
    -0.5264601707458496,
    1.5972646474838257,
    0.4577253460884094,
    -0.14753444492816925,
    -2.7196991443634033,
    0.11037362366914749,
    -0.012293298728764057,
    -0.5888378024101257,
    0.9934608340263367,
    0.5500327348709106,
    -0.0446089431643486,
    0.24640436470508575,
    -0.562355101108551,
    0.961024820804596,
    -0.1752336025238037,
    -1.0884684324264526,
    -0.3316231369972229,
    -0.6519118547439575,
    -0.24778006970882416,
    -0.9594082236289978,
    -0.05792534351348877,
    1.1868853569030762,
    -0.6805091500282288,
    0.07991588860750198,
    0.3360536992549896,
    0.26828858256340027,
    1.463300108909607,
    -1.5103150606155396,
    0.8242124319076538,
    -1.191706657409668,
    0.2222646325826645,
    -0.8587620258331299,
    1.1050821542739868,
    -0.11593998968601227,
    -0.6995939016342163,
    0.2024775594472885,
    1.0001262426376343,
    0.019834663718938828,
    0.019963916391134262,
    0.675991415977478,
    -0.03210090100765228,
    0.013454025611281395,
    0.3399626314640045,
    0.32249557971954346,
    0.0596676729619503,
    -0.32069867849349976,
    0.09541802108287811,
    1.1143871545791626,
    0.964674711227417,
    -0.09875364601612091,
    -0.2633795440196991,
    -0.23006471991539001,
    0.14370626211166382,
    1.9203389883041382,
    -0.05789681896567345,
    1.1061245203018188,
    1.4563368558883667,
    2.135453939437866,
    0.0487888939678669,
    -2.3397574424743652,
    -1.368624210357666,
    -1.3943978548049927,
    -0.4031372666358948,
    -0.40819451212882996,
    2.2805609703063965,
    0.6387853622436523,
    0.7894418835639954,
    2.57263445854187,
    1.544034481048584,
    0.0048823789693415165,
    -0.12353945523500443,
    0.7200286388397217,
    0.3220636248588562,
    -0.6358299255371094,
    0.18925563991069794,
    0.23314763605594635,
    0.13004809617996216,
    0.16076938807964325,
    0.91124027967453,
    0.04099220782518387,
    -0.6303610801696777,
    -0.39582645893096924,
    0.202371746301651,
    -0.042912665754556656,
    0.45846641063690186,
    0.02780725434422493,
    -0.019453778862953186,
    -0.054133009165525436,
    -0.10309067368507385,
    0.22446365654468536,
    -0.6157855987548828,
    0.1529066264629364,
    -0.09460742026567459,
    -0.03648551553487778,
    -0.5558153390884399,
    0.7372490167617798,
    0.44920602440834045,
    -0.08315004408359528,
    -0.07486391812562943,
    0.33407923579216003,
    0.13321426510810852,
    0.47382670640945435,
    0.03697583079338074,
    0.5079742670059204,
    -0.21359878778457642,
    -0.2770346701145172,
    -0.1510860025882721,
    -0.40731775760650635,
    -0.017378346994519234,
    0.3431224524974823,
    -0.3188592791557312,
    -0.31994420289993286,
    0.6328372359275818,
    -0.34137582778930664,
    -0.3046412169933319,
    -0.7000499367713928,
    -0.16701072454452515,
    0.7475987672805786,
    0.9796572923660278,
    -0.8910096883773804,
    1.1019483804702759,
    0.3261549472808838,
    0.11812318116426468,
    -0.7651417255401611,
    -1.2088104486465454,
    0.4454956352710724,
    0.18566469848155975,
    -0.6837563514709473,
    1.7296509742736816,
    0.9876558780670166,
    -0.16178210079669952,
    1.2244462966918945,
    1.804790735244751,
    -0.08429775387048721,
    -1.006624460220337,
    0.23397955298423767,
    0.33885249495506287,
    -0.3883815407752991,
    0.593528151512146,
    -0.2625741958618164,
    0.006625597830861807,
    -0.021715115755796432,
    -0.21463584899902344,
    -0.5090479254722595,
    -0.9473863244056702,
    0.7217652797698975,
    -0.5198071599006653,
    0.544061541557312,
    -0.26035499572753906,
    0.6341376304626465,
    -1.890238642692566,
    0.5929490327835083,
    0.3172260820865631,
    1.1182687282562256,
    0.19903503358364105,
    -0.3952094316482544,
    -0.7743221521377563,
    0.42527148127555847,
    -0.4420863389968872,
    -0.453170508146286,
    -0.1904451549053192,
    0.14477837085723877,
    0.42993971705436707,
    0.14742998778820038,
    -0.7768967747688293,
    0.25768759846687317,
    -0.23685234785079956,
    -0.7110471725463867,
    0.3080623745918274,
    -0.45250728726387024,
    0.020612971857190132,
    -0.2594083249568939,
    0.035127267241477966,
    -0.18817855417728424,
    -0.10082770138978958,
    -0.6792663931846619,
    0.2766195833683014,
    -0.4501987397670746,
    0.20769871771335602,
    0.3643823564052582,
    -0.24910584092140198,
    -0.03813888132572174,
    -1.0479789972305298,
    -1.3945449590682983,
    -1.2761566638946533,
    -0.16994456946849823,
    1.2623906135559082,
    -0.9691780209541321,
    1.852857232093811,
    -1.9976555109024048,
    1.2332746982574463,
    -1.7016655206680298,
    0.6431198120117188,
    -0.5519031882286072,
    1.2814817428588867,
    -0.0477975457906723,
    -1.3393808603286743,
    -0.5827820897102356,
    -0.9091176986694336,
    -0.5312480330467224,
    0.2511294186115265,
    -0.1530846506357193,
    -0.5960156321525574,
    0.22914712131023407,
    -0.22981730103492737,
    -0.7363390326499939,
    0.35520023107528687,
    1.5337085723876953,
    0.5205021500587463,
    -0.34476158022880554,
    -0.6220642328262329,
    0.6677389144897461,
    -0.10130231827497482,
    0.047090236097574234,
    0.6811501979827881,
    1.4115066528320312,
    -0.47743770480155945,
    1.0394480228424072,
    -0.15297839045524597,
    0.14499004185199738,
    -0.24946492910385132,
    0.6288082003593445,
    -0.4556947946548462,
    -0.5283368229866028,
    0.5906119346618652,
    -0.14456243813037872,
    1.4090304374694824,
    -0.06889735907316208,
    0.28700268268585205,
    -0.6543356776237488,
    0.21177926659584045,
    -2.915320873260498,
    0.5780291557312012,
    -0.6229137182235718,
    -1.3250446319580078,
    -0.28068482875823975,
    0.496822714805603,
    -2.046128034591675,
    1.8193973302841187,
    0.045751120895147324,
    -1.1666221618652344,
    -1.0227857828140259,
    -0.6897112131118774,
    0.3149610161781311,
    -1.131717562675476,
    0.6662623882293701,
    -1.1270350217819214,
    0.5164743065834045,
    -0.09163418412208557,
    0.6246975660324097,
    0.4565584659576416,
    0.03508567810058594,
    -1.122265100479126,
    1.000712513923645,
    0.40288496017456055,
    -0.15320990979671478,
    -0.22075819969177246,
    -0.036801405251026154,
    -0.131837397813797,
    0.6993167996406555,
    0.21058902144432068,
    0.9694730043411255,
    2.3174095153808594,
    0.5465466380119324,
    1.4639852046966553,
    0.9263516664505005,
    -0.1149243637919426,
    -0.13217993080615997,
    0.3468092083930969,
    -0.8778100609779358,
    -0.8748984932899475,
    -2.1648924350738525,
    0.9177353382110596,
    -1.0144153833389282,
    -1.7629786729812622,
    0.08040296286344528,
    0.4389187693595886,
    -1.6519461870193481,
    0.9377642869949341,
    1.0613163709640503,
    -0.03819219395518303,
    0.32748836278915405,
    -1.6098430156707764,
    -0.3771999180316925,
    -0.8304325342178345,
    0.9676132798194885,
    -1.100339412689209,
    -0.27949726581573486,
    -0.12337831407785416,
    -1.870818018913269,
    0.9297403693199158,
    -1.0415517091751099,
    -0.2803255617618561,
    1.1098887920379639,
    0.0487675704061985,
    0.43668073415756226,
    0.2135724574327469,
    0.02018437534570694,
    0.3488059937953949,
    -0.12850336730480194,
    0.1496887505054474,
    0.8949049711227417,
    -0.0728633925318718,
    -1.2771084308624268,
    0.21148598194122314,
    0.07537984102964401,
    -0.2336418479681015,
    -0.7777393460273743,
    0.06132833659648895,
    -1.0877304077148438,
    -0.7116049528121948,
    0.4968823790550232,
    0.3596593737602234,
    -0.11941386014223099,
    -0.08229934424161911,
    -0.19770894944667816,
    -0.11187436431646347,
    0.2549315094947815,
    -0.15221379697322845,
    0.8926257491111755,
    -1.1698486804962158,
    -0.9868289232254028,
    -1.090482473373413,
    -0.8702924251556396,
    0.3883637487888336,
    0.7907425165176392,
    0.17328602075576782,
    -0.25520479679107666,
    0.6393746733665466,
    0.7260955572128296,
    1.3095602989196777,
    0.550232470035553,
    0.63899165391922,
    -0.15864984691143036,
    -0.6018272638320923,
    -0.8274103999137878,
    -0.7546707987785339,
    -0.7224825620651245,
    0.7704854011535645,
    1.1066763401031494,
    0.07250981032848358,
    0.8754950165748596,
    -0.12024899572134018,
    -0.4512321949005127,
    0.28261131048202515,
    0.1675640493631363,
    -0.8039688467979431,
    0.12165023386478424,
    -0.6435566544532776,
    0.1408717930316925,
    -0.3660539984703064,
    0.5626804828643799,
    -0.01810697466135025,
    -1.0182249546051025,
    -0.6931895613670349,
    0.043275803327560425,
    0.05180826783180237,
    -0.8916653990745544,
    -0.11299386620521545,
    -1.5578362941741943,
    0.20085352659225464,
    -0.8767495155334473,
    0.4458829164505005,
    -0.399862140417099,
    0.6019157767295837,
    0.500988781452179,
    0.4650345742702484,
    2.4929964542388916,
    0.22019335627555847,
    1.4140857458114624,
    -0.5113916397094727,
    -2.2534821033477783,
    0.19671665132045746,
    -0.4740832448005676,
    -0.9138378500938416,
    0.8162246346473694,
    0.3022853434085846,
    1.1491929292678833,
    -1.357673168182373,
    -1.9061106443405151,
    -1.2761460542678833,
    -0.5976371765136719,
    0.26533883810043335,
    0.8427563905715942,
    1.881181001663208,
    -0.24937717616558075,
    -0.4692794680595398,
    -0.6191564798355103,
    -0.8478655815124512
  ],
  "gru_bias_ih": [
    1.4892982244491577,
    -1.5071237087249756,
    -0.3156077563762665,
    -0.13066522777080536,
    1.2564750909805298,
    0.1872880756855011,
    -0.037253253161907196,
    -0.5590545535087585,
    -0.1823636144399643,
    -1.1315793991088867,
    0.10239604115486145,
    0.9664373993873596,
    -1.5736035108566284,
    1.8326536417007446,
    -0.084846630692482,
    0.44470900297164917,
    -0.11761020869016647,
    -1.0345733165740967,
    -1.3923921585083008,
    -0.5220855474472046,
    -0.7573454976081848,
    -0.35598766803741455,
    -1.9695549011230469,
    -1.9456772804260254,
    0.4477502107620239,
    1.8862583637237549,
    -0.5191812515258789,
    2.084989309310913,
    0.6266533732414246,
    -0.586200475692749,
    0.9845937490463257,
    3.177663803100586,
    0.08313455432653427,
    -0.10927219688892365,
    -0.19190455973148346,
    -0.0267239548265934,
    0.08307171612977982,
    -0.1788690835237503,
    -1.9126206636428833,
    0.25475698709487915,
    -1.264255404472351,
    -0.3846122622489929,
    0.05572238564491272,
    1.0181695222854614,
    -0.12770995497703552,
    0.12409315258264542,
    0.2929982542991638,
    -1.2870962619781494
  ],
  "gru_bias_hh": [
    1.1141667366027832,
    -1.546918511390686,
    0.03554330766201019,
    0.09225866198539734,
    1.539150357246399,
    0.2761279046535492,
    0.3468542695045471,
    -0.7299641966819763,
    0.14020602405071259,
    -1.2266488075256348,
    0.1136840358376503,
    1.011674165725708,
    -1.4337998628616333,
    2.041041851043701,
    -0.45671218633651733,
    0.6195030212402344,
    -0.3177451491355896,
    -1.1105985641479492,
    -1.631063461303711,
    -0.6633967161178589,
    -0.7654419541358948,
    -0.3118739128112793,
    -2.071521282196045,
    -2.1218245029449463,
    0.7681429982185364,
    1.9666458368301392,
    -0.5711695551872253,
    2.2218050956726074,
    0.708834707736969,
    -0.6331896781921387,
    1.2044968605041504,
    3.1746535301208496,
    -0.8159481883049011,
    -0.33166825771331787,
    -0.11582955718040466,
    0.9918778538703918,
    -0.02957240119576454,
    0.5716439485549927,
    -0.47745800018310547,
    0.004652615636587143,
    0.22315546870231628,
    0.2921205759048462,
    0.1357298493385315,
    1.8288204669952393,
    -0.8785427808761597,
    0.285366028547287,
    0.2393958866596222,
    0.3837241232395172
  ],
  "example_input": [
    -1.0,
    -0.931034505367279,
    -0.8620689511299133,
    -0.7931034564971924,
    -0.7241379022598267,
    -0.6551724076271057,
    -0.5862069129943848,
    -0.517241358757019,
    -0.4482758641242981,
    -0.37931033968925476,
    -0.3103448152542114,
    -0.24137932062149048,
    -0.17241379618644714,
    -0.1034482792019844,
    -0.03448276221752167,
    0.03448276221752167,
    0.1034482792019844,
    0.17241379618644714,
    0.24137932062149048,
    0.3103448152542114,
    0.37931033968925476,
    0.4482758641242981,
    0.517241358757019,
    0.5862069129943848,
    0.6551724076271057,
    0.7241379022598267,
    0.7931034564971924,
    0.8620689511299133,
    0.931034505367279,
    1.0
  ],
  "example_output": [
    0.212975412607193,
    0.12459389865398407,
    0.3674028515815735,
    0.013085611164569855
  ],
  "checkpoint_name": "best_checkpoint_model_968.pt",
  "checkpoint_step": -1,
  "requires_obs_normalization": false,
  "compat_reset_output": [
    0.5846324563026428,
    0.7506816983222961,
    0.3442552089691162,
    0.937830924987793
  ],
  "compat_hover_output": [
    0.5846324563026428,
    0.7506816983222961,
    0.3442552089691162,
    0.937830924987793
  ],
  "export_format": "rl_tools_checkpoint_blob",
  "policy_distribution": "BetaDistribution",
  "action_output_transform": "beta_mean_sigmoid"
}