{
  "observation_dim": 35,
  "action_dim": 4,
  "structure": "mlp_gru",
  "rnn_type": "gru",
  "gru_input_dim": 16,
  "gru_hidden_dim": 16,
  "gru_num_layers": 1,
  "activation": "elu",
  "use_observation_normalization": false,
  "normalization_folded_into_first_layer": false,
  "observation_mean": [
    0.0,
    0.0,
    0.0,
    0.0,
    0.0,
    0.0,
    0.0,
    0.0,
    0.0,
    0.0,
    0.0,
    0.0,
    0.0,
    0.0,
    0.0,
    0.0,
    0.0,
    0.0,
    0.0,
    0.0,
    0.0,
    0.0,
    0.0,
    0.0,
    0.0,
    0.0,
    0.0,
    0.0,
    0.0,
    0.0,
    0.0,
    0.0,
    0.0,
    0.0,
    0.0
  ],
  "observation_inv_std": [
    1.0,
    1.0,
    1.0,
    1.0,
    1.0,
    1.0,
    1.0,
    1.0,
    1.0,
    1.0,
    1.0,
    1.0,
    1.0,
    1.0,
    1.0,
    1.0,
    1.0,
    1.0,
    1.0,
    1.0,
    1.0,
    1.0,
    1.0,
    1.0,
    1.0,
    1.0,
    1.0,
    1.0,
    1.0,
    1.0,
    1.0,
    1.0,
    1.0,
    1.0,
    1.0
  ],
  "actor_encoder_dims": [
    35,
    16,
    16
  ],
  "actor_encoder_activations": [
    "elu",
    "identity"
  ],
  "actor_head_dims": [
    16,
    4
  ],
  "actor_head_activations": [
    "identity"
  ],
  "actor_encoder_weights": [
    [
      -1.1776142120361328,
      -1.4079725742340088,
      -1.1952095031738281,
      -0.2537071108818054,
      -1.0701372623443604,
      -1.9183714389801025,
      0.49509286880493164,
      -0.15394999086856842,
      1.9634032249450684,
      2.0304181575775146,
      -1.0450798273086548,
      -0.12457223236560822,
      2.8197364807128906,
      -1.3338574171066284,
      0.1680983006954193,
      -0.5254691243171692,
      -0.08769514411687851,
      0.09912896156311035,
      0.6023683547973633,
      -0.5038480758666992,
      0.15867947041988373,
      -0.03898359462618828,
      -0.3548305928707123,
      -0.04037507623434067,
      -0.00896634254604578,
      -0.8401432633399963,
      0.19113942980766296,
      0.3344595432281494,
      -0.11140189319849014,
      -0.03298213332891464,
      -0.304501473903656,
      0.233653724193573,
      0.20131617784500122,
      0.7197463512420654,
      0.27847805619239807,
      -1.4731063842773438,
      1.3237093687057495,
      -0.6630887985229492,
      0.11526443809270859,
      0.6801908016204834,
      -0.4256739616394043,
      -1.0483473539352417,
      0.0739312395453453,
      0.8503460884094238,
      0.863958477973938,
      -0.06425252556800842,
      0.013310958631336689,
      -0.5837249755859375,
      1.0606316328048706,
      -0.03837929293513298,
      0.8008589148521423,
      0.6020948886871338,
      -0.7816206812858582,
      0.6998127102851868,
      -0.11920898407697678,
      -0.4723634719848633,
      -0.3826722800731659,
      -0.19599467515945435,
      0.1842166781425476,
      -0.15234751999378204,
      -0.38742801547050476,
      -0.010647840797901154,
      -0.89886075258255,
      -0.04663527011871338,
      0.9736069440841675,
      1.1428406238555908,
      0.23283684253692627,
      0.0798722505569458,
      -0.18974624574184418,
      0.025552455335855484,
      -2.076101779937744,
      6.649719715118408,
      -0.7283011674880981,
      0.18868687748908997,
      -0.5487275123596191,
      0.07322532683610916,
      0.43080824613571167,
      -0.11635376513004303,
      0.26262444257736206,
      -0.25208449363708496,
      -0.6273557543754578,
      0.10342570394277573,
      2.190457344055176,
      -2.9823319911956787,
      0.2969140410423279,
      -1.965409278869629,
      3.1912362575531006,
      -1.8837614059448242,
      0.10311806946992874,
      -0.214931458234787,
      -0.030212514102458954,
      -0.03628142178058624,
      0.021729551255702972,
      0.012894392013549805,
      -0.00251166895031929,
      -0.16489355266094208,
      0.14259672164916992,
      0.17022119462490082,
      -0.012586879543960094,
      -0.07811636477708817,
      -0.07980512827634811,
      0.07021117955446243,
      0.20700576901435852,
      0.07637491822242737,
      -0.0611136294901371,
      1.6087688207626343,
      -0.9512737393379211,
      0.6469523906707764,
      0.03996659815311432,
      2.9645168781280518,
      -0.1888650804758072,
      -3.583644151687622,
      -0.03911624848842621,
      -1.0088354349136353,
      0.3584492802619934,
      2.1894443035125732,
      -0.03201238438487053,
      0.4032285809516907,
      3.8407390117645264,
      0.0572948195040226,
      0.2395513504743576,
      -0.2428402155637741,
      -0.7115505337715149,
      0.5019976496696472,
      -0.3706941604614258,
      -1.0707544088363647,
      -0.31643998622894287,
      0.12382927536964417,
      -0.033892929553985596,
      0.12489630281925201,
      -0.6875858306884766,
      -0.11819406598806381,
      -0.012278879061341286,
      0.17577891051769257,
      0.12232700735330582,
      -0.4062991142272949,
      -0.14013558626174927,
      -0.029644949361681938,
      0.16722413897514343,
      -0.3526540994644165,
      2.35994029045105,
      -0.1285925954580307,
      1.2895764112472534,
      -0.10205482691526413,
      0.29433971643447876,
      0.3784778416156769,
      -0.70728999376297,
      0.0995282530784607,
      -0.993493914604187,
      -0.33678898215293884,
      0.822509765625,
      0.15950432419776917,
      -2.8568503856658936,
      0.8188585042953491,
      -0.15374718606472015,
      1.0332868099212646,
      -0.10334624350070953,
      1.0870381593704224,
      0.19643570482730865,
      0.38710135221481323,
      0.0321221686899662,
      -1.0341376066207886,
      -0.8259841799736023,
      -0.15650923550128937,
      -0.027674227952957153,
      -0.23554199934005737,
      0.5255482196807861,
      0.2262687087059021,
      -0.1502344012260437,
      -0.06292121857404709,
      -0.14859075844287872,
      -0.04512174800038338,
      0.15063060820102692,
      -0.01802101917564869,
      0.11582164466381073,
      -3.352907419204712,
      -3.172593355178833,
      0.397490531206131,
      0.043004874140024185,
      0.3493190109729767,
      -0.7395853400230408,
      -0.19154717028141022,
      -0.09435316920280457,
      -0.9817827343940735,
      0.9953845143318176,
      1.3724260330200195,
      0.05202783644199371,
      3.5491113662719727,
      3.959460735321045,
      -0.16226020455360413,
      -3.1326262950897217,
      -2.191964864730835,
      0.29432040452957153,
      0.3461606800556183,
      -0.5629892945289612,
      -0.4657597839832306,
      -0.001838385476730764,
      0.04576766490936279,
      0.030308984220027924,
      0.012710979208350182,
      0.22297222912311554,
      0.16467483341693878,
      0.1405004858970642,
      -0.06697552651166916,
      -0.15767093002796173,
      -0.25734230875968933,
      0.03243464231491089,
      -0.0281605776399374,
      -0.2564203143119812,
      0.19156353175640106,
      -1.1032332181930542,
      1.2650350332260132,
      0.03009951300919056,
      -0.028859848156571388,
      2.7365527153015137,
      1.4215635061264038,
      -2.5699052810668945,
      -0.19630318880081177,
      0.6796286702156067,
      -1.7319504022598267,
      -0.8452593088150024,
      0.20497632026672363,
      -0.05415356904268265,
      -0.4986535906791687,
      0.27076777815818787,
      0.3234997093677521,
      -0.11600823700428009,
      -0.11329645663499832,
      0.012231170199811459,
      0.02610701322555542,
      -2.813585042953491,
      -0.0321698933839798,
      0.22537431120872498,
      -0.025772850960493088,
      0.08410031348466873,
      -0.14675113558769226,
      0.3125254213809967,
      0.015387309715151787,
      0.1309380829334259,
      -0.09383589029312134,
      0.5303699970245361,
      -0.26609814167022705,
      -0.1810692846775055,
      -0.47851017117500305,
      -0.12037591636180878,
      -0.8821817636489868,
      0.4196857810020447,
      -1.0845280885696411,
      -0.31816887855529785,
      -2.1356420516967773,
      0.1917828768491745,
      1.8621644973754883,
      -0.19567053020000458,
      2.665240526199341,
      -0.2928790748119354,
      -3.277118444442749,
      0.06105932965874672,
      -0.36552438139915466,
      -2.723219156265259,
      -0.11097737401723862,
      0.205521821975708,
      1.019662857055664,
      -0.7510692477226257,
      -0.15749013423919678,
      0.4090006351470947,
      2.011143207550049,
      0.0374961793422699,
      0.22585099935531616,
      -0.006234920118004084,
      -0.0453643724322319,
      -0.562498927116394,
      0.3996340036392212,
      -0.012707055546343327,
      0.137558251619339,
      0.04036622866988182,
      -0.17474804818630219,
      -0.7475337982177734,
      0.14438936114311218,
      0.08884582668542862,
      -0.2233126014471054,
      -2.4635188579559326,
      -1.3986177444458008,
      0.4576641321182251,
      0.07741468399763107,
      -2.4333598613739014,
      -0.11929662525653839,
      2.800959348678589,
      0.05299631506204605,
      0.021364159882068634,
      0.38447263836860657,
      1.4503278732299805,
      -0.12026364356279373,
      2.5196027755737305,
      4.078926086425781,
      -0.07679618895053864,
      -1.5668171644210815,
      -1.9705640077590942,
      0.9323247671127319,
      0.8759979009628296,
      -0.48621416091918945,
      2.1406869888305664,
      0.01814260520040989,
      0.10069697350263596,
      0.01848530024290085,
      0.018380260095000267,
      0.15432262420654297,
      -0.04335977882146835,
      -0.19555683434009552,
      -0.09163317829370499,
      -0.17016826570034027,
      0.2896205484867096,
      -0.000480779679492116,
      -0.011010946705937386,
      -0.2239985167980194,
      0.31408652663230896,
      0.12774311006069183,
      0.6047914028167725,
      -0.6218705177307129,
      -0.12692168354988098,
      0.48244181275367737,
      -2.189225435256958,
      -0.6081430315971375,
      -0.032530322670936584,
      0.9893664121627808,
      2.0747721195220947,
      -1.9273605346679688,
      0.046048603951931,
      4.006985664367676,
      1.0875321626663208,
      0.03547875955700874,
      0.19592039287090302,
      -0.5794553160667419,
      0.7580858469009399,
      -0.11055265367031097,
      -1.2828125953674316,
      -0.1868743896484375,
      -0.03764000162482262,
      -0.5721248388290405,
      -0.04555317014455795,
      0.05527544766664505,
      0.20140475034713745,
      -0.7845458388328552,
      -1.217812418937683,
      -0.20701421797275543,
      -0.07951246201992035,
      0.776360273361206,
      0.326615571975708,
      0.06362494826316833,
      0.16334716975688934,
      -0.018971405923366547,
      -1.953778862953186,
      -1.0227203369140625,
      -0.1368560791015625,
      0.04639975726604462,
      0.29450300335884094,
      -1.0099732875823975,
      0.030032623559236526,
      0.08892696350812912,
      0.9694843292236328,
      1.1969209909439087,
      1.9999847412109375,
      0.1335824429988861,
      1.638472557067871,
      4.072290420532227,
      -0.10637056827545166,
      -0.7629203200340271,
      -1.4615501165390015,
      0.35389697551727295,
      1.7281856536865234,
      -0.5097221732139587,
      -0.5524687767028809,
      0.03361109271645546,
      -0.16691172122955322,
      -0.06915730983018875,
      -0.11363749951124191,
      -0.17247936129570007,
      -0.24922676384449005,
      -0.13370247185230255,
      -0.0009684489341452718,
      0.19814807176589966,
      0.3196307122707367,
      -0.07422754168510437,
      0.08722545206546783,
      0.13238586485385895,
      -0.009962515905499458,
      -1.35670006275177,
      -1.165671467781067,
      -4.916231155395508,
      0.08016734570264816,
      -0.3702300488948822,
      -0.1555405557155609,
      0.194841668009758,
      0.26877307891845703,
      0.28947967290878296,
      0.21993635594844818,
      -0.2849676012992859,
      -0.022522103041410446,
      1.998960256576538,
      2.471515417098999,
      0.2816384434700012,
      -0.7589485049247742,
      -1.541386604309082,
      -4.026750564575195,
      0.39874911308288574,
      -0.25663110613822937,
      -0.17649425566196442,
      0.002381305443122983,
      -0.10308650881052017,
      0.017968786880373955,
      0.047321073710918427,
      0.12857216596603394,
      -0.1915014684200287,
      -0.03844796121120453,
      -0.003566536121070385,
      -0.06697406619787216,
      0.06254319101572037,
      0.021633295342326164,
      0.03633546829223633,
      -0.05854857340455055,
      0.1613222360610962,
      -3.0753166675567627,
      1.3034942150115967,
      3.586975574493408,
      0.06900597363710403,
      -0.2521701157093048,
      -0.08011920750141144,
      -0.17657820880413055,
      -0.05066901817917824,
      0.04089393839240074,
      0.66620934009552,
      1.0004000663757324,
      -0.01162787713110447,
      2.7206063270568848,
      -1.150397777557373,
      -0.3356785476207733,
      -0.8391139507293701,
      0.35826900601387024,
      2.0773870944976807,
      -0.04498409107327461,
      -0.5686832666397095,
      0.020328225567936897,
      0.008921661414206028,
      -0.2867109179496765,
      -0.09846514463424683,
      -0.038452863693237305,
      -0.11341795325279236,
      -0.49070432782173157,
      -0.060842111706733704,
      0.2499699741601944,
      0.09944264590740204,
      0.016725072637200356,
      0.08748925477266312,
      -0.05073525011539459,
      0.004235349595546722,
      -0.16508030891418457,
      -0.3119267523288727,
      1.437441349029541,
      -0.3661128580570221,
      -0.06058269366621971,
      1.2850669622421265,
      0.6264572739601135,
      0.005371468141674995,
      -0.1136787161231041,
      -0.7780028581619263,
      -1.3240023851394653,
      -0.3849867284297943,
      -0.0137062082067132,
      -2.3528735637664795,
      -3.3140156269073486,
      -0.20342576503753662,
      -0.43270552158355713,
      -0.5282238721847534,
      0.36853817105293274,
      -0.6434596180915833,
      0.21560019254684448,
      0.06381537765264511,
      -0.2576795220375061,
      -0.23732127249240875,
      -0.1385459452867508,
      -0.0842321366071701,
      0.27188074588775635,
      0.5735087394714355,
      0.3742985725402832,
      0.11213283240795135,
      0.4205034077167511,
      -0.37108588218688965,
      0.011299502104520798,
      -0.37238672375679016,
      0.0011851198505610228,
      0.3204957842826843,
      -1.0421968698501587,
      1.8202191591262817,
      1.9783903360366821,
      0.05310739204287529,
      2.501180410385132,
      -0.5245712995529175,
      -2.7284350395202637,
      0.03246649354696274,
      0.3054242730140686,
      -0.17160068452358246,
      -0.9392933249473572,
      0.05074883624911308,
      0.3888600170612335,
      -1.5393985509872437,
      0.22025473415851593,
      -0.2859579920768738,
      0.17946645617485046,
      1.038516879081726,
      0.11841537058353424,
      0.3617704510688782,
      -2.7340950965881348,
      0.15192104876041412,
      0.03350617736577988,
      0.02479538880288601,
      -0.06777026504278183,
      0.2643355429172516,
      0.0864376649260521,
      0.016496116295456886,
      -0.02037287876009941,
      -0.12810476124286652,
      -0.03560537472367287,
      0.015572787262499332,
      0.21537262201309204,
      -0.006288590840995312,
      0.032096944749355316,
      3.000096082687378,
      -2.276343584060669,
      0.3894613981246948,
      0.1680355966091156,
      -0.21145252883434296,
      0.8716465830802917,
      -0.08656488358974457,
      0.027493616566061974,
      -0.3196469247341156,
      -1.3715424537658691,
      0.611899733543396,
      -0.0108097605407238,
      -3.871980905532837,
      4.931968688964844,
      0.027334081009030342,
      1.4202312231063843,
      -1.8168069124221802,
      -0.12622188031673431,
      0.9843170046806335,
      0.8568072319030762,
      0.09062879532575607,
      0.03389395400881767,
      0.052237026393413544,
      -0.007768113166093826,
      -0.0023221257142722607,
      -0.021728020161390305,
      0.4008195996284485,
      0.3099114000797272,
      0.05108833312988281,
      -0.23319904506206512,
      -0.316638708114624,
      0.21348805725574493,
      -0.18202948570251465,
      -0.10130751132965088,
      -0.01988227479159832
    ],
    [
      -0.27858731150627136,
      -0.062027692794799805,
      0.6117109060287476,
      0.19838766753673553,
      -0.30168265104293823,
      -0.24096891283988953,
      0.1994614452123642,
      -0.11174002289772034,
      -0.20821474492549896,
      0.07649387419223785,
      0.6414417624473572,
      0.4634300172328949,
      0.16632233560085297,
      -0.18200594186782837,
      -0.011982578784227371,
      -0.4179845154285431,
      -0.019238315522670746,
      0.22276337444782257,
      -0.045396026223897934,
      0.1397620588541031,
      -0.19475390017032623,
      -0.11793733388185501,
      -0.2714506685733795,
      -0.08956953138113022,
      -0.1899331957101822,
      -0.5262995362281799,
      0.03939511626958847,
      -0.15504293143749237,
      0.5562716722488403,
      -0.2588294744491577,
      -0.47496193647384644,
      -0.28288063406944275,
      -0.4081457257270813,
      -0.18384641408920288,
      0.11805949360132217,
      -0.07286284863948822,
      -0.11056703329086304,
      0.2794179618358612,
      0.15330837666988373,
      0.05779820308089256,
      0.20579876005649567,
      0.013783090747892857,
      -0.1645905077457428,
      -0.972764790058136,
      0.44260701537132263,
      0.06378436833620071,
      0.24250127375125885,
      -0.8769353628158569,
      -0.07936593890190125,
      -0.0620591826736927,
      0.008515036664903164,
      -0.04578685015439987,
      -0.25204747915267944,
      0.21606743335723877,
      -0.04050600528717041,
      -0.10987008363008499,
      0.33191266655921936,
      0.13269519805908203,
      0.1045796275138855,
      0.1754581332206726,
      0.2710498869419098,
      0.3229706883430481,
      -0.5136228203773499,
      -0.06732139736413956,
      0.023564251139760017,
      0.08107224106788635,
      0.6571583151817322,
      0.21629281342029572,
      0.0181211419403553,
      -0.6372213959693909,
      -0.27776670455932617,
      0.012095918878912926,
      0.3865338861942291,
      0.10473811626434326,
      -0.2145606428384781,
      -0.01928827539086342,
      -0.1726563274860382,
      -0.023286161944270134,
      -0.09583910554647446,
      0.315762996673584,
      -0.04273064434528351,
      -0.08893778175115585,
      0.13819658756256104,
      -0.10648873448371887,
      0.055120907723903656,
      0.003476644866168499,
      0.05293797701597214,
      -0.1759902387857437,
      -0.6134044528007507,
      -0.1429474949836731,
      -0.2648959755897522,
      0.6123393774032593,
      -0.22393591701984406,
      -0.1069718450307846,
      -0.1642632931470871,
      0.06549613922834396,
      -0.24122607707977295,
      -0.10965852439403534,
      -0.4054903984069824,
      0.367522656917572,
      0.21219202876091003,
      0.41349440813064575,
      -0.0712391808629036,
      -0.3309585154056549,
      0.17021140456199646,
      -0.03857043385505676,
      0.34842967987060547,
      0.023039717227220535,
      -0.21179135143756866,
      -0.09994406253099442,
      -0.07754352688789368,
      0.49995553493499756,
      -0.5662754774093628,
      -0.04691106081008911,
      0.6568532586097717,
      -0.21791042387485504,
      0.022250179201364517,
      0.19146743416786194,
      0.13938038051128387,
      0.018366742879152298,
      0.09547881782054901,
      0.46102479100227356,
      -0.08143245428800583,
      0.09537579119205475,
      -0.14765428006649017,
      0.19435347616672516,
      -0.379792720079422,
      0.1460184007883072,
      -0.12334694713354111,
      -0.10731714963912964,
      -0.406854510307312,
      0.007280134595930576,
      -0.09508856385946274,
      0.596285343170166,
      -0.09682884067296982,
      0.4667836129665375,
      -0.011593593284487724,
      0.1276605874300003,
      0.4380243420600891,
      0.30490589141845703,
      0.19484974443912506,
      -0.24247929453849792,
      -0.25566789507865906,
      0.4098864495754242,
      -0.21822582185268402,
      -0.2132752239704132,
      -0.04720935598015785,
      -0.13406072556972504,
      0.19297975301742554,
      -0.8365364074707031,
      0.0496528334915638,
      0.06965044140815735,
      0.02385915070772171,
      -0.24694713950157166,
      0.2921440303325653,
      0.3615488111972809,
      -0.32243117690086365,
      0.04712124541401863,
      -0.04314097762107849,
      -0.5661738514900208,
      0.04035841301083565,
      -0.19817756116390228,
      0.6137979626655579,
      0.10984190553426743,
      -0.13062439858913422,
      -0.27097591757774353,
      -0.20011982321739197,
      0.3620794415473938,
      -0.3524366021156311,
      0.36156949400901794,
      -0.49221333861351013,
      0.23479683697223663,
      -0.1436886489391327,
      -0.030498968437314034,
      0.04169205203652382,
      -0.5624860525131226,
      0.29805466532707214,
      0.05860600620508194,
      0.8409658074378967,
      -0.15367871522903442,
      -0.24145320057868958,
      0.4557306468486786,
      -0.04445794224739075,
      0.3577730059623718,
      -0.053462572395801544,
      -0.2722819149494171,
      0.2534411549568176,
      -0.2540684640407562,
      -0.001601856667548418,
      0.08651772141456604,
      -0.0609905906021595,
      -0.2578510344028473,
      0.06418628245592117,
      -0.1553688794374466,
      -0.04208078235387802,
      -0.10867363959550858,
      0.42223668098449707,
      -0.10434262454509735,
      -0.0622125118970871,
      0.11588693410158157,
      0.22008350491523743,
      0.04402383044362068,
      0.015801504254341125,
      -0.546691358089447,
      0.2823825776576996,
      -0.47576528787612915,
      0.32754290103912354,
      -0.13294242322444916,
      -0.043374691158533096,
      0.08296918869018555,
      0.013527990318834782,
      -0.3118289113044739,
      0.1809808760881424,
      -0.32393473386764526,
      -0.0174457598477602,
      -0.035265445709228516,
      0.029096540063619614,
      -0.2574801743030548,
      -0.2132854014635086,
      0.16671179234981537,
      0.43816784024238586,
      0.016659067943692207,
      0.12472723424434662,
      0.4265601933002472,
      0.01599225588142872,
      -0.16709421575069427,
      0.10610441863536835,
      -0.3226982355117798,
      -0.0025791905354708433,
      -0.266765296459198,
      -0.04891490563750267,
      0.03830309212207794,
      0.3556523621082306,
      -0.12116824090480804,
      -0.08510871976613998,
      0.3020482063293457,
      -0.41659998893737793,
      -0.17681051790714264,
      0.14601857960224152,
      0.1699274778366089,
      -0.217791348695755,
      -0.07331790030002594,
      0.03855474665760994,
      -0.05344407260417938,
      0.6495629549026489,
      -0.9579043984413147,
      -0.04719869792461395,
      0.08203738182783127,
      -0.5379855632781982,
      -0.31959494948387146,
      -0.08923487365245819,
      -0.5517222881317139,
      -0.013250601477921009,
      0.11720167845487595,
      -0.07857982814311981,
      0.48186489939689636
    ]
  ],
  "actor_encoder_biases": [
    [
      0.009764703921973705,
      -0.017931221053004265,
      0.02378837764263153,
      -0.1566675454378128,
      0.07881501317024231,
      -0.22531910240650177,
      0.14940877258777618,
      0.04824420437216759,
      -0.18346473574638367,
      0.05353136360645294,
      -0.09383527934551239,
      0.08674568682909012,
      0.071213498711586,
      0.022311778739094734,
      0.0907682552933693,
      -0.012918954715132713
    ],
    [
      -0.17457520961761475,
      -0.07719719409942627,
      0.10152587294578552,
      0.048629410564899445,
      -0.07663566619157791,
      0.024463338777422905,
      -0.2928239107131958,
      -0.027948573231697083,
      -0.09969870001077652,
      0.09712161123752594,
      0.21466469764709473,
      -0.16246896982192993,
      0.06059833988547325,
      -0.20513024926185608,
      -0.24047766625881195,
      -0.06714269518852234
    ]
  ],
  "actor_head_weights": [
    [
      -0.524254560470581,
      0.25226539373397827,
      -0.29164695739746094,
      0.3568896949291229,
      -0.3069498538970947,
      0.0047270869836211205,
      0.4188825190067291,
      0.18357396125793457,
      -0.37998372316360474,
      -0.19999003410339355,
      -0.8204350471496582,
      0.35402804613113403,
      0.247258260846138,
      -0.5641481876373291,
      -0.5836089849472046,
      -0.7837797999382019,
      0.1081923395395279,
      0.48700788617134094,
      -0.04511835798621178,
      0.9599505662918091,
      -0.3150063157081604,
      0.07095330208539963,
      -0.29231739044189453,
      -0.28990620374679565,
      0.35729894042015076,
      -0.05969800800085068,
      0.21041521430015564,
      -0.01958424039185047,
      0.017712846398353577,
      0.1830148994922638,
      0.4989895224571228,
      -0.061424240469932556,
      0.18925561010837555,
      -0.2755945920944214,
      -0.5227543115615845,
      -0.22304821014404297,
      -0.564463198184967,
      -0.46008285880088806,
      -0.7074408531188965,
      0.21180522441864014,
      -0.46062684059143066,
      0.13359232246875763,
      0.3365901708602905,
      -0.38964545726776123,
      -0.017222218215465546,
      -0.5688581466674805,
      -0.3384411036968231,
      -0.07254652678966522,
      -0.6430162787437439,
      -0.16615241765975952,
      0.09660938382148743,
      -0.05694405734539032,
      -0.26053324341773987,
      0.3174964189529419,
      0.2893446385860443,
      -0.23594340682029724,
      0.44609951972961426,
      0.487240195274353,
      -0.18138271570205688,
      -0.1562546044588089,
      0.5408591032028198,
      0.12840531766414642,
      0.8189880847930908,
      0.1372562199831009
    ]
  ],
  "actor_head_biases": [
    [
      0.14081642031669617,
      0.1802658885717392,
      0.16838257014751434,
      0.2912956178188324
    ]
  ],
  "gru_weight_ih": [
    -0.3955506384372711,
    -1.449377417564392,
    -1.2289478778839111,
    -0.21109507977962494,
    1.0202218294143677,
    -0.8821225166320801,
    -0.07383132725954056,
    0.37940362095832825,
    -0.3141630291938782,
    -0.38686445355415344,
    1.2863054275512695,
    -0.050330087542533875,
    0.26611441373825073,
    1.458328127861023,
    1.7514208555221558,
    0.5415704846382141,
    1.6385506391525269,
    -0.22211356461048126,
    0.8006314635276794,
    -0.7756239771842957,
    -0.38490039110183716,
    0.1273382008075714,
    0.8880385160446167,
    0.6846287250518799,
    -1.3060392141342163,
    -0.9103254079818726,
    0.0014759745681658387,
    0.6688831448554993,
    -1.380163311958313,
    0.16318939626216888,
    -0.6374998688697815,
    -0.7365928292274475,
    1.282475471496582,
    -0.5784486532211304,
    -1.5942063331604004,
    0.7159213423728943,
    0.65486741065979,
    -0.9979040622711182,
    0.15918013453483582,
    0.6743849515914917,
    -0.7621673345565796,
    -1.3476673364639282,
    0.14385321736335754,
    0.516482412815094,
    0.1821739673614502,
    0.7062399983406067,
    -0.1862301230430603,
    0.8214852809906006,
    -0.46169406175613403,
    -0.8378986716270447,
    -0.4516635537147522,
    -0.6142899394035339,
    0.5272777676582336,
    0.22967490553855896,
    0.22526736557483673,
    -0.9378533959388733,
    1.1708732843399048,
    -0.9049009680747986,
    0.6633867621421814,
    -0.14733994007110596,
    0.6594832539558411,
    -1.1256022453308105,
    -1.13861083984375,
    -0.7623681426048279,
    -0.18686476349830627,
    0.16143885254859924,
    -0.07983323186635971,
    -0.4575349688529968,
    -0.160222128033638,
    0.7524911165237427,
    -1.4181866645812988,
    0.24140195548534393,
    -1.4121897220611572,
    0.11435630917549133,
    -0.23978960514068604,
    0.9338529109954834,
    -0.7885392308235168,
    -0.2318425327539444,
    0.7614368200302124,
    0.014481065794825554,
    0.4607977271080017,
    0.7483607530593872,
    1.1888277530670166,
    0.30361872911453247,
    -1.6294667720794678,
    0.8228144645690918,
    1.5749026536941528,
    0.09394857287406921,
    -0.34715625643730164,
    -0.4233485460281372,
    -1.5194976329803467,
    -0.7851477861404419,
    -1.3330680131912231,
    1.0258805751800537,
    -1.282891869544983,
    0.058497361838817596,
    0.44854432344436646,
    0.3926628828048706,
    -0.21035581827163696,
    0.3182816803455353,
    0.8910074234008789,
    -0.04693368449807167,
    0.3936617970466614,
    -0.2763705551624298,
    0.754414439201355,
    0.4415108561515808,
    -0.9194908738136292,
    0.9953768849372864,
    0.2825287878513336,
    -1.0219173431396484,
    0.08250520378351212,
    -0.5038822293281555,
    0.8841724395751953,
    -0.1699136346578598,
    0.3485086262226105,
    0.39891713857650757,
    0.6878695487976074,
    0.36404410004615784,
    0.6254501342773438,
    2.9755499362945557,
    -0.18313553929328918,
    0.4761812388896942,
    0.21847853064537048,
    -0.2742552161216736,
    -0.4589555859565735,
    -0.03503336012363434,
    -0.25621259212493896,
    0.616021990776062,
    -0.6822171807289124,
    0.6825730800628662,
    1.9664230346679688,
    -0.3786085546016693,
    -0.08737517893314362,
    -0.3253737986087799,
    -0.0580819733440876,
    -2.0115740299224854,
    0.28190311789512634,
    -0.5214914083480835,
    0.14320267736911774,
    0.2862178385257721,
    1.6729693412780762,
    -0.5263314843177795,
    -0.4783851206302643,
    -0.9054918885231018,
    -0.5182709693908691,
    0.27421626448631287,
    -0.040234580636024475,
    0.4362756311893463,
    -1.1737453937530518,
    -1.3199009895324707,
    -0.29696282744407654,
    -0.5048539042472839,
    0.2614937126636505,
    -0.8918851613998413,
    0.21349197626113892,
    0.7127829790115356,
    0.8110412955284119,
    -0.5484591722488403,
    0.21374978125095367,
    -0.5791434645652771,
    0.10224829614162445,
    0.316591739654541,
    -0.3393748700618744,
    -0.4300988018512726,
    0.12592315673828125,
    0.21842239797115326,
    0.3253574073314667,
    -0.6718710064888,
    1.1305418014526367,
    0.5022530555725098,
    -1.0959779024124146,
    0.16961103677749634,
    0.26438164710998535,
    0.15552371740341187,
    -0.06639643758535385,
    0.21939851343631744,
    0.01740315556526184,
    -0.9611965417861938,
    0.8211336731910706,
    -0.9056383371353149,
    -0.6777375936508179,
    0.23493878543376923,
    0.7142015099525452,
    1.2625148296356201,
    0.5914573669433594,
    -1.1436398029327393,
    0.7648628950119019,
    -0.011717969551682472,
    0.07848987728357315,
    0.3223259150981903,
    0.11526767909526825,
    -0.5210593938827515,
    -0.39083418250083923,
    1.3678373098373413,
    1.0623528957366943,
    -0.2497229427099228,
    -0.28883183002471924,
    0.6817416548728943,
    0.1504262536764145,
    -0.4529063105583191,
    -0.00895144697278738,
    1.4994001388549805,
    -0.6842827200889587,
    -0.06665600091218948,
    0.029306024312973022,
    -1.1313135623931885,
    -0.054041143506765366,
    -0.5408357977867126,
    0.3276918828487396,
    -0.02828039601445198,
    -0.033343978226184845,
    0.8622770309448242,
    -0.5010106563568115,
    -0.03436005115509033,
    -0.2762177884578705,
    0.14350643754005432,
    -0.618267297744751,
    0.5836628079414368,
    0.3584403395652771,
    -0.9753226637840271,
    0.48144975304603577,
    -0.71941739320755,
    -0.23702722787857056,
    -0.42551061511039734,
    -0.05254471302032471,
    -0.06669466942548752,
    0.3572967052459717,
    -0.8083862066268921,
    -0.32221588492393494,
    0.17426234483718872,
    0.8456006646156311,
    0.26712843775749207,
    0.20292794704437256,
    0.10890933126211166,
    -0.434683620929718,
    -0.028360310941934586,
    -0.3547627925872803,
    -0.5550523996353149,
    -0.5698345899581909,
    0.32021886110305786,
    0.4359544515609741,
    -0.1798655092716217,
    -0.07066109776496887,
    0.21034973859786987,
    -1.1783198118209839,
    -1.2777729034423828,
    -0.8595582246780396,
    -0.21837976574897766,
    -0.5205199718475342,
    -1.6772435903549194,
    1.1153662204742432,
    1.4546751976013184,
    -0.21751630306243896,
    0.9183477759361267,
    -0.2313736379146576,
    0.003541508922353387,
    -0.10030947625637054,
    -0.7319386601448059,
    -0.7000433206558228,
    0.6843810677528381,
    -0.8349300622940063,
    -0.2974646985530853,
    -0.7317202687263489,
    -0.5990975499153137,
    -1.254380226135254,
    0.07483568042516708,
    -0.8769778609275818,
    -0.20879152417182922,
    -0.14487309753894806,
    -0.3187728524208069,
    0.28796741366386414,
    1.0089551210403442,
    0.8359026908874512,
    -0.07667828351259232,
    -1.0514092445373535,
    -0.01314263604581356,
    0.3466019332408905,
    0.2230975180864334,
    0.07843301445245743,
    -0.42660510540008545,
    -0.845943808555603,
    1.2165677547454834,
    -0.1062239333987236,
    0.006334757898002863,
    -0.8640175461769104,
    0.07875321805477142,
    0.1328844428062439,
    0.3178258538246155,
    -0.6248243451118469,
    1.2159980535507202,
    -0.05899902805685997,
    0.40949979424476624,
    -0.4169314205646515,
    -0.20116041600704193,
    -0.3111323118209839,
    0.18852420151233673,
    0.24567493796348572,
    -0.6583914756774902,
    -0.033307962119579315,
    0.9072970151901245,
    -0.5852705836296082,
    -0.3006727397441864,
    -0.6679725050926208,
    -0.33563321828842163,
    -0.5976791977882385,
    0.3121587038040161,
    1.1253303289413452,
    -0.2522282004356384,
    -0.08708911389112473,
    -0.4217485785484314,
    0.04557304456830025,
    0.002019027713686228,
    0.42052748799324036,
    0.7076256275177002,
    -0.11198928952217102,
    0.3121650815010071,
    0.5724430680274963,
    -0.7248936295509338,
    1.098527193069458,
    0.16747644543647766,
    -0.66217041015625,
    0.13476404547691345,
    0.42985960841178894,
    -0.5450437068939209,
    -0.6018789410591125,
    -0.6367422938346863,
    -0.8083787560462952,
    -0.5632110834121704,
    -0.45964014530181885,
    0.4634932279586792,
    0.28142568469047546,
    0.10355380177497864,
    -0.4831860661506653,
    -0.02503269724547863,
    -0.6090710759162903,
    0.7114145159721375,
    -0.7273474931716919,
    0.3741064965724945,
    0.051458846777677536,
    -0.1398310661315918,
    0.19945794343948364,
    0.6061676740646362,
    -0.646964430809021,
    0.9364483952522278,
    0.4355776309967041,
    0.31053265929222107,
    0.11082345247268677,
    0.5357590913772583,
    -0.024621136486530304,
    0.3401497006416321,
    -0.3648622930049896,
    0.054139431565999985,
    -1.2689071893692017,
    -0.22215603291988373,
    -0.022227903828024864,
    1.3902939558029175,
    -0.1015392392873764,
    -0.21278883516788483,
    0.6509886384010315,
    1.5814599990844727,
    -0.17307791113853455,
    -0.6509787440299988,
    -0.848470151424408,
    -0.33841025829315186,
    -0.666014552116394,
    -0.3338066637516022,
    1.0133925676345825,
    -0.7956642508506775,
    -0.5674594640731812,
    -0.8130815625190735,
    0.14792585372924805,
    1.1307406425476074,
    0.3831930160522461,
    -0.7394041419029236,
    0.400646448135376,
    1.0568715333938599,
    -0.09564564377069473,
    -0.7629985809326172,
    0.5981534123420715,
    -0.19389574229717255,
    -0.6276495456695557,
    0.10182151198387146,
    -0.2894742488861084,
    -0.650907039642334,
    -0.06612398475408554,
    -0.18451319634914398,
    -0.11200540512800217,
    -0.5051755309104919,
    0.3121713399887085,
    0.5665286183357239,
    0.22961492836475372,
    -0.36562079191207886,
    0.9517409205436707,
    -0.5467682480812073,
    0.3183896839618683,
    0.1967693567276001,
    0.2374299019575119,
    0.24124747514724731,
    -0.22128909826278687,
    -0.38729941844940186,
    -0.2397216558456421,
    -0.16985473036766052,
    0.369136244058609,
    0.08190200477838516,
    -0.24881504476070404,
    -0.5195688605308533,
    0.030377600342035294,
    -0.368156373500824,
    -1.058271884918213,
    0.18118585646152496,
    0.18140053749084473,
    -0.12674927711486816,
    -0.42639225721359253,
    -0.42242053151130676,
    -1.0608896017074585,
    -0.2557009160518646,
    -0.861053466796875,
    0.5583410859107971,
    -0.18309403955936432,
    -0.43880629539489746,
    0.07499945163726807,
    0.7521770000457764,
    0.20109747350215912,
    -0.5895040035247803,
    -0.035093825310468674,
    -0.5412523746490479,
    0.2926082909107208,
    -0.15946047008037567,
    0.6649779677391052,
    -0.03247521072626114,
    -0.26644542813301086,
    0.11766169220209122,
    -0.12108117341995239,
    -0.3334362506866455,
    0.1920938640832901,
    0.2813452482223511,
    0.05924438685178757,
    0.7230494618415833,
    0.300100177526474,
    -0.394928514957428,
    -0.7423077821731567,
    -0.4837079644203186,
    0.859915554523468,
    0.14853717386722565,
    0.07461637258529663,
    -0.9943982362747192,
    0.02299495041370392,
    -0.03790229931473732,
    0.34026801586151123,
    -0.6056885123252869,
    0.41066011786460876,
    0.273526132106781,
    -0.5009071230888367,
    -0.3412759602069855,
    -0.341080904006958,
    0.11080852150917053,
    -0.12758581340312958,
    -0.12118883430957794,
    -0.11915519833564758,
    0.007546752691268921,
    0.20600761473178864,
    0.04406131058931351,
    -0.1107129454612732,
    0.2931006848812103,
    0.22162941098213196,
    0.4875223636627197,
    -0.6004209518432617,
    -0.1695377379655838,
    -0.4367845058441162,
    0.31237831711769104,
    0.13310806453227997,
    0.4365169107913971,
    0.42090314626693726,
    0.8689231872558594,
    -0.4689064919948578,
    0.6143190860748291,
    -1.2614244222640991,
    0.3163216710090637,
    0.3654565215110779,
    -0.2863714098930359,
    0.08368677645921707,
    1.1979912519454956,
    -0.21717548370361328,
    0.15798673033714294,
    -1.3709744215011597,
    1.0752887725830078,
    0.3365291357040405,
    -0.25566285848617554,
    -0.77784663438797,
    -0.9206267595291138,
    -0.28661736845970154,
    -0.6410737633705139,
    0.789650559425354,
    1.0078569650650024,
    -0.7236053943634033,
    0.7258114218711853,
    0.031091593205928802,
    0.28159913420677185,
    -0.4913272261619568,
    -0.5056828856468201,
    0.7600788474082947,
    -1.1591442823410034,
    0.20099888741970062,
    -0.12964196503162384,
    -0.996533989906311,
    -1.0346734523773193,
    1.0285207033157349,
    -0.36148616671562195,
    -0.22242793440818787,
    -0.6921104788780212,
    -0.1413167119026184,
    0.30226239562034607,
    0.431135356426239,
    0.06197017803788185,
    -0.23080474138259888,
    -0.031289514154195786,
    -0.229865163564682,
    -0.058554839342832565,
    0.10221568495035172,
    0.023035891354084015,
    0.5028752684593201,
    0.032590351998806,
    -0.04416609928011894,
    0.02126416191458702,
    -0.08667059987783432,
    0.014622998423874378,
    0.19217081367969513,
    0.10912220925092697,
    0.23080280423164368,
    -1.212552785873413,
    0.09950178116559982,
    -0.4832565486431122,
    -0.2792508602142334,
    -0.3755815923213959,
    0.2317853718996048,
    0.10677693784236908,
    -0.6285852193832397,
    0.22083160281181335,
    -0.3840930759906769,
    -0.09244989603757858,
    0.19268715381622314,
    0.10577188432216644,
    0.11292902380228043,
    0.3593079149723053,
    0.3794498145580292,
    0.33584874868392944,
    -0.2893165946006775,
    0.08167696744203568,
    0.5033668875694275,
    -0.18387889862060547,
    0.17204134166240692,
    -0.1316935420036316,
    -0.07716121524572372,
    0.05884598568081856,
    0.34526658058166504,
    0.1707298308610916,
    0.22986504435539246,
    0.03572005778551102,
    0.11902577430009842,
    0.3777821958065033,
    -0.17923223972320557,
    -0.2063578963279724,
    -0.5740253329277039,
    -0.8177836537361145,
    0.09186674654483795,
    0.00878050271421671,
    0.255069375038147,
    -0.4164154827594757,
    0.07431232929229736,
    -0.39973196387290955,
    -0.6986414790153503,
    0.3838759660720825,
    0.345974326133728,
    0.21816131472587585,
    0.1425042450428009,
    0.27636638283729553,
    -0.06460495293140411,
    -0.04034270718693733,
    0.00853482075035572,
    -0.10120227932929993,
    0.028751151636242867,
    0.4938350319862366,
    0.10229523479938507,
    0.25115734338760376,
    0.05628631263971329,
    0.05943715572357178,
    0.2830149233341217,
    0.0799926221370697,
    -0.26906347274780273,
    0.412070631980896,
    0.22948963940143585,
    0.09781939536333084,
    0.19865639507770538,
    -0.2176254391670227,
    -0.30978354811668396,
    0.319687157869339,
    -0.46904462575912476,
    0.3537414073944092,
    0.15835018455982208,
    0.5164698362350464,
    -0.444244921207428,
    -0.32693710923194885,
    -0.2217911332845688,
    -0.5812706351280212,
    -0.8638909459114075,
    0.21493631601333618,
    0.28365135192871094,
    -0.367321640253067,
    -0.1827588975429535,
    -0.019757486879825592,
    0.10549750924110413,
    0.04345884174108505,
    -0.10396216064691544,
    0.2225247472524643,
    -0.23627309501171112,
    0.33013513684272766,
    -0.1390499323606491,
    -0.0741821825504303,
    0.24729284644126892,
    0.02000139281153679,
    -0.21310532093048096,
    -0.026767728850245476,
    -0.10910441726446152,
    0.37041690945625305,
    0.21656031906604767,
    0.18068143725395203,
    0.056606654077768326,
    0.16030290722846985,
    -0.08177117258310318,
    0.11495860666036606,
    -0.0657312199473381,
    0.12049096077680588,
    0.06825712323188782,
    -0.11898371577262878,
    -0.0844232514500618,
    0.9179161190986633,
    -0.04681450128555298,
    -0.11899849772453308,
    0.14982399344444275,
    -0.1455438882112503,
    -0.45853790640830994,
    0.45346033573150635,
    0.04009781777858734,
    0.06682728230953217,
    0.6804375648498535,
    -0.45205211639404297,
    0.06342213600873947,
    0.016390668228268623,
    -0.7050022482872009,
    0.14670942723751068,
    -0.3004540503025055,
    -0.6077721118927002,
    0.013932188041508198,
    0.2845190465450287,
    0.9437639713287354,
    -0.10820874571800232,
    -0.05172688886523247,
    0.09267175197601318,
    0.027920423075556755,
    -0.11358241736888885,
    0.5855394601821899,
    -0.45175817608833313,
    -0.2634255290031433,
    0.21310511231422424,
    0.1521446853876114,
    -0.33015549182891846,
    -0.2394338995218277,
    0.4156850278377533,
    0.3550231158733368,
    0.45092278718948364,
    -0.15884608030319214,
    0.18287497758865356,
    0.19223380088806152,
    0.10629406571388245,
    -0.4953662157058716,
    0.04167674854397774,
    0.04973554611206055,
    -0.16308444738388062,
    0.41456338763237,
    0.10667238384485245,
    0.14053115248680115,
    -0.2957378923892975,
    -0.23098717629909515,
    0.22373241186141968,
    -0.24982665479183197,
    0.13852950930595398,
    0.00944623351097107,
    0.3332691788673401,
    0.75764000415802,
    0.2426990568637848,
    -0.29003608226776123,
    -0.37154996395111084,
    -0.32074347138404846,
    0.3403586447238922,
    -0.016918111592531204,
    -0.18590453267097473,
    0.11908633261919022,
    0.048821743577718735,
    0.11631216108798981,
    0.14821116626262665,
    -0.2552897334098816,
    -0.015030303038656712,
    -0.3069651424884796,
    0.10017044097185135,
    -0.03965601697564125,
    -0.2756638526916504,
    0.49856823682785034,
    -0.18080615997314453,
    -0.37676891684532166,
    -0.07790721207857132,
    -0.0603763721883297,
    -0.06330105662345886,
    0.2583596408367157,
    0.3393898010253906,
    0.3442484736442566,
    0.17680734395980835,
    0.3458707928657532,
    -0.026440955698490143,
    0.42535045742988586,
    0.2814421057701111,
    -0.35791707038879395,
    -0.30333319306373596,
    0.21969753503799438,
    -0.8242506980895996,
    -0.28583964705467224,
    -0.02294447459280491,
    0.25851017236709595,
    0.5174047946929932,
    0.39456212520599365,
    1.1402158737182617,
    -0.17866338789463043,
    -0.4502885639667511,
    -0.31525740027427673,
    -0.3385460376739502,
    0.6221011281013489,
    0.4198409914970398,
    -0.35078540444374084,
    -0.26031485199928284,
    0.14367063343524933,
    -0.023387668654322624,
    -0.08880655467510223,
    0.058463457971811295,
    -0.13474227488040924,
    0.1073617935180664,
    -0.13660067319869995,
    0.017147131264209747,
    -0.270215779542923,
    0.2141241729259491,
    -0.047295909374952316,
    0.1382012665271759,
    0.10787831991910934,
    0.6361132264137268,
    -0.359384149312973,
    -0.42194417119026184,
    -0.7720239758491516,
    -0.054446183145046234,
    0.08467111736536026,
    0.16918863356113434,
    0.06779048591852188,
    -0.0013675626832991838,
    0.07298095524311066,
    0.3451912999153137,
    -0.10809928923845291,
    0.045922957360744476,
    -0.14990191161632538,
    -0.17202314734458923,
    0.2125675529241562,
    0.01213955320417881
  ],
  "gru_weight_hh": [
    0.009667983278632164,
    -0.9526119232177734,
    0.514560878276825,
    -1.1114838123321533,
    -0.41098088026046753,
    -1.9055519104003906,
    0.8754525184631348,
    -1.7386258840560913,
    -1.56090247631073,
    -1.6476787328720093,
    0.7172304391860962,
    -0.23320530354976654,
    -0.15615461766719818,
    0.6949336528778076,
    0.06638935208320618,
    -0.6605671644210815,
    -0.45305129885673523,
    -0.6653236746788025,
    -0.1663384586572647,
    -0.19244235754013062,
    0.834679901599884,
    2.3319523334503174,
    -0.6364954113960266,
    0.38517025113105774,
    -0.6200981736183167,
    -0.41999077796936035,
    0.7520317435264587,
    1.1555901765823364,
    0.19508841633796692,
    0.31168216466903687,
    -1.0693764686584473,
    -1.2078226804733276,
    0.9208648204803467,
    0.09817478060722351,
    -0.8809504508972168,
    -1.6798501014709473,
    1.4386707544326782,
    -0.6030187606811523,
    1.1476949453353882,
    -0.9956158399581909,
    0.5319972038269043,
    0.06398456543684006,
    0.11510851234197617,
    -0.3921334147453308,
    -0.060079462826251984,
    0.8965503573417664,
    -0.5962359309196472,
    -0.5567967295646667,
    -0.01671118661761284,
    0.91654372215271,
    -0.578384518623352,
    -0.019962657243013382,
    0.03574734553694725,
    -0.6352248787879944,
    1.3653194904327393,
    -0.7743344306945801,
    -0.736347496509552,
    0.2288687825202942,
    0.4489910900592804,
    -1.1162300109863281,
    0.07473370432853699,
    0.7334429621696472,
    -0.07907994836568832,
    -0.23142319917678833,
    0.177800253033638,
    -0.49911633133888245,
    0.31560102105140686,
    1.3547037839889526,
    -1.108734369277954,
    1.1282334327697754,
    0.02865639142692089,
    -0.1507096290588379,
    -1.3257335424423218,
    0.003860755357891321,
    -0.6809420585632324,
    -0.46901118755340576,
    -0.45864352583885193,
    -0.0135837122797966,
    -0.6306855082511902,
    0.32626673579216003,
    -0.0547255203127861,
    -0.09596746414899826,
    -0.7788594961166382,
    0.0013806396164000034,
    0.3521956503391266,
    -0.2459549605846405,
    0.7495397329330444,
    0.310857892036438,
    0.46293923258781433,
    -0.5302360653877258,
    1.7545292377471924,
    -0.48890936374664307,
    -1.0000227689743042,
    -0.540795087814331,
    1.0464093685150146,
    -0.1491081416606903,
    -0.10702231526374817,
    0.7669227719306946,
    -0.3177778422832489,
    0.7139544486999512,
    0.6279465556144714,
    -0.07462720572948456,
    0.17491976916790009,
    0.06365955621004105,
    -0.26671862602233887,
    0.4159560203552246,
    -0.4053109586238861,
    -0.9992735981941223,
    -0.4133554995059967,
    0.549098551273346,
    0.03359397500753403,
    -1.0069797039031982,
    0.036229610443115234,
    -0.24029110372066498,
    0.40673667192459106,
    -0.23424723744392395,
    0.4856332242488861,
    0.2907508909702301,
    0.4396785795688629,
    0.20646575093269348,
    0.5295007824897766,
    0.6209670305252075,
    0.6557063460350037,
    0.1996811032295227,
    0.14748413860797882,
    1.2978191375732422,
    0.3496115207672119,
    0.9449741840362549,
    0.0540192611515522,
    -0.3097490668296814,
    -0.053579188883304596,
    0.6880401372909546,
    0.24493564665317535,
    -1.4838062524795532,
    -0.2893742024898529,
    0.2873145043849945,
    -1.3154921531677246,
    0.1388271003961563,
    0.23478484153747559,
    -0.6772692203521729,
    0.8192185759544373,
    -0.59236741065979,
    -0.6205865740776062,
    0.19747130572795868,
    1.62836754322052,
    -1.243861198425293,
    0.6751905083656311,
    -0.6144638657569885,
    0.3647509515285492,
    -1.8073407411575317,
    0.6488156914710999,
    -0.8694783449172974,
    0.059067502617836,
    -0.10552280396223068,
    -0.02491445653140545,
    -1.0671573877334595,
    -0.6740581393241882,
    2.4271719455718994,
    -1.1779645681381226,
    0.5214540362358093,
    -0.27722784876823425,
    -0.11290564388036728,
    -0.7829528450965881,
    -0.6071602702140808,
    0.422344833612442,
    -0.7613770365715027,
    0.488579124212265,
    -0.028133265674114227,
    -0.9485366940498352,
    -0.521118700504303,
    -0.14134001731872559,
    -0.6661682724952698,
    -1.3376848697662354,
    0.7708975672721863,
    -0.6872844696044922,
    -0.5165351629257202,
    -0.05068298056721687,
    -0.8950249552726746,
    0.37508925795555115,
    0.4050895869731903,
    -0.031494468450546265,
    0.16705827414989471,
    0.6491233706474304,
    -1.562790870666504,
    0.3388880491256714,
    -0.6799828410148621,
    -0.9906054139137268,
    -0.7028941512107849,
    -0.27008068561553955,
    1.3060126304626465,
    -0.6139942407608032,
    0.2538295388221741,
    -0.2480335831642151,
    0.571474015712738,
    1.2232491970062256,
    0.8859894275665283,
    0.058930087834596634,
    -0.5696081519126892,
    0.009152024984359741,
    -0.25952163338661194,
    1.2198479175567627,
    0.7540072798728943,
    -0.9621058106422424,
    0.3552189767360687,
    -1.010300874710083,
    -0.37898772954940796,
    2.566220283508301,
    -0.47429338097572327,
    -0.6868363618850708,
    -0.7664267420768738,
    1.232952356338501,
    0.022421836853027344,
    0.5152071118354797,
    -0.39012226462364197,
    -0.17528632283210754,
    -1.1848516464233398,
    1.1708712577819824,
    -0.14295950531959534,
    0.7973935604095459,
    -0.3831081986427307,
    -0.6305785179138184,
    1.5357569456100464,
    0.3193383514881134,
    0.12170980870723724,
    -0.4653320908546448,
    -0.14006195962429047,
    0.10592734813690186,
    -0.11433880776166916,
    -0.06959625333547592,
    0.35083654522895813,
    0.6493642330169678,
    -0.27670955657958984,
    -0.9291498064994812,
    0.4170306921005249,
    -0.0010751616209745407,
    0.3775966763496399,
    -0.6779462099075317,
    0.1920834332704544,
    -0.5457788705825806,
    0.3804629445075989,
    0.563448965549469,
    -0.24223542213439941,
    0.3861345946788788,
    0.6671110391616821,
    0.5780461430549622,
    0.007753587327897549,
    0.5432937741279602,
    -0.5605649352073669,
    -0.085930734872818,
    -0.2776588797569275,
    -0.8191424608230591,
    0.9708711504936218,
    -0.20432767271995544,
    1.0502052307128906,
    0.4366772770881653,
    -0.21713152527809143,
    -0.44110438227653503,
    0.8945721983909607,
    0.8383147716522217,
    -2.024245023727417,
    -0.13698111474514008,
    1.2444562911987305,
    1.7974205017089844,
    -0.2523118257522583,
    0.635451078414917,
    -0.3468446135520935,
    -0.018224285915493965,
    1.061192274093628,
    0.2840809226036072,
    0.4906126856803894,
    1.9757241010665894,
    -1.7799168825149536,
    0.8839725255966187,
    -0.2308155596256256,
    1.0638723373413086,
    0.2534642815589905,
    1.0143967866897583,
    -1.2366586923599243,
    -0.5628194808959961,
    -0.5590940713882446,
    1.0966193675994873,
    -0.9836854338645935,
    0.06910263001918793,
    0.34276971220970154,
    -0.0091185187920928,
    0.5255235433578491,
    -1.2931249141693115,
    0.0938328206539154,
    0.7361434698104858,
    0.2107740044593811,
    0.7828970551490784,
    0.29739874601364136,
    0.2910298705101013,
    -0.9020888805389404,
    -0.11389660090208054,
    0.2597495913505554,
    0.13475602865219116,
    -0.5700684785842896,
    -0.19812136888504028,
    0.18614327907562256,
    0.3585411012172699,
    0.2637505829334259,
    -1.031113624572754,
    0.20295928418636322,
    -0.3767288029193878,
    -0.8593870401382446,
    -0.33330366015434265,
    -0.6991170644760132,
    1.164981484413147,
    -0.4791022539138794,
    0.9906998872756958,
    -0.2892549932003021,
    -0.7271040678024292,
    -1.1111100912094116,
    -1.2695268392562866,
    0.5889766216278076,
    -0.07909486442804337,
    1.5807832479476929,
    0.21928858757019043,
    -0.1263681948184967,
    0.6392350792884827,
    -1.507276177406311,
    -0.38099053502082825,
    0.7705601453781128,
    0.5036113262176514,
    0.8447709083557129,
    -1.3209277391433716,
    -0.2243734449148178,
    0.32872721552848816,
    -0.4068347215652466,
    -0.6123902797698975,
    0.5664401054382324,
    -0.7578617930412292,
    -0.3251327574253082,
    -0.6634612679481506,
    0.28707101941108704,
    -0.3398812711238861,
    0.8014184832572937,
    -0.03568052500486374,
    0.31940126419067383,
    -0.8679856061935425,
    -0.7015195488929749,
    -0.340760201215744,
    0.6221223473548889,
    0.5174598097801208,
    -0.3039899468421936,
    -0.15078133344650269,
    0.3708651661872864,
    -0.24206213653087616,
    -0.4532555043697357,
    -0.09537864476442337,
    -0.3100283145904541,
    0.8805116415023804,
    -0.0757569968700409,
    0.8494281768798828,
    1.5110609531402588,
    1.5583338737487793,
    0.362297922372818,
    -1.0121262073516846,
    -0.5952795743942261,
    -0.49542441964149475,
    0.12280157208442688,
    -1.1248737573623657,
    1.4816094636917114,
    1.7115122079849243,
    2.011103391647339,
    0.4470525085926056,
    -0.15300199389457703,
    0.4237089157104492,
    0.33861303329467773,
    0.3190547227859497,
    -0.6529598832130432,
    0.10976029932498932,
    -0.8180224299430847,
    0.6954646706581116,
    -0.16243436932563782,
    -0.33426591753959656,
    0.05360747128725052,
    -0.48315635323524475,
    1.1441981792449951,
    0.5792290568351746,
    -1.234579086303711,
    0.7024403810501099,
    -0.36782029271125793,
    -1.618772268295288,
    0.8469333648681641,
    0.10634022951126099,
    -0.15061627328395844,
    0.4658864736557007,
    -0.8798782825469971,
    0.12134211510419846,
    0.29490676522254944,
    -0.41550448536872864,
    -0.2101639062166214,
    0.3934401571750641,
    0.012718075886368752,
    0.0004995610215701163,
    -0.09743675589561462,
    -0.581510603427887,
    -0.27581915259361267,
    0.06405575573444366,
    -0.6094960570335388,
    -0.13308709859848022,
    -0.2423320859670639,
    -0.05420216545462608,
    -0.6620471477508545,
    -0.3962688148021698,
    -0.577238917350769,
    1.2503043413162231,
    -0.14602331817150116,
    0.017387351021170616,
    -0.7026926875114441,
    0.7315269708633423,
    0.6258260607719421,
    -0.6031867861747742,
    0.5461735129356384,
    0.5913842916488647,
    0.018487973138689995,
    0.7316939830780029,
    -0.5688747763633728,
    -0.504037618637085,
    0.2868196964263916,
    0.06385588645935059,
    1.5577434301376343,
    0.2778869867324829,
    0.6663815379142761,
    -0.26076942682266235,
    1.6943882703781128,
    0.5936412811279297,
    0.3466956913471222,
    -0.5440823435783386,
    -1.7826182842254639,
    0.3247908055782318,
    0.42213141918182373,
    0.2208990752696991,
    0.4317561984062195,
    -0.1521693915128708,
    0.8069106936454773,
    -0.3683631420135498,
    -1.429495930671692,
    0.11779877543449402,
    0.9727454781532288,
    0.5072482228279114,
    -1.0928250551223755,
    -0.36509233713150024,
    -1.0783488750457764,
    0.6006925702095032,
    0.015748385339975357,
    -0.871626615524292,
    -0.23455695807933807,
    -0.00690771359950304,
    -0.04424329102039337,
    -0.38148823380470276,
    0.37054094672203064,
    -0.057301297783851624,
    -0.06724786013364792,
    0.7332983016967773,
    -0.07935349643230438,
    0.6680609583854675,
    1.071267008781433,
    0.5821130871772766,
    -0.5537699460983276,
    0.4318200945854187,
    1.1056526899337769,
    -1.023282527923584,
    0.22888228297233582,
    -0.036622125655412674,
    0.42763808369636536,
    -0.4110121726989746,
    0.26429274678230286,
    -0.9824764728546143,
    -0.04449469596147537,
    0.8257735371589661,
    0.07678046077489853,
    -0.8731696605682373,
    -0.05164015665650368,
    -0.23309294879436493,
    -1.082678198814392,
    -0.16385936737060547,
    -1.4686819314956665,
    -0.1782408505678177,
    -0.3953368067741394,
    0.029341211542487144,
    -0.9107401967048645,
    -1.201079249382019,
    -0.33675870299339294,
    -0.8124175071716309,
    1.32127046585083,
    0.5716345906257629,
    -0.5541431307792664,
    0.043464574962854385,
    -1.6747033596038818,
    1.2570924758911133,
    0.15606218576431274,
    -0.445126473903656,
    1.022429347038269,
    0.6288111805915833,
    -0.2671418786048889,
    -0.6335626840591431,
    0.03658682107925415,
    2.1277143955230713,
    0.4390721321105957,
    -1.821624994277954,
    0.2694658637046814,
    -0.8385234475135803,
    -0.5288198590278625,
    -1.8502775430679321,
    1.242506504058838,
    -1.366407036781311,
    0.3449402451515198,
    -1.2722601890563965,
    -0.6978747248649597,
    -0.32812178134918213,
    0.5785257816314697,
    0.008969545364379883,
    0.3007330298423767,
    0.11917207390069962,
    0.976590633392334,
    0.8037102818489075,
    1.3210324048995972,
    -0.3217039406299591,
    0.7577382922172546,
    0.3648974597454071,
    0.9999303221702576,
    0.38872742652893066,
    -0.519180953502655,
    -0.3832383453845978,
    -1.1274210214614868,
    -0.39597558975219727,
    -0.29522505402565,
    -0.14738301932811737,
    0.016678158193826675,
    -0.23032738268375397,
    1.0245486497879028,
    0.32074210047721863,
    -0.2174554020166397,
    0.16191495954990387,
    0.017220821231603622,
    0.1272144615650177,
    0.91665118932724,
    0.3366432189941406,
    -0.2795272767543793,
    -0.1586775928735733,
    0.06132246181368828,
    0.22601087391376495,
    -0.1090625673532486,
    -1.2919378280639648,
    0.8153852820396423,
    -0.1466972976922989,
    -0.631678581237793,
    -1.748103380203247,
    0.08575665950775146,
    -0.748326301574707,
    -0.5637882947921753,
    0.796345055103302,
    -0.3148467540740967,
    0.05424660071730614,
    -0.8183373808860779,
    -0.08921206742525101,
    0.08208263665437698,
    -0.25836411118507385,
    -0.25366726517677307,
    -0.30997398495674133,
    -0.5078322887420654,
    -0.28002098202705383,
    -0.5385125875473022,
    0.26655712723731995,
    -0.1455785632133484,
    0.2765967845916748,
    -1.021903157234192,
    1.1524395942687988,
    -0.18844589591026306,
    -0.13104963302612305,
    0.11019735038280487,
    0.6380743980407715,
    -0.5499359965324402,
    -0.7417552471160889,
    0.3344247341156006,
    -0.5182558298110962,
    0.37243109941482544,
    -0.6658957004547119,
    0.03669685497879982,
    0.1759297400712967,
    -0.024678977206349373,
    -0.4181044101715088,
    0.6108051538467407,
    0.1732283979654312,
    -0.36288660764694214,
    -0.43312954902648926,
    -0.09690377116203308,
    0.5304222702980042,
    -0.2935565412044525,
    -0.5662093758583069,
    0.7200866937637329,
    0.36146506667137146,
    -0.015317539684474468,
    1.072343111038208,
    -0.9610843658447266,
    0.29092907905578613,
    0.06287496536970139,
    -0.06074785068631172,
    0.8826714158058167,
    0.9734982848167419,
    -0.9433811902999878,
    -1.675164818763733,
    0.16263887286186218,
    -0.7620190978050232,
    -0.2917896807193756,
    0.8453464508056641,
    0.08418984711170197,
    0.5022937655448914,
    -0.1619110256433487,
    -0.6282713413238525,
    -0.06134512275457382,
    -0.2805319130420685,
    0.06637237966060638,
    0.932283341884613,
    0.4433601498603821,
    0.021738125011324883,
    0.24610966444015503,
    0.03322048857808113,
    0.1940506547689438,
    -0.011376176960766315,
    -0.20929953455924988,
    0.17747679352760315,
    1.1612919569015503,
    0.12489800155162811,
    0.9083175659179688,
    -0.40620940923690796,
    -0.09526267647743225,
    -0.554304838180542,
    -0.14976420998573303,
    0.7118648886680603,
    -0.6683849692344666,
    0.5523529052734375,
    0.2487436980009079,
    0.5935916900634766,
    0.6754220128059387,
    0.33920037746429443,
    0.5773923993110657,
    -0.9122931361198425,
    0.7355892658233643,
    -0.6386768817901611,
    0.5242971777915955,
    -0.6671723127365112,
    -0.1895257830619812,
    -0.7426819801330566,
    -0.9739428162574768,
    0.6182670593261719,
    -0.26927831768989563,
    0.9510242342948914,
    -0.6534196138381958,
    -0.5568678975105286,
    0.7610765695571899,
    -0.04888816550374031,
    -0.47817012667655945,
    0.2658253312110901,
    0.9342025518417358,
    -0.4055669605731964,
    0.10246426612138748,
    0.6521276235580444,
    -0.02396962232887745,
    0.6300399899482727,
    -0.563703715801239,
    2.1736600399017334,
    -0.668662428855896,
    1.007896900177002,
    0.8992732167243958,
    -0.7100721597671509,
    1.1529617309570312,
    1.4676271677017212,
    -0.39815300703048706,
    -1.1191288232803345,
    -0.23616456985473633,
    -0.38617298007011414,
    -0.1107354462146759,
    -0.09115295857191086,
    -0.7110826969146729,
    0.5955491065979004,
    -0.34624001383781433,
    0.040729306638240814,
    -0.4125716984272003,
    -0.07715525478124619,
    -0.3548007607460022,
    -0.19732041656970978,
    0.22010524570941925,
    0.25304311513900757,
    -0.38719117641448975,
    0.42345213890075684,
    -0.029807073995471,
    0.3331749141216278,
    0.23515264689922333,
    -0.49301615357398987,
    1.139855146408081,
    -0.5100154876708984,
    0.4770187735557556,
    -0.017646169289946556,
    0.18520481884479523,
    -0.06468210369348526,
    -0.20359405875205994,
    -0.7559241652488708,
    -0.6383436918258667,
    -1.035377860069275,
    -0.020849209278821945,
    0.27076584100723267,
    -0.14279499650001526,
    0.3230932950973511,
    0.012894485145807266,
    0.053486861288547516,
    0.8228924870491028,
    -0.4028277099132538,
    0.3406462073326111,
    0.673008382320404,
    0.3073132038116455,
    0.028087828308343887,
    -0.09911112487316132,
    0.2781120538711548,
    -1.2759279012680054,
    0.5165108442306519,
    0.45386597514152527,
    0.4711177945137024,
    -0.001553694368340075,
    -0.0939861610531807,
    -0.22317911684513092,
    -0.9631247520446777,
    -0.24860067665576935,
    -0.04863966628909111,
    -0.40319958329200745,
    -0.24432982504367828,
    -0.9053751826286316,
    -0.5687734484672546,
    0.5870658159255981,
    1.3971155881881714,
    -0.9062316417694092,
    -0.7959800958633423,
    -0.8951411843299866,
    0.3362101912498474,
    -0.5120777487754822,
    0.2050679624080658,
    -0.09410975873470306,
    -0.4479399025440216,
    -0.40168535709381104,
    -0.15736377239227295,
    -0.0033691779244691133,
    1.0495305061340332,
    -0.4162274897098541,
    -0.07837283611297607,
    0.5734996795654297,
    -0.9893410801887512,
    0.25570258498191833,
    -0.09721248596906662,
    -0.23139487206935883,
    -0.22648321092128754,
    -0.3287932574748993,
    -0.24592465162277222,
    0.2885942757129669,
    -0.31419989466667175,
    0.09016939997673035,
    -0.2735770642757416,
    0.6441144347190857,
    -1.283137559890747,
    1.568658709526062,
    -0.7023338675498962,
    0.09572804719209671,
    0.8943398594856262,
    -0.9422001242637634,
    -0.17557448148727417,
    -1.6781537532806396
  ],
  "gru_bias_ih": [
    -1.9688255786895752,
    -0.17473715543746948,
    -1.4304112195968628,
    0.7059254050254822,
    -0.5257309675216675,
    1.1490727663040161,
    0.4387879967689514,
    -0.3667127192020416,
    0.26974520087242126,
    -1.6804121732711792,
    0.31648150086402893,
    -0.4175173044204712,
    1.3758375644683838,
    0.27559468150138855,
    0.8937288522720337,
    -3.0676116943359375,
    -2.3833584785461426,
    -2.477027654647827,
    -0.9058895111083984,
    -2.126018762588501,
    -0.28161150217056274,
    2.0730247497558594,
    -1.6391617059707642,
    -1.125421404838562,
    2.517910957336426,
    -0.3910912573337555,
    -1.3089625835418701,
    -0.835205614566803,
    -0.2269417941570282,
    1.9555635452270508,
    -1.7144898176193237,
    -1.9016786813735962,
    -0.4502708315849304,
    -0.22031700611114502,
    -0.06110847741365433,
    -0.23297762870788574,
    -0.5020595788955688,
    -0.4978501498699188,
    0.21280962228775024,
    0.08312997221946716,
    -0.11810238659381866,
    0.07825249433517456,
    -0.2324194312095642,
    -0.1820708066225052,
    -0.20772656798362732,
    -0.32760417461395264,
    0.13196715712547302,
    -0.23327822983264923
  ],
  "gru_bias_hh": [
    -2.1074442863464355,
    -0.32038208842277527,
    -1.4383289813995361,
    0.6309189796447754,
    -0.3769463300704956,
    0.8842828869819641,
    0.29961085319519043,
    -0.3961676359176636,
    0.04717901721596718,
    -1.5363725423812866,
    0.2690523862838745,
    -0.3781173825263977,
    1.5174670219421387,
    0.2946183681488037,
    0.9899833798408508,
    -2.8460240364074707,
    -2.236823797225952,
    -2.6042263507843018,
    -0.9390190243721008,
    -2.385584592819214,
    -0.6403722763061523,
    1.8700032234191895,
    -1.3773155212402344,
    -1.1254162788391113,
    2.8930106163024902,
    -0.6364832520484924,
    -1.5153225660324097,
    -0.9383735060691833,
    -0.2639545500278473,
    1.77488112449646,
    -2.0928924083709717,
    -1.9619956016540527,
    -1.356595754623413,
    0.9579849243164062,
    -0.7985228896141052,
    0.202913299202919,
    0.634762167930603,
    0.4351155459880829,
    -0.11003532260656357,
    -0.02258067950606346,
    -0.32563352584838867,
    0.1410672813653946,
    0.31575825810432434,
    0.13307376205921173,
    0.12259980291128159,
    -0.0014670751988887787,
    0.16631843149662018,
    0.6866428852081299
  ],
  "example_input": [
    -1.0,
    -0.9411764740943909,
    -0.8823529481887817,
    -0.8235294222831726,
    -0.7647058963775635,
    -0.7058823704719543,
    -0.6470588445663452,
    -0.5882353186607361,
    -0.529411792755127,
    -0.47058823704719543,
    -0.4117647111415863,
    -0.3529411852359772,
    -0.29411762952804565,
    -0.23529411852359772,
    -0.1764705777168274,
    -0.11764705181121826,
    -0.05882352590560913,
    -3.725290298461914e-09,
    0.05882352590560913,
    0.11764705181121826,
    0.1764705777168274,
    0.23529411852359772,
    0.29411762952804565,
    0.3529411852359772,
    0.4117647111415863,
    0.47058823704719543,
    0.529411792755127,
    0.5882353186607361,
    0.6470588445663452,
    0.7058823704719543,
    0.7647058963775635,
    0.8235294222831726,
    0.8823529481887817,
    0.9411764740943909,
    1.0
  ],
  "example_output": [
    -1.7336978912353516,
    -1.368612289428711,
    0.5769627690315247,
    -2.2545464038848877
  ],
  "checkpoint_name": "best_checkpoint_model_859.pt",
  "checkpoint_step": -1,
  "requires_obs_normalization": false,
  "compat_reset_output": [
    0.9058220386505127,
    -0.22205974161624908,
    -0.4579561948776245,
    1.2995365858078003
  ],
  "compat_hover_output": [
    0.9058220386505127,
    -0.22205974161624908,
    -0.4579561948776245,
    1.2995365858078003
  ],
  "export_format": "rl_tools_checkpoint_blob"
}