{
  "observation_dim": 35,
  "action_dim": 4,
  "structure": "mlp_gru",
  "rnn_type": "gru",
  "gru_input_dim": 16,
  "gru_hidden_dim": 16,
  "gru_num_layers": 1,
  "activation": "elu",
  "use_observation_normalization": false,
  "normalization_folded_into_first_layer": false,
  "observation_mean": [
    0.0,
    0.0,
    0.0,
    0.0,
    0.0,
    0.0,
    0.0,
    0.0,
    0.0,
    0.0,
    0.0,
    0.0,
    0.0,
    0.0,
    0.0,
    0.0,
    0.0,
    0.0,
    0.0,
    0.0,
    0.0,
    0.0,
    0.0,
    0.0,
    0.0,
    0.0,
    0.0,
    0.0,
    0.0,
    0.0,
    0.0,
    0.0,
    0.0,
    0.0,
    0.0
  ],
  "observation_inv_std": [
    1.0,
    1.0,
    1.0,
    1.0,
    1.0,
    1.0,
    1.0,
    1.0,
    1.0,
    1.0,
    1.0,
    1.0,
    1.0,
    1.0,
    1.0,
    1.0,
    1.0,
    1.0,
    1.0,
    1.0,
    1.0,
    1.0,
    1.0,
    1.0,
    1.0,
    1.0,
    1.0,
    1.0,
    1.0,
    1.0,
    1.0,
    1.0,
    1.0,
    1.0,
    1.0
  ],
  "actor_encoder_dims": [
    35,
    16,
    16
  ],
  "actor_encoder_activations": [
    "elu",
    "identity"
  ],
  "actor_head_dims": [
    16,
    4
  ],
  "actor_head_activations": [
    "sigmoid"
  ],
  "actor_encoder_weights": [
    [
      0.7483749985694885,
      2.067669153213501,
      0.8983893990516663,
      -0.11769184470176697,
      0.19361825287342072,
      1.5033140182495117,
      0.4570314586162567,
      0.2403479814529419,
      1.5312355756759644,
      -0.9074438214302063,
      -0.8874987363815308,
      -0.20051337778568268,
      -1.782365083694458,
      -1.2483383417129517,
      0.20970770716667175,
      0.5971815586090088,
      -0.1564166098833084,
      0.3212662935256958,
      -1.575778603553772,
      0.6021135449409485,
      0.4882599115371704,
      -0.36186420917510986,
      -0.4406626224517822,
      0.11440067738294601,
      -0.1577572077512741,
      -0.13552048802375793,
      0.30394190549850464,
      0.4092274010181427,
      0.6031908988952637,
      -0.15065708756446838,
      -0.54754239320755,
      -0.1893300712108612,
      0.36875665187835693,
      0.13533249497413635,
      0.20138365030288696,
      0.13621413707733154,
      1.122538685798645,
      -4.2499823570251465,
      -0.06004142388701439,
      -0.6610535383224487,
      -0.21976891160011292,
      -0.03157887980341911,
      0.23769095540046692,
      1.5913770198822021,
      0.26997166872024536,
      -1.6837162971496582,
      0.20886273682117462,
      0.3206828832626343,
      -1.6714059114456177,
      0.04717281460762024,
      -0.7064152359962463,
      0.03639240935444832,
      -1.7865960597991943,
      -0.639877200126648,
      -0.35308319330215454,
      0.2794264853000641,
      -0.04280410334467888,
      -0.2828637659549713,
      -0.20930586755275726,
      0.08559384196996689,
      0.0684107318520546,
      -0.7931711673736572,
      0.1146693304181099,
      0.17207948863506317,
      0.20742763578891754,
      -1.1475626230239868,
      0.05664155259728432,
      0.2568966746330261,
      0.24869847297668457,
      0.06897827237844467,
      -1.2717851400375366,
      1.6811332702636719,
      -3.177468776702881,
      0.04288903996348381,
      -0.17339029908180237,
      -1.5891813039779663,
      0.2714637517929077,
      -0.10173263400793076,
      1.1429686546325684,
      1.4148635864257812,
      -0.6127081513404846,
      0.03030368499457836,
      1.5534261465072632,
      -1.116045355796814,
      0.06991200894117355,
      -0.8513918519020081,
      1.6582300662994385,
      -4.417179107666016,
      -0.23535770177841187,
      -0.301498681306839,
      0.15679623186588287,
      -0.11407217383384705,
      0.041586294770240784,
      0.008543846197426319,
      0.025881966575980186,
      0.20376555621623993,
      0.12175516039133072,
      -0.45926088094711304,
      -0.16803014278411865,
      -0.21676239371299744,
      0.33854785561561584,
      -0.05668412894010544,
      0.4106086194515228,
      0.19576895236968994,
      0.13159072399139404,
      0.8578043580055237,
      5.120105266571045,
      -0.23541752994060516,
      -0.14364491403102875,
      0.07647804915904999,
      0.1310350000858307,
      1.242435097694397,
      0.14511176943778992,
      3.0343523025512695,
      0.1949736624956131,
      -2.6987156867980957,
      0.08279359340667725,
      0.035102810710668564,
      -2.7410082817077637,
      -0.1731852889060974,
      0.8023254871368408,
      4.195901870727539,
      0.16004006564617157,
      -0.4789675772190094,
      0.10363620519638062,
      0.7806209325790405,
      -0.30772650241851807,
      0.052838098257780075,
      0.016737710684537888,
      0.027044998481869698,
      -0.30572059750556946,
      0.10669632256031036,
      -0.08027757704257965,
      -0.4388505220413208,
      -0.3483102321624756,
      0.20031706988811493,
      -0.25292935967445374,
      0.3140164911746979,
      0.16689567267894745,
      -0.4219212532043457,
      3.1964457035064697,
      -2.5776636600494385,
      -0.14739897847175598,
      -0.300106018781662,
      -0.39143142104148865,
      1.8521102666854858,
      0.0637761801481247,
      -0.14087367057800293,
      -1.342199444770813,
      -1.502691626548767,
      0.3212457597255707,
      0.07582100480794907,
      -1.9107414484024048,
      1.1665695905685425,
      -0.13186585903167725,
      1.465071678161621,
      -0.02643422782421112,
      0.11551102250814438,
      0.09949832409620285,
      0.5745247602462769,
      0.5159774422645569,
      -0.003536669071763754,
      -0.2536509931087494,
      -0.013882322236895561,
      -0.08449854701757431,
      0.5696857571601868,
      -0.14289619028568268,
      -0.01075549703091383,
      -0.24305111169815063,
      -0.29168614745140076,
      0.5912049412727356,
      0.8211632370948792,
      -0.6158640384674072,
      -0.4696584641933441,
      0.6508966684341431,
      2.6706008911132812,
      -1.9818639755249023,
      -2.5835301876068115,
      -0.05824214592576027,
      0.2662859559059143,
      1.8394113779067993,
      0.015400337055325508,
      -0.0952671691775322,
      -0.8017441034317017,
      -1.0291016101837158,
      0.14634259045124054,
      -0.06241941452026367,
      -1.906844973564148,
      0.8253499269485474,
      0.06085025891661644,
      0.5288678407669067,
      -1.4909305572509766,
      -1.743536114692688,
      -0.5256819725036621,
      0.30569034814834595,
      -0.5557907819747925,
      0.04054161161184311,
      0.21972240507602692,
      -0.031407687813043594,
      0.250607967376709,
      -0.17608168721199036,
      0.22104419767856598,
      -0.15529684722423553,
      -0.32676783204078674,
      0.051954805850982666,
      0.6534028649330139,
      0.43069154024124146,
      -0.46917128562927246,
      0.23033644258975983,
      0.14585189521312714,
      3.0239417552948,
      -0.8040990233421326,
      1.8594374656677246,
      -0.2735620141029358,
      0.05082165449857712,
      0.7650138139724731,
      -0.34475985169410706,
      0.14563950896263123,
      -0.2942233979701996,
      0.4340703785419464,
      -0.17174440622329712,
      0.10394370555877686,
      -0.39165008068084717,
      0.4167509078979492,
      -0.312936931848526,
      0.6005061864852905,
      0.04604463651776314,
      0.6068485975265503,
      0.17871496081352234,
      0.37057024240493774,
      -0.3609004616737366,
      -1.2883504629135132,
      -0.9069151282310486,
      -0.07722091674804688,
      0.059553150087594986,
      -0.3260781466960907,
      -0.2444762885570526,
      0.045447319746017456,
      -0.474301815032959,
      -0.004234854597598314,
      0.15133348107337952,
      0.02592611126601696,
      0.18299981951713562,
      0.23126287758350372,
      0.06527110934257507,
      -3.0618414878845215,
      -2.599203109741211,
      -2.1945419311523438,
      -0.3301652669906616,
      -0.9379106760025024,
      -1.4899511337280273,
      -0.5254269242286682,
      0.13187727332115173,
      -2.099174737930298,
      1.2017768621444702,
      0.38206762075424194,
      -0.36517220735549927,
      1.648193359375,
      2.3897135257720947,
      0.37421914935112,
      -1.414775013923645,
      -1.8546403646469116,
      -1.5688977241516113,
      -0.22141093015670776,
      0.01058629248291254,
      0.0071048433892428875,
      -0.035020846873521805,
      0.3132336735725403,
      -0.051164478063583374,
      -0.07564107328653336,
      1.165203332901001,
      0.04627197980880737,
      -0.45450127124786377,
      -0.015920070931315422,
      0.7440287470817566,
      0.041682854294776917,
      0.4698678255081177,
      -0.2738775908946991,
      -0.42068806290626526,
      0.8725916743278503,
      -0.6107372641563416,
      6.086824417114258,
      1.1608850955963135,
      0.025170089676976204,
      0.17821814119815826,
      -0.7539059519767761,
      -0.9892587065696716,
      -0.10800769925117493,
      2.4174623489379883,
      -0.1349724531173706,
      -2.68908953666687,
      0.07604606449604034,
      0.7350137829780579,
      -2.518281936645508,
      -0.013274600729346275,
      -0.25783902406692505,
      3.0921101570129395,
      0.9803856611251831,
      -1.0543590784072876,
      -0.28342410922050476,
      -0.5450176000595093,
      0.20946231484413147,
      -0.07880095392465591,
      -0.048384957015514374,
      0.011319668032228947,
      -0.02491316758096218,
      -0.10095732659101486,
      0.06072375178337097,
      0.03358903527259827,
      0.21555018424987793,
      0.4053657352924347,
      -0.365859717130661,
      0.3084391951560974,
      0.49396243691444397,
      -0.35113486647605896,
      0.16655290126800537,
      -1.5363277196884155,
      -0.5216715335845947,
      0.31838929653167725,
      -3.571338653564453,
      -0.11032028496265411,
      3.906167507171631,
      0.007296306546777487,
      -0.20783179998397827,
      0.2698436379432678,
      -0.0014221803285181522,
      0.14340732991695404,
      0.043235547840595245,
      0.0399630069732666,
      -0.13718409836292267,
      -0.18164165318012238,
      -0.41136184334754944,
      0.15441763401031494,
      0.20232568681240082,
      -0.022339891642332077,
      4.193665027618408,
      0.05651946738362312,
      0.1112084835767746,
      0.030024388805031776,
      -0.03907938674092293,
      -0.08843988180160522,
      0.08025699108839035,
      -0.020025035366415977,
      0.015058724209666252,
      0.3421359658241272,
      0.1783772110939026,
      -0.04344242066144943,
      0.09640132635831833,
      -0.009561710059642792,
      -0.24393615126609802,
      4.934931755065918,
      0.8047038316726685,
      -0.2000303417444229,
      0.13347595930099487,
      -0.35072505474090576,
      2.3921477794647217,
      -0.06229643523693085,
      -0.29027730226516724,
      -0.41837915778160095,
      -0.6227566599845886,
      -0.22477012872695923,
      -0.0002463274577166885,
      -2.156522035598755,
      0.558767557144165,
      0.09023110568523407,
      4.9961090087890625,
      -0.1994825154542923,
      -1.0996681451797485,
      0.021835997700691223,
      -0.6332962512969971,
      0.36722782254219055,
      -0.09701935201883316,
      0.11208324879407883,
      -0.07934935390949249,
      0.019213935360312462,
      0.3135382831096649,
      -0.513799786567688,
      0.016439305618405342,
      -0.23269955813884735,
      0.024393223226070404,
      -0.08804818987846375,
      0.4986392855644226,
      -0.45458734035491943,
      0.45401090383529663,
      -0.4109077751636505,
      0.8202294707298279,
      0.6339558959007263,
      0.6405667066574097,
      -0.3788570761680603,
      0.8922243118286133,
      -0.8095290064811707,
      -1.547696828842163,
      -0.30338791012763977,
      -1.6981533765792847,
      0.4112531542778015,
      0.5660961270332336,
      -0.8017550706863403,
      0.8441673517227173,
      1.81304931640625,
      0.7033095955848694,
      2.307190418243408,
      2.0628280639648438,
      1.7220419645309448,
      1.591218113899231,
      -0.855443000793457,
      -0.2716323733329773,
      0.3071131706237793,
      -0.4445352554321289,
      -0.14765805006027222,
      0.1287655383348465,
      -0.12903818488121033,
      -0.5137044787406921,
      1.0415873527526855,
      -0.6894766688346863,
      -0.14401157200336456,
      0.5124577283859253,
      0.047697074711322784,
      -0.06720401346683502,
      -0.43342816829681396,
      0.32866883277893066,
      2.598916530609131,
      0.6115872859954834,
      0.17367148399353027,
      -0.048347242176532745,
      0.6867089867591858,
      2.0955140590667725,
      -0.12393107265233994,
      -0.19080506265163422,
      0.8329771757125854,
      -0.5254824161529541,
      0.37502944469451904,
      -0.4759332537651062,
      -2.198580741882324,
      -0.669884443283081,
      0.18335019052028656,
      1.2195405960083008,
      0.2665118873119354,
      -0.1803574115037918,
      0.07376634329557419,
      1.4358140230178833,
      -0.8186771273612976,
      0.3324594497680664,
      0.46646514534950256,
      0.06094938516616821,
      -0.043050795793533325,
      0.3194206953048706,
      0.5865621566772461,
      0.5121419429779053,
      -0.17803263664245605,
      -0.04788966476917267,
      -0.6139432191848755,
      -0.3444984257221222,
      -0.15771707892417908,
      0.5250145792961121,
      -0.3764787018299103,
      -4.7012224197387695,
      -0.4039766788482666,
      0.8414036631584167,
      0.23514530062675476,
      0.33655160665512085,
      -3.305128335952759,
      -0.27192071080207825,
      -0.07264778017997742,
      -0.6168420910835266,
      1.6805025339126587,
      -0.14959639310836792,
      0.22441637516021729,
      3.2890567779541016,
      0.7893919348716736,
      -0.22083976864814758,
      -3.019566774368286,
      -0.5317209959030151,
      0.7392130494117737,
      0.22723208367824554,
      -1.1546566486358643,
      -0.19260135293006897,
      -0.09805615991353989,
      -0.031903479248285294,
      0.005823131185024977,
      0.01232499536126852,
      0.2899947166442871,
      -0.5009839534759521,
      0.06611719727516174,
      -0.38417571783065796,
      -0.38082271814346313,
      -0.4059652090072632,
      -0.1432608664035797,
      -0.11589270830154419,
      -0.1898518204689026,
      0.22437062859535217,
      1.5417819023132324,
      -2.3741090297698975,
      -0.40421196818351746,
      -0.27278074622154236,
      -0.1446560174226761,
      -1.834407091140747,
      1.1384751796722412,
      -0.03730606287717819,
      -0.15632043778896332,
      1.4501234292984009,
      0.9110446572303772,
      -0.4056137800216675,
      1.4796708822250366,
      0.1487492322921753,
      0.2465018481016159,
      2.9698660373687744,
      -1.49897038936615,
      0.9482879638671875,
      -0.3139137327671051,
      -2.6280770301818848,
      1.198133111000061,
      0.08213461190462112,
      -0.889846682548523,
      0.1708465963602066,
      0.10075869411230087,
      0.8133988976478577,
      -0.7672741413116455,
      -1.1450186967849731,
      0.5870664119720459,
      -0.7751941680908203,
      -0.09182631969451904,
      -0.8100444674491882,
      0.0013158922083675861,
      0.1423242688179016,
      -0.6350703835487366,
      1.1136362552642822,
      0.5497943162918091,
      -7.0866498947143555,
      -0.2219836264848709,
      -0.5655702948570251,
      1.8399707078933716,
      -0.31168457865715027,
      0.08890853077173233,
      -0.3182046711444855,
      -0.8671481609344482,
      0.06732886284589767,
      -0.275247722864151,
      -1.5983614921569824,
      0.2916732430458069,
      -0.05466555058956146,
      0.3099403381347656,
      0.14968205988407135,
      -3.2792248725891113,
      0.55890291929245,
      0.22384892404079437,
      0.4333486557006836,
      0.003207429079338908,
      -0.11247742921113968,
      0.039712291210889816,
      -0.09151797741651535,
      -0.03355954587459564,
      -0.1299504041671753,
      0.2671200633049011,
      0.7492076754570007,
      0.10123175382614136,
      -0.6163694858551025,
      -0.02037368342280388,
      0.3887909948825836,
      0.3919600248336792,
      -0.17706765234470367
    ],
    [
      -0.060591571033000946,
      0.009464907459914684,
      -0.043295927345752716,
      -0.30003803968429565,
      -0.023522911593317986,
      -0.3276049792766571,
      0.05529840663075447,
      0.26470834016799927,
      -0.015590248629450798,
      0.11844176054000854,
      -0.034011028707027435,
      -0.08933720737695694,
      0.2564697563648224,
      -0.17308972775936127,
      -0.1223912462592125,
      0.38756823539733887,
      0.15294110774993896,
      -0.00160131580196321,
      -0.10093515366315842,
      0.007473640609532595,
      0.5022153854370117,
      0.325761079788208,
      0.5379570126533508,
      0.053793080151081085,
      -0.378885418176651,
      0.666131317615509,
      0.6279849410057068,
      -0.23330819606781006,
      0.2703167498111725,
      -0.6448502540588379,
      -0.40904849767684937,
      0.10144797712564468,
      0.00045007705921307206,
      -0.30822017788887024,
      -0.1498079001903534,
      0.1615561991930008,
      -0.3749459385871887,
      -0.05147738754749298,
      -0.10710551589727402,
      0.10713718086481094,
      -0.41704702377319336,
      0.1523926556110382,
      -0.03411716967821121,
      0.2704545855522156,
      0.2725071907043457,
      0.19903947412967682,
      0.14576831459999084,
      0.6189846992492676,
      0.5077336430549622,
      -0.02628205344080925,
      -0.2162274867296219,
      -0.28688541054725647,
      -0.02503957226872444,
      -0.03673572838306427,
      -0.38269534707069397,
      -0.15346835553646088,
      0.03369058296084404,
      0.11485700309276581,
      0.32778921723365784,
      0.12917636334896088,
      -0.254894495010376,
      -0.17214778065681458,
      -0.26130688190460205,
      -0.1576143354177475,
      -0.24834169447422028,
      0.14570994675159454,
      -0.07952097058296204,
      0.03849256411194801,
      -0.21135899424552917,
      -0.0008963975124061108,
      0.08708034455776215,
      -0.24475568532943726,
      0.12977911531925201,
      -0.0513407438993454,
      -0.0947842076420784,
      -0.11608704179525375,
      0.09519018977880478,
      0.05539555847644806,
      -0.11873432248830795,
      0.14315342903137207,
      0.09518250077962875,
      -0.2879756987094879,
      -0.36653363704681396,
      0.05579020455479622,
      -0.09741633385419846,
      -0.1706940084695816,
      0.22960394620895386,
      -0.4792371690273285,
      0.0405006930232048,
      -0.32498717308044434,
      0.15052247047424316,
      -0.37063512206077576,
      -0.024537356570363045,
      -0.9286373257637024,
      -0.32728588581085205,
      -0.12263187021017075,
      0.3627084791660309,
      -0.34664806723594666,
      -1.06632399559021,
      0.22842153906822205,
      0.07167289406061172,
      -0.16574090719223022,
      0.38359764218330383,
      0.0676320493221283,
      -0.06731949746608734,
      -0.2570388615131378,
      0.009341354481875896,
      -0.13616712391376495,
      0.3130030930042267,
      -0.13283665478229523,
      -0.2034933865070343,
      -0.8138087391853333,
      0.07504456490278244,
      -0.2330467253923416,
      0.1663205623626709,
      0.16258808970451355,
      0.43453043699264526,
      0.13349705934524536,
      -0.09791485220193863,
      0.13466081023216248,
      -0.23130936920642853,
      -0.11344749480485916,
      0.14065033197402954,
      0.03268041834235191,
      0.33103564381599426,
      0.6572040319442749,
      0.15012776851654053,
      0.11797209829092026,
      0.14477044343948364,
      0.22266502678394318,
      0.37343141436576843,
      -0.2976875603199005,
      -0.24240583181381226,
      -0.01527516357600689,
      -0.3593465983867645,
      0.28295639157295227,
      -0.3770926296710968,
      -0.4856412708759308,
      0.20640823245048523,
      -0.15558908879756927,
      -0.4529449939727783,
      -0.31236860156059265,
      -0.17780449986457825,
      -0.14849206805229187,
      -0.09911767393350601,
      -0.03192303702235222,
      -0.02917315438389778,
      -0.8973771929740906,
      0.010753068141639233,
      0.06972672790288925,
      0.31177762150764465,
      0.18761950731277466,
      -1.222263216972351,
      -0.18954120576381683,
      0.06698893755674362,
      0.3060654401779175,
      0.18230608105659485,
      -0.1753602921962738,
      -0.15961715579032898,
      0.1846882402896881,
      0.3007788360118866,
      -0.004308004397898912,
      -0.19291110336780548,
      -0.1869896501302719,
      0.11777087301015854,
      -0.12818187475204468,
      -0.18643318116664886,
      -0.2756112515926361,
      -0.24671174585819244,
      -0.024406468495726585,
      0.36858195066452026,
      0.008053665049374104,
      0.25097277760505676,
      0.41787514090538025,
      -0.26420897245407104,
      0.13605672121047974,
      0.3930297791957855,
      -0.22596748173236847,
      0.3826567828655243,
      0.14208883047103882,
      0.013515211641788483,
      -0.17222252488136292,
      -0.23067134618759155,
      0.2766959071159363,
      -0.07888511568307877,
      0.17892353236675262,
      -0.7956145405769348,
      0.01752437651157379,
      0.02895345166325569,
      -0.01138976402580738,
      0.09362899512052536,
      0.09899880737066269,
      0.11340693384408951,
      0.20327472686767578,
      -0.3556120991706848,
      -0.03213522955775261,
      -0.40280064940452576,
      -0.1524088978767395,
      -0.09593842923641205,
      -0.3163681626319885,
      0.2605460286140442,
      0.6267758011817932,
      -0.019973237067461014,
      -0.15932965278625488,
      -0.18262231349945068,
      -0.24476563930511475,
      0.11982770264148712,
      -0.7537517547607422,
      0.5683667063713074,
      0.37120166420936584,
      0.5317333340644836,
      0.57294100522995,
      0.05967443808913231,
      0.15422675013542175,
      0.08686293661594391,
      -0.015576986595988274,
      0.5226098299026489,
      -0.40290337800979614,
      0.4057600498199463,
      -0.5899491906166077,
      0.6569655537605286,
      -0.27106529474258423,
      -0.10551013052463531,
      0.329296350479126,
      -0.00025581876980140805,
      0.35433530807495117,
      -0.28026649355888367,
      -0.45647087693214417,
      0.15824848413467407,
      0.24701862037181854,
      -0.347251296043396,
      0.2376442849636078,
      0.18685826659202576,
      -0.14378784596920013,
      -0.14840759336948395,
      -0.3936326503753662,
      -0.03469368442893028,
      0.4514630436897278,
      0.30784034729003906,
      -0.34998059272766113,
      0.3269365131855011,
      -0.13692818582057953,
      0.1886674016714096,
      -0.13777035474777222,
      0.2080664187669754,
      0.03449275717139244,
      0.012909096665680408,
      -0.03186023607850075,
      0.06372761726379395,
      0.055883511900901794,
      -0.005808667745441198,
      0.01788077875971794,
      -0.08266131579875946,
      0.13328273594379425,
      0.0685991644859314,
      0.012603026814758778
    ]
  ],
  "actor_encoder_biases": [
    [
      -0.12342703342437744,
      -0.17908501625061035,
      0.06939250230789185,
      -0.034425586462020874,
      0.2240494042634964,
      -0.26523441076278687,
      0.1546028107404709,
      0.21324394643306732,
      -0.070176862180233,
      -0.20344649255275726,
      -0.023675482720136642,
      -0.3908866047859192,
      -0.10999352484941483,
      -0.1345694363117218,
      -0.06706645339727402,
      0.26361867785453796
    ],
    [
      -0.12105023860931396,
      -0.10569027066230774,
      0.24073447287082672,
      0.05522045120596886,
      -0.2150416076183319,
      0.04900263994932175,
      0.0979074239730835,
      0.1681748479604721,
      0.176009401679039,
      -0.0009419958223588765,
      0.017252378165721893,
      -0.018116988241672516,
      -0.22465136647224426,
      -0.1538410633802414,
      0.07953891158103943,
      0.09162965416908264
    ]
  ],
  "actor_head_weights": [
    [
      1.333008885383606,
      -0.5710713863372803,
      -0.12396607547998428,
      -0.3298431932926178,
      -0.05652279779314995,
      1.27340829372406,
      -0.9794802069664001,
      -0.05628165975213051,
      -0.05207202211022377,
      0.44780319929122925,
      0.07234461605548859,
      -1.6133331060409546,
      0.30569157004356384,
      -0.12764078378677368,
      -0.3334919512271881,
      0.5044066309928894,
      0.08227670937776566,
      -0.1722656637430191,
      0.2041437327861786,
      0.4909079372882843,
      -0.2308807373046875,
      -1.090604305267334,
      -0.6402627825737,
      0.5728601813316345,
      -0.03312045335769653,
      0.17666655778884888,
      0.726267397403717,
      0.6385604739189148,
      -0.6647918224334717,
      -0.06882648169994354,
      -1.5692213773727417,
      -0.00839297752827406,
      -0.5415557622909546,
      -0.37843579053878784,
      -0.3412250578403473,
      -0.2565018832683563,
      -0.4516809284687042,
      -1.4379663467407227,
      -1.36885666847229,
      -0.19895240664482117,
      -0.15380744636058807,
      0.6148360371589661,
      -0.9711564779281616,
      -0.9642613530158997,
      0.9654682874679565,
      0.2491156905889511,
      0.046831585466861725,
      -0.2861535847187042,
      -0.22271563112735748,
      -0.16739636659622192,
      -0.10140800476074219,
      0.3180064857006073,
      0.3133862316608429,
      1.1738141775131226,
      -0.947326123714447,
      -0.14138555526733398,
      -0.03595560044050217,
      0.1838858425617218,
      0.2665866017341614,
      1.5360037088394165,
      -1.0365493297576904,
      1.089048147201538,
      0.7346371412277222,
      0.4968351125717163
    ]
  ],
  "actor_head_biases": [
    [
      0.2067401260137558,
      0.8143123984336853,
      0.39265716075897217,
      0.17165987193584442
    ]
  ],
  "gru_weight_ih": [
    -0.09473095834255219,
    1.4772361516952515,
    -0.6758334636688232,
    -0.3856409192085266,
    0.6424059867858887,
    -0.18032868206501007,
    0.006955426186323166,
    -0.00037510754191316664,
    -1.2368470430374146,
    0.5045489072799683,
    0.36428356170654297,
    -0.011971634812653065,
    0.18028543889522552,
    -0.5521124601364136,
    -3.0000255719642155e-05,
    -0.34231576323509216,
    -1.036064863204956,
    1.0433419942855835,
    -2.883415699005127,
    1.5755549669265747,
    0.1059890165925026,
    0.8973116874694824,
    3.169710874557495,
    0.8277461528778076,
    -0.8319216966629028,
    1.1696560382843018,
    0.8742080926895142,
    -1.262658715248108,
    1.1522318124771118,
    0.3441014289855957,
    2.23118257522583,
    -1.6491482257843018,
    0.0050926608964800835,
    1.3000835180282593,
    0.9903688430786133,
    -0.478981077671051,
    -0.5536873936653137,
    -0.2809080183506012,
    -0.1731395572423935,
    0.2901507616043091,
    0.36964282393455505,
    -1.0115673542022705,
    -0.21219083666801453,
    -0.056420810520648956,
    0.3282265067100525,
    -1.0630768537521362,
    -0.3734445571899414,
    0.19867555797100067,
    0.4634702801704407,
    0.3113388121128082,
    -1.3299072980880737,
    -0.3627806007862091,
    0.16898708045482635,
    0.852081298828125,
    0.06594854593276978,
    -0.7560244202613831,
    1.697361707687378,
    -2.0090219974517822,
    -0.22343823313713074,
    -0.25035300850868225,
    0.6809840798377991,
    -0.9020062685012817,
    0.4408953785896301,
    -0.2573396861553192,
    1.4931069612503052,
    -0.5349286198616028,
    -0.5667780041694641,
    0.1614045798778534,
    0.5352401733398438,
    1.2549129724502563,
    0.19958989322185516,
    -2.030359983444214,
    2.1680452823638916,
    -0.04379227012395859,
    -0.42361414432525635,
    -0.12591683864593506,
    -1.4261393547058105,
    0.34647446870803833,
    0.37613317370414734,
    -0.21274837851524353,
    0.028647348284721375,
    1.1461520195007324,
    0.4940250813961029,
    -0.4227553606033325,
    -0.04890083521604538,
    -0.2543696463108063,
    0.9543352127075195,
    0.3742947280406952,
    0.07204725593328476,
    -0.7377035021781921,
    0.0324963741004467,
    -1.0436326265335083,
    -0.20572485029697418,
    -0.23288631439208984,
    0.1325768530368805,
    0.040460605174303055,
    0.030438628047704697,
    -0.10530879348516464,
    0.6269459128379822,
    0.7535678744316101,
    -0.8782246708869934,
    -0.8134808540344238,
    -0.47248610854148865,
    0.0031610424630343914,
    0.35902437567710876,
    1.1172770261764526,
    -0.1558091640472412,
    -0.4683871269226074,
    0.34988832473754883,
    -0.5065777897834778,
    0.2348496913909912,
    0.44833293557167053,
    -0.8401183485984802,
    1.717863917350769,
    0.029355186969041824,
    0.2509939968585968,
    0.12504437565803528,
    -0.9192729592323303,
    -0.5898322463035583,
    1.2798006534576416,
    -0.9137681722640991,
    -0.8862873315811157,
    -0.4013182520866394,
    -0.798444390296936,
    1.8015830516815186,
    -0.00944263581186533,
    -1.9592698812484741,
    -0.04731987789273262,
    -1.0702496767044067,
    -0.2568286061286926,
    -1.6948543787002563,
    -3.005089521408081,
    1.1469721794128418,
    -0.29383185505867004,
    0.9279265403747559,
    0.5236247777938843,
    -0.71146160364151,
    -0.71481853723526,
    -0.247902974486351,
    -0.38479524850845337,
    -0.1768523007631302,
    1.9278532266616821,
    -0.9103003144264221,
    -0.8950164318084717,
    0.9801367521286011,
    2.9036648273468018,
    0.6789760589599609,
    1.699743390083313,
    -0.8362132906913757,
    0.6817449927330017,
    1.1642447710037231,
    0.8461347818374634,
    -0.576630711555481,
    0.827746570110321,
    0.7720135450363159,
    0.8483281135559082,
    -1.170219898223877,
    0.2702923119068146,
    -2.7687554359436035,
    -0.40275275707244873,
    1.3404042720794678,
    0.8908116817474365,
    2.032463550567627,
    1.937660574913025,
    1.9906381368637085,
    2.422358989715576,
    -0.311263769865036,
    -1.5087355375289917,
    0.2950213849544525,
    -0.44874823093414307,
    0.7460504174232483,
    0.33765456080436707,
    2.286498546600342,
    -0.16754750907421112,
    0.4082579016685486,
    -0.13752834498882294,
    -0.38985711336135864,
    0.45492345094680786,
    0.31791746616363525,
    -1.0763051509857178,
    -0.1510045826435089,
    -0.4201302230358124,
    1.249208688735962,
    0.09228772670030594,
    -0.4586915969848633,
    0.13359196484088898,
    -0.6995992064476013,
    -0.796262264251709,
    -0.1689082235097885,
    0.1026320680975914,
    0.6244072318077087,
    -0.2107405811548233,
    0.14152947068214417,
    -0.23043125867843628,
    0.8539964556694031,
    -0.4147475063800812,
    0.09258531779050827,
    -0.792614758014679,
    -0.10339055955410004,
    0.18796637654304504,
    1.323333978652954,
    0.17967863380908966,
    0.5036653876304626,
    0.7438636422157288,
    -0.4226601719856262,
    0.017848962917923927,
    0.629784107208252,
    0.39674171805381775,
    -1.2295538187026978,
    0.1787434220314026,
    0.3182772397994995,
    -0.8553376197814941,
    0.5052133202552795,
    -1.4052352905273438,
    1.4105339050292969,
    -0.21182909607887268,
    -0.5550125241279602,
    1.7951024770736694,
    -0.4261687397956848,
    0.003271786728873849,
    2.0856266021728516,
    0.306130051612854,
    0.08695074915885925,
    -0.3911272883415222,
    0.5228513479232788,
    0.5353572964668274,
    0.03979174420237541,
    -0.44831469655036926,
    0.42341312766075134,
    0.054711781442165375,
    0.07553258538246155,
    -0.5563842058181763,
    -1.0895079374313354,
    0.07202545553445816,
    -0.9307243824005127,
    0.12078308314085007,
    0.40165892243385315,
    -1.1206151247024536,
    -0.4873265326023102,
    -0.1510525792837143,
    -0.20144328474998474,
    -0.49097591638565063,
    -2.048297643661499,
    -1.3703763484954834,
    -0.35814204812049866,
    -0.12232044339179993,
    0.5944833755493164,
    -1.2957652807235718,
    0.20214930176734924,
    2.3543477058410645,
    -1.0103003978729248,
    -0.6882568001747131,
    0.14477157592773438,
    0.7766111493110657,
    0.02621408738195896,
    -0.017468977719545364,
    -0.23706012964248657,
    0.43510758876800537,
    -0.3933050036430359,
    -0.01636875793337822,
    -0.07069174200296402,
    -0.9009712338447571,
    0.1399143487215042,
    0.09102561324834824,
    0.3304069936275482,
    0.8393059968948364,
    -0.13966824114322662,
    -0.6006842851638794,
    0.2902933657169342,
    -0.19254125654697418,
    0.14330582320690155,
    0.25981205701828003,
    0.5412498116493225,
    0.4249489903450012,
    1.7107137441635132,
    0.4147048890590668,
    1.274448275566101,
    0.3440003991127014,
    1.2214614152908325,
    -2.0766994953155518,
    0.4809615910053253,
    -0.11655021458864212,
    -0.7395795583724976,
    0.2101103663444519,
    1.1906909942626953,
    -0.47160956263542175,
    -2.1074442863464355,
    -1.5816949605941772,
    -1.0509968996047974,
    -0.5545142889022827,
    -1.7322574853897095,
    0.16834741830825806,
    0.024979379028081894,
    1.622427225112915,
    1.455859661102295,
    0.690212070941925,
    -0.24657806754112244,
    -0.060887739062309265,
    -1.2963205575942993,
    -1.1220661401748657,
    0.08395440131425858,
    -0.20425404608249664,
    -0.6149367690086365,
    -1.3362034559249878,
    0.20146581530570984,
    0.022543374449014664,
    0.41652345657348633,
    0.11558447778224945,
    -1.407122254371643,
    -1.8949801921844482,
    -1.598307490348816,
    0.7676122188568115,
    -1.3366886377334595,
    0.10812261700630188,
    -0.2572152316570282,
    -1.245082974433899,
    0.19041502475738525,
    -1.3744022846221924,
    0.20280225574970245,
    -0.6534959077835083,
    0.41160690784454346,
    0.07644059509038925,
    0.06125268712639809,
    0.5869297385215759,
    1.8651565313339233,
    0.513398289680481,
    -0.06498811393976212,
    -0.828862190246582,
    0.2615680992603302,
    -0.1546485871076584,
    -0.2275419384241104,
    1.4674187898635864,
    0.9450973868370056,
    -0.5919725298881531,
    -0.059027452021837234,
    -0.6521056294441223,
    0.303333044052124,
    -0.12334462255239487,
    -0.01221828069537878,
    -0.22991006076335907,
    0.11962904036045074,
    0.5708827376365662,
    0.41397982835769653,
    -0.2758415937423706,
    0.4734722673892975,
    -0.0955839529633522,
    0.2684914767742157,
    -0.30445316433906555,
    0.41245022416114807,
    -0.34081053733825684,
    0.08872350305318832,
    -0.4310965836048126,
    0.32233431935310364,
    -0.6474417448043823,
    -0.19561389088630676,
    1.3354047536849976,
    0.7526605129241943,
    0.12225006520748138,
    -0.09801343828439713,
    -0.3218938112258911,
    0.2805298864841461,
    1.1711143255233765,
    0.5169627666473389,
    -0.4071463346481323,
    1.6832127571105957,
    -1.3713804483413696,
    -0.32588109374046326,
    -0.9612603783607483,
    -0.3748638927936554,
    -0.21062757074832916,
    -0.1713748574256897,
    0.26432353258132935,
    0.5751970410346985,
    0.023088635876774788,
    -0.24195122718811035,
    -0.49797630310058594,
    -0.6993378400802612,
    0.08960943669080734,
    0.1269875168800354,
    0.42852479219436646,
    0.8657764792442322,
    -0.0793415978550911,
    -0.6571439504623413,
    0.008837403729557991,
    -0.3560115098953247,
    0.2563052177429199,
    -0.8771635890007019,
    1.051461935043335,
    -0.750601053237915,
    0.2813664376735687,
    -0.1902243196964264,
    -1.0953503847122192,
    0.02339579537510872,
    -0.7953332662582397,
    -0.04969687759876251,
    -0.2975451648235321,
    0.47772619128227234,
    -0.43213167786598206,
    -0.9317370653152466,
    -0.09735811501741409,
    0.3428824841976166,
    -0.6047743558883667,
    -1.2103525400161743,
    0.5381033420562744,
    -0.43105435371398926,
    0.419159859418869,
    0.003945727366954088,
    -0.5698539614677429,
    1.295912742614746,
    -0.045112237334251404,
    0.4652057886123657,
    -1.1394522190093994,
    0.35817864537239075,
    -0.8786506056785583,
    0.2187950760126114,
    -0.16368097066879272,
    0.017003195360302925,
    -0.20199906826019287,
    -0.06628994643688202,
    -0.0324045866727829,
    -0.161577045917511,
    0.31917068362236023,
    0.28441405296325684,
    0.007999320514500141,
    0.4204849898815155,
    0.5406153798103333,
    0.5852038264274597,
    -0.201471745967865,
    -0.3401806950569153,
    0.08907870203256607,
    0.23291490972042084,
    0.6059246063232422,
    -0.33200857043266296,
    -0.3927525281906128,
    -0.7106727361679077,
    -0.20512476563453674,
    -0.11637786775827408,
    0.6103749871253967,
    -0.016401046887040138,
    -0.22836226224899292,
    0.22392131388187408,
    0.5241555571556091,
    0.06463171541690826,
    0.5885511040687561,
    -0.02197796106338501,
    -0.3462523818016052,
    -0.11914817988872528,
    0.08149130642414093,
    0.12037556618452072,
    -0.156454935669899,
    -0.14728239178657532,
    -0.1755196899175644,
    0.40524810552597046,
    0.6835942268371582,
    0.041562192142009735,
    -0.46290355920791626,
    0.0553894080221653,
    -0.3714989125728607,
    -0.3518480062484741,
    0.06841544061899185,
    0.17664285004138947,
    -0.21819435060024261,
    0.3577624559402466,
    0.3224981427192688,
    -0.8766315579414368,
    -0.3266344666481018,
    -0.7761390209197998,
    -0.8591490983963013,
    -0.00043858657591044903,
    -0.24117828905582428,
    -0.21114175021648407,
    0.10157462954521179,
    -0.9797038435935974,
    0.0853084847331047,
    -0.8556872606277466,
    0.3390464782714844,
    -0.24145491421222687,
    -0.14110898971557617,
    -0.032318711280822754,
    -0.045784201472997665,
    0.0035052536986768246,
    0.19321118295192719,
    -1.3928591012954712,
    -0.9133301377296448,
    -0.22112290561199188,
    -0.1437741070985794,
    -0.10500895977020264,
    -1.4808146953582764,
    0.32503578066825867,
    1.155632734298706,
    -3.025141477584839,
    0.19535496830940247,
    0.9071621298789978,
    -0.8279075026512146,
    0.042822565883398056,
    0.7187016010284424,
    0.29650482535362244,
    -0.06206226348876953,
    -0.6915948390960693,
    0.0933675467967987,
    -0.010737567208707333,
    -0.1466936618089676,
    0.2694379687309265,
    0.5575658679008484,
    -0.1445755958557129,
    -0.5470207333564758,
    0.5901047587394714,
    0.6591957807540894,
    -0.05033747851848602,
    0.11434847116470337,
    -1.151524305343628,
    0.42630329728126526,
    -0.08882032334804535,
    -0.9011349081993103,
    -0.2540090084075928,
    0.19882366061210632,
    -0.12308633327484131,
    0.3547321856021881,
    0.3695991337299347,
    0.088380366563797,
    0.052520155906677246,
    -0.23412925004959106,
    -0.2053394615650177,
    -0.07441871613264084,
    -0.22548605501651764,
    0.35848721861839294,
    0.5041155219078064,
    0.02241957001388073,
    -0.2136198878288269,
    -0.6356834173202515,
    0.25023844838142395,
    -0.5015546679496765,
    0.5117465853691101,
    -0.654033899307251,
    0.2708282470703125,
    0.7063969969749451,
    -1.1134467124938965,
    1.2507081031799316,
    0.3923233449459076,
    0.06939350068569183,
    -0.3233688771724701,
    0.2907317876815796,
    0.14169834554195404,
    -0.2050313651561737,
    0.0017053652554750443,
    0.434598833322525,
    0.04176385700702667,
    0.24840085208415985,
    0.04971768707036972,
    0.06369274109601974,
    0.41080302000045776,
    -0.10216180980205536,
    -0.3733227252960205,
    0.4337185025215149,
    0.4267392158508301,
    0.06601796299219131,
    0.005412807688117027,
    0.8294765949249268,
    -0.2768391966819763,
    -0.04112926125526428,
    0.40909644961357117,
    -0.06864198297262192,
    -0.36983418464660645,
    -0.680871307849884,
    -0.16122972965240479,
    0.548502504825592,
    1.1996872425079346,
    -0.5063252449035645,
    -0.5691969394683838,
    0.9994089007377625,
    -0.54507976770401,
    0.22212468087673187,
    0.06814821809530258,
    -0.5348713994026184,
    0.1527692675590515,
    -0.057666994631290436,
    0.12014557421207428,
    0.38354602456092834,
    0.00032463870593346655,
    -0.4554998576641083,
    -0.09977129101753235,
    -0.37842926383018494,
    -0.3148530423641205,
    0.5364429950714111,
    -0.8147823810577393,
    0.4520012140274048,
    0.3485700786113739,
    -0.11070184409618378,
    -0.4826487600803375,
    1.8112256526947021,
    0.09713640809059143,
    0.08683421462774277,
    -0.4165534973144531,
    -0.05183452367782593,
    -0.4680947959423065,
    0.2835700213909149,
    0.08535637706518173,
    0.1567113995552063,
    0.1634066104888916,
    -0.36874544620513916,
    0.16233791410923004,
    -0.3767544627189636,
    -0.03635384887456894,
    -0.01064206101000309,
    0.6697420477867126,
    0.9256352186203003,
    0.41669943928718567,
    0.004537805914878845,
    0.10020149499177933,
    0.022851988673210144,
    0.00631917268037796,
    -0.10136564075946808,
    0.006552468985319138,
    0.1609809696674347,
    -0.4484116733074188,
    -0.07962048053741455,
    0.3311193287372589,
    0.13040697574615479,
    -0.11934418231248856,
    0.16666561365127563,
    -0.22122009098529816,
    0.3278177082538605,
    -0.16041363775730133,
    -0.03252571448683739,
    0.36436769366264343,
    0.40133845806121826,
    0.13811980187892914,
    -0.0603952519595623,
    0.1918514221906662,
    -0.12896940112113953,
    0.40759190917015076,
    0.32212427258491516,
    -0.2585830092430115,
    -0.5152015686035156,
    0.15164777636528015,
    -0.5119071006774902,
    -0.3753674328327179,
    0.252168208360672,
    0.4057013690471649,
    -0.11111851781606674,
    -0.34125226736068726,
    -1.0471396446228027,
    0.2791985273361206,
    0.4790751039981842,
    -0.24511554837226868,
    -0.3160608112812042,
    -1.6358191967010498,
    0.4071088135242462,
    0.6544886231422424,
    -0.44660645723342896,
    -0.6100654006004333,
    0.35317277908325195,
    -0.043867889791727066,
    -0.47831007838249207,
    0.22270125150680542,
    0.16430114209651947,
    -0.09585834294557571,
    -0.23942285776138306,
    0.18747684359550476,
    0.4288787245750427,
    -0.13520032167434692,
    0.48017066717147827,
    0.19166263937950134,
    -0.6664468050003052,
    0.587238609790802,
    -0.4110291302204132,
    -0.3912334144115448,
    -0.6319834589958191,
    0.26973381638526917,
    -1.2219420671463013,
    0.059878669679164886,
    -0.15418832004070282,
    -0.04671170189976692,
    0.2681668996810913,
    -0.2534204423427582,
    -0.41492152214050293,
    0.012700832448899746,
    0.11318302154541016,
    0.6943814158439636,
    0.17368517816066742,
    0.35356834530830383,
    0.06086024269461632,
    -0.2131991982460022,
    0.909003496170044,
    -0.597552478313446,
    0.29194679856300354,
    -0.293693482875824,
    0.062498997896909714,
    0.48306992650032043,
    0.6653892993927002,
    -0.022091493010520935,
    -0.28140994906425476,
    0.014840424992144108,
    0.49396422505378723,
    0.27428439259529114,
    -0.16518421471118927,
    -0.2981893718242645,
    0.44668152928352356,
    -0.06383349746465683,
    0.39069244265556335,
    -0.14481623470783234,
    0.34780922532081604,
    -0.30007198452949524,
    -0.027377966791391373,
    0.09673875570297241,
    -0.7432270646095276,
    -0.08109474182128906,
    -0.38320407271385193,
    0.07340547442436218,
    -0.6351625919342041,
    -0.2326478511095047,
    -0.11952574551105499,
    -0.27815523743629456,
    0.25990810990333557,
    -0.11534100770950317,
    0.45142173767089844,
    0.09529288858175278,
    -0.30918434262275696,
    0.3129957914352417,
    -0.12460685521364212,
    0.11267537623643875,
    0.24492569267749786,
    -0.09304113686084747,
    0.11332567036151886,
    -0.1171441450715065,
    0.13892656564712524,
    0.46737056970596313,
    0.024911977350711823,
    -0.1934289187192917,
    -0.17561088502407074,
    0.07083171606063843,
    0.33090201020240784,
    0.4049006402492523,
    -0.029958175495266914,
    0.1382518857717514,
    0.12547530233860016,
    0.01854853518307209,
    0.2961578667163849,
    -0.04702402651309967,
    0.1564750075340271,
    -0.09871388971805573,
    -0.4853920340538025,
    -0.26026755571365356,
    0.07890399545431137,
    -0.010438786819577217,
    -0.5750978589057922,
    -0.1399630308151245,
    0.39796510338783264,
    0.16942954063415527,
    0.03909742832183838,
    0.2092539668083191,
    0.08102640509605408,
    0.23000000417232513,
    -0.29543015360832214,
    0.2834818959236145,
    -0.2613045573234558,
    -0.0742395892739296,
    0.0851961299777031,
    0.0010286674369126558,
    0.20316152274608612,
    -0.2980329990386963,
    -0.4125518500804901,
    -0.03343009948730469,
    0.2392655909061432,
    -0.28528937697410583,
    -0.07907876372337341,
    -0.4655333459377289,
    0.08077576756477356
  ],
  "gru_weight_hh": [
    0.4646728038787842,
    0.5893997550010681,
    0.5441855788230896,
    0.07956377416849136,
    -0.3991263210773468,
    -0.06293217092752457,
    0.22906865179538727,
    -0.4761618375778198,
    0.20883160829544067,
    -0.3128918707370758,
    0.227054163813591,
    -1.5906299352645874,
    -0.5138501524925232,
    -1.3613723516464233,
    0.49684035778045654,
    -1.2748271226882935,
    1.312484860420227,
    -0.8815518617630005,
    0.8381051421165466,
    -0.15982818603515625,
    0.5286480188369751,
    0.7365275025367737,
    -0.3890039026737213,
    -0.48023805022239685,
    0.7497205138206482,
    0.42055070400238037,
    1.0880416631698608,
    -0.7163325548171997,
    -0.3410749137401581,
    -0.2939581274986267,
    -0.08511727303266525,
    0.7452594041824341,
    -1.5508095026016235,
    -1.6750491857528687,
    0.3798075020313263,
    -0.061248622834682465,
    0.29430529475212097,
    -1.1384789943695068,
    -0.09855104237794876,
    -2.0210986137390137,
    -0.845961332321167,
    0.6938126087188721,
    0.01610967144370079,
    1.732869267463684,
    -0.20278845727443695,
    -0.072525255382061,
    1.4292892217636108,
    -1.3339247703552246,
    -0.771874189376831,
    -1.9237195253372192,
    0.0033854206558316946,
    -0.2954051196575165,
    1.0968693494796753,
    0.7452666163444519,
    0.009084210731089115,
    0.881197452545166,
    -0.6432608962059021,
    1.9225590229034424,
    2.1274538040161133,
    0.9015300273895264,
    -0.26926562190055847,
    0.6414834260940552,
    -0.14431165158748627,
    -0.7430621981620789,
    -0.17003212869167328,
    -0.5816134810447693,
    0.4718513488769531,
    -0.12931203842163086,
    -1.4187322854995728,
    0.34149014949798584,
    1.0760191679000854,
    0.2068842053413391,
    -0.11779682338237762,
    0.1895427107810974,
    -0.11620550602674484,
    -0.9105502367019653,
    -0.890672504901886,
    -2.6111204624176025,
    -0.3539031147956848,
    0.3422265648841858,
    -0.5607537627220154,
    -1.3532989025115967,
    -0.9621734619140625,
    -1.459824800491333,
    0.6073970198631287,
    -0.7397382855415344,
    0.45298951864242554,
    -0.5063111186027527,
    -0.24434290826320648,
    2.518993377685547,
    0.7907613515853882,
    0.14667336642742157,
    -0.1797899603843689,
    -0.382881224155426,
    0.20975199341773987,
    -0.2387649416923523,
    1.0239348411560059,
    0.6121635437011719,
    0.6207185387611389,
    0.16600152850151062,
    0.2752872407436371,
    0.9748972058296204,
    -1.1686309576034546,
    -0.01238967664539814,
    0.10255835950374603,
    -0.8951165080070496,
    0.07405872642993927,
    -0.04098392650485039,
    1.4924358129501343,
    1.011610746383667,
    0.11319898068904877,
    0.32969892024993896,
    0.6138361096382141,
    1.1576390266418457,
    0.04246170446276665,
    0.35350656509399414,
    0.29848814010620117,
    3.4244577884674072,
    0.2762429714202881,
    1.8701297044754028,
    0.416286438703537,
    -0.574093759059906,
    0.21595658361911774,
    0.485228955745697,
    -0.41151919960975647,
    -0.6046171188354492,
    0.40346285700798035,
    -0.8809906840324402,
    -0.14701391756534576,
    0.9281908869743347,
    1.086998701095581,
    0.34708404541015625,
    0.49141713976860046,
    1.2058131694793701,
    -0.5424143671989441,
    3.0548880100250244,
    -1.1508818864822388,
    -2.0757694244384766,
    -0.4670688211917877,
    -0.4292691648006439,
    -0.48147761821746826,
    0.0944470465183258,
    -0.8858283758163452,
    -0.3625607490539551,
    -2.4753475189208984,
    0.3303663432598114,
    1.1608195304870605,
    0.6707547903060913,
    0.6789714097976685,
    -2.4201509952545166,
    -0.2431914508342743,
    1.3398382663726807,
    -1.6074588298797607,
    1.3935425281524658,
    2.166064739227295,
    1.83290696144104,
    0.4018961787223816,
    0.020606493577361107,
    0.6176983714103699,
    0.36420780420303345,
    1.2655500173568726,
    -1.834081768989563,
    0.0940420851111412,
    0.6282230615615845,
    -0.754403829574585,
    -1.0868812799453735,
    0.26169419288635254,
    -0.3686731159687042,
    -0.0196634940803051,
    1.350480079650879,
    0.2838764190673828,
    1.0301897525787354,
    0.8924855589866638,
    1.4967718124389648,
    -1.3613603115081787,
    -0.9177829623222351,
    0.1665518879890442,
    0.05740327388048172,
    0.4602932631969452,
    -0.8131285309791565,
    0.7842715382575989,
    -0.19075733423233032,
    0.9570831656455994,
    0.7157602906227112,
    -0.3924492299556732,
    0.26990240812301636,
    -0.4283866286277771,
    -0.8967231512069702,
    0.0023797587491571903,
    -1.1911438703536987,
    0.2961893379688263,
    0.3891899287700653,
    -0.2354867160320282,
    -0.16986556351184845,
    0.3196410834789276,
    0.5613336563110352,
    -0.31901872158050537,
    0.8889936208724976,
    0.6788731813430786,
    0.6259717345237732,
    0.015786996111273766,
    1.1972843408584595,
    0.6375896334648132,
    1.2636982202529907,
    -0.5130547881126404,
    0.7974671721458435,
    -0.437582790851593,
    -0.33024194836616516,
    0.09942827373743057,
    0.7673846483230591,
    -0.7326621413230896,
    0.9207468032836914,
    0.1102292388677597,
    0.28982850909233093,
    0.6991300582885742,
    -2.14150071144104,
    0.6066246628761292,
    -0.7566930651664734,
    1.404578447341919,
    -0.2931854724884033,
    -0.8605346083641052,
    -0.271159827709198,
    0.9885988831520081,
    -0.2925759255886078,
    0.786186933517456,
    0.9399524331092834,
    -0.47411471605300903,
    0.42735832929611206,
    0.050050877034664154,
    -0.27225834131240845,
    0.5013982057571411,
    -1.1882258653640747,
    -0.5801579356193542,
    -0.7284544706344604,
    0.12056393921375275,
    -0.6753259301185608,
    -0.3106968402862549,
    -0.18322163820266724,
    0.4408361613750458,
    -0.5238843560218811,
    1.9306246042251587,
    1.826663613319397,
    0.052653566002845764,
    0.09658132493495941,
    -1.156997799873352,
    0.7321847081184387,
    0.06781704723834991,
    -1.8237417936325073,
    -2.228243112564087,
    -1.4593898057937622,
    -0.12818773090839386,
    0.5442075133323669,
    0.4622511863708496,
    0.36834409832954407,
    0.27803975343704224,
    1.116973638534546,
    -0.07597799599170685,
    1.714088797569275,
    0.03390203043818474,
    -0.040448613464832306,
    -1.1958401203155518,
    -1.107064962387085,
    -0.439040869474411,
    0.1286025047302246,
    0.10803865641355515,
    -0.33527031540870667,
    -0.04757130518555641,
    0.7243863344192505,
    -0.2175426334142685,
    1.348334789276123,
    -0.574428141117096,
    0.24811390042304993,
    1.4442803859710693,
    -0.7716899514198303,
    1.335618495941162,
    1.1471205949783325,
    -0.3915686011314392,
    -0.46312686800956726,
    -1.386771321296692,
    -1.6898987293243408,
    -0.37195470929145813,
    -1.5834122896194458,
    1.4718149900436401,
    0.9489626884460449,
    2.780508041381836,
    1.9000496864318848,
    -2.0110323429107666,
    -1.0411205291748047,
    -0.5056455135345459,
    1.439199447631836,
    0.709225058555603,
    1.0551671981811523,
    0.7480947971343994,
    0.5212755799293518,
    -1.2104517221450806,
    -0.9329035878181458,
    -2.558887481689453,
    -0.7323500514030457,
    -0.899768590927124,
    -0.4374368488788605,
    1.3422908782958984,
    2.0925707817077637,
    -0.8727689385414124,
    1.7429701089859009,
    1.2146543264389038,
    1.8862366676330566,
    -0.3702620565891266,
    -1.8945233821868896,
    -0.6892366409301758,
    1.470272421836853,
    0.8453300595283508,
    -3.812777042388916,
    0.7957594394683838,
    -2.519490957260132,
    -2.531590461730957,
    -1.2283122539520264,
    -1.047276258468628,
    -0.21055275201797485,
    0.7930136919021606,
    -0.24388384819030762,
    1.0065574645996094,
    1.7179394960403442,
    -1.2150812149047852,
    0.9882760643959045,
    0.33178797364234924,
    1.8082573413848877,
    0.23894114792346954,
    -1.0727550983428955,
    -2.244548797607422,
    -0.7336589694023132,
    -0.4497322142124176,
    0.8308008313179016,
    0.31513679027557373,
    0.0950360968708992,
    0.30889663100242615,
    0.6574788689613342,
    -0.4068641662597656,
    -0.8490411639213562,
    0.22776788473129272,
    -0.5722165703773499,
    0.03706357255578041,
    -0.28199324011802673,
    0.567169189453125,
    0.11467578262090683,
    -0.08351615071296692,
    0.5978404879570007,
    0.4992351830005646,
    -0.5688889026641846,
    -0.3023312985897064,
    -0.15569575130939484,
    0.7774149775505066,
    0.4447316825389862,
    1.1498109102249146,
    1.104642629623413,
    -1.5384275913238525,
    1.7191113233566284,
    0.5283688306808472,
    -0.23264965415000916,
    0.11342412233352661,
    0.5905876159667969,
    0.42083561420440674,
    -1.8045032024383545,
    -1.4630012512207031,
    -0.13296803832054138,
    -0.04395114257931709,
    0.3608512282371521,
    -0.4456274211406708,
    1.8065907955169678,
    0.30792951583862305,
    -0.7274452447891235,
    -0.29332539439201355,
    -0.1916854828596115,
    -0.05927204340696335,
    -0.5781569480895996,
    -0.3775257170200348,
    0.5691865682601929,
    0.056586749851703644,
    0.8515983819961548,
    -0.06953539699316025,
    -0.3535006046295166,
    0.32315221428871155,
    -0.6523390412330627,
    0.1642169952392578,
    -0.019246621057391167,
    0.8834121227264404,
    -0.9696758985519409,
    0.21018335223197937,
    0.18028733134269714,
    0.3785773813724518,
    0.4597936272621155,
    0.4659633934497833,
    -0.06443046033382416,
    -0.3725765347480774,
    1.4549962282180786,
    0.9081197381019592,
    1.0201265811920166,
    0.9571751952171326,
    -2.041017532348633,
    -0.7085683345794678,
    0.4732121229171753,
    -0.8458888530731201,
    -1.7292158603668213,
    1.5701520442962646,
    -0.7283819317817688,
    0.06497731059789658,
    -0.8158050179481506,
    1.294394612312317,
    -0.7833419442176819,
    -1.1094356775283813,
    -1.02012300491333,
    1.605644941329956,
    -0.6872187256813049,
    -1.206193208694458,
    -0.05351248010993004,
    -0.09890186041593552,
    -0.5903488993644714,
    -0.2242073267698288,
    0.3345753848552704,
    0.9626065492630005,
    -0.48008570075035095,
    -0.15859127044677734,
    -1.5574421882629395,
    0.1504116952419281,
    0.13085882365703583,
    0.14094138145446777,
    -0.12637749314308167,
    -0.15514853596687317,
    -0.13521598279476166,
    0.8291831612586975,
    -1.0567514896392822,
    0.20272399485111237,
    1.0805003643035889,
    -0.08099967986345291,
    -0.46541354060173035,
    0.44003546237945557,
    -0.6738706827163696,
    0.47812706232070923,
    0.11758480221033096,
    -0.09991854429244995,
    -0.19098523259162903,
    -0.07970690727233887,
    1.1968576908111572,
    -0.10657568275928497,
    0.6719638705253601,
    -0.7213777303695679,
    -0.3744755983352661,
    0.1274949610233307,
    0.16613046824932098,
    -0.14440810680389404,
    -0.2686006426811218,
    -0.32838359475135803,
    -0.3864918649196625,
    0.0386655293405056,
    -0.29546433687210083,
    0.39169934391975403,
    -0.04312317445874214,
    -0.2005682736635208,
    1.4942458868026733,
    0.06375572085380554,
    0.40159904956817627,
    -0.5255793333053589,
    -0.0848999172449112,
    -0.24454614520072937,
    -0.45664182305336,
    -0.5419964790344238,
    0.301937073469162,
    0.03968454524874687,
    0.6669489145278931,
    -0.5351922512054443,
    -0.17272602021694183,
    0.6550930738449097,
    -0.5178752541542053,
    -1.4808766841888428,
    -0.036777596920728683,
    0.29033729434013367,
    -0.8850981593132019,
    -0.10122471302747726,
    -1.1262383460998535,
    -0.5575492978096008,
    1.064557671546936,
    -1.2528353929519653,
    4.9140119552612305,
    -0.2696775794029236,
    -1.3096542358398438,
    -0.8503003716468811,
    -2.4610812664031982,
    -1.9132272005081177,
    0.9164614677429199,
    -0.7366578578948975,
    -1.7887799739837646,
    -0.8738552331924438,
    -0.9285637140274048,
    -0.4280930161476135,
    -1.0736064910888672,
    -0.7371160387992859,
    0.5618528127670288,
    -0.7771342396736145,
    0.5194251537322998,
    0.15670794248580933,
    0.48370930552482605,
    -0.18419718742370605,
    0.11945711076259613,
    -0.5953840613365173,
    1.0512582063674927,
    0.34931451082229614,
    0.25591549277305603,
    -0.5543777346611023,
    -0.2068052589893341,
    0.44224247336387634,
    -0.7811155915260315,
    0.8148460388183594,
    0.8148104548454285,
    -1.5644352436065674,
    -0.049017421901226044,
    -0.7283962965011597,
    -0.2950533330440521,
    -0.6009741425514221,
    0.9181298017501831,
    0.18435034155845642,
    -0.9251716136932373,
    1.4579288959503174,
    0.5135674476623535,
    -0.5375663638114929,
    0.25165438652038574,
    0.855198085308075,
    0.9770303964614868,
    0.9741180539131165,
    0.48202598094940186,
    -0.3079455494880676,
    -0.731185257434845,
    -1.2391738891601562,
    -0.9158483743667603,
    -1.520168423652649,
    1.235553503036499,
    -0.746451735496521,
    0.04605140909552574,
    2.4823269844055176,
    -0.9176431894302368,
    0.3827529847621918,
    -0.6592761278152466,
    0.07906147837638855,
    0.17649608850479126,
    -0.4929061233997345,
    1.1394667625427246,
    1.5211035013198853,
    -1.4755566120147705,
    -1.0977190732955933,
    -0.40748244524002075,
    -0.09335461258888245,
    0.5076013803482056,
    -1.6227723360061646,
    -0.3932797610759735,
    -0.41320472955703735,
    0.546802282333374,
    -0.31220361590385437,
    -1.261573314666748,
    0.6992087364196777,
    -0.19073449075222015,
    0.33724063634872437,
    0.08219460397958755,
    0.7424416542053223,
    0.287239134311676,
    0.21237337589263916,
    -0.35768023133277893,
    -0.5119714736938477,
    -1.099810242652893,
    0.5458908081054688,
    0.011958405375480652,
    -1.0207282304763794,
    -0.1590043008327484,
    -0.3450966775417328,
    -0.03777926787734032,
    -0.5259379744529724,
    -0.09886150807142258,
    -0.9279448390007019,
    -0.7816833853721619,
    -0.932170569896698,
    -1.1831083297729492,
    0.16994650661945343,
    0.32511699199676514,
    -0.26513803005218506,
    0.8075476288795471,
    -0.6744832396507263,
    0.06002970039844513,
    0.24746955931186676,
    1.0854226350784302,
    1.6169886589050293,
    0.2593745291233063,
    -0.7281420230865479,
    -0.048016294836997986,
    0.04069775342941284,
    0.7610441446304321,
    -0.9088591933250427,
    0.029938988387584686,
    -0.19306321442127228,
    -0.03031761199235916,
    -0.20819662511348724,
    -0.738770604133606,
    -0.2171178162097931,
    0.4765939712524414,
    0.12294067442417145,
    0.09866087883710861,
    -0.38218677043914795,
    0.25266626477241516,
    0.24566137790679932,
    -1.0469648838043213,
    -0.9431736469268799,
    1.2669494152069092,
    -0.13964469730854034,
    -0.8564650416374207,
    0.3374125063419342,
    -0.1966734379529953,
    -0.1111171767115593,
    0.4646557569503784,
    -0.4039425253868103,
    0.5717765688896179,
    -0.47199881076812744,
    0.28314074873924255,
    0.12014587968587875,
    -0.14731553196907043,
    -0.17747920751571655,
    0.32647839188575745,
    -0.27279946208000183,
    0.10511746257543564,
    -0.17858801782131195,
    1.2489902973175049,
    -0.24859663844108582,
    1.0407410860061646,
    -0.14759561419487,
    -2.062774419784546,
    -0.3598352074623108,
    -1.449126124382019,
    -1.0561789274215698,
    -0.025584496557712555,
    -0.27629587054252625,
    0.7075093984603882,
    -0.05436239019036293,
    -0.6589629650115967,
    0.16051898896694183,
    0.45976656675338745,
    -0.8773476481437683,
    -1.785319209098816,
    0.4560447335243225,
    -0.09159794449806213,
    -0.9761981964111328,
    -1.3161453008651733,
    1.366927146911621,
    -0.6244634985923767,
    -1.4083397388458252,
    1.3381319046020508,
    0.0447111576795578,
    1.6915960311889648,
    -0.46090415120124817,
    0.9172888994216919,
    -2.1522574424743652,
    1.0287848711013794,
    -2.6915464401245117,
    0.744968056678772,
    -0.12148422002792358,
    1.0887622833251953,
    0.8384823203086853,
    -0.25296029448509216,
    0.6422387957572937,
    0.19749052822589874,
    1.1957532167434692,
    -1.114030122756958,
    1.5207269191741943,
    -0.5924615859985352,
    1.7033745050430298,
    1.1098175048828125,
    -0.21936525404453278,
    0.18641509115695953,
    0.5769159197807312,
    0.28147193789482117,
    0.1655336618423462,
    -0.03601415827870369,
    0.4071860909461975,
    1.0268182754516602,
    -0.15330350399017334,
    -0.12266962230205536,
    -0.47830337285995483,
    -0.6741389632225037,
    -0.041726481169462204,
    0.9896100759506226,
    -1.4190665483474731,
    -0.1837168037891388,
    0.005779576953500509,
    -0.8679713010787964,
    0.39337480068206787,
    -0.08411867171525955,
    0.1343158781528473,
    -0.45045337080955505,
    -0.5790057182312012,
    0.34989649057388306,
    -0.8530833721160889,
    -0.4248027205467224,
    -0.04123028367757797,
    0.2745138704776764,
    -0.8063769340515137,
    -1.3851919174194336,
    -0.3744896650314331,
    -0.5648928880691528,
    0.7183416485786438,
    -0.28716376423835754,
    0.021438032388687134,
    -0.5351554155349731,
    -0.09491494297981262,
    0.1445944756269455,
    -0.014792133122682571,
    0.05770179629325867,
    0.2424006313085556,
    0.3460420072078705,
    0.174148291349411,
    0.08853373676538467,
    0.7944598197937012,
    1.840607762336731,
    -0.521540105342865,
    1.2100605964660645,
    -0.2104627937078476,
    0.7199352979660034,
    -0.5183151960372925,
    -0.16124401986598969,
    0.525759220123291,
    -0.2608693540096283,
    0.2314014881849289,
    0.8148268461227417,
    0.0064979433082044125,
    -0.08503567427396774,
    0.8242073059082031,
    0.03483758494257927,
    1.0918043851852417,
    0.8247647881507874,
    -0.5219142436981201,
    -0.3218838572502136,
    1.0033669471740723,
    0.5716701149940491,
    0.7189667820930481,
    0.2933543920516968,
    -0.5365793108940125,
    1.1596789360046387,
    0.5046008825302124,
    1.1701195240020752,
    1.6391220092773438,
    0.42923346161842346,
    -0.4613077938556671,
    -0.7055755257606506,
    0.4861847162246704,
    -1.3632769584655762,
    0.083856001496315,
    -1.675179362297058,
    0.07990311086177826,
    -0.9963088631629944,
    -1.073224425315857,
    1.036636233329773,
    -1.4582724571228027,
    -0.22369003295898438,
    0.23350246250629425,
    -1.8766008615493774,
    0.6159993410110474,
    -0.8428115844726562,
    -0.2853293716907501,
    0.19230414927005768,
    -0.41821321845054626,
    -0.6612740755081177,
    0.3790837526321411,
    -0.929999589920044,
    1.4993878602981567,
    -1.5648404359817505
  ],
  "gru_bias_ih": [
    -0.42561277747154236,
    0.06538090109825134,
    0.8650308847427368,
    2.1300551891326904,
    0.6463655829429626,
    2.8210620880126953,
    -0.5272037386894226,
    -0.16763004660606384,
    -0.5284063220024109,
    -0.299506276845932,
    0.4112416207790375,
    0.35656705498695374,
    0.6373860239982605,
    -0.6374902129173279,
    -1.32816743850708,
    -2.0285284519195557,
    -0.8947317600250244,
    -2.064298629760742,
    -2.8044090270996094,
    -1.8379392623901367,
    -0.8012726902961731,
    -1.2897356748580933,
    -4.870835781097412,
    -0.20734797418117523,
    2.776578426361084,
    -3.046802282333374,
    -0.416610985994339,
    -0.9364652633666992,
    -0.5904480218887329,
    -0.7412788271903992,
    -2.341980457305908,
    -0.7039119005203247,
    -0.30463138222694397,
    -2.7649500370025635,
    -0.3869266211986542,
    -0.8143519759178162,
    0.7860182523727417,
    -0.14523907005786896,
    -0.09499405324459076,
    0.8807491660118103,
    -0.7415739297866821,
    2.406763792037964,
    0.5538206696510315,
    -0.2754918932914734,
    -0.09658323228359222,
    -0.10186305642127991,
    -0.08825020492076874,
    -0.0631013736128807
  ],
  "gru_bias_hh": [
    -0.4044117331504822,
    0.2948799729347229,
    0.8667802810668945,
    1.9805467128753662,
    0.8274514675140381,
    2.672746181488037,
    -0.9521153569221497,
    0.14063772559165955,
    -0.7375118732452393,
    -0.6546015739440918,
    0.7313674688339233,
    0.4313155710697174,
    0.2910788059234619,
    -0.8062471151351929,
    -1.4392845630645752,
    -1.7085552215576172,
    -0.6278059482574463,
    -1.8339993953704834,
    -2.846717357635498,
    -1.5608710050582886,
    -0.885402500629425,
    -1.4348644018173218,
    -4.89451789855957,
    -0.2869788706302643,
    2.912018060684204,
    -3.2925021648406982,
    -0.5906828045845032,
    -0.9723231792449951,
    -0.6314579248428345,
    -0.6105727553367615,
    -2.2238211631774902,
    -1.0629799365997314,
    -0.7894476056098938,
    -1.3983278274536133,
    0.8413854241371155,
    -0.6692963242530823,
    1.597676157951355,
    0.025076517835259438,
    -0.4983895719051361,
    -0.18559126555919647,
    -0.07572721689939499,
    1.9353421926498413,
    0.08231373131275177,
    0.3006196618080139,
    0.03569430485367775,
    0.21616230905056,
    -0.6136599183082581,
    0.4869458079338074
  ],
  "example_input": [
    -1.0,
    -0.9411764740943909,
    -0.8823529481887817,
    -0.8235294222831726,
    -0.7647058963775635,
    -0.7058823704719543,
    -0.6470588445663452,
    -0.5882353186607361,
    -0.529411792755127,
    -0.47058823704719543,
    -0.4117647111415863,
    -0.3529411852359772,
    -0.29411762952804565,
    -0.23529411852359772,
    -0.1764705777168274,
    -0.11764705181121826,
    -0.05882352590560913,
    -3.725290298461914e-09,
    0.05882352590560913,
    0.11764705181121826,
    0.1764705777168274,
    0.23529411852359772,
    0.29411762952804565,
    0.3529411852359772,
    0.4117647111415863,
    0.47058823704719543,
    0.529411792755127,
    0.5882353186607361,
    0.6470588445663452,
    0.7058823704719543,
    0.7647058963775635,
    0.8235294222831726,
    0.8823529481887817,
    0.9411764740943909,
    1.0
  ],
  "example_output": [
    0.27983373403549194,
    0.22090277075767517,
    0.4560547471046448,
    0.037354860454797745
  ],
  "checkpoint_name": "best_checkpoint_model_973.pt",
  "checkpoint_step": -1,
  "requires_obs_normalization": false,
  "compat_reset_output": [
    0.451008677482605,
    0.9494557976722717,
    0.6534004807472229,
    0.48012304306030273
  ],
  "compat_hover_output": [
    0.451008677482605,
    0.9494557976722717,
    0.6534004807472229,
    0.48012304306030273
  ],
  "export_format": "rl_tools_checkpoint_blob",
  "policy_distribution": "BetaDistribution",
  "action_output_transform": "beta_mean_sigmoid"
}