{
  "observation_dim": 35,
  "action_dim": 4,
  "structure": "mlp_gru",
  "rnn_type": "gru",
  "gru_input_dim": 16,
  "gru_hidden_dim": 16,
  "gru_num_layers": 1,
  "activation": "elu",
  "use_observation_normalization": true,
  "normalization_folded_into_first_layer": true,
  "observation_mean": [
    0.006666634697467089,
    -0.06236807256937027,
    0.0474693737924099,
    0.9915251135826111,
    0.0017906309803947806,
    5.5070529924705625e-05,
    -0.0015878245467320085,
    0.9944506287574768,
    -0.00033863322460092604,
    -0.00026231928495690227,
    0.0003544978972058743,
    0.9916094541549683,
    -0.001926418044604361,
    0.002925566863268614,
    -0.9810832738876343,
    0.03535056114196777,
    -0.052490342408418655,
    0.11506862193346024,
    0.0010556221241131425,
    -0.01772092841565609,
    -0.00275965197943151,
    -0.028022142127156258,
    1.7429784536361694,
    0.0092469472438097,
    0.005195315461605787,
    -0.09166308492422104,
    0.0033898449037224054,
    0.017110589891672134,
    -0.006789608392864466,
    -0.0001583419507369399,
    -0.004065673798322678,
    0.4004359841346741,
    0.3123789131641388,
    0.40638428926467896,
    0.31875285506248474
  ],
  "observation_inv_std": [
    3.0013229846954346,
    2.1894240379333496,
    2.112701177597046,
    10.39516544342041,
    13.466733932495117,
    12.072407722473145,
    12.931121826171875,
    14.640851974487305,
    15.14348030090332,
    12.499349594116211,
    14.38202953338623,
    9.907569885253906,
    8.328746795654297,
    9.937795639038086,
    7.098264217376709,
    1.3977464437484741,
    1.640133023262024,
    1.1324236392974854,
    1.6281603574752808,
    1.2272741794586182,
    2.3561835289001465,
    0.6956362724304199,
    0.970186710357666,
    0.6544041633605957,
    0.550050675868988,
    10.128389358520508,
    2.2708888053894043,
    2.204054117202759,
    2.122667074203491,
    2.298485040664673,
    3.6715729236602783,
    0.7911421060562134,
    0.825363278388977,
    0.829731822013855,
    0.8119978308677673
  ],
  "actor_encoder_dims": [
    35,
    16,
    16
  ],
  "actor_encoder_activations": [
    "elu",
    "identity"
  ],
  "actor_head_dims": [
    16,
    4
  ],
  "actor_head_activations": [
    "identity"
  ],
  "actor_encoder_weights": [
    [
      -4.269009891659579,
      4.159729445086668,
      0.8216109386471544,
      -0.6943438256136645,
      -2.3215557346738933,
      0.2646624274905669,
      0.3302686049343606,
      -2.515325457716841,
      -3.3284655936978425,
      0.9670735032609485,
      0.4677406743122354,
      -2.0396801475504844,
      5.205502986819511,
      -6.811572540552561,
      -3.7133111496582387,
      -3.389090838895129,
      2.6581894021364434,
      0.8927901012811077,
      -1.4814047033056923,
      -1.0194609388427267,
      -0.07595160305218229,
      -0.056579975783606073,
      -0.01648312019250575,
      -0.026144556844833744,
      -0.015529157123228221,
      -0.32565673654273297,
      -0.1980792349627407,
      -0.569689090561468,
      -0.04842522984640274,
      -0.461491137766572,
      2.042591813504359,
      -0.11493534784521309,
      0.19238604061561837,
      -0.03701757689108742,
      0.09566642814493287,
      -3.636116537787103,
      -1.3971241314287397,
      0.591516917156305,
      0.9233001745906151,
      2.4656494175556247,
      -2.2734863876792133,
      0.4764833428663451,
      1.4121116056770546,
      0.5816309609744508,
      0.7350524243859127,
      4.502414813796804,
      -2.2038759111296713,
      -0.8761611417626796,
      -4.317258228430205,
      -5.943905086293967,
      -3.63841320229929,
      -0.15755213196059348,
      0.06395333657111735,
      0.48373382996241077,
      -0.15121387565998035,
      0.8835346965433644,
      -0.004722821236701202,
      -0.2508373098546599,
      -0.0574632798253738,
      -0.056950449686048454,
      -0.664077557559068,
      -0.3939071015518465,
      0.10137890286331253,
      -0.6460798801436667,
      -0.09737548063563306,
      1.149945710461843,
      0.009279179875477328,
      0.17752284240537364,
      0.09581740465983035,
      -0.08808570538090121,
      2.3201836764054633,
      -0.4334543770992383,
      1.298319067088002,
      2.9336932932924924,
      2.236120694303878,
      -5.584673418197383,
      2.7234232119062654,
      2.9517292793018726,
      -7.514508966194455,
      0.7374078028790905,
      3.747796173610425,
      -2.153768978735684,
      -9.716310955352583,
      -1.415164277110648,
      5.385300419826166,
      2.5450521413849003,
      0.44720417256169753,
      0.6038584642140421,
      -0.746287683994872,
      2.380411184975543,
      0.5655743368835786,
      0.10970536605611869,
      0.3624745697321572,
      -0.045040082637974876,
      -0.04197251541316094,
      -0.07890865857200158,
      0.8705626500820216,
      0.5756109400173699,
      0.8064745582186674,
      -0.283127340471383,
      4.43347982136126,
      0.0630972976045765,
      0.03809717730595663,
      0.0001511487073497554,
      -0.10894316830641149,
      1.2970065408400302,
      0.573210768688881,
      2.1492972695843093,
      -0.09781228599996794,
      -5.069562453265007,
      -1.5560442059775283,
      7.964863448740289,
      7.163491984990003,
      2.9702666906628394,
      0.9278154566629695,
      -7.4141798097167,
      -1.5642580011285645,
      -1.2099736808006014,
      -0.5361356023860822,
      -1.2317536271953315,
      1.0844494069279094,
      1.665264460851077,
      0.7911444916935721,
      0.34287298757291396,
      -0.05166514455390736,
      3.9210192248873454,
      -0.21016109049767806,
      0.2498256153936893,
      -0.0009181375559358385,
      0.05309697252236001,
      0.45968052906412993,
      0.4108642719744111,
      -0.4013975962014129,
      -0.06942614743881848,
      0.41113722874287717,
      -0.037793983988053226,
      -0.2871512261477136,
      -0.45918726267913,
      -0.030243856677680814,
      -0.045099789632810694,
      0.6232738413028969,
      4.878269405369906,
      0.11852853268497032,
      -5.047281977667296,
      2.111472533823786,
      -0.9047795827825951,
      -0.43377065815957394,
      -9.110776585733788,
      0.9393734194661718,
      2.7652942543098504,
      -11.176462410460488,
      -1.7695702113843481,
      -2.141386958867429,
      -6.197317226817404,
      -0.7029792573409459,
      0.19754446821038485,
      2.2806594357725487,
      1.2541978756084404,
      -1.7268721674783052,
      0.032568498613410046,
      0.20412527648616674,
      0.002228333657289805,
      -0.1813551520415615,
      -0.005201981343183615,
      0.06144935597660517,
      0.7195558400689492,
      0.023894314276019735,
      -0.027071994756150408,
      -0.1518637905817748,
      0.4408919997233163,
      -1.2321281847870225,
      -0.06952451943838511,
      0.08926289537922827,
      0.27136829322992995,
      -0.19818734232596658,
      -1.267333593703185,
      1.1492326344752257,
      -1.0848260390273623,
      0.27913869401028535,
      1.720939267718677,
      -3.9800338454422217,
      -4.747482675558786,
      -2.026951731360384,
      -2.0583003091971364,
      1.2010385237248897,
      -3.210567593431435,
      -0.8015389981662224,
      3.7402457307362056,
      -0.20320768596291927,
      -1.134897542153503,
      -0.9470285482572365,
      -0.11203858661783439,
      0.7061024409896959,
      -0.07587911894714372,
      -0.3977635332653051,
      0.6000104139239681,
      0.019185070821032824,
      0.17191119098219332,
      -0.008839357722865149,
      -0.00027366775924237904,
      0.13364956514006643,
      0.12378035635597229,
      -0.004217665428253581,
      0.2859176885865651,
      -0.5502923894087175,
      5.8159382377780275,
      -1.0455613984180019,
      0.404022372910152,
      -0.1440924729874915,
      -0.16518680952082487,
      1.9961955949988521,
      3.716602876444597,
      1.1346161118206624,
      1.473434854973533,
      3.7772815391674612,
      -1.0400763983365735,
      -4.522122414378828,
      -1.1582154963957692,
      6.099510347375201,
      1.7588527209778704,
      -5.595807026272382,
      2.5424155245195834,
      1.11789659149224,
      -1.4567449785435542,
      -2.881802532725132,
      0.7428047342745003,
      2.0495222391869277,
      0.9186370663925914,
      -0.9027202720518019,
      -0.17501273598210787,
      -2.0710038861032842,
      -0.11845063951287926,
      0.25287524242661163,
      -0.05680521269191274,
      0.004347407221465649,
      0.13719110901929277,
      -0.08222242158651483,
      -0.17693508964634042,
      -0.14429904767686352,
      -0.2079141123270034,
      -0.9651585705693222,
      0.06000436413154375,
      0.034230713505806865,
      0.29088585470320893,
      -0.5879737708734005,
      0.8369553759246244,
      0.8368995977713922,
      1.272836645117792,
      3.159054567336028,
      7.033607774614211,
      2.8607174158717754,
      -3.9123943806498573,
      7.386380967580067,
      -1.7771974902014165,
      -1.2152880420951107,
      6.829101829494107,
      -1.3874817286585994,
      -3.869209827048053,
      1.3385006825648418,
      -1.9667081392295103,
      0.18479785042604924,
      1.258426866842477,
      2.1245528859602416,
      0.6986229982367504,
      0.48723697471614713,
      -3.140639996418315,
      0.19216933699176764,
      -0.024286072139982018,
      0.07243169496017998,
      -0.048771325701846724,
      0.1263841979997462,
      0.10597498056375798,
      0.04130641729993023,
      -0.3575855318598258,
      0.3316910483474622,
      -1.6782697609164785,
      -0.0769827485688781,
      0.2739269051944788,
      -0.13196100977123315,
      -0.006125237614586748,
      -1.424255308228652,
      -2.8420386100123096,
      -2.584032609321355,
      3.0469066315377518,
      7.395829116226992,
      -3.2866320103452438,
      0.9699679014797766,
      2.065782388967449,
      0.5462797231735905,
      -0.9760433492875933,
      0.7966235139626363,
      -0.8355331235057406,
      0.042115746792926956,
      2.477662484369489,
      0.9118241230724351,
      -1.2791342262067644,
      -2.220550219097561,
      -1.7283448454458323,
      0.4634517179653699,
      0.18461696364569136,
      -3.701418781410837,
      -0.190519186432212,
      -0.09776743914646246,
      -0.05441736742168857,
      -0.0004578022429815483,
      -0.4258265578643332,
      0.30048028836137775,
      -0.13627883169501942,
      0.11544655262621983,
      -0.4541027755376703,
      2.7929468751707844,
      -0.03023364014170138,
      -0.120270477517197,
      -0.2926223739564904,
      -0.006835714091388334,
      0.6889728446870009,
      -3.00104431555269,
      1.6055473481643787,
      1.8603701878733716,
      -5.438143026324781,
      7.418130994874332,
      2.965550668369815,
      -0.524328578309671,
      -3.5681204726016347,
      -2.3704407344687013,
      3.858724195618322,
      1.9512379033460547,
      1.6895974805208311,
      7.707069714177919,
      4.025059583331824,
      -0.5566602465946815,
      -1.506110453185805,
      1.0872320333497782,
      1.1266096730151034,
      -0.001373824034828941,
      0.11775198422134814,
      0.019990027401584065,
      -0.1441438500833243,
      0.02927926045662943,
      0.06893676170003271,
      0.6667830348510222,
      -0.7548053906911747,
      -0.8140412150251777,
      -0.4485867048667771,
      -2.2165992259245826,
      -1.2879112144768712,
      0.272435285899995,
      0.0678094453980922,
      0.4612048252780099,
      -0.020536403155475114,
      -1.6935177594581745,
      1.9768652427133304,
      0.6980529445350641,
      -2.9090855637878974,
      0.7895325475371138,
      -7.722058599249465,
      -3.0506177330885293,
      -3.4642253684205286,
      -0.023031157658467416,
      13.070622937397502,
      -8.299410319466233,
      -0.4043766478348232,
      -2.304496144170912,
      5.549257138969551,
      -2.093191385030309,
      1.1851535046971478,
      -0.814201476534361,
      1.1463770356422742,
      1.299454181789656,
      -0.13981170020697675,
      1.3703688640148926,
      0.03214059834213856,
      0.14896463635455603,
      -0.07687332265867042,
      0.06643884512262677,
      1.787026461068308,
      0.22351158978913332,
      0.5951410095592209,
      0.685902180752926,
      -0.4430814371160352,
      -1.7120781285418047,
      0.16863266655703768,
      -0.13036055758669818,
      -0.05531973561864856,
      0.12930966732610738,
      1.35327503188757,
      1.8582386677982754,
      -3.334903158852427,
      0.3282892886294384,
      0.014397684906084063,
      0.11019273978356914,
      -4.918277727342684,
      -1.1236198712656176,
      -4.106329234030852,
      -8.197509111766635,
      -6.022085082004736,
      -0.7148930204400017,
      -0.6741239313656422,
      -5.917469732412769,
      6.216668359494804,
      0.8774186389676615,
      3.1828541332345424,
      -3.1057604633646747,
      -1.681803460073354,
      0.24694792953971856,
      -0.75987969856115,
      0.029899338708894163,
      -0.05099150069888658,
      0.009287795132872922,
      0.024359481520072723,
      0.2729293785439033,
      -0.26623351435772946,
      0.31669647447172977,
      0.03794324111257952,
      -0.3027408121242381,
      -0.7741173411417819,
      0.004677098648205924,
      0.06195070589169127,
      0.12238203821580029,
      0.014918103711462627,
      -0.9853118825404934,
      2.2457328927774256,
      -6.117547270338605,
      -2.504809946368212,
      1.0220339456026153,
      -2.6282461470693903,
      0.9902943466533998,
      -1.205185479762605,
      -1.2935840318230873,
      2.125570587238485,
      -0.37966752209580434,
      -2.2353308742140143,
      -1.5315002726305806,
      1.4697198633263042,
      2.889435490704912,
      0.010502517642316855,
      0.596596547376901,
      -2.8807484815120574,
      0.8156758077500825,
      0.2504759773420595,
      0.43569453439928907,
      0.01670380950150374,
      0.09286812294793734,
      0.012215564668855983,
      0.0333270473590177,
      -0.6406834647531241,
      0.13976268785967427,
      -0.05377976512827587,
      0.014675850362923959,
      -0.1263214698469417,
      0.5364054773686675,
      -0.14388229045625067,
      0.15248216834649142,
      0.25218028094979417,
      -0.16672123431635555,
      -3.2078507755234966,
      -0.6948195912442401,
      -2.186483454571402,
      -1.1998429763491174,
      1.3433697835496474,
      -3.746861713926876,
      3.41861447838437,
      -5.623061535067393,
      -5.157924207068447,
      1.7553652856697681,
      -2.9610862697659712,
      -2.647489510328569,
      -2.2457749410914403,
      -2.6214065205264205,
      10.131935366934556,
      0.3911459792092451,
      -0.9039442023014317,
      -0.040400631236056306,
      -2.28507486327824,
      -0.24686108072823743,
      0.8204063066280298,
      0.11992636495392617,
      -0.20489095580516192,
      -0.1278269748424421,
      -0.07703064318886099,
      -3.4201259642962896,
      0.29372242712477714,
      -0.43122285166620244,
      0.05961917098599301,
      -0.1341499800607293,
      0.8344152619252903,
      0.14900516082766124,
      -0.04181049248652435,
      -0.49418026877859234,
      0.01526125755299279,
      1.5563540380566963,
      -0.6400610092737224,
      0.879736169508142,
      -3.190954061131009,
      1.1766410293791125,
      -1.6632484975549318,
      -0.09011567204545656,
      -6.490755374339926,
      -5.358413650666023,
      -8.125659451199795,
      -1.4775325228886445,
      -4.8847836254094545,
      -5.201583656225466,
      -0.6131516755265167,
      3.4338002332923594,
      1.2670516273271915,
      0.5779334190443208,
      0.9340623177745044,
      -0.22381399628365983,
      1.2350817577673183,
      0.07116943679927878,
      -1.2375637443673781,
      -1.130245737366522,
      -0.17530084638657684,
      -0.013033157477418955,
      -0.4155180192760426,
      1.448401526070029,
      0.471197733030035,
      -0.04785580709468773,
      -0.15572958704230366,
      -3.3301302292716315,
      -0.06613439867647841,
      0.08442651799418588,
      0.15074500468120533,
      0.007375218254837224,
      -6.235747568655597,
      -0.2279264566190875,
      -0.8131093683090285,
      -2.7140546461755832,
      1.49534839168372,
      -1.4788209539723525,
      4.877842767949915,
      -1.113762381572613,
      -2.5796244022535575,
      5.845834482001408,
      -2.442617865609236,
      -0.03636990025806419,
      10.040015394341026,
      -0.7997916643537621,
      3.0216511763742346,
      -3.2576978664032197,
      0.003457469891063575,
      -0.5698153198260769,
      -0.11092004113802645,
      -2.368543273855664,
      -0.12234763806433513,
      0.05970222894122301,
      -0.37008552489839985,
      0.009992121603259463,
      -0.06016909566003381,
      0.2661833246456311,
      -1.1606421864039476,
      -0.7964232629452397,
      -0.32923190048280304,
      0.5744459339242702,
      0.3536636149284913,
      0.03935222302541774,
      0.09448401220429758,
      -0.038905826755093464,
      -0.0015982974660910948
    ],
    [
      -0.18652042746543884,
      0.20476405322551727,
      -0.025396868586540222,
      0.017782755196094513,
      -0.6634030342102051,
      0.13555505871772766,
      -0.6178517937660217,
      0.11692876368761063,
      0.1327858865261078,
      0.06156385689973831,
      -0.20479412376880646,
      -0.1795734167098999,
      0.3290272653102875,
      0.07283523678779602,
      -0.16475749015808105,
      0.0463947169482708,
      0.12319540977478027,
      0.24881651997566223,
      -0.10019133239984512,
      0.1485832929611206,
      0.0038476120680570602,
      0.2061656266450882,
      -0.35106587409973145,
      -0.09715638309717178,
      0.23950660228729248,
      -0.04711510241031647,
      0.012271935120224953,
      0.1919468641281128,
      0.5870485305786133,
      0.16346582770347595,
      -0.28209757804870605,
      0.3791142702102661,
      -0.04757610708475113,
      0.005818170495331287,
      -0.125542551279068,
      0.05006548762321472,
      0.2349666953086853,
      0.21997281908988953,
      0.03190314769744873,
      -0.07034692913293839,
      0.19581449031829834,
      0.3234119117259979,
      -0.16433218121528625,
      -0.01695951260626316,
      0.033362336456775665,
      0.13577046990394592,
      -0.12326112389564514,
      -0.14696207642555237,
      -0.12213580310344696,
      0.09934189170598984,
      -0.20190216600894928,
      0.2567204535007477,
      0.31918975710868835,
      0.030404822900891304,
      -0.21380354464054108,
      0.20224612951278687,
      -0.07354216277599335,
      0.1291307657957077,
      -0.09296578913927078,
      -0.6088202595710754,
      -0.7821290493011475,
      -0.025903362780809402,
      0.1087140142917633,
      -0.342327743768692,
      -0.17604613304138184,
      0.08789469301700592,
      0.3407623767852783,
      0.17719723284244537,
      0.05750828608870506,
      0.19713149964809418,
      0.5290974378585815,
      -0.3550046980381012,
      -0.12301453202962875,
      -0.1140357106924057,
      -0.48905348777770996,
      0.48168691992759705,
      0.16758789122104645,
      -0.0419892854988575,
      0.11206097900867462,
      -0.05148961395025253,
      0.2815892696380615,
      -0.07614680379629135,
      0.2213752120733261,
      0.25219228863716125,
      -0.1412622630596161,
      -0.20573164522647858,
      -0.40660133957862854,
      -0.34169846773147583,
      -0.27275267243385315,
      -0.10030178725719452,
      -0.08634358644485474,
      0.029315276071429253,
      -0.482146680355072,
      0.19061429798603058,
      -0.0737747848033905,
      -0.12585368752479553,
      0.7807117104530334,
      0.057699285447597504,
      0.003255421994253993,
      -0.08246020972728729,
      -0.14540745317935944,
      -0.2575351893901825,
      -0.030705880373716354,
      -0.004163236357271671,
      0.03990469500422478,
      0.09853255748748779,
      0.08149901032447815,
      -0.4953359067440033,
      0.19772082567214966,
      -0.34104278683662415,
      0.113115094602108,
      -0.42868277430534363,
      0.41367411613464355,
      0.13535857200622559,
      -0.3565451204776764,
      0.21410860121250153,
      -0.14832870662212372,
      -0.2371637225151062,
      0.20171362161636353,
      0.21760162711143494,
      0.08789107948541641,
      -0.2096846103668213,
      -0.012890519574284554,
      -0.07473890483379364,
      0.1784755140542984,
      0.11842207610607147,
      -0.5062323212623596,
      0.2446455955505371,
      -0.6119416356086731,
      -0.03964734449982643,
      0.28601354360580444,
      0.338759183883667,
      -0.3579840064048767,
      -0.4189322590827942,
      0.04386179521679878,
      0.05738438293337822,
      -0.4056228995323181,
      -0.15639032423496246,
      0.12738533318042755,
      0.3440682590007782,
      0.7643295526504517,
      -0.11176783591508865,
      0.4627279043197632,
      -0.42847901582717896,
      -0.7566673159599304,
      0.16730621457099915,
      0.026081537827849388,
      0.03966498374938965,
      -0.2296173870563507,
      -0.4376857876777649,
      0.10928147286176682,
      -0.17376963794231415,
      0.23424822092056274,
      0.1614159792661667,
      -0.03634766861796379,
      -0.11798039823770523,
      -0.19978967308998108,
      0.0813288614153862,
      0.3445874750614166,
      -0.4160515367984772,
      0.23313970863819122,
      -0.22453966736793518,
      -0.0570664182305336,
      -0.05046898499131203,
      0.0862499326467514,
      -0.22418737411499023,
      -0.10981787741184235,
      0.22857484221458435,
      -4.895960591966286e-05,
      -0.15091320872306824,
      -0.06589388847351074,
      0.9313024282455444,
      0.3060336709022522,
      0.10244527459144592,
      0.11845739185810089,
      -0.09902390837669373,
      -0.1330917328596115,
      -0.059436455368995667,
      -0.029487155377864838,
      -0.11199064552783966,
      -0.35508501529693604,
      0.2551809549331665,
      0.15001846849918365,
      0.27880293130874634,
      0.16035175323486328,
      -0.11508205533027649,
      0.11668887734413147,
      -0.09919776767492294,
      -0.8371472358703613,
      -0.22933566570281982,
      0.12347446382045746,
      -0.1332978904247284,
      -0.3307409882545471,
      -0.11264880746603012,
      0.5111173987388611,
      0.06113163381814957,
      0.05224964767694473,
      -0.21004900336265564,
      0.18002338707447052,
      0.36600756645202637,
      0.2955665588378906,
      -0.37294885516166687,
      -0.14439748227596283,
      -0.12752112746238708,
      0.08115077018737793,
      0.2166203409433365,
      0.24920152127742767,
      -0.19328737258911133,
      0.030993696302175522,
      0.06346999853849411,
      0.20321692526340485,
      0.17089074850082397,
      -0.013135719113051891,
      -0.15258300304412842,
      -0.11609911918640137,
      -0.03260039538145065,
      0.2447233498096466,
      0.08031127601861954,
      0.1130157932639122,
      0.4048900604248047,
      -0.28215381503105164,
      -0.05637849122285843,
      0.061961300671100616,
      0.4415636956691742,
      -0.8042992949485779,
      -0.31261634826660156,
      -0.10043536871671677,
      -0.01247993391007185,
      -0.5466761589050293,
      -0.3077453374862671,
      -0.17559923231601715,
      -0.3636665344238281,
      0.45296165347099304,
      0.0814499482512474,
      -0.03474309667944908,
      0.017385438084602356,
      -0.19747349619865417,
      -0.08951526135206223,
      -0.0840177908539772,
      0.37678536772727966,
      -0.06275814026594162,
      -0.2139732390642166,
      0.007981776259839535,
      0.3792308270931244,
      -0.13971689343452454,
      0.22058598697185516,
      0.26592811942100525,
      0.2953003942966461,
      -0.29443904757499695,
      0.21340413391590118,
      -0.06330160051584244,
      -0.3187941014766693,
      -0.5422271490097046,
      0.18931905925273895,
      0.23324277997016907,
      0.16471350193023682
    ]
  ],
  "actor_encoder_biases": [
    [
      1.6271441341110906,
      -6.00732276787753,
      0.5000423760406972,
      -7.112785221337092,
      15.576633634777961,
      1.4464862088494868,
      -5.891290872744768,
      -11.281423305501457,
      -3.1956744454288777,
      -0.024408845077482977,
      4.220920704594245,
      7.893196399395254,
      8.792846885173509,
      19.256378696481544,
      18.734463032185026,
      7.394690261826585
    ],
    [
      0.03985406830906868,
      -0.01615346595644951,
      -0.009183197282254696,
      0.31527191400527954,
      -0.08406630158424377,
      0.36309653520584106,
      0.030427120625972748,
      0.0018264343962073326,
      -0.003475179895758629,
      0.16342338919639587,
      -0.25422728061676025,
      0.05997724086046219,
      0.0035839234478771687,
      0.02297825738787651,
      0.11467666178941727,
      0.14157462120056152
    ]
  ],
  "actor_head_weights": [
    [
      -0.8547069430351257,
      -0.464988112449646,
      0.2432355284690857,
      -0.12371711432933807,
      0.2086041122674942,
      0.08816356956958771,
      0.05080091580748558,
      0.017952844500541687,
      -0.5596401691436768,
      0.4639662802219391,
      0.030868621543049812,
      0.5604996085166931,
      0.05277910828590393,
      -0.2978956997394562,
      -0.3067794740200043,
      0.5350672602653503,
      0.09036848694086075,
      0.17778447270393372,
      0.471388578414917,
      0.030863745138049126,
      -0.04525739327073097,
      -0.21882180869579315,
      0.10318948328495026,
      0.014753537252545357,
      0.5375789403915405,
      0.33769360184669495,
      -0.15285897254943848,
      -0.5361778140068054,
      -0.17989851534366608,
      0.022226423025131226,
      -0.3610929846763611,
      -1.0869472026824951,
      -1.0391590595245361,
      -0.3114736080169678,
      0.04042530804872513,
      0.4173397123813629,
      -0.23587696254253387,
      0.3539540767669678,
      0.6222823262214661,
      0.5327498316764832,
      0.21546728909015656,
      0.3621962368488312,
      0.39620524644851685,
      -0.06067473813891411,
      -0.018035734072327614,
      -0.1745694875717163,
      0.13521474599838257,
      -0.009937022812664509,
      0.4795646071434021,
      0.03828039765357971,
      0.037192586809396744,
      0.8307569026947021,
      0.1807302087545395,
      0.08169853687286377,
      -0.4311431050300598,
      0.06719088554382324,
      -0.35677745938301086,
      -0.11845973879098892,
      -0.9250772595405579,
      0.15399393439292908,
      -0.0018070810474455357,
      0.23799315094947815,
      0.04492446035146713,
      -0.09323585778474808
    ]
  ],
  "actor_head_biases": [
    [
      0.1132965236902237,
      0.3781341314315796,
      0.1564265787601471,
      0.38274747133255005
    ]
  ],
  "gru_weight_ih": [
    1.2600743770599365,
    -1.085036277770996,
    -0.6075355410575867,
    1.8678327798843384,
    -2.0320770740509033,
    -0.10807513445615768,
    1.512433409690857,
    0.5890458822250366,
    0.8425042033195496,
    1.6443190574645996,
    -0.891799807548523,
    0.03645583242177963,
    0.24111394584178925,
    -0.4188227355480194,
    0.7710098028182983,
    -0.3681505620479584,
    -0.01282047200948,
    -0.22006747126579285,
    -0.5668356418609619,
    -0.9407179951667786,
    0.24814733862876892,
    0.7125195860862732,
    1.5098187923431396,
    -0.950812578201294,
    0.7932112216949463,
    -0.3366895318031311,
    0.20735415816307068,
    0.2598002851009369,
    0.42485272884368896,
    -0.4140237867832184,
    -0.33415186405181885,
    -0.013130341656506062,
    -0.9700031876564026,
    0.7064200043678284,
    1.4896974563598633,
    -0.2512427866458893,
    2.237867593765259,
    0.7004414796829224,
    -1.5274392366409302,
    0.00407831184566021,
    -0.8141672611236572,
    -0.11705144494771957,
    -0.6098281741142273,
    -1.486664056777954,
    -0.3575547933578491,
    -2.143098831176758,
    -1.7979116439819336,
    0.4841602146625519,
    0.09449520707130432,
    -0.27348804473876953,
    0.882350742816925,
    -0.4342604875564575,
    -0.6610633134841919,
    -1.655350923538208,
    0.9751226305961609,
    -1.3626320362091064,
    -1.5984790325164795,
    -0.003427492920309305,
    -1.0334861278533936,
    0.7918121218681335,
    -1.4400750398635864,
    0.662555456161499,
    -0.7974635362625122,
    0.0006822147988714278,
    -0.6987408995628357,
    1.4496673345565796,
    1.2315806150436401,
    0.6383422017097473,
    0.4912225902080536,
    -0.1606433391571045,
    1.550663709640503,
    0.007703949231654406,
    -0.752099871635437,
    0.5128757953643799,
    -0.37404829263687134,
    -0.41599413752555847,
    1.0326486825942993,
    0.21053817868232727,
    -1.3055485486984253,
    -0.944111704826355,
    -0.6654373407363892,
    -0.7946996688842773,
    1.8073995113372803,
    0.8612325191497803,
    -0.50583815574646,
    -1.1516257524490356,
    0.6564154028892517,
    -0.39838701486587524,
    0.7425633668899536,
    1.6944847106933594,
    0.05493633821606636,
    -1.2118587493896484,
    -0.17715898156166077,
    0.6425659656524658,
    0.605025589466095,
    0.8787503838539124,
    -0.395249605178833,
    0.7275066375732422,
    -0.6311756372451782,
    -0.7955023646354675,
    1.1509162187576294,
    0.019209377467632294,
    0.6121925711631775,
    -0.12925276160240173,
    -1.6793495416641235,
    -1.047900915145874,
    -0.9520524740219116,
    0.5528309345245361,
    -0.358243465423584,
    0.2723335325717926,
    0.5100744366645813,
    -1.2703242301940918,
    -0.39921286702156067,
    -0.722934901714325,
    -0.8679944276809692,
    -0.13509130477905273,
    -1.3462235927581787,
    -0.8285908102989197,
    0.11834141612052917,
    -0.1651051640510559,
    -0.29170745611190796,
    -0.2933260202407837,
    -0.6513068079948425,
    0.3129861056804657,
    0.18352538347244263,
    0.15510223805904388,
    0.19644016027450562,
    0.29611971974372864,
    -1.764708399772644,
    0.5396158695220947,
    0.5791348814964294,
    0.2654149830341339,
    0.7146487236022949,
    -0.0324304960668087,
    -0.3709583878517151,
    -0.12695781886577606,
    -0.7394458651542664,
    0.18119625747203827,
    -0.6082712411880493,
    -0.6696280837059021,
    0.9254171252250671,
    1.019791841506958,
    0.012894350104033947,
    0.40258660912513733,
    -1.0977212190628052,
    -0.580406665802002,
    0.2473173588514328,
    -0.5409907102584839,
    0.47369465231895447,
    -0.6146749258041382,
    -0.9226870536804199,
    0.5018113255500793,
    -2.4953839778900146,
    -0.17343564331531525,
    -0.1363011747598648,
    1.3432457447052002,
    0.22964274883270264,
    -0.4486919939517975,
    -0.45302727818489075,
    -0.018530460074543953,
    -0.16073296964168549,
    -0.3844657242298126,
    -0.5910823345184326,
    -1.0694730281829834,
    -0.6911532282829285,
    -0.2563643753528595,
    0.6740533113479614,
    -0.5955885052680969,
    0.4300883710384369,
    -0.5551115870475769,
    -0.005075795575976372,
    -0.5577322244644165,
    -0.27449819445610046,
    -0.11144545674324036,
    -0.6626081466674805,
    -0.14207938313484192,
    -0.9716083407402039,
    1.5844101905822754,
    -0.4328500032424927,
    3.0134212970733643,
    0.1345563381910324,
    -1.0686088800430298,
    0.5325221419334412,
    -0.49011656641960144,
    -0.15285952389240265,
    -0.9843972325325012,
    1.162620186805725,
    1.0965873003005981,
    0.7765318751335144,
    0.6743594408035278,
    1.106011152267456,
    0.7681278586387634,
    -0.4605770409107208,
    0.2736310064792633,
    0.9319633841514587,
    -0.7435125112533569,
    -0.06432584673166275,
    -0.006437845528125763,
    -1.3574553728103638,
    0.1143227368593216,
    -0.6384381055831909,
    -0.5336359739303589,
    0.4550657272338867,
    -0.12584784626960754,
    0.6659596562385559,
    1.3137367963790894,
    -0.22949907183647156,
    0.9158111214637756,
    -0.14456182718276978,
    -0.6944444179534912,
    -0.5752195715904236,
    -0.4105522632598877,
    1.1168482303619385,
    0.6633768677711487,
    0.3478300869464874,
    0.6437366604804993,
    -0.2623302936553955,
    -0.013769303448498249,
    -0.16152885556221008,
    1.6183863878250122,
    -0.8051050305366516,
    0.3592866361141205,
    -0.30701079964637756,
    1.1908376216888428,
    -0.9598615169525146,
    0.7533735632896423,
    1.389525055885315,
    0.23403875529766083,
    -0.434598833322525,
    -1.1311469078063965,
    -0.4664191007614136,
    0.5798715353012085,
    -1.1993728876113892,
    -1.2502437829971313,
    -0.15151813626289368,
    -0.13348886370658875,
    -1.0321258306503296,
    -0.5460931062698364,
    -1.145304799079895,
    0.09251035004854202,
    -0.47868096828460693,
    -0.865195095539093,
    0.12328838557004929,
    -0.2960672378540039,
    0.16730651259422302,
    0.04154155030846596,
    0.07365716248750687,
    0.13601535558700562,
    -0.5950273871421814,
    -0.7165389657020569,
    -0.30339837074279785,
    0.011054526083171368,
    -0.33062469959259033,
    -0.1041492372751236,
    0.28687623143196106,
    -0.8671916127204895,
    0.2706555426120758,
    0.6501960158348083,
    0.6253795027732849,
    0.141370490193367,
    0.25453901290893555,
    -0.2377510964870453,
    0.40188220143318176,
    -0.29603174328804016,
    0.4572136104106903,
    -0.5113722085952759,
    -0.1975855529308319,
    -0.5156616568565369,
    0.5477521419525146,
    0.667589008808136,
    -0.2267129272222519,
    0.17363880574703217,
    0.7383842468261719,
    0.7914102673530579,
    0.5286686420440674,
    0.6272093057632446,
    0.11928604543209076,
    0.022909041494131088,
    0.023228758946061134,
    -0.8541437983512878,
    -0.2291557788848877,
    -0.08622859418392181,
    -0.07362629473209381,
    -1.0483124256134033,
    -0.32853275537490845,
    -0.675298273563385,
    0.5896483659744263,
    0.9166210293769836,
    0.4413890242576599,
    0.20430532097816467,
    -0.039456214755773544,
    0.6311065554618835,
    -0.16557170450687408,
    -0.9242441654205322,
    0.2821272909641266,
    -1.1983158588409424,
    -0.8210574984550476,
    -0.5721951723098755,
    0.24534215033054352,
    0.1518358588218689,
    -0.8403988480567932,
    0.7844687700271606,
    0.1797902137041092,
    0.08837644010782242,
    0.164178729057312,
    -0.9189070463180542,
    0.6012101173400879,
    0.8134936690330505,
    -0.6163157224655151,
    0.4491490423679352,
    -0.2822944223880768,
    -0.3037499785423279,
    1.3712795972824097,
    0.5297473669052124,
    0.8522102236747742,
    -2.2616169452667236,
    -0.1016726940870285,
    0.5202699899673462,
    0.43804073333740234,
    0.7843485474586487,
    0.009898019023239613,
    0.05833163857460022,
    0.005183788947761059,
    0.6410377621650696,
    0.09502264857292175,
    -0.4066329002380371,
    0.3437685966491699,
    0.13037900626659393,
    0.16917212307453156,
    0.11357313394546509,
    0.2355303019285202,
    0.3513788878917694,
    -0.3204231262207031,
    0.48372238874435425,
    -0.32209524512290955,
    0.2843068838119507,
    -0.44773685932159424,
    -0.6007500886917114,
    0.6074142456054688,
    0.14703187346458435,
    -0.037515509873628616,
    -0.059993620961904526,
    -0.22196009755134583,
    -0.2967771887779236,
    -0.9059650301933289,
    0.03565126657485962,
    0.45606011152267456,
    0.1653512418270111,
    0.13442055881023407,
    -0.20188947021961212,
    -0.6287331581115723,
    -0.45388710498809814,
    0.028066467493772507,
    0.05797528475522995,
    -0.025899341329932213,
    0.09181240946054459,
    0.16081833839416504,
    0.246200293302536,
    0.21950457990169525,
    -0.3748026490211487,
    -0.15989230573177338,
    -0.35823482275009155,
    0.22567355632781982,
    0.19512435793876648,
    0.03952175751328468,
    -0.148469015955925,
    0.5030805468559265,
    -0.3203281760215759,
    0.018493209034204483,
    -0.6664776802062988,
    -0.16187869012355804,
    0.8009517192840576,
    0.7862798571586609,
    -0.16389068961143494,
    -1.264374852180481,
    0.03482930362224579,
    -0.6274796724319458,
    0.7317044138908386,
    -1.9087306261062622,
    -0.42490193247795105,
    -0.31348180770874023,
    0.14458665251731873,
    -0.2513999342918396,
    -1.3134835958480835,
    -0.4125226140022278,
    -0.5555807948112488,
    0.2232312709093094,
    -0.08423702418804169,
    0.4015602469444275,
    -0.1484001874923706,
    0.05828701704740524,
    -0.27874690294265747,
    -0.3633176386356354,
    -0.10327812284231186,
    0.04389600455760956,
    0.6525611281394958,
    -1.1682977676391602,
    -1.108087182044983,
    0.4639030992984772,
    -0.4295291006565094,
    0.682033121585846,
    -1.3549680709838867,
    0.2478903979063034,
    -0.9845357537269592,
    -0.19619053602218628,
    0.08670511096715927,
    0.10378563404083252,
    0.2771208584308624,
    -0.6900867819786072,
    0.7886154651641846,
    0.14099545776844025,
    0.321831613779068,
    0.2044374793767929,
    -0.33005279302597046,
    0.10414393991231918,
    -0.6541062593460083,
    -0.8423205018043518,
    -1.3996583223342896,
    -1.0234994888305664,
    0.06106674298644066,
    -0.6401094794273376,
    -0.05908142402768135,
    0.4793669283390045,
    -0.8185816407203674,
    0.4611007273197174,
    0.21954824030399323,
    0.4853745102882385,
    0.7744935750961304,
    -1.0030109882354736,
    -0.6165425181388855,
    0.9134244322776794,
    -0.1892877072095871,
    0.2140200138092041,
    -0.027297871187329292,
    0.21456138789653778,
    -0.2067188173532486,
    0.2566448450088501,
    0.1420932114124298,
    -0.17840345203876495,
    0.10680001229047775,
    -0.14424149692058563,
    0.08437211811542511,
    -0.025134488940238953,
    0.2182725965976715,
    -0.5242877006530762,
    0.6286181807518005,
    -0.10142356157302856,
    -0.13609953224658966,
    -0.6122766733169556,
    -0.6536060571670532,
    0.7357199788093567,
    0.8009669184684753,
    0.1764015257358551,
    -0.49833834171295166,
    -0.9472652077674866,
    -0.6140733361244202,
    -0.11076098680496216,
    0.7522711157798767,
    -0.4941967725753784,
    -0.27313902974128723,
    0.12215818464756012,
    -0.0661439597606659,
    0.5915658473968506,
    0.19842717051506042,
    -0.11670681089162827,
    0.4593884348869324,
    0.34482699632644653,
    0.19063380360603333,
    0.06349455565214157,
    0.04859456792473793,
    0.1894078403711319,
    -0.05531824007630348,
    -0.22151599824428558,
    0.589283287525177,
    0.12703464925289154,
    0.37225666642189026,
    -0.38458698987960815,
    1.0142185688018799,
    -0.016044065356254578,
    -0.11310891062021255,
    0.40592002868652344,
    -0.41703739762306213,
    0.36655911803245544,
    0.2414676994085312,
    0.3590624928474426,
    -0.7337128520011902,
    -0.3418620824813843,
    -0.3479616343975067,
    -0.538720965385437,
    -0.275247722864151,
    -0.9169962406158447,
    -0.323613703250885,
    1.1611725091934204,
    -0.5296300053596497,
    -1.0736443996429443,
    0.14005418121814728,
    0.19346265494823456,
    -0.4803617298603058,
    -0.2112036794424057,
    0.10134100914001465,
    0.22369088232517242,
    -0.6964063048362732,
    -0.11466862261295319,
    -1.074567437171936,
    -0.5021446943283081,
    0.13487790524959564,
    -0.1118008941411972,
    0.5727115869522095,
    -0.21369977295398712,
    -0.4027659296989441,
    -0.11619675904512405,
    0.05953662842512131,
    0.353789359331131,
    0.16060778498649597,
    0.04163295403122902,
    -0.05754204839468002,
    -0.7760356068611145,
    0.05187838897109032,
    -0.25067782402038574,
    -0.12940868735313416,
    1.3806926012039185,
    -0.28407639265060425,
    0.9940195083618164,
    -0.18910543620586395,
    0.38311827182769775,
    -0.720082700252533,
    -0.1552741527557373,
    -0.7569018602371216,
    0.23193173110485077,
    -0.03182930499315262,
    -0.22757743299007416,
    -0.0005893565830774605,
    -0.13880756497383118,
    -0.2104334682226181,
    -0.38225463032722473,
    -0.26861441135406494,
    0.336975634098053,
    0.22482582926750183,
    0.12431898713111877,
    0.03369982913136482,
    0.27828967571258545,
    -0.11469773203134537,
    0.18459613621234894,
    -0.23880697786808014,
    0.1202145665884018,
    -0.07908632606267929,
    0.02865273505449295,
    0.39550668001174927,
    -0.3619491159915924,
    -0.5796195864677429,
    0.20486150681972504,
    -0.535821259021759,
    -0.024709343910217285,
    0.25556129217147827,
    -0.3329648971557617,
    0.7002876996994019,
    1.0700384378433228,
    0.0761226937174797,
    -0.32082679867744446,
    0.37510091066360474,
    0.10452335327863693,
    -0.16131463646888733,
    -0.027026323601603508,
    0.42214539647102356,
    -0.11393216997385025,
    0.6909518837928772,
    -0.08619171380996704,
    -0.32254502177238464,
    0.16858625411987305,
    -0.04435574635863304,
    0.10930133610963821,
    -0.02229059860110283,
    0.03409038484096527,
    -0.003090399783104658,
    -0.4286254048347473,
    0.301106721162796,
    -0.6828462481498718,
    -0.18948012590408325,
    -0.05304770544171333,
    0.3390907645225525,
    0.050147272646427155,
    -0.625175416469574,
    0.2628757655620575,
    0.4674449861049652,
    0.48823875188827515,
    -0.2037818431854248,
    -0.25629788637161255,
    -0.15509121119976044,
    -0.14614488184452057,
    -0.27470529079437256,
    -0.3668292760848999,
    0.07230936735868454,
    -0.30995020270347595,
    -0.07542728632688522,
    0.10940533131361008,
    -0.1498343050479889,
    -0.4489942491054535,
    0.09592541307210922,
    -0.30355188250541687,
    -0.003327352460473776,
    0.06545455008745193,
    0.18033112585544586,
    -0.5900869965553284,
    -0.5096906423568726,
    -0.6321698427200317,
    -0.04693480208516121,
    0.05601049214601517,
    -0.05936659500002861,
    -0.10203748196363449,
    0.05178564786911011,
    -0.13774602115154266,
    -0.3476923108100891,
    -0.029855309054255486,
    -0.6708406805992126,
    -0.208058163523674,
    0.2819630801677704,
    0.24753232300281525,
    0.08265579491853714,
    -0.19101205468177795,
    -0.11852708458900452,
    -0.17865434288978577,
    0.37324196100234985,
    -0.17866699397563934,
    0.6372313499450684,
    0.003933287691324949,
    0.3016586899757385,
    -0.31591886281967163,
    0.4391845166683197,
    -0.29316988587379456,
    -0.028517356142401695,
    0.3728431463241577,
    0.1543336808681488,
    0.09534121304750443,
    -0.06517325341701508,
    -0.8110358715057373,
    -0.11091958731412888,
    -0.8578454256057739,
    -0.11299010366201401,
    0.24403823912143707,
    0.01652623526751995,
    0.6094301342964172,
    0.12405815720558167,
    0.015766514465212822,
    -0.21859219670295715,
    -0.22606594860553741,
    -0.4348353147506714,
    -0.08709532022476196,
    -0.21564702689647675,
    0.3129105865955353,
    -0.057276640087366104,
    -0.32093673944473267,
    0.07260233163833618,
    0.019520070403814316,
    -0.18530143797397614,
    0.22424422204494476,
    0.0842074528336525,
    0.0007634707726538181,
    -0.3428589105606079,
    -0.0499764122068882,
    0.08303116261959076,
    -0.29388701915740967,
    -0.2398669570684433,
    0.14294932782649994,
    0.40399155020713806,
    -0.25675252079963684,
    -0.3163886070251465,
    -0.49843066930770874,
    -0.08097581565380096,
    -0.028744984418153763,
    -0.4493919610977173,
    0.14299245178699493,
    0.3216521739959717,
    0.03840016573667526,
    0.09037477523088455,
    0.028362398967146873,
    0.11093179136514664,
    -0.28780829906463623,
    -0.18900062143802643,
    -0.1699679046869278,
    0.32820647954940796,
    -0.10293933749198914,
    -0.03430715575814247,
    -0.12544536590576172,
    -0.03882814571261406,
    -0.25267112255096436,
    -0.2011243849992752,
    0.5284358263015747,
    0.01653217524290085,
    -0.7035479545593262,
    -0.4781075417995453,
    -0.291545569896698,
    -0.016940627247095108,
    -0.04877903684973717,
    0.395651251077652,
    -0.38699179887771606,
    0.5770664811134338,
    0.11449827998876572,
    0.0844934955239296,
    0.817714273929596,
    -0.598362147808075,
    -0.010963150300085545,
    0.9081984758377075,
    0.14785994589328766,
    0.4303601384162903,
    0.44298362731933594,
    0.29838183522224426,
    0.16672185063362122,
    0.00026279984740540385,
    0.42903491854667664,
    -0.18757858872413635,
    -0.0337563082575798,
    -0.3182150423526764,
    0.09503895789384842,
    -0.1349450945854187,
    -0.14049260318279266,
    0.08336279541254044,
    -0.16340236365795135,
    -0.28697624802589417,
    -0.4153466820716858,
    -0.004770119208842516,
    -0.1982773393392563,
    0.051919903606176376,
    0.23988382518291473,
    0.13507090508937836,
    0.5472531914710999,
    0.07356186211109161,
    -0.7710360884666443,
    -0.2575688064098358,
    0.17144550383090973,
    0.19281646609306335,
    -0.06952246278524399,
    -0.031389687210321426,
    -0.08189516514539719,
    0.10831783711910248,
    0.5310648679733276,
    0.48907291889190674,
    0.2882939875125885,
    0.4675007164478302,
    0.08203566074371338,
    -0.15874812006950378,
    0.2134949415922165,
    0.45294588804244995,
    0.177043616771698,
    -0.07269008457660675,
    0.3858572244644165,
    0.05313882604241371,
    -0.44785135984420776,
    -0.6930887699127197,
    -0.155435249209404,
    -0.052188921719789505,
    0.11244769394397736,
    -0.09856218099594116,
    -0.10276637971401215,
    0.15508224070072174,
    -0.08395111560821533,
    -0.1519605815410614,
    0.09673163294792175,
    0.18378154933452606,
    -0.4816930890083313,
    0.12427359074354172,
    -0.3032967150211334,
    -0.4524991810321808,
    0.1331292688846588,
    0.019274046644568443,
    -0.08928105980157852,
    0.0205529797822237,
    0.07293395698070526,
    0.0972806066274643
  ],
  "gru_weight_hh": [
    -0.6099336743354797,
    -0.8559296727180481,
    0.4752121567726135,
    0.4768625497817993,
    2.5568349361419678,
    -1.5941838026046753,
    2.121184825897217,
    -0.5992185473442078,
    -0.4803003966808319,
    -0.09882830828428268,
    0.5270595550537109,
    -0.4875113070011139,
    -0.22035035490989685,
    -0.03304889425635338,
    -0.6087086796760559,
    -1.0111162662506104,
    1.4154787063598633,
    0.060428835451602936,
    -0.78203946352005,
    -0.2631063759326935,
    -0.30952656269073486,
    0.5053784251213074,
    -0.4376755654811859,
    0.6188189387321472,
    -0.8106721043586731,
    0.4532875716686249,
    0.5842373967170715,
    1.035547137260437,
    0.5065523982048035,
    1.6816664934158325,
    0.5183701515197754,
    1.0462850332260132,
    -0.964229941368103,
    -0.6718454360961914,
    1.598203182220459,
    0.995067834854126,
    1.8529129028320312,
    0.13331343233585358,
    1.1546473503112793,
    -0.9285309910774231,
    1.7895970344543457,
    0.9100377559661865,
    0.5791481137275696,
    0.11733072996139526,
    -1.5774766206741333,
    -0.4069010615348816,
    1.345550298690796,
    -0.122086301445961,
    2.033677577972412,
    0.7533239722251892,
    -1.5904234647750854,
    1.0875720977783203,
    0.9380418062210083,
    -1.7755202054977417,
    -0.10460666567087173,
    2.327777624130249,
    0.42733100056648254,
    -1.9794374704360962,
    0.8321008682250977,
    0.6667765378952026,
    1.2000612020492554,
    -0.11972472816705704,
    -0.8097229599952698,
    -0.6107218265533447,
    -1.7464537620544434,
    0.6492913961410522,
    0.11596480756998062,
    -0.6043594479560852,
    0.10996901988983154,
    -0.5455436706542969,
    2.1873786449432373,
    -0.4129224717617035,
    0.14606429636478424,
    -0.21605148911476135,
    1.1545381546020508,
    -1.2436784505844116,
    -0.8756074905395508,
    0.7213690280914307,
    0.031847890466451645,
    -0.9025647044181824,
    -0.8164857625961304,
    0.36466556787490845,
    0.1331528127193451,
    -0.9384381771087646,
    -0.9173747897148132,
    -0.7170249223709106,
    -0.6078194975852966,
    2.5237016677856445,
    0.1317499577999115,
    0.09041443467140198,
    2.379804849624634,
    1.3460378646850586,
    -0.740736722946167,
    -0.43932250142097473,
    0.048193108290433884,
    0.06794241070747375,
    1.0813679695129395,
    0.052809327840805054,
    0.04383698105812073,
    0.13857711851596832,
    0.6571027040481567,
    -0.0008446883293800056,
    -0.103675477206707,
    0.08088992536067963,
    -0.10197450965642929,
    -0.0997072085738182,
    -0.7057863473892212,
    -1.775776982307434,
    -0.49448516964912415,
    -1.0485306978225708,
    -0.07474912703037262,
    0.30888426303863525,
    1.226150393486023,
    -1.2403180599212646,
    -1.003747820854187,
    -1.6196619272232056,
    0.8690770864486694,
    -0.5916551351547241,
    -1.7914661169052124,
    -0.4731586277484894,
    1.0115989446640015,
    1.5095781087875366,
    -0.2921105623245239,
    -0.9262310266494751,
    1.5919272899627686,
    1.0284905433654785,
    0.0954437404870987,
    -0.39498916268348694,
    -0.18674078583717346,
    -1.9521886110305786,
    0.4587206542491913,
    -1.5240134000778198,
    0.3908306956291199,
    0.2864418625831604,
    1.2470718622207642,
    -2.211862325668335,
    0.6556146740913391,
    0.2505851089954376,
    1.2935998439788818,
    -0.8770670890808105,
    -0.4066300094127655,
    1.2673345804214478,
    1.1899998188018799,
    0.5752885341644287,
    -1.2988507747650146,
    0.9598265290260315,
    0.19531755149364471,
    0.0929683968424797,
    -2.200049638748169,
    -1.9042558670043945,
    0.9569095373153687,
    -0.6044992804527283,
    0.6272505521774292,
    -1.8155064582824707,
    -0.6028735637664795,
    -0.6734814643859863,
    1.22882878780365,
    -1.1405309438705444,
    1.8611693382263184,
    1.748007893562317,
    0.11320891976356506,
    0.503612756729126,
    -0.05640273541212082,
    0.41060516238212585,
    -0.9830641746520996,
    0.1018371507525444,
    -1.1798248291015625,
    -0.8618023991584778,
    -0.62857985496521,
    1.5016087293624878,
    -0.15601113438606262,
    -0.17210924625396729,
    -0.6688699126243591,
    0.4959389865398407,
    0.3605789840221405,
    -0.20625890791416168,
    -1.20150625705719,
    0.5347267985343933,
    1.1401169300079346,
    -0.36348968744277954,
    0.48835065960884094,
    -0.2302449643611908,
    2.444639205932617,
    -1.0884507894515991,
    0.3908020555973053,
    -0.5338538289070129,
    -0.09947022050619125,
    -0.5069013237953186,
    1.7815074920654297,
    0.4475253224372864,
    -1.7564433813095093,
    1.2115042209625244,
    0.3035329580307007,
    -1.35551917552948,
    0.15696994960308075,
    -0.5790930390357971,
    0.46149295568466187,
    0.3619324266910553,
    -0.8655908703804016,
    -0.360392302274704,
    1.7236567735671997,
    -0.17379631102085114,
    -0.488137811422348,
    1.8484402894973755,
    1.411490797996521,
    0.23519013822078705,
    0.10777047276496887,
    -0.12382592260837555,
    1.3951197862625122,
    -0.6814202666282654,
    -1.620475172996521,
    -0.626056969165802,
    0.3286658227443695,
    -1.2702534198760986,
    -1.434586524963379,
    0.38476094603538513,
    -0.10799862444400787,
    -1.0354138612747192,
    0.2649216651916504,
    -1.9877605438232422,
    0.7201692461967468,
    -0.5672406554222107,
    -0.5261123180389404,
    -0.8660250902175903,
    -1.5132943391799927,
    1.232784628868103,
    0.2863503396511078,
    -0.6871730089187622,
    -0.07992342859506607,
    0.12558108568191528,
    0.4457874298095703,
    -0.31264203786849976,
    0.9401193857192993,
    -0.8342092037200928,
    -1.1806102991104126,
    0.3230734169483185,
    0.16789063811302185,
    -1.2386215925216675,
    -0.3701179325580597,
    -1.1890954971313477,
    -0.6965872645378113,
    0.040395449846982956,
    -0.06493061035871506,
    0.22132693231105804,
    0.23401495814323425,
    -0.28790268301963806,
    -0.445919394493103,
    -0.6358732581138611,
    0.5848261117935181,
    0.0674050822854042,
    -0.16993482410907745,
    -2.3526716232299805,
    0.8123449087142944,
    0.15800611674785614,
    0.17225106060504913,
    -0.4846406877040863,
    -1.3505324125289917,
    0.4789787530899048,
    0.6206401586532593,
    0.016419656574726105,
    -0.25266188383102417,
    -0.16629575192928314,
    1.0032893419265747,
    -0.03371640667319298,
    0.2118082195520401,
    0.020887749269604683,
    -0.3802300691604614,
    -1.11122465133667,
    0.6544525027275085,
    0.09513835608959198,
    0.1837856024503708,
    0.9480339288711548,
    1.481154203414917,
    0.9535061120986938,
    -0.6016760468482971,
    0.41421812772750854,
    0.5639424324035645,
    0.14050880074501038,
    -0.29582318663597107,
    0.2593916654586792,
    -1.3799382448196411,
    -1.1851301193237305,
    0.006987406872212887,
    0.8840460181236267,
    -0.1539902240037918,
    -0.22253072261810303,
    -0.7468849420547485,
    0.5584275126457214,
    -0.44042664766311646,
    -0.17260217666625977,
    -0.09930886328220367,
    0.20822733640670776,
    -0.3462851345539093,
    0.6358323693275452,
    1.1385349035263062,
    -0.5611177682876587,
    0.24281081557273865,
    -0.5527800917625427,
    -0.09993739426136017,
    -1.0609691143035889,
    0.6152546405792236,
    -0.1803237497806549,
    -1.140318751335144,
    -0.6922783255577087,
    0.4112491309642792,
    -1.4064321517944336,
    -2.3010168075561523,
    -0.5115642547607422,
    0.45615094900131226,
    -1.190297245979309,
    -0.10131984204053879,
    0.5957931876182556,
    0.2340698391199112,
    -1.3943779468536377,
    -0.626410186290741,
    -1.4324169158935547,
    -0.16787481307983398,
    -2.184908390045166,
    -0.9842217564582825,
    0.6571529507637024,
    0.1860610991716385,
    -0.28518733382225037,
    -0.13875627517700195,
    0.051351893693208694,
    0.22742566466331482,
    -0.33665332198143005,
    -0.12048769742250443,
    -0.38295289874076843,
    -0.2190917581319809,
    -0.3085583746433258,
    -0.37305906414985657,
    0.8065516352653503,
    0.3374723196029663,
    0.6918213963508606,
    0.10840246826410294,
    0.21158088743686676,
    -0.26547956466674805,
    0.06244739517569542,
    0.5001179575920105,
    -0.05865967646241188,
    0.6604183912277222,
    -0.7214654684066772,
    0.5107905864715576,
    1.624214768409729,
    0.7476901412010193,
    -0.7275750637054443,
    1.0173803567886353,
    0.4075469374656677,
    0.7552022933959961,
    -0.5235952138900757,
    0.7433561682701111,
    -0.01379438117146492,
    -0.5229236483573914,
    -0.23837919533252716,
    0.10045133531093597,
    0.11420058459043503,
    0.13398952782154083,
    0.4278228282928467,
    -0.930506706237793,
    0.15224158763885498,
    -0.40499401092529297,
    -0.13561475276947021,
    0.29060840606689453,
    -0.2764999568462372,
    0.06193777546286583,
    -0.1853078156709671,
    -0.18313068151474,
    0.0929403230547905,
    -2.844188928604126,
    -0.6187496185302734,
    0.5094447731971741,
    0.7191646695137024,
    0.19811877608299255,
    -1.3346840143203735,
    0.5429006814956665,
    0.6560693979263306,
    0.6385056972503662,
    0.2539929747581482,
    1.5841617584228516,
    0.2933012843132019,
    -0.3958612084388733,
    -0.1276363581418991,
    -0.1524168699979782,
    -0.5720577239990234,
    -0.5669928193092346,
    0.5023479461669922,
    0.23810775578022003,
    -0.04337947443127632,
    -0.010538702830672264,
    0.16098548471927643,
    -0.07766323536634445,
    0.17594419419765472,
    -0.530267059803009,
    -1.1010788679122925,
    0.22084347903728485,
    -0.4809098541736603,
    -0.3556443154811859,
    -0.7151147127151489,
    0.2323402762413025,
    0.3031286597251892,
    0.5100903511047363,
    -1.6774083375930786,
    0.7298914194107056,
    0.8457998633384705,
    -0.3966878056526184,
    -0.024776695296168327,
    -0.019567815586924553,
    -1.224706768989563,
    -0.8742368221282959,
    -0.9933582544326782,
    -0.431797057390213,
    0.6724785566329956,
    0.17635661363601685,
    -1.4429893493652344,
    1.5550566911697388,
    -0.6008062362670898,
    0.6817474961280823,
    0.26099157333374023,
    0.19704973697662354,
    -0.31307053565979004,
    -1.276057481765747,
    0.9138131141662598,
    -1.9521560668945312,
    0.7541400790214539,
    0.20583398640155792,
    -1.9613808393478394,
    -0.7700138092041016,
    0.122573122382164,
    -0.013107792474329472,
    -0.717963695526123,
    -0.3019137382507324,
    1.099643349647522,
    -0.9352998733520508,
    0.6051233410835266,
    0.5094778537750244,
    0.5310190916061401,
    0.2695605754852295,
    0.059292349964380264,
    -0.35134750604629517,
    -0.33391910791397095,
    -0.49529483914375305,
    -0.4971121847629547,
    0.4063927233219147,
    -0.6208500862121582,
    0.08327451348304749,
    -0.2929929792881012,
    0.10934185981750488,
    0.00016162206884473562,
    -0.4705885946750641,
    0.48266780376434326,
    -1.010937213897705,
    -0.38935062289237976,
    -0.7558839917182922,
    0.021830543875694275,
    -0.7275650501251221,
    0.05753973871469498,
    -1.2452880144119263,
    -0.4812498688697815,
    0.30352267622947693,
    0.7887933254241943,
    -1.4946722984313965,
    -0.191635400056839,
    0.7332915663719177,
    0.00336462096311152,
    -0.5994929075241089,
    -0.7936742901802063,
    -0.517385721206665,
    0.5491963624954224,
    0.1105605959892273,
    0.6275293231010437,
    0.6901318430900574,
    0.5227543711662292,
    -0.14641672372817993,
    -0.7192320227622986,
    -0.43676984310150146,
    0.7082562446594238,
    0.32895898818969727,
    -0.8951467275619507,
    0.24628356099128723,
    0.4845838248729706,
    0.4971107542514801,
    -0.8576933741569519,
    -0.378326952457428,
    1.0625693798065186,
    1.2816470861434937,
    0.194729745388031,
    0.8337992429733276,
    2.6072874069213867,
    0.6188410520553589,
    -0.6613080501556396,
    0.45824676752090454,
    0.4162214994430542,
    -1.0867234468460083,
    0.45528310537338257,
    0.7414394617080688,
    -0.7981595396995544,
    1.1232482194900513,
    0.6231576800346375,
    0.40043649077415466,
    0.46411705017089844,
    -0.9643071889877319,
    0.8207762837409973,
    -0.9412417411804199,
    0.699149489402771,
    -0.11724279820919037,
    -0.2514929473400116,
    -0.018110236153006554,
    -0.6973893046379089,
    -0.42963987588882446,
    0.1856846809387207,
    -0.4945566654205322,
    0.2190638780593872,
    -1.2859128713607788,
    0.23902159929275513,
    -0.5297050476074219,
    0.06119745224714279,
    0.24458825588226318,
    0.7709682583808899,
    -0.8534932732582092,
    1.04710054397583,
    -0.5254324674606323,
    0.16537554562091827,
    -0.1287098079919815,
    -0.17485041916370392,
    1.6947362422943115,
    0.9336748719215393,
    -1.854060173034668,
    -0.9253210425376892,
    0.49678438901901245,
    -0.5307058095932007,
    0.5319082736968994,
    -0.2223210632801056,
    0.14590895175933838,
    0.9760661721229553,
    -0.09020954370498657,
    0.08986634016036987,
    -0.8751112818717957,
    -0.02713540755212307,
    -0.20369453728199005,
    1.1385670900344849,
    -0.5144965648651123,
    -0.4379676282405853,
    0.04207855835556984,
    -0.19838008284568787,
    0.2897479236125946,
    -0.28704145550727844,
    -1.2614953517913818,
    0.4190879762172699,
    0.6403753757476807,
    -0.5347974300384521,
    0.5128633975982666,
    0.4750683903694153,
    -0.7652451992034912,
    -0.34967589378356934,
    0.4562224745750427,
    1.9760546684265137,
    -0.11682532727718353,
    0.6986113786697388,
    0.642517626285553,
    -1.256294846534729,
    0.4591315686702728,
    0.2878653407096863,
    -0.1401916742324829,
    -0.8523921370506287,
    0.38372379541397095,
    0.28108736872673035,
    -0.4082880914211273,
    0.18717336654663086,
    -0.08149174600839615,
    -0.2048339992761612,
    0.0433242991566658,
    -1.621699333190918,
    -0.9668444395065308,
    0.052327483892440796,
    -1.1999436616897583,
    -0.1584700047969818,
    1.0379841327667236,
    -0.2491026073694229,
    0.10530701279640198,
    -0.40010663866996765,
    -0.44153594970703125,
    -0.048425521701574326,
    0.12107325345277786,
    -0.2904214859008789,
    0.5712273120880127,
    -0.2099868506193161,
    0.37302470207214355,
    1.2811692953109741,
    0.40218329429626465,
    -0.0167851559817791,
    0.2667204439640045,
    -0.5162691473960876,
    -0.49031010270118713,
    -0.6541105508804321,
    0.27720120549201965,
    -0.40453118085861206,
    1.3217095136642456,
    -0.5809164643287659,
    -0.9051804542541504,
    0.5848652720451355,
    -0.9372832179069519,
    -0.07723881304264069,
    0.6125581860542297,
    -1.0553261041641235,
    -0.1718667447566986,
    0.7710726857185364,
    0.2312564253807068,
    -0.7558960318565369,
    -0.20089152455329895,
    0.040077876299619675,
    0.6741676926612854,
    -0.5503097772598267,
    0.7933526635169983,
    0.8560963273048401,
    -0.388828843832016,
    0.35613012313842773,
    -1.5102791786193848,
    0.587124228477478,
    -0.8824067711830139,
    -0.7206287384033203,
    0.7749284505844116,
    -0.6973768472671509,
    0.6076000928878784,
    -0.3149687349796295,
    0.11409430205821991,
    0.051509421318769455,
    0.335859090089798,
    0.6804863810539246,
    -1.4105331897735596,
    -0.4736800491809845,
    1.6491574048995972,
    -0.7490898966789246,
    -0.47874894738197327,
    0.10254596918821335,
    -0.26353925466537476,
    0.3708869516849518,
    -0.5507267713546753,
    -0.18269677460193634,
    -0.43312597274780273,
    0.876379132270813,
    0.009142258204519749,
    0.19874663650989532,
    0.06079406663775444,
    0.6720371842384338,
    -0.552389919757843,
    0.017297856509685516,
    0.9103357195854187,
    -0.3026098906993866,
    -0.3630713224411011,
    -0.10549190640449524,
    0.043773751705884933,
    0.4134230315685272,
    -0.5264254808425903,
    -0.12388710677623749,
    -0.4082217216491699,
    0.19128970801830292,
    -1.5969451665878296,
    0.19541651010513306,
    0.360164999961853,
    0.06356829404830933,
    -0.06182816997170448,
    -0.019959943369030952,
    0.3464283347129822,
    -0.4297853708267212,
    0.020583463832736015,
    -0.966700553894043,
    -0.046640850603580475,
    1.2291167974472046,
    0.3488629162311554,
    0.5021403431892395,
    -0.7514761090278625,
    1.7401680946350098,
    -0.37754908204078674,
    -0.443475604057312,
    -0.07651200145483017,
    0.6039333343505859,
    -0.7624673247337341,
    -0.8079959750175476,
    1.433117151260376,
    0.09773607552051544,
    0.1910136640071869,
    -0.5350494384765625,
    -0.16404014825820923,
    -0.5350980162620544,
    -0.5974863767623901,
    0.009714357554912567,
    0.1356462836265564,
    -0.23232895135879517,
    0.670330286026001,
    -0.20093528926372528,
    -0.16206198930740356,
    0.013108759187161922,
    -0.3937978446483612,
    -0.020758723840117455,
    -0.10051732510328293,
    -0.0050845216028392315,
    -0.44400495290756226,
    -1.2629221677780151,
    0.6316694021224976,
    -0.18458235263824463,
    -2.6607491970062256,
    -0.3445676863193512,
    0.3908790349960327,
    -0.722048282623291,
    -0.05884856358170509,
    -0.3270127773284912,
    0.22747793793678284,
    -0.38777783513069153,
    0.17548368871212006,
    -0.0800364762544632,
    -0.16877633333206177,
    0.06410451233386993,
    0.49042242765426636,
    0.17739450931549072,
    0.26710245013237,
    0.3680717945098877,
    0.8546766638755798,
    0.16675814986228943,
    -0.0411423034965992,
    -0.5034712553024292,
    0.7187203764915466,
    -0.2303503155708313,
    0.8592806458473206,
    0.9229955077171326,
    0.2024267464876175,
    0.8613719344139099,
    -1.0405350923538208,
    0.14587076008319855,
    -0.5198289155960083,
    0.5231736898422241,
    -0.15152159333229065,
    -1.4322102069854736,
    -1.8498731851577759,
    -0.4948277771472931,
    0.6236739158630371,
    0.10826419293880463,
    -1.5367716550827026,
    -1.2128227949142456,
    -0.8651662468910217,
    -1.0791906118392944,
    1.973809003829956,
    -0.10570871829986572,
    1.1815221309661865,
    0.027989596128463745,
    0.4087902307510376,
    -0.4756699800491333,
    0.09920890629291534,
    1.4933066368103027,
    -0.16700491309165955,
    -1.0619803667068481,
    -0.285648912191391,
    -0.29783397912979126,
    -0.26965898275375366,
    0.35718631744384766,
    0.4314004182815552,
    0.40341484546661377,
    0.3433191478252411,
    -0.2736075818538666,
    0.411813348531723,
    0.029397908598184586,
    0.5572675466537476,
    -0.14268088340759277,
    -0.22717274725437164,
    0.6039493680000305,
    0.5492216348648071,
    -0.4674610197544098,
    0.09024760127067566,
    -0.006763548590242863
  ],
  "gru_bias_ih": [
    0.08872830867767334,
    -0.15963773429393768,
    0.45375683903694153,
    -2.3318960666656494,
    -0.8778270483016968,
    -0.42290303111076355,
    0.1727380007505417,
    0.46983951330184937,
    1.3106052875518799,
    -0.050168003886938095,
    0.6020647883415222,
    0.9694143533706665,
    -0.12041036039590836,
    -0.7674886584281921,
    -1.2729891538619995,
    0.972989559173584,
    3.3025898933410645,
    -1.245079755783081,
    -0.10163305699825287,
    -1.9081939458847046,
    -0.2629373371601105,
    -0.5210193395614624,
    1.9949136972427368,
    -1.1388602256774902,
    -0.6984663605690002,
    -0.2214023321866989,
    -2.138735055923462,
    2.073969602584839,
    -1.5010415315628052,
    -0.5590634346008301,
    -1.6470741033554077,
    -1.5494660139083862,
    -0.09465181082487106,
    0.09239192306995392,
    0.9917965531349182,
    -0.038081347942352295,
    0.07415709644556046,
    0.3544412851333618,
    -0.5953969955444336,
    0.029334602877497673,
    -0.3733627200126648,
    -0.3644650876522064,
    0.029725898057222366,
    0.14744246006011963,
    0.054804183542728424,
    -0.03890793025493622,
    0.07787732034921646,
    0.018373457714915276
  ],
  "gru_bias_hh": [
    0.0022181759122759104,
    0.11659689992666245,
    0.22401200234889984,
    -2.029149055480957,
    -0.8791306018829346,
    -0.009061877615749836,
    0.20891042053699493,
    0.6903573870658875,
    1.3629223108291626,
    -0.30605000257492065,
    0.6365100145339966,
    0.7436475157737732,
    0.012201158329844475,
    -0.808367908000946,
    -1.3891493082046509,
    0.7171115279197693,
    3.331965684890747,
    -1.0081626176834106,
    -0.3079255223274231,
    -2.1700453758239746,
    -0.6527554988861084,
    -0.2921660840511322,
    2.110926628112793,
    -1.1845276355743408,
    -0.9936825633049011,
    -0.18128105998039246,
    -1.9909847974777222,
    1.7317466735839844,
    -1.7855870723724365,
    -0.7261797785758972,
    -1.7239373922348022,
    -1.4594606161117554,
    -0.1169046089053154,
    0.39345210790634155,
    0.3308849334716797,
    0.6139164566993713,
    0.026714321225881577,
    0.507397472858429,
    -0.10693278908729553,
    -0.2557451128959656,
    0.013105995953083038,
    0.7086883187294006,
    -0.12791040539741516,
    -0.018528509885072708,
    0.6149628162384033,
    0.5296474695205688,
    -0.008189198561012745,
    0.19673295319080353
  ],
  "example_input": [
    -1.0,
    -0.9411764740943909,
    -0.8823529481887817,
    -0.8235294222831726,
    -0.7647058963775635,
    -0.7058823704719543,
    -0.6470588445663452,
    -0.5882353186607361,
    -0.529411792755127,
    -0.47058823704719543,
    -0.4117647111415863,
    -0.3529411852359772,
    -0.29411762952804565,
    -0.23529411852359772,
    -0.1764705777168274,
    -0.11764705181121826,
    -0.05882352590560913,
    -3.725290298461914e-09,
    0.05882352590560913,
    0.11764705181121826,
    0.1764705777168274,
    0.23529411852359772,
    0.29411762952804565,
    0.3529411852359772,
    0.4117647111415863,
    0.47058823704719543,
    0.529411792755127,
    0.5882353186607361,
    0.6470588445663452,
    0.7058823704719543,
    0.7647058963775635,
    0.8235294222831726,
    0.8823529481887817,
    0.9411764740943909,
    1.0
  ],
  "example_output": [
    0.043291643261909485,
    -1.8411809206008911,
    -1.5138592720031738,
    1.6174681186676025
  ],
  "checkpoint_name": "best_checkpoint_model_706.pt",
  "checkpoint_step": -1,
  "requires_obs_normalization": true,
  "compat_reset_output": [
    0.5232822299003601,
    -2.131357192993164,
    -1.357453465461731,
    1.6700201034545898
  ],
  "compat_hover_output": [
    0.35437119007110596,
    0.7385982275009155,
    0.9150382280349731,
    0.5952581167221069
  ],
  "export_format": "rl_tools_checkpoint_blob"
}