{
  "observation_dim": 35,
  "action_dim": 4,
  "structure": "mlp_gru",
  "rnn_type": "gru",
  "gru_input_dim": 16,
  "gru_hidden_dim": 16,
  "gru_num_layers": 1,
  "activation": "elu",
  "use_observation_normalization": true,
  "normalization_folded_into_first_layer": true,
  "observation_mean": [
    0.006712410133332014,
    0.01187156792730093,
    0.031638819724321365,
    0.9907603859901428,
    -0.00242541148327291,
    0.0004925479297526181,
    0.002269240329042077,
    0.9941978454589844,
    -0.00011637926945695654,
    -0.0003885730111505836,
    -0.0004079145728610456,
    0.9917824268341064,
    -0.0008684946806170046,
    1.266955314349616e-05,
    -0.9815884828567505,
    0.015176711603999138,
    0.004585851915180683,
    0.06606105715036392,
    -0.006778319366276264,
    -0.02133558690547943,
    0.008038021624088287,
    -0.03371121361851692,
    1.735214114189148,
    0.012584380805492401,
    -0.0004353806434664875,
    -0.09307989478111267,
    0.0029175870586186647,
    0.01910238340497017,
    -0.006842526141554117,
    5.234954005572945e-05,
    -0.003946289420127869,
    0.4024801254272461,
    0.32847073674201965,
    0.4034291207790375,
    0.324388712644577
  ],
  "observation_inv_std": [
    3.144446849822998,
    2.5271453857421875,
    2.15926456451416,
    9.789183616638184,
    12.630156517028809,
    12.270013809204102,
    12.30025863647461,
    14.126420974731445,
    15.881814956665039,
    12.596405982971191,
    15.220264434814453,
    9.802437782287598,
    8.332074165344238,
    10.131181716918945,
    7.220691204071045,
    1.5378241539001465,
    1.7831801176071167,
    1.274985432624817,
    1.6811820268630981,
    1.2938735485076904,
    2.3047804832458496,
    0.6988873481750488,
    0.9678299427032471,
    0.6513705253601074,
    0.5504722595214844,
    10.028656005859375,
    2.1966099739074707,
    2.034318685531616,
    2.020781993865967,
    2.2304725646972656,
    3.2760660648345947,
    0.9038854837417603,
    0.9190808534622192,
    0.9424446821212769,
    0.9239345788955688
  ],
  "actor_encoder_dims": [
    35,
    16,
    16
  ],
  "actor_encoder_activations": [
    "elu",
    "identity"
  ],
  "actor_head_dims": [
    16,
    4
  ],
  "actor_head_activations": [
    "identity"
  ],
  "actor_encoder_weights": [
    [
      -4.376427025928308,
      -1.085176706671973,
      1.2097180282224826,
      0.3735696514584532,
      0.5206134755965905,
      -5.4181261148451085,
      0.403604830036457,
      -1.9366402735512338,
      -8.79588849305037,
      4.865403720818875,
      -8.93366309461021,
      -1.6753174132341258,
      5.344867120211632,
      1.2742265287261603,
      -2.0685072914965446,
      -3.7559978130516356,
      -1.5654234353261245,
      0.3598023439968294,
      -0.33315416610806103,
      -0.7935433229263111,
      0.6550455681939127,
      0.016817927999436044,
      0.41970809512837803,
      0.06789960624760383,
      0.05983368910921172,
      0.980368154368989,
      -0.18251750076592188,
      -0.515619000015846,
      -0.5482248814706594,
      0.300467256012098,
      -1.3415904598985264,
      -0.3971137177021298,
      -0.20302479539648743,
      -0.4498626525178864,
      -0.05910878938286679,
      2.921616075846117,
      -0.5167672008431055,
      1.2042523033056796,
      0.9662062986026854,
      0.8745873671390143,
      2.063743018638604,
      -1.1660267050755238,
      -3.7226807937029776,
      -2.126992985942451,
      0.3545853049711205,
      -0.9129470314346975,
      -5.233608224665659,
      -5.205956639683052,
      -1.2152192087601748,
      0.8828310576249798,
      2.5039592498208663,
      -0.2973403138358748,
      1.291802682061629,
      -0.12917769027386328,
      0.9203055141002352,
      -0.10895946599469575,
      -1.2315821161591316,
      -0.8938360071428519,
      -0.05239946731511935,
      0.03938451659274733,
      -0.5943763067265309,
      0.8546470317547517,
      0.3612141444148058,
      -0.2607252485630269,
      -0.24871675762256018,
      -3.4999787924221266,
      0.08107838511006182,
      0.07969911457173051,
      0.12697854578364876,
      0.003138978803619852,
      0.4790227211490006,
      0.3458947490830724,
      -3.5944618925645955,
      4.019709009023927,
      2.1435415325183556,
      1.2835972702731198,
      0.6300053607031799,
      6.749268568963942,
      -14.63728720242841,
      -1.9116624434982867,
      -0.8300723546717705,
      3.261752335544287,
      -4.174827439351475,
      -1.8983141125934537,
      6.072522259517683,
      0.9492228228124873,
      0.914945091765091,
      -1.768075995458787,
      -2.102340509868583,
      0.4954059421434991,
      -0.17462230872293816,
      -0.09164514653484446,
      -0.11842041824719374,
      -0.1333030943182436,
      -0.038687174306176075,
      -0.17760501622029778,
      0.7348329730305636,
      0.17183698226474142,
      0.3617342603476956,
      0.125291763125972,
      -2.6114844819081213,
      0.009324664770273494,
      -0.19610047012125875,
      0.13426164171193378,
      0.07812231775747858,
      -0.9561469345619571,
      0.5566310240212715,
      4.8836105411130575,
      1.4630088480213743,
      1.8964517027971084,
      -0.22387678278670364,
      2.8291964539479295,
      -1.7332398388291352,
      -7.481442178213058,
      -3.290919043726234,
      4.346203636736618,
      4.213107953096483,
      -0.6626334752904199,
      2.4668093867923346,
      -7.550362277866839,
      -0.47965430425348643,
      -0.38394898621149487,
      4.325397102312479,
      0.2472575625796214,
      -0.13627142620741495,
      0.13422905053941392,
      0.035836513616340326,
      -0.07271206196852198,
      0.01906247096817637,
      0.012016701756046189,
      0.6915901263250817,
      0.04109717019318282,
      -0.16211043412356396,
      0.18048041683660188,
      0.1172195326454073,
      -1.6245762815003388,
      -0.03658904106917715,
      -0.13085303386989722,
      -0.2633781589558275,
      0.018749073266760563,
      -2.3069818103871285,
      -0.5057373858198844,
      -1.999171386429225,
      -1.7488642666058212,
      0.7382001642596876,
      -0.3207271761056951,
      -7.485054208371139,
      -2.3103381115379875,
      -3.019400671896335,
      -1.7109647572785036,
      6.806996229162337,
      -1.2477954977382382,
      7.324654096530878,
      2.9859309581119646,
      1.4384958922475093,
      -2.98240568515331,
      -0.3124376030655309,
      -1.3643723348118044,
      0.5300195048777816,
      -0.6688607732202598,
      -1.179500358993124,
      0.051862292092689444,
      0.16898379080428683,
      -0.026992126551430573,
      0.0904495041815494,
      -0.5539301091903326,
      -0.09298634741727874,
      -0.29910892971495784,
      0.09891348771596853,
      -0.22320526673823338,
      5.207904760515902,
      -0.06773693209879639,
      0.22660893804962967,
      -0.7483390229709741,
      0.5016983879576387,
      -2.224543523433283,
      1.3169906196171723,
      -1.5006245057944056,
      -3.8278135477965236,
      -0.7859463893698475,
      2.3069352985382636,
      -1.510246957806089,
      2.8988845361321296,
      2.340375917012807,
      1.0428217546811709,
      -1.1922049422534258,
      -12.443333717692553,
      -5.1089250075919495,
      -5.6839563639346125,
      6.936424639578576,
      -0.2047980597172483,
      2.0436252230493466,
      0.5399133953350912,
      0.2605055312667677,
      1.8702698651487992,
      2.373927953071586,
      0.1241733264835787,
      0.09939379398607429,
      0.1217434255257146,
      0.05868380109345139,
      -0.8829520322390181,
      0.20138310259776304,
      -0.3867831227624876,
      0.9082773566053106,
      -0.273240572155089,
      1.9018327225894183,
      -0.0583491392331128,
      0.10852783143535394,
      0.0716227671594929,
      -0.39999125302783156,
      -1.1177056415268254,
      3.8688836959863693,
      2.195906337502379,
      -0.1696425241449191,
      3.311656372089544,
      2.261071803159439,
      -5.476979075713302,
      -5.166459978223429,
      2.2993854207143727,
      2.208546795317858,
      -2.0645219568817765,
      1.9681957245572903,
      4.080227805941661,
      -9.327655956372269,
      3.6786397994132756,
      -1.99284008620873,
      3.3697193562920944,
      2.2490584183600504,
      -1.8399630505567615,
      -0.8358340961866162,
      -0.9620358483893199,
      0.06947961792140234,
      -0.3123125151873296,
      0.03935530666380771,
      -0.0064805563706080704,
      -1.0488463844255875,
      -0.43617916911031784,
      -0.6167941619453501,
      -0.07006723227727107,
      -0.24113966985567004,
      -4.7031858011593215,
      0.15917422088604027,
      0.06471287164581607,
      0.19644627860594532,
      0.031233286309573227,
      -2.4866549182044366,
      2.298151334280192,
      1.2945528538149347,
      0.9413184351078101,
      6.929572593495038,
      -1.8634990737572252,
      0.4849930565052887,
      1.4237882027993294,
      5.248888831183649,
      4.822673195461817,
      1.7272060665368372,
      1.3860538394186364,
      -1.4902626903978273,
      2.520400788168274,
      -3.885402320801745,
      0.18038124498469799,
      0.03461548721593721,
      1.1306219606287655,
      1.1387570374082188,
      0.45464254777777313,
      -4.112606302453514,
      0.02923705580121272,
      0.0790610675259078,
      -0.03838023866203244,
      -0.015545390382676771,
      -0.06074256792751953,
      0.037381150869375546,
      0.09860652207891452,
      -0.12183757882312385,
      0.7796485428536926,
      -1.053069550194266,
      -0.07055982731354415,
      0.45382028072974734,
      0.2507163526892704,
      -0.10221523871176696,
      1.3173648563524551,
      -8.501620351664315,
      -2.103007933139736,
      6.067011312057161,
      4.352750827668018,
      -0.8878955165338169,
      5.536795159114945,
      3.477887097778847,
      -1.23517209222193,
      -2.7006725507785205,
      8.79310267318715,
      -0.24193610352694606,
      -3.418934487572102,
      7.868158363257635,
      -0.05576013530085011,
      0.7700338299271721,
      -3.6743989183966335,
      -1.7798730116412145,
      1.7344416527317605,
      0.9330436458546671,
      0.5733908035519875,
      0.027802086442477503,
      0.05384878611166144,
      0.05065108876383917,
      -0.05786560878325986,
      0.03637364723756065,
      0.6137589271855148,
      0.22168671235534987,
      -0.04705257180744482,
      0.417424036469356,
      -1.315613759912189,
      0.28826407534113585,
      -0.16040392139169057,
      -0.13416367411554475,
      0.3056678171913241,
      0.7824832376896822,
      -8.395404188358953,
      4.568141892689027,
      1.6320789774896127,
      -0.6955027937062681,
      -2.614871966302445,
      -2.9041591023875526,
      1.565913749387775,
      -1.0452567089801335,
      2.8365769517642434,
      -0.6497616154442198,
      1.599917847932801,
      0.313552488343543,
      6.883972957116953,
      -2.476967973571547,
      0.09656535065971639,
      -4.0675658875580325,
      2.0874915660588016,
      1.7736060660059962,
      -0.20928576719204273,
      -0.4571639181607523,
      -0.06666319794748077,
      -0.08196022227932254,
      -0.03860759858319973,
      0.013849626591657227,
      -0.2399081062739583,
      0.0087543956464875,
      -0.2544973330408702,
      -0.133010372285721,
      -0.2611567301406126,
      1.4483489647280976,
      -0.005216214898407567,
      -0.13850561054844057,
      -0.07645878672783102,
      0.09805500519215471,
      0.4171383411132794,
      0.8582143472954158,
      1.1699482770300165,
      -1.7465386579589506,
      -0.15923952047386614,
      3.180981152216418,
      -2.9389891637104597,
      0.24201864710923005,
      1.8406119887514905,
      -5.453758750023582,
      1.0929404213026999,
      -2.4633407067821054,
      5.066676666195747,
      7.593013092582396,
      4.776524079483636,
      -0.541425834562375,
      0.12293604878937536,
      0.3763111675077724,
      1.2474002609798092,
      -0.9489526794333614,
      0.5171165971994185,
      0.0489846468427757,
      0.1806578404083723,
      -0.06219971677980851,
      -0.16857599715797278,
      -0.024559891571044545,
      -1.2046064742854412,
      0.20850152139724543,
      -0.4678905869974983,
      0.8919555850758343,
      -4.615763198893802,
      0.27769273275584894,
      -0.6524480126179881,
      -0.30249118816038134,
      0.19328931193447474,
      4.308230686340721,
      -2.2950239624624373,
      0.16404069970631951,
      0.8941629745750461,
      0.05214790493096455,
      -0.5452044656541375,
      -4.549699465122671,
      -1.7036372131361048,
      -4.066279667934225,
      -4.253108170172709,
      -5.200700665512727,
      -3.121038887870071,
      -5.913003267938336,
      3.589533764016835,
      6.442957412848102,
      2.2593639371651193,
      -1.496817215572264,
      0.36753609463991666,
      0.018766607552815784,
      1.22829805559347,
      -0.7761594883056944,
      0.5060316237228619,
      0.8158918856185551,
      0.10424791495086083,
      0.07067565796961617,
      -2.389989030318702,
      -0.3463584926910457,
      0.14918212154953103,
      0.5558896497236674,
      -0.5078700168695605,
      -0.15034095299324868,
      0.1615319055338844,
      -0.3269384390820136,
      0.2304588698234955,
      -0.31689476920719883,
      0.8397856252035609,
      -2.620516760280225,
      -4.268976981220135,
      -3.100834090418857,
      5.322272431968798,
      2.806990249069969,
      -1.9482079118660636,
      1.208847417158637,
      2.12512481175807,
      -0.12123770872617623,
      14.266275405075021,
      -4.362042675506302,
      2.6677803823144473,
      -0.5503604387806433,
      2.1276919232571316,
      -0.96297763352473,
      -1.4531221594336685,
      -2.9431461711424163,
      1.0993739740800876,
      -0.8002906281263478,
      -2.37039217931283,
      -0.10153842838740701,
      -0.12277245296722228,
      0.054019040041929145,
      0.040715445867675726,
      0.36459294713472445,
      -0.4647395100025875,
      -0.4522187532832014,
      0.046194349745942276,
      -0.5177885255963588,
      0.21156617717175408,
      -0.1170698327359343,
      0.02822062865377717,
      0.014853309870076936,
      -0.39130168777044005,
      -2.3005282522771324,
      4.039563605456351,
      0.7329236207695544,
      -3.2348812217507543,
      -0.11574374150923639,
      -4.199748152722293,
      3.5586491462936465,
      -7.708977568629052,
      -9.632060917512604,
      1.150855455245285,
      -6.5475506254028915,
      -5.812646901401251,
      3.1364881600215426,
      -2.6123583303865416,
      7.575019994645572,
      -1.131624183309782,
      1.4422350905775048,
      0.06338668118071,
      -0.02751056330896784,
      -0.5660419525181837,
      3.001177350039086,
      0.023719644608732438,
      0.09389858002845308,
      -0.01279820854772673,
      0.012342940631491217,
      -0.7702255499241346,
      0.37931648125955064,
      -0.24068034372534086,
      -0.25858874206473814,
      -0.6606063632068526,
      3.2335943297525773,
      -0.910577824534144,
      0.2890240892099918,
      -0.0014741420537214417,
      0.15161304419959443,
      2.9838485952884923,
      -3.6296380950025195,
      1.4974109406289244,
      -6.978989487463082,
      7.636558654149269,
      -2.0365322346033565,
      -2.286123785847792,
      -13.311213962263196,
      -5.842384624459385,
      -0.7758584090617937,
      -4.358238531440975,
      -1.7481621082987857,
      0.7721015376403173,
      0.546835524964365,
      0.7146871916992339,
      1.2885398991342925,
      -4.276503822991032,
      -0.406439862559246,
      -0.8629176690494589,
      -0.036064756962845834,
      -2.0542160034018764,
      0.04590891767348637,
      0.041416016952836365,
      -0.02079412577614903,
      -0.060059607208074794,
      0.9159188642188383,
      -0.4124361988342429,
      -0.014978238417484246,
      -0.19595280466221254,
      0.2730440107180243,
      -1.9933432762210828,
      -0.05971835160155248,
      -0.08814769365861341,
      -0.27013955215500474,
      -0.017769219309654583,
      -5.447210503824579,
      -1.1998048554723937,
      -0.49078192313801594,
      -0.604522151286929,
      2.6051366809427634,
      -1.0285329888348969,
      1.8131401346332723,
      0.8298416092545438,
      -7.5172295230524355,
      2.3665576905312946,
      -3.5675225436446,
      -0.4479184447207629,
      8.681486373675739,
      3.665421841750117,
      1.1266135629517962,
      -4.366136104672478,
      -1.7458694379529405,
      -0.4156241307943169,
      0.5628834998139567,
      -2.062828809022278,
      0.7962963504159148,
      0.10131932333865734,
      -0.2247867294588417,
      -0.01776974526551367,
      -0.004714472064673458,
      0.08953142299748151,
      -1.1107333422764043,
      -0.8785644513871631,
      -0.08131108252768726,
      0.2618572918535733,
      0.9880982658293718,
      0.08880600949426842,
      0.07995226667449629,
      0.027451599050550612,
      0.16335120461334895
    ],
    [
      0.13085120916366577,
      0.3923763334751129,
      -0.1313796043395996,
      0.12274593859910965,
      -0.11432284116744995,
      0.07910527288913727,
      -0.16596262156963348,
      0.25396212935447693,
      0.1377832591533661,
      0.5259530544281006,
      -0.2751210629940033,
      0.39343592524528503,
      0.4402112662792206,
      -0.0412592813372612,
      -0.011388887651264668,
      0.21420536935329437,
      -0.07271230965852737,
      -0.34531667828559875,
      0.016930563375353813,
      0.00960924755781889,
      0.3273361623287201,
      0.008426948450505733,
      -0.4499827027320862,
      -0.25881537795066833,
      0.6062951683998108,
      0.20891720056533813,
      0.18052180111408234,
      -0.2076270878314972,
      -0.0020171625073999166,
      0.24818041920661926,
      0.0320281945168972,
      0.7342472076416016,
      -0.18748021125793457,
      -0.09231242537498474,
      0.20547540485858917,
      0.7573927640914917,
      0.11953213065862656,
      0.02087862230837345,
      0.16032759845256805,
      0.029963558539748192,
      -0.2584565281867981,
      0.48583319783210754,
      0.03169294446706772,
      0.016857387498021126,
      -0.03716341406106949,
      0.195881649851799,
      0.2297666370868683,
      -0.09008654952049255,
      -0.2059508115053177,
      0.07691112160682678,
      -0.33822858333587646,
      0.4777122139930725,
      -0.23155836760997772,
      -0.04891791567206383,
      0.058127060532569885,
      -0.016517184674739838,
      -0.3355467617511749,
      0.5059666037559509,
      0.012622572481632233,
      -0.07757167518138885,
      -0.44588255882263184,
      0.1844816356897354,
      0.21591702103614807,
      -0.31158795952796936,
      0.02992682345211506,
      -0.11521516740322113,
      0.029454728588461876,
      -0.11912401765584946,
      0.17977401614189148,
      0.301702082157135,
      0.17091237008571625,
      -0.16060176491737366,
      -0.28872421383857727,
      0.338989794254303,
      -0.42710256576538086,
      0.07242061197757721,
      0.13124790787696838,
      -0.2766062915325165,
      -0.011967288330197334,
      -0.10025336593389511,
      0.043185651302337646,
      0.0028232112526893616,
      0.1702684909105301,
      -0.09154096990823746,
      -0.47529157996177673,
      0.10007066279649734,
      -0.32795605063438416,
      -0.1988941878080368,
      -0.3824731111526489,
      -0.40085217356681824,
      -0.3221854269504547,
      0.05453043431043625,
      0.013779412023723125,
      0.2636590301990509,
      0.27924269437789917,
      0.1454610526561737,
      0.1205858439207077,
      0.2108902633190155,
      0.024253057315945625,
      0.7972833514213562,
      0.030963236466050148,
      -0.1015876904129982,
      -0.05892704427242279,
      0.18697136640548706,
      0.02832440659403801,
      -0.061086274683475494,
      -0.04688214138150215,
      0.10021349787712097,
      -0.221897691488266,
      -0.052231308072805405,
      0.062072452157735825,
      -0.36402374505996704,
      -0.004846672993153334,
      -0.45156654715538025,
      -0.28073450922966003,
      0.45395421981811523,
      -0.016210384666919708,
      -0.13313011825084686,
      0.4972197711467743,
      0.029777545481920242,
      -0.5167331695556641,
      -0.41401100158691406,
      0.1550193578004837,
      -0.13680878281593323,
      0.20927655696868896,
      0.2522653043270111,
      -0.3481637239456177,
      0.4139239192008972,
      -0.44760966300964355,
      0.07512319087982178,
      0.09315411746501923,
      0.10582701861858368,
      0.1727340668439865,
      -0.2544810175895691,
      -0.29060015082359314,
      -0.21171806752681732,
      0.23421698808670044,
      -0.17819392681121826,
      0.07050725817680359,
      0.23730377852916718,
      0.5714880228042603,
      -0.26641136407852173,
      0.25599560141563416,
      -0.2127932906150818,
      -0.42633020877838135,
      0.5392531156539917,
      -0.09346349537372589,
      -0.12810498476028442,
      -0.4116674065589905,
      0.2901788055896759,
      -0.057661864906549454,
      -0.057393960654735565,
      0.4127134680747986,
      -0.3691704571247101,
      -0.02192416600883007,
      0.07031595706939697,
      -0.03208871930837631,
      0.32483235001564026,
      0.009360382333397865,
      -0.3167957067489624,
      0.13026002049446106,
      -0.08747866749763489,
      0.0196758471429348,
      -0.39438605308532715,
      0.004629587754607201,
      -0.15924763679504395,
      0.25461626052856445,
      0.15668778121471405,
      0.23232918977737427,
      0.06554324924945831,
      -0.028451193124055862,
      0.07242401689291,
      -0.05618705227971077,
      0.2591078281402588,
      -0.01083796750754118,
      -0.1452549695968628,
      0.22780969738960266,
      0.22339743375778198,
      -0.046208783984184265,
      0.048420146107673645,
      -0.004302725195884705,
      -0.12101471424102783,
      0.06634820997714996,
      -0.5722521543502808,
      0.2747531235218048,
      -0.18660204112529755,
      -0.04135129973292351,
      0.12509693205356598,
      0.2944207489490509,
      -0.012585176154971123,
      -0.01064853835850954,
      -0.09718473255634308,
      0.032742273062467575,
      -0.25423935055732727,
      0.1039622351527214,
      -0.43294447660446167,
      0.40133947134017944,
      -0.043424829840660095,
      0.3308558464050293,
      0.31999388337135315,
      -0.14858652651309967,
      -0.41998666524887085,
      -0.18700271844863892,
      -0.37414801120758057,
      0.04597862437367439,
      0.09813202917575836,
      0.3515377342700958,
      0.32662656903266907,
      0.06963640451431274,
      -0.059079401195049286,
      -0.16532689332962036,
      0.0014899605885148048,
      0.06872086226940155,
      -0.37998712062835693,
      -0.25071069598197937,
      -0.21753224730491638,
      0.3963354229927063,
      0.6674385070800781,
      -0.26694342494010925,
      0.01760624721646309,
      -0.39975279569625854,
      -0.22284474968910217,
      -0.08472946286201477,
      0.14746615290641785,
      -0.04216801002621651,
      -0.23852530121803284,
      -0.09693675488233566,
      -0.1924901157617569,
      -0.2645707428455353,
      -0.09667451679706573,
      -0.003434794722124934,
      0.002585066482424736,
      0.10445945709943771,
      0.35707616806030273,
      0.3582814037799835,
      -0.03010103479027748,
      0.39912149310112,
      -0.16015206277370453,
      0.02396249584853649,
      -0.07238838076591492,
      -0.1436341255903244,
      -0.1196395680308342,
      -0.38979917764663696,
      0.1233333945274353,
      0.22897060215473175,
      0.011873413808643818,
      -0.41860711574554443,
      0.329015851020813,
      -0.0573563389480114,
      -0.24465642869472504,
      -0.09785586595535278,
      -0.04883820191025734,
      0.14532561600208282,
      0.38616323471069336,
      -0.3516518473625183,
      -0.3323325216770172
    ]
  ],
  "actor_encoder_biases": [
    [
      0.7535104169012921,
      9.363481852320488,
      -8.068594316854142,
      -11.125879730866213,
      6.384667498617753,
      19.609793913445042,
      6.884792888697849,
      -7.918414062659761,
      -9.487365375371592,
      -7.034482913002186,
      7.86327845295661,
      8.160685413944416,
      8.788474721606987,
      24.02105702645963,
      22.654229441402123,
      1.5621146185368946
    ],
    [
      -0.1742372363805771,
      -0.2287999391555786,
      -0.011211492121219635,
      0.046589914709329605,
      0.034398116171360016,
      0.1537656933069229,
      0.1565365046262741,
      0.1088092029094696,
      -0.008595239371061325,
      -0.060896649956703186,
      -0.047262392938137054,
      0.13440702855587006,
      -0.18384312093257904,
      -0.15900585055351257,
      -0.043831102550029755,
      -0.17180076241493225
    ]
  ],
  "actor_head_weights": [
    [
      0.24049603939056396,
      0.0876334086060524,
      -0.42763495445251465,
      -0.26676228642463684,
      -0.006176703609526157,
      -0.1738031804561615,
      -0.061997655779123306,
      -0.5670409202575684,
      -0.623515248298645,
      0.27554503083229065,
      0.19782710075378418,
      -0.041913408786058426,
      -0.36823976039886475,
      -0.1977749913930893,
      0.12003447860479355,
      0.756583034992218,
      -0.1164887472987175,
      0.4359789788722992,
      -0.208297997713089,
      0.44118937849998474,
      -0.42072340846061707,
      0.056293219327926636,
      0.1241031065583229,
      -0.4574702978134155,
      0.27764254808425903,
      -0.1624625027179718,
      -0.3939523994922638,
      0.2648102939128876,
      -0.3447318971157074,
      -0.1649290919303894,
      -0.1402757316827774,
      -0.8967987298965454,
      0.24494367837905884,
      -0.18747033178806305,
      -0.09610918164253235,
      0.46908172965049744,
      0.13376206159591675,
      0.3773760199546814,
      0.44855940341949463,
      0.07736296951770782,
      0.2521504759788513,
      0.8544480204582214,
      0.37886229157447815,
      0.09945415705442429,
      -0.29964950680732727,
      0.02039388380944729,
      -0.17394614219665527,
      0.5465568900108337,
      -0.1083926409482956,
      0.06007795035839081,
      0.3694293200969696,
      -0.23327870666980743,
      0.2733194828033447,
      0.18140676617622375,
      -0.6561946868896484,
      0.05608917400240898,
      -0.3407718539237976,
      -0.8110264539718628,
      0.11934830993413925,
      0.21878458559513092,
      -0.15359607338905334,
      -0.36105862259864807,
      -0.7089101672172546,
      -0.1732993721961975
    ]
  ],
  "actor_head_biases": [
    [
      0.13182349503040314,
      0.03518443927168846,
      0.18234577775001526,
      0.3452671468257904
    ]
  ],
  "gru_weight_ih": [
    0.561671257019043,
    -0.34770333766937256,
    -0.41061994433403015,
    -0.2683866024017334,
    0.03908148035407066,
    -0.15702517330646515,
    0.7094504237174988,
    -3.0988168716430664,
    0.3346715569496155,
    1.2590194940567017,
    -2.124995231628418,
    1.1251473426818848,
    0.728147566318512,
    0.21235758066177368,
    -1.5217206478118896,
    -2.3622732162475586,
    0.7700378894805908,
    0.5369104743003845,
    0.45299702882766724,
    2.2544195652008057,
    0.0627436563372612,
    0.8506730198860168,
    0.5269233584403992,
    0.1944633573293686,
    -0.5890771746635437,
    -0.008528465405106544,
    1.331119418144226,
    -2.2988405227661133,
    -0.6714146733283997,
    0.055247820913791656,
    1.1441376209259033,
    0.7084542512893677,
    0.9443191289901733,
    1.0381982326507568,
    0.25758564472198486,
    -0.3579072058200836,
    -0.12190283089876175,
    -1.803880214691162,
    -0.7529017329216003,
    -0.3427563011646271,
    -0.21463508903980255,
    -0.0058191753923892975,
    0.789620578289032,
    -1.364111304283142,
    -0.5185084939002991,
    -0.46511536836624146,
    1.5951215028762817,
    0.5175608396530151,
    -2.1026220321655273,
    0.763386070728302,
    -0.6550120711326599,
    -0.7618438601493835,
    -2.6878433227539062,
    0.22512243688106537,
    0.1342376172542572,
    0.6424558758735657,
    -0.12543772161006927,
    0.1238194927573204,
    0.5895715951919556,
    0.4525821805000305,
    -0.5557982921600342,
    0.006166588049381971,
    -1.0458014011383057,
    -0.07890868186950684,
    -0.12133584916591644,
    0.40460896492004395,
    1.5892283916473389,
    0.17352449893951416,
    1.9662001132965088,
    -0.37226518988609314,
    -0.24309708178043365,
    0.604243814945221,
    0.842327892780304,
    -0.4109461307525635,
    -0.7045555114746094,
    -0.29775410890579224,
    1.0185602903366089,
    -1.1960937976837158,
    0.8985183835029602,
    -1.0139116048812866,
    2.170663595199585,
    0.049330126494169235,
    0.9480677843093872,
    -2.03719162940979,
    0.10101139545440674,
    0.9072803258895874,
    1.1467194557189941,
    -0.27331021428108215,
    0.25928136706352234,
    0.3346347212791443,
    -0.9900180101394653,
    -0.24691736698150635,
    0.3528401553630829,
    0.12650233507156372,
    -1.0471233129501343,
    2.441998243331909,
    0.5271745920181274,
    -0.42986801266670227,
    -0.36954835057258606,
    -1.55016028881073,
    0.10025595873594284,
    0.06543856859207153,
    -0.04003738984465599,
    -0.1441277265548706,
    0.4083722233772278,
    -0.32766488194465637,
    0.28892356157302856,
    1.0100141763687134,
    0.6383069157600403,
    0.45723217725753784,
    -0.05561837926506996,
    0.2179635763168335,
    0.7449236512184143,
    -0.029479555785655975,
    -0.07373852282762527,
    -0.3355186879634857,
    1.5043127536773682,
    -2.663736581802368,
    0.3928297758102417,
    -0.8502046465873718,
    -0.453139990568161,
    0.38666942715644836,
    -0.02014838345348835,
    -0.19345083832740784,
    -0.11191213876008987,
    1.357876181602478,
    -0.368428111076355,
    0.37655481696128845,
    0.5226512551307678,
    -0.2021062970161438,
    -0.7267287969589233,
    0.8623290061950684,
    0.6839113235473633,
    0.30980443954467773,
    -0.5161076784133911,
    -0.9458524584770203,
    -0.6935749053955078,
    -0.3613171875476837,
    0.06949788331985474,
    0.20936037600040436,
    0.6810046434402466,
    1.1775468587875366,
    0.41875481605529785,
    -0.6134294867515564,
    1.4250937700271606,
    0.44805583357810974,
    -0.48293590545654297,
    -0.4525586664676666,
    0.7539209723472595,
    0.39277464151382446,
    -0.5222062468528748,
    -0.7000280022621155,
    -1.8097100257873535,
    -0.5582180619239807,
    0.0648093968629837,
    1.0773688554763794,
    -0.3458290994167328,
    -0.15131551027297974,
    -1.1520682573318481,
    -0.24900057911872864,
    0.8087698817253113,
    -1.0777300596237183,
    0.7383109331130981,
    1.5470918416976929,
    -0.05375891923904419,
    1.0863029956817627,
    -0.1874929964542389,
    0.025066940113902092,
    -0.3824179768562317,
    0.7589035034179688,
    0.7378605604171753,
    -1.109207272529602,
    0.6623493432998657,
    0.87954181432724,
    -0.2673143446445465,
    -0.037677571177482605,
    1.1429930925369263,
    -0.912676215171814,
    -0.8036743998527527,
    -0.3363921046257019,
    0.2894148528575897,
    1.3387608528137207,
    -0.7901421785354614,
    -0.9620157480239868,
    -0.7929545640945435,
    0.12886720895767212,
    -0.6947792172431946,
    -1.5702179670333862,
    -1.1032347679138184,
    0.46619242429733276,
    -0.9175085425376892,
    0.3966479003429413,
    0.9418483376502991,
    0.459256112575531,
    -0.6683052778244019,
    -0.5058981776237488,
    -0.4495835304260254,
    0.2773469090461731,
    0.038493189960718155,
    -1.4726933240890503,
    -0.41739821434020996,
    0.4171311855316162,
    0.5104597806930542,
    0.3025965690612793,
    0.6901926398277283,
    -0.006455765105783939,
    -0.8512626886367798,
    0.7449135780334473,
    -0.712387204170227,
    0.2838348150253296,
    0.8348304629325867,
    -0.8890931010246277,
    -0.045902080833911896,
    -0.5790864825248718,
    0.26770710945129395,
    1.4517391920089722,
    -0.557717502117157,
    -0.778721809387207,
    0.03880055248737335,
    0.8368076086044312,
    -0.682197630405426,
    0.9630613923072815,
    -0.7647449374198914,
    1.176228642463684,
    -0.3794170022010803,
    0.6368977427482605,
    0.2655951976776123,
    0.29787132143974304,
    -2.0537467002868652,
    -0.710507869720459,
    0.7640963792800903,
    0.6658098697662354,
    -1.4146984815597534,
    -0.3540540635585785,
    0.33183735609054565,
    -0.9419301748275757,
    -0.5438151359558105,
    -0.5234744548797607,
    0.0737520158290863,
    1.6630783081054688,
    -0.08849720656871796,
    -0.37367233633995056,
    -0.5829149484634399,
    -0.5959118008613586,
    -0.09889232367277145,
    0.06530225276947021,
    0.4900627136230469,
    0.13965226709842682,
    0.40358176827430725,
    -0.6420050859451294,
    -0.2732357978820801,
    0.8145087957382202,
    -0.7230107188224792,
    0.6228097677230835,
    -0.021373966708779335,
    0.06994013488292694,
    -1.0034325122833252,
    0.17699235677719116,
    -0.36190348863601685,
    -0.4014614522457123,
    0.3356859087944031,
    0.9189774394035339,
    0.5829464197158813,
    0.3899626135826111,
    0.0507628470659256,
    -0.9994878768920898,
    0.7859851121902466,
    -0.4273250102996826,
    -0.5105887651443481,
    0.03688792884349823,
    0.19709885120391846,
    -0.31239280104637146,
    0.3269561529159546,
    -0.5441120862960815,
    0.11926636844873428,
    0.7514387965202332,
    -1.2679963111877441,
    -0.5374451875686646,
    0.18778452277183533,
    -0.3420863151550293,
    -0.11394966393709183,
    0.2117367684841156,
    -0.5571739077568054,
    -1.0191234350204468,
    0.7113468050956726,
    -2.0716075897216797,
    0.6944436430931091,
    0.24761611223220825,
    0.12892228364944458,
    0.3643367886543274,
    0.3667401373386383,
    -0.4379478693008423,
    -0.19121693074703217,
    -0.8133940696716309,
    -0.48310399055480957,
    0.14890487492084503,
    0.4348912239074707,
    0.03108268417418003,
    0.10730789601802826,
    0.6103499531745911,
    1.2902582883834839,
    -0.10466647148132324,
    0.5035954117774963,
    -0.10309992730617523,
    -0.5144950151443481,
    0.581182599067688,
    -0.364117830991745,
    0.21563434600830078,
    -1.1999837160110474,
    -0.20509092509746552,
    1.0276150703430176,
    0.4915449619293213,
    0.07578498870134354,
    -0.2310829758644104,
    0.09797989577054977,
    0.059225890785455704,
    0.5037669539451599,
    0.22499239444732666,
    0.20138958096504211,
    0.09462275356054306,
    0.7054088711738586,
    0.5729748606681824,
    -0.2192995250225067,
    0.2896203398704529,
    -0.021277323365211487,
    0.05148131772875786,
    -0.24100738763809204,
    0.16032522916793823,
    0.34074679017066956,
    0.315507709980011,
    -0.09177987277507782,
    0.4586319327354431,
    -0.11851415038108826,
    0.05670095607638359,
    -0.1407802253961563,
    0.5400026440620422,
    -0.3230304419994354,
    -0.7076135277748108,
    0.7434169054031372,
    0.6463510990142822,
    0.28265681862831116,
    0.4960210621356964,
    -0.2762829065322876,
    -0.13998229801654816,
    -0.5603995323181152,
    -0.16357095539569855,
    0.09444569051265717,
    -0.05951690673828125,
    0.08099239319562912,
    0.2094397246837616,
    -0.3276641070842743,
    0.33618849515914917,
    0.14068998396396637,
    0.21413782238960266,
    -0.46757495403289795,
    0.7270158529281616,
    0.3603949546813965,
    -0.1440652310848236,
    -0.46088191866874695,
    0.038785889744758606,
    0.06600699573755264,
    -0.19844692945480347,
    -0.9476291537284851,
    -0.30297258496284485,
    0.3673853874206543,
    -0.19302338361740112,
    -0.19853459298610687,
    -0.16314025223255157,
    -0.5260961651802063,
    -0.1994265764951706,
    -0.5313102602958679,
    -0.0644901767373085,
    -0.6363894939422607,
    0.015425107441842556,
    -0.4197857677936554,
    0.24258919060230255,
    0.0911615714430809,
    -0.8731784224510193,
    0.8132192492485046,
    0.6684595942497253,
    0.48927024006843567,
    -0.3067786693572998,
    0.11000021547079086,
    0.6986144781112671,
    -1.1680940389633179,
    -0.6308516263961792,
    0.2553223967552185,
    0.011756932362914085,
    0.03660041466355324,
    -0.8533227443695068,
    -0.92218416929245,
    0.2945624887943268,
    0.2528815269470215,
    0.7027638554573059,
    -0.5487375259399414,
    1.1178908348083496,
    -1.4706525802612305,
    -1.022124171257019,
    0.032486703246831894,
    0.3022628128528595,
    0.37881460785865784,
    0.2684836983680725,
    0.16288110613822937,
    -0.09354579448699951,
    0.16534219682216644,
    -0.3418751060962677,
    0.16526098549365997,
    -0.6024138927459717,
    -0.32294437289237976,
    -0.18228885531425476,
    0.7792558670043945,
    0.45341089367866516,
    -0.30034732818603516,
    -0.6022515892982483,
    -0.3405205309391022,
    -0.15700818598270416,
    -0.7446902990341187,
    -0.9106757044792175,
    0.10092347115278244,
    0.6025148630142212,
    -0.8751130700111389,
    -0.37587618827819824,
    0.12037023901939392,
    -0.349650114774704,
    0.2633281648159027,
    0.7648996710777283,
    0.21020446717739105,
    0.6876958012580872,
    -1.8592636585235596,
    0.5025784969329834,
    1.0824668407440186,
    -0.2224455028772354,
    0.10099911689758301,
    -0.12513159215450287,
    -0.7760940790176392,
    0.06494291871786118,
    -0.4612838923931122,
    0.40458959341049194,
    -0.4431895315647125,
    -0.08861245214939117,
    0.7143217921257019,
    -0.18251004815101624,
    0.6418623924255371,
    -0.9238109588623047,
    -1.6421643495559692,
    1.1801462173461914,
    0.6227847933769226,
    2.7107768058776855,
    1.2567845582962036,
    -0.06851211935281754,
    1.2880253791809082,
    -0.9438203573226929,
    0.8813149333000183,
    0.05855414643883705,
    -0.2971622049808502,
    -0.13776609301567078,
    0.41791832447052,
    0.049090899527072906,
    -0.27055734395980835,
    -0.48426172137260437,
    0.22722278535366058,
    -1.0149463415145874,
    -0.14698909223079681,
    0.7147833108901978,
    -0.36181551218032837,
    -0.04811852425336838,
    -0.3794490694999695,
    -0.1224769875407219,
    -0.4690186679363251,
    0.41344839334487915,
    -0.0746811255812645,
    -0.37420982122421265,
    -0.3073871433734894,
    -0.43041062355041504,
    -0.2276991307735443,
    0.13179583847522736,
    -0.0975203886628151,
    -0.12605266273021698,
    -0.07717043906450272,
    -0.16899162530899048,
    -0.23163309693336487,
    -0.8910617232322693,
    0.1756058931350708,
    0.6990513205528259,
    0.07549373060464859,
    -0.39332878589630127,
    0.15021979808807373,
    -0.17778199911117554,
    -0.3312242925167084,
    -0.20056745409965515,
    0.05323609337210655,
    0.4577559232711792,
    -0.1730787605047226,
    -0.9885169267654419,
    -0.1977892518043518,
    -0.18614469468593597,
    -0.5626598000526428,
    0.0595533549785614,
    -0.290839821100235,
    -0.19407951831817627,
    -0.09682029485702515,
    0.004701957106590271,
    0.04652811586856842,
    -0.1885393112897873,
    -0.38728970289230347,
    0.05798541381955147,
    -0.5771040320396423,
    -0.05999265983700752,
    -0.13418719172477722,
    0.7234745621681213,
    -0.1505318284034729,
    -0.0937415063381195,
    -0.0264518354088068,
    -0.48305752873420715,
    -0.1409362256526947,
    -0.12911199033260345,
    -0.40871500968933105,
    -0.12923955917358398,
    0.12783421576023102,
    0.5302940607070923,
    -0.33649322390556335,
    -0.585274338722229,
    -0.6088913083076477,
    -0.1178298369050026,
    0.09141531586647034,
    -0.08708684891462326,
    -0.10812731832265854,
    -0.8639159202575684,
    0.11571773886680603,
    -0.6573057174682617,
    0.23186728358268738,
    0.40054458379745483,
    0.2104009985923767,
    -0.39412829279899597,
    0.4361066222190857,
    -0.36955779790878296,
    0.43856701254844666,
    -0.17192672193050385,
    -0.051106423139572144,
    -0.18514588475227356,
    -0.2717680037021637,
    -0.13255125284194946,
    0.3816630244255066,
    -0.45309025049209595,
    -0.1100039929151535,
    0.25901272892951965,
    0.2716342508792877,
    -0.0414976142346859,
    0.035185426473617554,
    -0.10600593686103821,
    -0.01628999412059784,
    -0.4360698163509369,
    -0.382500022649765,
    0.3319506347179413,
    -0.2452199012041092,
    -0.09330109506845474,
    0.1547846496105194,
    -0.2513423264026642,
    -0.3704531192779541,
    0.2982553541660309,
    0.3856702744960785,
    0.3091985881328583,
    0.09726668894290924,
    0.12696780264377594,
    -0.10085098445415497,
    -0.09317409247159958,
    0.09918808937072754,
    0.09199807792901993,
    0.057703930884599686,
    -0.15338054299354553,
    -0.1257198601961136,
    0.0036190126556903124,
    -0.39488115906715393,
    0.1612679660320282,
    -0.009847709909081459,
    0.35337910056114197,
    -0.5650946497917175,
    0.0870332345366478,
    0.09804095327854156,
    -0.20033755898475647,
    0.06070725619792938,
    -0.30634427070617676,
    0.23655426502227783,
    0.2356024533510208,
    0.20542371273040771,
    -0.06385108828544617,
    0.06732863187789917,
    0.7271095514297485,
    -0.3934991657733917,
    -0.1859731674194336,
    -0.20445628464221954,
    -0.3709326684474945,
    0.02751082554459572,
    0.293836385011673,
    0.6754439473152161,
    0.3411848843097687,
    0.07585211843252182,
    0.27997270226478577,
    0.01550659816712141,
    -0.2973531186580658,
    -0.005539934150874615,
    -0.21309706568717957,
    -0.1556878685951233,
    0.23342011868953705,
    -0.16744498908519745,
    0.0870811864733696,
    -0.023608475923538208,
    -0.6853305697441101,
    -0.16110605001449585,
    0.5842183828353882,
    0.18241924047470093,
    0.08262347429990768,
    -0.17047081887722015,
    -0.3362227976322174,
    0.10305114090442657,
    0.1231585219502449,
    0.20596091449260712,
    -0.09130027890205383,
    0.029104257002472878,
    -0.1770542562007904,
    0.18935871124267578,
    0.4691269099712372,
    -0.05666464939713478,
    0.3054417371749878,
    -0.3124788999557495,
    0.43638160824775696,
    -0.1669311821460724,
    -0.21847543120384216,
    -0.1857701987028122,
    0.6681987047195435,
    -0.4112715721130371,
    0.3493625521659851,
    0.40844759345054626,
    0.2748863995075226,
    -0.21020452678203583,
    0.23483596742153168,
    -0.5023794770240784,
    -0.12699149549007416,
    0.23679043352603912,
    0.0023240542504936457,
    0.413150429725647,
    0.29339849948883057,
    -0.2405065894126892,
    -0.10074049234390259,
    -0.08489170670509338,
    -0.30406683683395386,
    -0.2866029441356659,
    -0.25059473514556885,
    -0.14607542753219604,
    0.1896306425333023,
    -0.007230287883430719,
    -0.05584799125790596,
    -0.2688377797603607,
    0.17299434542655945,
    0.3289661705493927,
    0.23294582962989807,
    0.8082405924797058,
    0.4108973443508148,
    -0.06448023021221161,
    -0.3503199517726898,
    -0.32293254137039185,
    -0.2936536967754364,
    -0.17445938289165497,
    0.48358866572380066,
    -0.4300151765346527,
    -0.4274095892906189,
    -0.3369743824005127,
    0.30318036675453186,
    -0.13592937588691711,
    -0.5749365091323853,
    0.6601756811141968,
    -0.5929709672927856,
    -0.14788581430912018,
    0.09146659821271896,
    -0.29336240887641907,
    0.386304646730423,
    -0.2959620952606201,
    -0.1484285593032837,
    -0.27620410919189453,
    0.3600725531578064,
    -0.37634989619255066,
    0.0170082226395607,
    0.08197730779647827,
    -0.19121478497982025,
    -0.3234260380268097,
    0.13901744782924652,
    0.24300360679626465,
    -0.05042346939444542,
    0.42213302850723267,
    0.4109851121902466,
    0.4343060255050659,
    0.1970609873533249,
    -0.4864501357078552,
    -0.3961862027645111,
    0.17129503190517426,
    -0.27208074927330017,
    -0.18434008955955505,
    0.2886751890182495,
    0.13629098236560822,
    -0.12731745839118958,
    -0.2184162586927414,
    -0.0458640493452549,
    -0.03450486436486244,
    0.15086230635643005,
    -0.22055451571941376,
    0.12358061224222183,
    -0.3771849274635315,
    -0.18657509982585907,
    -0.018172308802604675,
    0.045049771666526794,
    -0.003764891065657139,
    -0.5513932704925537,
    0.05837027356028557,
    0.027184482663869858,
    0.2082619071006775,
    -0.08101978898048401,
    0.14032118022441864,
    -0.05678730458021164,
    -0.21552838385105133,
    -0.11454595625400543,
    0.33061712980270386,
    0.2166764736175537,
    0.1815858781337738,
    0.10355304926633835,
    -0.012892911210656166,
    0.1408531218767166,
    -0.4778650104999542,
    0.017218442633748055,
    -0.2317149043083191,
    0.3536370098590851,
    0.21096870303153992,
    0.023947665467858315,
    0.2567022144794464,
    -0.18143081665039062,
    0.5372602343559265,
    -0.11093764752149582,
    -0.03011721931397915,
    0.210567906498909,
    -0.012197190895676613,
    -0.49749550223350525,
    0.05036426708102226,
    -0.2152324765920639,
    -0.3898864984512329,
    0.1857794225215912,
    0.605815052986145,
    -0.5752808451652527,
    -0.10548363626003265,
    -0.05878499522805214,
    0.22911019623279572,
    -0.19831642508506775,
    0.41439080238342285,
    -0.08378097414970398,
    -0.061284441500902176,
    0.05507044866681099,
    0.11978302896022797,
    0.10149950534105301,
    0.17086420953273773,
    0.15550050139427185,
    -0.11673940718173981,
    0.3255012631416321,
    -0.17261461913585663,
    -0.48190832138061523,
    0.0757230818271637,
    -0.011366555467247963,
    0.11041434854269028,
    0.08757802844047546,
    0.08879479765892029,
    -0.16195526719093323
  ],
  "gru_weight_hh": [
    0.7394984364509583,
    -0.3423755466938019,
    -0.14329898357391357,
    -1.4555710554122925,
    -0.26355549693107605,
    -0.028609368950128555,
    0.5783182978630066,
    -0.1258448362350464,
    1.903312087059021,
    -2.1538591384887695,
    0.5551598072052002,
    0.44613710045814514,
    2.00427508354187,
    -0.6671848297119141,
    0.07112985104322433,
    -0.5592377185821533,
    1.045867919921875,
    -0.2442861795425415,
    0.907875120639801,
    -0.18246199190616608,
    1.0922939777374268,
    0.284675270318985,
    0.4931719899177551,
    -0.5179134607315063,
    1.2104634046554565,
    0.10265245288610458,
    0.9533365964889526,
    0.7041914463043213,
    -1.4131642580032349,
    1.1259971857070923,
    0.41389939188957214,
    -0.5343266725540161,
    0.42051777243614197,
    -0.5018516182899475,
    -0.5320107340812683,
    -0.4037474989891052,
    0.9485099911689758,
    0.5380105376243591,
    0.17362715303897858,
    -0.6324508190155029,
    -0.43532848358154297,
    -1.802590250968933,
    -0.012648510746657848,
    -0.5949479341506958,
    0.7274818420410156,
    0.19212870299816132,
    1.4446704387664795,
    0.5540781617164612,
    -2.1227376461029053,
    -0.16070857644081116,
    1.1108808517456055,
    1.9074594974517822,
    0.36126333475112915,
    -0.11479844897985458,
    0.46985480189323425,
    -1.1762511730194092,
    -1.3225826025009155,
    0.4821564257144928,
    1.2310206890106201,
    0.7918309569358826,
    -0.42549291253089905,
    -0.6952337026596069,
    -0.41189414262771606,
    -0.11680928617715836,
    0.06172627583146095,
    -1.6781606674194336,
    0.03114515356719494,
    -0.4560755491256714,
    -2.0028598308563232,
    -0.9992579221725464,
    -0.05736708268523216,
    0.14200496673583984,
    -0.9920022487640381,
    0.03146400675177574,
    0.09036403149366379,
    -0.1631798893213272,
    -0.2669396996498108,
    1.5410969257354736,
    0.7537315487861633,
    -1.6363273859024048,
    0.1950228363275528,
    0.28391367197036743,
    0.11391712725162506,
    0.9474835395812988,
    -2.0013511180877686,
    -1.1419620513916016,
    0.006162095349282026,
    0.7031294703483582,
    -0.28502801060676575,
    -0.16025151312351227,
    -0.2865729331970215,
    0.0764966756105423,
    -0.3786349594593048,
    0.46551382541656494,
    -0.15495136380195618,
    0.038439881056547165,
    -0.9918821454048157,
    1.4969950914382935,
    0.5870127081871033,
    -0.15832331776618958,
    0.11768994480371475,
    0.8892083764076233,
    -0.802606463432312,
    -0.5381981730461121,
    0.7797906398773193,
    -0.06997567415237427,
    1.2123970985412598,
    -0.852523148059845,
    -0.5041770339012146,
    -0.13759790360927582,
    0.30400246381759644,
    1.6292338371276855,
    1.3973584175109863,
    -0.03587837144732475,
    -0.08751391619443893,
    1.058060646057129,
    -2.0926289558410645,
    0.10104355216026306,
    -2.3617568016052246,
    0.9749673008918762,
    2.1572375297546387,
    -0.06925295293331146,
    2.0778310298919678,
    -1.9566378593444824,
    -1.604877233505249,
    0.9111127257347107,
    -1.4379692077636719,
    1.0381076335906982,
    -1.4104247093200684,
    0.12826761603355408,
    -0.06489944458007812,
    0.1374228596687317,
    0.5721400380134583,
    0.9369617104530334,
    0.21267595887184143,
    -0.5923229455947876,
    -0.11949431151151657,
    1.045180320739746,
    0.1890820413827896,
    -1.3462872505187988,
    0.2883867919445038,
    0.5815061330795288,
    0.2583368122577667,
    0.39907869696617126,
    -0.3326963186264038,
    -1.090563178062439,
    -0.4199414849281311,
    0.3748643696308136,
    0.007063169032335281,
    -0.05290720611810684,
    -1.6777424812316895,
    0.8783684968948364,
    0.6468083262443542,
    -0.6330717206001282,
    -0.854148268699646,
    1.1550012826919556,
    0.4071871340274811,
    0.9370331168174744,
    -1.0782222747802734,
    -0.893848180770874,
    -0.665316641330719,
    -0.2512023448944092,
    0.3280169367790222,
    0.7812619805335999,
    1.8086268901824951,
    0.37808921933174133,
    0.4891963005065918,
    0.5861177444458008,
    1.0728601217269897,
    -0.6177312731742859,
    0.10851041972637177,
    0.2641685903072357,
    0.3118983805179596,
    1.7491389513015747,
    0.7681678533554077,
    0.9093272089958191,
    1.2846215963363647,
    0.08889096230268478,
    -0.027083061635494232,
    0.4838697910308838,
    0.654363751411438,
    0.11816757172346115,
    -1.144660472869873,
    0.6892983317375183,
    2.2064387798309326,
    -0.2504817545413971,
    0.18037822842597961,
    0.3786909282207489,
    0.22885189950466156,
    0.037293482571840286,
    1.6403675079345703,
    -1.9875380992889404,
    0.6443551778793335,
    -1.339583158493042,
    -1.7397193908691406,
    0.323224812746048,
    -0.23826758563518524,
    0.6910290718078613,
    -0.9048227667808533,
    0.12596547603607178,
    0.7933835387229919,
    -0.8200724720954895,
    -0.06923115253448486,
    1.0751183032989502,
    -1.167755365371704,
    0.2686111330986023,
    0.18477079272270203,
    -1.0712761878967285,
    -1.0842108726501465,
    -1.1315633058547974,
    0.6024975180625916,
    -0.5012516975402832,
    1.1493327617645264,
    -1.3861435651779175,
    -0.9114290475845337,
    -1.029940128326416,
    -2.1943256855010986,
    -0.5789068937301636,
    0.30683499574661255,
    0.27228665351867676,
    0.6509070992469788,
    -0.7763795852661133,
    -0.618377685546875,
    -0.6837247610092163,
    -0.7639784812927246,
    -1.569835901260376,
    0.42761948704719543,
    1.9752129316329956,
    1.4831843376159668,
    0.36700841784477234,
    -0.46131840348243713,
    -0.0947839692234993,
    -0.8201678991317749,
    0.9863914847373962,
    -0.4738755226135254,
    -1.9988824129104614,
    0.21313762664794922,
    -0.22915609180927277,
    -0.5952035188674927,
    -0.4768368601799011,
    -1.538629174232483,
    -0.006508389487862587,
    0.5244398713111877,
    -0.01586058735847473,
    0.9282832145690918,
    0.004159253556281328,
    -0.4031204283237457,
    -0.19821995496749878,
    0.1080249473452568,
    -0.20610886812210083,
    0.28125160932540894,
    -0.1550653725862503,
    0.2941473722457886,
    0.41757383942604065,
    0.42494624853134155,
    0.08642489463090897,
    0.7937325835227966,
    0.5968670845031738,
    -0.09126980602741241,
    0.7070479393005371,
    -1.7803431749343872,
    0.04561101645231247,
    0.5784876346588135,
    0.10470810532569885,
    -1.2070972919464111,
    0.7127485275268555,
    0.9411823749542236,
    0.3036731779575348,
    -0.5723739862442017,
    0.15963661670684814,
    0.151109978556633,
    0.5057737231254578,
    -0.12934055924415588,
    -0.3498929440975189,
    0.363558292388916,
    0.016072088852524757,
    -0.9622889161109924,
    1.0655086040496826,
    -0.05585363134741783,
    0.2711535394191742,
    0.9058513641357422,
    -0.3723269999027252,
    0.7791325449943542,
    0.16303037106990814,
    0.8089818954467773,
    0.35152795910835266,
    0.4777972400188446,
    -1.0492310523986816,
    0.300726056098938,
    1.112439513206482,
    -0.07097458094358444,
    1.0435271263122559,
    -0.05205063149333,
    -0.6864730715751648,
    -1.201219916343689,
    0.036059312522411346,
    -1.099697232246399,
    -0.2230287343263626,
    1.2010923624038696,
    0.7610069513320923,
    0.6953717470169067,
    -1.6048442125320435,
    0.02834933251142502,
    -1.644456148147583,
    0.6716718673706055,
    0.19584183394908905,
    -0.8033119440078735,
    -1.4349721670150757,
    -1.253231406211853,
    0.20122072100639343,
    0.3820486068725586,
    -0.00823131762444973,
    0.994277834892273,
    1.329079270362854,
    -0.19085776805877686,
    -1.0551178455352783,
    1.2018778324127197,
    0.015610165894031525,
    0.1133127510547638,
    -0.8745110630989075,
    -0.047457095235586166,
    0.8466177582740784,
    -0.21372060477733612,
    0.3156646192073822,
    -0.9035833477973938,
    -0.5353792905807495,
    -0.851919412612915,
    -0.7524864077568054,
    0.11006017029285431,
    0.1857917755842209,
    -0.2661522328853607,
    0.3250819742679596,
    0.21330000460147858,
    -1.042842149734497,
    -0.16617920994758606,
    -0.2650892734527588,
    -0.9309619069099426,
    0.02375059574842453,
    -0.5105994939804077,
    0.5255138874053955,
    -1.5283008813858032,
    0.2615910768508911,
    0.4092356860637665,
    1.0375090837478638,
    0.6997045278549194,
    0.513575553894043,
    -0.260882705450058,
    0.878227710723877,
    0.772068977355957,
    0.5980725884437561,
    -0.10367060452699661,
    -0.1664525717496872,
    -0.8787516951560974,
    -0.3440078794956207,
    0.18459336459636688,
    0.3771241307258606,
    -0.4536002278327942,
    -0.16365385055541992,
    -0.15947307646274567,
    0.03802571818232536,
    -0.4074130058288574,
    -0.5243312120437622,
    0.7106106877326965,
    -0.40436846017837524,
    -0.6637275218963623,
    -0.6098389029502869,
    0.10857322812080383,
    -0.34461042284965515,
    0.23337307572364807,
    -0.264543741941452,
    -0.2922460734844208,
    2.4527933597564697,
    0.02818169817328453,
    -0.021330727264285088,
    0.4219265282154083,
    0.40439847111701965,
    0.5295703411102295,
    -0.04701245576143265,
    1.0128610134124756,
    1.024909496307373,
    0.8893672227859497,
    0.6695863008499146,
    -3.0369837284088135,
    1.1681896448135376,
    2.855181932449341,
    0.9073629379272461,
    -0.7981307506561279,
    -1.4126896858215332,
    -1.2452113628387451,
    0.7711828947067261,
    0.5145548582077026,
    0.451003760099411,
    0.3764990270137787,
    -1.306807279586792,
    1.372872233390808,
    -0.5787121653556824,
    0.32727497816085815,
    -0.2894788384437561,
    0.028851889073848724,
    0.5945097804069519,
    0.26626163721084595,
    -0.6661834716796875,
    -0.1499911993741989,
    0.3152514398097992,
    -0.6384679079055786,
    0.5725398063659668,
    -0.5847861766815186,
    -0.39135822653770447,
    0.403285413980484,
    0.32847684621810913,
    0.433132141828537,
    -0.5226799845695496,
    -1.2020362615585327,
    -1.2824264764785767,
    0.2457587718963623,
    -0.2024850696325302,
    0.29487884044647217,
    -0.256568968296051,
    -1.159293293952942,
    -0.030857916921377182,
    0.7752974629402161,
    -0.47482848167419434,
    0.45748335123062134,
    0.0629957914352417,
    -0.13909630477428436,
    -2.0907750129699707,
    -0.3482256531715393,
    0.24990268051624298,
    1.5007357597351074,
    -0.12558895349502563,
    0.6805062294006348,
    0.8869819641113281,
    -1.521196961402893,
    0.43146803975105286,
    -0.4089255928993225,
    -0.036013174802064896,
    1.1729354858398438,
    -0.5996899604797363,
    0.8260005712509155,
    0.01205440517514944,
    -0.24074746668338776,
    0.11320563405752182,
    0.9712575674057007,
    1.034773826599121,
    -0.8481902480125427,
    -0.3244289457798004,
    -0.5985273122787476,
    -1.234557867050171,
    0.48114123940467834,
    -0.35543888807296753,
    0.5260598063468933,
    -1.2094721794128418,
    0.11825604736804962,
    0.696760892868042,
    -0.6825753450393677,
    -0.8203626275062561,
    0.38033291697502136,
    -0.9922248721122742,
    0.5062843561172485,
    1.1770038604736328,
    0.5398613810539246,
    0.19250640273094177,
    0.0631762444972992,
    -0.9629799127578735,
    -0.1177273765206337,
    -0.5648759007453918,
    -0.4502643048763275,
    0.5864911675453186,
    -1.1271394491195679,
    -0.19944150745868683,
    0.9870253205299377,
    -0.6229957938194275,
    0.6197760105133057,
    -0.4303187131881714,
    -0.3965052366256714,
    -0.17455023527145386,
    0.26805463433265686,
    1.1112003326416016,
    0.16963094472885132,
    0.3342418968677521,
    -0.0518934428691864,
    -1.534141182899475,
    -0.9671377539634705,
    1.5902777910232544,
    0.4023202657699585,
    -1.2444863319396973,
    0.9336795806884766,
    1.4407296180725098,
    -0.19224108755588531,
    -2.449840784072876,
    -0.40662485361099243,
    -0.6631551384925842,
    1.2674237489700317,
    0.12270644307136536,
    0.039401959627866745,
    -0.6632982492446899,
    0.6462293267250061,
    0.5392065644264221,
    -0.25146305561065674,
    0.11066886782646179,
    -0.935543954372406,
    -0.32554227113723755,
    0.2182222157716751,
    0.09032012522220612,
    -0.251389741897583,
    0.9729307889938354,
    0.6126740574836731,
    -0.5586299896240234,
    0.023057274520397186,
    -0.5041981935501099,
    -0.0640188530087471,
    0.1232689619064331,
    -0.7628310322761536,
    0.39747053384780884,
    -0.9842117428779602,
    1.0486096143722534,
    0.0031725079752504826,
    0.697544276714325,
    0.38575810194015503,
    2.139326333999634,
    2.306663751602173,
    -0.5701587796211243,
    0.41041460633277893,
    0.10631531476974487,
    0.6154888272285461,
    -0.010489651001989841,
    0.9700666069984436,
    -0.8360427021980286,
    -0.34784218668937683,
    -0.6603943109512329,
    0.08701546490192413,
    0.3679641783237457,
    -0.34816333651542664,
    0.14575576782226562,
    -0.5034091472625732,
    1.026713252067566,
    0.019547568634152412,
    -1.4799919128417969,
    0.9215468168258667,
    -0.19342008233070374,
    -0.008491436950862408,
    0.5724508166313171,
    0.48990151286125183,
    -1.0213184356689453,
    0.534011721611023,
    -0.41247814893722534,
    -0.7272000908851624,
    0.8175839781761169,
    0.14669744670391083,
    -0.7243221998214722,
    0.25132280588150024,
    0.2866832911968231,
    0.912205696105957,
    1.323931336402893,
    -0.08213203400373459,
    0.33649304509162903,
    0.17620696127414703,
    0.12409660220146179,
    -1.0417699813842773,
    -0.14571145176887512,
    0.25580891966819763,
    0.009942359291017056,
    0.11395318061113358,
    0.07179274410009384,
    0.8900466561317444,
    0.3660432696342468,
    0.3283703029155731,
    0.2729111611843109,
    0.09700717777013779,
    -0.09007816016674042,
    -0.5422413945198059,
    0.05469530075788498,
    0.35368674993515015,
    -0.5744630098342896,
    0.1623988002538681,
    -0.10609083622694016,
    -0.3365076184272766,
    0.37360143661499023,
    -0.025156304240226746,
    -1.4036693572998047,
    -0.9099547266960144,
    -0.01954551413655281,
    -0.3441619575023651,
    -0.38015997409820557,
    -0.0005856698262505233,
    -0.06422726809978485,
    1.0137712955474854,
    -0.11444656550884247,
    -0.26615187525749207,
    0.5039260387420654,
    -1.0252258777618408,
    -0.47399717569351196,
    0.47990331053733826,
    0.1437523514032364,
    -0.3089790344238281,
    -0.5703232884407043,
    -1.303591251373291,
    -0.06385267525911331,
    0.46846285462379456,
    0.21804359555244446,
    -0.0517907477915287,
    -0.12176213413476944,
    -0.1974100023508072,
    0.1419357806444168,
    -0.19829465448856354,
    0.20819376409053802,
    -0.5381098985671997,
    0.21826480329036713,
    -0.5444350242614746,
    -0.07336371392011642,
    0.21248967945575714,
    -0.6933895349502563,
    0.29275280237197876,
    0.35262033343315125,
    0.0027162269689142704,
    -0.20297762751579285,
    -0.4825788140296936,
    0.685671329498291,
    -0.6659625172615051,
    0.1971137374639511,
    0.4900323748588562,
    -0.8351220488548279,
    -0.015020559541881084,
    -0.11012540757656097,
    -0.507024347782135,
    0.02605467103421688,
    -0.5095396637916565,
    -0.7546991109848022,
    -0.3123503029346466,
    0.05549474433064461,
    0.3264610171318054,
    -0.44131407141685486,
    0.9255989789962769,
    -0.8899903297424316,
    -0.28775110840797424,
    -0.41205093264579773,
    0.28471049666404724,
    -0.46155276894569397,
    0.9725120067596436,
    0.8852434158325195,
    0.022543927654623985,
    -0.001590564614161849,
    -0.92963707447052,
    -0.8557753562927246,
    0.4931126534938812,
    0.32657212018966675,
    0.3077796399593353,
    -0.3343280255794525,
    -0.29150861501693726,
    0.17055174708366394,
    0.39197278022766113,
    -0.2913163900375366,
    0.013805580325424671,
    -1.368584394454956,
    -0.32323482632637024,
    0.22226035594940186,
    0.14505431056022644,
    0.4732688367366791,
    -0.21486639976501465,
    -0.275499165058136,
    -0.2120993584394455,
    0.4722895622253418,
    -1.772840976715088,
    -0.12553520500659943,
    -0.06660746783018112,
    -0.8006792664527893,
    -0.12128870189189911,
    0.5464354753494263,
    -0.4119580090045929,
    0.19652004539966583,
    -0.695798397064209,
    -0.6969788074493408,
    -0.17539849877357483,
    0.2450043112039566,
    -0.4399159252643585,
    0.4337766170501709,
    -0.5653368830680847,
    -0.4533008337020874,
    0.7763842344284058,
    -0.25651368498802185,
    -0.12241480499505997,
    0.0793406292796135,
    -0.2802165448665619,
    -0.6471218466758728,
    0.2620546519756317,
    -0.016169030219316483,
    0.22437091171741486,
    0.7219330668449402,
    0.09589153528213501,
    -1.0953377485275269,
    -0.16981585323810577,
    -1.5153656005859375,
    -0.14213505387306213,
    0.10980459302663803,
    -0.6837481260299683,
    0.6819080114364624,
    0.0012333864578977227,
    0.6840261816978455,
    1.3692208528518677,
    -0.9562004208564758,
    -0.2599719762802124,
    -0.14509615302085876,
    0.13724471628665924,
    0.795374870300293,
    0.15940630435943604,
    0.660994291305542,
    -0.8480947613716125,
    0.9470844864845276,
    -0.5907009840011597,
    0.6087728142738342,
    -1.293325424194336,
    -0.18185654282569885,
    0.7258859276771545,
    0.5107316970825195,
    -0.5705453157424927,
    0.2846706807613373,
    -1.0153934955596924,
    -0.040381014347076416,
    -0.7825088500976562,
    -0.21631240844726562,
    -0.24457496404647827,
    0.09327688813209534,
    -0.5161884427070618,
    0.48631975054740906,
    0.2855300009250641,
    -1.0959609746932983,
    -0.11328354477882385,
    -0.03292907029390335,
    0.3850644826889038,
    0.0008609691285528243,
    0.57708740234375,
    0.03453483060002327,
    -0.31136199831962585,
    -0.2886241674423218,
    0.10334015637636185,
    0.42420831322669983,
    -0.13153059780597687,
    -0.0798342153429985,
    0.4506121873855591,
    -0.045525021851062775,
    0.7421464323997498,
    0.4336537718772888,
    0.24294264614582062,
    -0.5149927139282227,
    0.29321426153182983,
    0.9030434489250183,
    0.697445809841156,
    0.6928852200508118,
    0.7316280007362366,
    -0.5290061831474304,
    -0.3117709755897522,
    0.09082625806331635,
    0.19106213748455048,
    0.07365309447050095,
    1.0489815473556519,
    0.3906455934047699,
    -0.3165305554866791,
    -0.426437109708786,
    0.27581602334976196,
    -0.31695616245269775,
    0.12423600256443024,
    0.849226176738739,
    -0.356259286403656,
    -0.03731394186615944,
    0.38650789856910706,
    -0.1445423811674118,
    -0.34893134236335754,
    -0.5426399111747742
  ],
  "gru_bias_ih": [
    -1.4860455989837646,
    -0.64266437292099,
    -0.7494426965713501,
    0.975944995880127,
    -1.6155192852020264,
    -0.4215928018093109,
    0.6082629561424255,
    -0.8361194729804993,
    -0.03685401752591133,
    0.5468040108680725,
    -1.2335811853408813,
    0.17728419601917267,
    -1.0890624523162842,
    -0.10526604950428009,
    0.1619713306427002,
    0.2836907207965851,
    1.5647140741348267,
    -0.7599161267280579,
    -1.0988783836364746,
    -1.5206817388534546,
    0.8403754234313965,
    -1.3462772369384766,
    -1.01411771774292,
    -0.8996976017951965,
    -1.8414689302444458,
    2.0738940238952637,
    -1.667770504951477,
    -0.293697714805603,
    -0.16105426847934723,
    0.2806927263736725,
    -1.708540678024292,
    -0.8947679400444031,
    0.18498292565345764,
    0.22438547015190125,
    -0.06456747651100159,
    0.2753254473209381,
    -0.2598206400871277,
    -0.0023587914183735847,
    -0.31710347533226013,
    -0.2002158910036087,
    -0.3341282904148102,
    -0.17240282893180847,
    -0.01626919023692608,
    0.044629983603954315,
    -0.36270835995674133,
    -0.5765814185142517,
    -0.15826386213302612,
    0.009050555527210236
  ],
  "gru_bias_hh": [
    -1.5725551843643188,
    -0.3664318919181824,
    -0.9791867733001709,
    1.2787106037139893,
    -1.6168227195739746,
    -0.007747754454612732,
    0.6444362998008728,
    -0.6156003475189209,
    0.0154627226293087,
    0.29092225432395935,
    -1.1991355419158936,
    -0.048482850193977356,
    -0.9564497470855713,
    -0.14614473283290863,
    0.04580969363451004,
    0.027817200869321823,
    1.5940901041030884,
    -0.5229995250701904,
    -1.3051735162734985,
    -1.7825356721878052,
    0.4505567252635956,
    -1.117422342300415,
    -0.8981035947799683,
    -0.9453643560409546,
    -2.136688470840454,
    2.1140170097351074,
    -1.520018458366394,
    -0.6359165906906128,
    -0.4455987215042114,
    0.11357486993074417,
    -1.7854033708572388,
    -0.8047593832015991,
    0.4892400801181793,
    -0.09317075461149216,
    -0.0073950020596385,
    -0.2286674827337265,
    0.12571008503437042,
    0.08754328638315201,
    0.19212955236434937,
    -0.40337830781936646,
    0.12536589801311493,
    1.0888179540634155,
    -0.1890813559293747,
    0.31914517283439636,
    -0.03710062801837921,
    -0.4147816002368927,
    -0.12436797469854355,
    -0.013041541911661625
  ],
  "example_input": [
    -1.0,
    -0.9411764740943909,
    -0.8823529481887817,
    -0.8235294222831726,
    -0.7647058963775635,
    -0.7058823704719543,
    -0.6470588445663452,
    -0.5882353186607361,
    -0.529411792755127,
    -0.47058823704719543,
    -0.4117647111415863,
    -0.3529411852359772,
    -0.29411762952804565,
    -0.23529411852359772,
    -0.1764705777168274,
    -0.11764705181121826,
    -0.05882352590560913,
    -3.725290298461914e-09,
    0.05882352590560913,
    0.11764705181121826,
    0.1764705777168274,
    0.23529411852359772,
    0.29411762952804565,
    0.3529411852359772,
    0.4117647111415863,
    0.47058823704719543,
    0.529411792755127,
    0.5882353186607361,
    0.6470588445663452,
    0.7058823704719543,
    0.7647058963775635,
    0.8235294222831726,
    0.8823529481887817,
    0.9411764740943909,
    1.0
  ],
  "example_output": [
    -0.6854537725448608,
    0.6447156071662903,
    -1.596343994140625,
    1.4729092121124268
  ],
  "checkpoint_name": "best_checkpoint_model_797.pt",
  "checkpoint_step": -1,
  "requires_obs_normalization": true,
  "compat_reset_output": [
    -1.5790177583694458,
    0.5416396260261536,
    -1.5963220596313477,
    1.293191909790039
  ],
  "compat_hover_output": [
    1.3283882141113281,
    0.21315935254096985,
    0.6129239201545715,
    1.2468879222869873
  ],
  "export_format": "rl_tools_checkpoint_blob"
}