{
  "observation_dim": 30,
  "action_dim": 4,
  "structure": "mlp_gru",
  "rnn_type": "gru",
  "gru_input_dim": 16,
  "gru_hidden_dim": 16,
  "gru_num_layers": 1,
  "activation": "elu",
  "use_observation_normalization": false,
  "normalization_folded_into_first_layer": false,
  "observation_mean": [
    0.0,
    0.0,
    0.0,
    0.0,
    0.0,
    0.0,
    0.0,
    0.0,
    0.0,
    0.0,
    0.0,
    0.0,
    0.0,
    0.0,
    0.0,
    0.0,
    0.0,
    0.0,
    0.0,
    0.0,
    0.0,
    0.0,
    0.0,
    0.0,
    0.0,
    0.0,
    0.0,
    0.0,
    0.0,
    0.0
  ],
  "observation_inv_std": [
    1.0,
    1.0,
    1.0,
    1.0,
    1.0,
    1.0,
    1.0,
    1.0,
    1.0,
    1.0,
    1.0,
    1.0,
    1.0,
    1.0,
    1.0,
    1.0,
    1.0,
    1.0,
    1.0,
    1.0,
    1.0,
    1.0,
    1.0,
    1.0,
    1.0,
    1.0,
    1.0,
    1.0,
    1.0,
    1.0
  ],
  "actor_encoder_dims": [
    30,
    16,
    16
  ],
  "actor_encoder_activations": [
    "elu",
    "identity"
  ],
  "actor_head_dims": [
    16,
    4
  ],
  "actor_head_activations": [
    "sigmoid"
  ],
  "actor_encoder_weights": [
    [
      0.5330147743225098,
      1.5444179773330688,
      -0.5320086479187012,
      0.2071894258260727,
      -0.8012644052505493,
      1.3281306028366089,
      -0.11223304271697998,
      -0.05261736735701561,
      0.09191635251045227,
      -1.4870787858963013,
      0.49430060386657715,
      0.14281700551509857,
      -1.108201026916504,
      -0.16537520289421082,
      -0.08675019443035126,
      1.6575723886489868,
      -1.009503722190857,
      1.0089632272720337,
      -0.5944324731826782,
      -0.05934805050492287,
      -0.36132460832595825,
      0.12409226596355438,
      -0.4650254547595978,
      -0.0016737343976274133,
      -0.2914361357688904,
      -0.283450186252594,
      -0.10678379237651825,
      0.23700834810733795,
      -0.3182171881198883,
      0.40545111894607544,
      1.7270174026489258,
      2.4442291259765625,
      -6.474091053009033,
      0.025060618296265602,
      -0.3848775625228882,
      1.0471307039260864,
      -0.7254270315170288,
      -0.06824063509702682,
      1.3161633014678955,
      -0.35084980726242065,
      -0.5518102049827576,
      0.013637215830385685,
      -0.8771950602531433,
      -1.238311529159546,
      0.08113284409046173,
      0.07803920656442642,
      1.7764101028442383,
      -3.448673963546753,
      -0.3303748667240143,
      0.3932693302631378,
      -0.06206225976347923,
      -0.0168387982994318,
      0.03435657173395157,
      0.07256706804037094,
      0.00933908298611641,
      0.20698215067386627,
      0.21637150645256042,
      0.061672110110521317,
      0.3201014995574951,
      -0.1121741309762001,
      0.6169289946556091,
      -1.6687334775924683,
      -0.3424806594848633,
      0.067988820374012,
      2.253848075866699,
      0.7542261481285095,
      -1.2558097839355469,
      0.20758533477783203,
      -1.470910906791687,
      -0.9056867957115173,
      0.8711366653442383,
      0.03153485432267189,
      -0.6119816303253174,
      1.1936496496200562,
      0.14518073201179504,
      -0.03295723721385002,
      -0.5166926980018616,
      0.47370219230651855,
      -0.5818074345588684,
      -0.012116195634007454,
      -1.7795400619506836,
      -0.05502739176154137,
      -0.3713228404521942,
      0.08996930718421936,
      0.2190796583890915,
      0.07968859374523163,
      -0.04351953789591789,
      0.06227083504199982,
      -0.0427682138979435,
      0.290052205324173,
      1.563468098640442,
      5.9721856117248535,
      0.24745644629001617,
      -0.0431506521999836,
      0.3076446056365967,
      0.5770619511604309,
      -0.8096875548362732,
      0.02052302472293377,
      2.9035332202911377,
      -0.01744033955037594,
      -1.466315507888794,
      -0.04511967673897743,
      -0.30357807874679565,
      -3.156996488571167,
      0.1179472953081131,
      0.5112972259521484,
      2.0836215019226074,
      -0.07676135748624802,
      -0.8715294599533081,
      0.27674609422683716,
      -0.49727365374565125,
      0.22450152039527893,
      0.15984058380126953,
      0.015623108483850956,
      -0.019907915964722633,
      -0.0032524585258215666,
      -0.4653024971485138,
      0.1712273508310318,
      0.49178722500801086,
      -0.2581188678741455,
      5.161701202392578,
      -0.5266462564468384,
      0.22910304367542267,
      -0.15809375047683716,
      -0.2942424416542053,
      3.386387348175049,
      -0.4982756972312927,
      0.07606591284275055,
      -0.13659170269966125,
      -1.4000484943389893,
      0.5724761486053467,
      0.2783879339694977,
      -3.3594131469726562,
      0.08864013105630875,
      0.054927147924900055,
      2.8610329627990723,
      -0.06651566177606583,
      0.005885378457605839,
      0.05728407949209213,
      1.0420411825180054,
      -0.15831367671489716,
      0.01735680177807808,
      0.15821640193462372,
      0.025687215849757195,
      0.013117930851876736,
      0.02536630444228649,
      0.15853403508663177,
      -0.3018561899662018,
      0.07905109971761703,
      -0.4015958607196808,
      1.6613024473190308,
      -2.3801233768463135,
      0.16613821685314178,
      0.28009840846061707,
      0.4043053686618805,
      1.1614501476287842,
      -0.30531156063079834,
      -0.041796281933784485,
      -1.9484474658966064,
      0.2491634339094162,
      1.5487165451049805,
      0.38042232394218445,
      -1.4128738641738892,
      1.9055618047714233,
      -0.29104506969451904,
      1.0171496868133545,
      -1.1613881587982178,
      0.07347889989614487,
      1.1736257076263428,
      0.057887546718120575,
      -0.10833276063203812,
      -1.4327031373977661,
      -0.960398256778717,
      -0.10303995758295059,
      -0.15396928787231445,
      -0.009298437274992466,
      -0.012196294032037258,
      -0.0530085526406765,
      0.19152873754501343,
      0.14616194367408752,
      0.31421008706092834,
      -3.008793592453003,
      -0.49875661730766296,
      0.04421281814575195,
      0.09688320755958557,
      1.5033576488494873,
      0.5662322640419006,
      -0.1674823760986328,
      -0.7272605895996094,
      0.26344728469848633,
      0.05483412742614746,
      0.18659578263759613,
      -1.4950761795043945,
      0.5742805600166321,
      -0.18607617914676666,
      0.14909455180168152,
      -0.8705736398696899,
      0.40637239813804626,
      0.7764784693717957,
      1.2424191236495972,
      0.18333637714385986,
      0.020972928032279015,
      -0.021635184064507484,
      0.17656397819519043,
      -0.005238753743469715,
      0.16093522310256958,
      -0.17800776660442352,
      0.17829029262065887,
      -0.4538711607456207,
      0.3544989824295044,
      1.6375765800476074,
      -6.569457530975342,
      0.14500530064105988,
      -0.13850679993629456,
      -0.5316537022590637,
      0.9977702498435974,
      0.8302210569381714,
      0.09422361850738525,
      -2.8534040451049805,
      -0.9060259461402893,
      0.7459279298782349,
      0.3346203565597534,
      -1.0115156173706055,
      2.708655834197998,
      0.017302745953202248,
      1.6367923021316528,
      -3.160743474960327,
      0.49091392755508423,
      0.382880836725235,
      0.07726505398750305,
      0.6713332533836365,
      7.370827370323241e-05,
      0.1082223579287529,
      0.05758986249566078,
      0.028187274932861328,
      -0.10039358586072922,
      0.6102613806724548,
      -0.7682474851608276,
      -0.17413794994354248,
      0.13076500594615936,
      -1.9709984064102173,
      3.4459283351898193,
      1.0922969579696655,
      -0.07829167693853378,
      2.337810754776001,
      -1.700875997543335,
      -0.9729402661323547,
      -0.15529821813106537,
      0.5684358477592468,
      1.4046705961227417,
      -1.363128900527954,
      0.16888345777988434,
      1.9153748750686646,
      -0.7600610256195068,
      -0.07921239733695984,
      -1.7587336301803589,
      1.5822041034698486,
      0.16416586935520172,
      0.007386770099401474,
      -0.6206589341163635,
      -2.2046947479248047,
      0.0021334332413971424,
      -0.020150739699602127,
      -0.11342887580394745,
      0.1196887269616127,
      0.005093460436910391,
      -0.36994707584381104,
      0.24634429812431335,
      -0.02135288156569004,
      -0.12248366326093674,
      -3.0662901401519775,
      -4.106609344482422,
      -3.838381767272949,
      0.2745612859725952,
      -0.868365466594696,
      -1.1330455541610718,
      0.24151992797851562,
      -0.007556431461125612,
      -2.4242148399353027,
      1.246436595916748,
      0.8420682549476624,
      -0.12719768285751343,
      1.070967674255371,
      2.4140632152557373,
      -0.0858386904001236,
      -1.6094433069229126,
      -3.115043878555298,
      -2.111163854598999,
      0.21795222163200378,
      -0.015413831919431686,
      0.49995893239974976,
      0.1087600514292717,
      -0.041626352816820145,
      -0.1294524371623993,
      0.041939832270145416,
      0.08236350864171982,
      0.19290994107723236,
      -0.22065187990665436,
      -0.4147440493106842,
      0.42381563782691956,
      2.5358693599700928,
      2.7271108627319336,
      0.1956310123205185,
      0.12992528080940247,
      -0.6012327671051025,
      0.9320054650306702,
      0.4377504885196686,
      -0.029252463951706886,
      -0.15391261875629425,
      1.12307870388031,
      0.2277490347623825,
      -0.04973611980676651,
      -0.6224993467330933,
      0.2099055051803589,
      -0.11276742815971375,
      0.47669699788093567,
      0.46962931752204895,
      0.02773224748671055,
      0.01726522482931614,
      0.9168642163276672,
      -0.1695551723241806,
      0.03030528500676155,
      0.003223284613341093,
      -0.2855616509914398,
      -0.45662015676498413,
      0.31444862484931946,
      0.2036064863204956,
      -0.30545663833618164,
      0.373811274766922,
      -0.3451370596885681,
      1.6904937028884888,
      -0.18825294077396393,
      -3.141538619995117,
      -0.048348356038331985,
      0.3091559112071991,
      -0.9174215197563171,
      -0.3916150629520416,
      0.18704870343208313,
      -0.48128822445869446,
      1.614517092704773,
      -0.47740602493286133,
      -0.00672493502497673,
      0.7831291556358337,
      0.37751641869544983,
      0.3022577166557312,
      2.5139944553375244,
      -0.19328846037387848,
      -3.233842372894287,
      0.2569356858730316,
      -0.550248920917511,
      -0.20365989208221436,
      0.06946069747209549,
      0.14239180088043213,
      -0.046810004860162735,
      0.059162963181734085,
      0.18566599488258362,
      -0.06081700325012207,
      0.2817480266094208,
      -0.039834313094615936,
      0.22340209782123566,
      0.14399906992912292,
      0.4770377576351166,
      -0.6315658092498779,
      -0.05517420172691345,
      -0.23303429782390594,
      0.4909789562225342,
      0.49274665117263794,
      0.45940300822257996,
      -0.025139035657048225,
      -0.19556112587451935,
      -1.448575735092163,
      -0.12319233268499374,
      -0.5651656985282898,
      -0.11684665083885193,
      0.07375504821538925,
      0.29926347732543945,
      0.8928190469741821,
      0.644280731678009,
      0.9638288021087646,
      -0.1557348072528839,
      0.8819730877876282,
      0.4670920968055725,
      -0.23437820374965668,
      -0.12032067030668259,
      -0.20806549489498138,
      -0.17294032871723175,
      -0.4281502366065979,
      0.05274298042058945,
      0.05065049231052399,
      -0.52680903673172,
      1.710234522819519,
      3.4364943504333496,
      0.20563018321990967,
      0.08626791834831238,
      -0.10773549973964691,
      -0.018047384917736053,
      0.4778831899166107,
      0.2643324136734009,
      2.6567492485046387,
      -0.48564034700393677,
      -2.4151687622070312,
      0.2583424150943756,
      0.3020413815975189,
      -2.5636110305786133,
      -0.2779152989387512,
      0.5112491846084595,
      1.9522207975387573,
      0.653952956199646,
      -1.763306736946106,
      -0.09416002035140991,
      0.012411949224770069,
      -1.584909200668335,
      -0.8515142202377319,
      -0.028378324583172798,
      0.06735667586326599,
      0.20206554234027863,
      0.12385274469852448,
      -0.05874532833695412,
      0.046770818531513214,
      -0.0034856065176427364,
      -2.5473217964172363,
      -1.834397315979004,
      1.4712837934494019,
      -0.25048497319221497,
      0.37574291229248047,
      -1.6040186882019043,
      -0.580558717250824,
      -0.027461249381303787,
      -1.7212787866592407,
      1.5446727275848389,
      0.09052286297082901,
      -0.09171012789011002,
      1.8101606369018555,
      1.893164038658142,
      0.007101655937731266,
      -2.2127532958984375,
      0.12062050402164459,
      1.1650700569152832,
      0.5621088147163391,
      -0.8711973428726196,
      0.3459227681159973,
      -0.5488110184669495,
      -0.47431859374046326,
      0.32980793714523315,
      0.1418609768152237,
      0.015820827335119247,
      0.4883790612220764,
      -0.18255935609340668,
      0.12132158875465393,
      -0.1301429569721222,
      -1.1645750999450684,
      1.3753540515899658,
      0.7279052138328552,
      0.17771801352500916,
      -3.6475956439971924,
      -0.4764478802680969,
      2.3419888019561768,
      0.21301992237567902,
      1.0745035409927368,
      0.4403148591518402,
      -0.2293267548084259,
      0.0822283923625946,
      0.19125942885875702,
      -0.7293046712875366,
      0.0580412857234478,
      0.007693701423704624,
      1.0148569345474243,
      0.20471961796283722,
      -0.11260924488306046,
      -0.1457081288099289,
      3.371023416519165,
      -0.09302806109189987,
      -0.11876017600297928,
      -0.043301425874233246,
      0.03364388644695282,
      0.17219844460487366,
      -0.3237858712673187,
      0.3887682259082794,
      0.1047564223408699,
      -0.1662760227918625
    ],
    [
      -0.10517635196447372,
      0.3763371706008911,
      -0.14937007427215576,
      -0.1570422500371933,
      0.3246648609638214,
      0.40806838870048523,
      0.685603141784668,
      0.17154769599437714,
      -0.5406545996665955,
      0.12654918432235718,
      0.09015998244285583,
      -0.08503628522157669,
      -0.20521575212478638,
      -0.5124273896217346,
      -0.12093751132488251,
      0.27182844281196594,
      -0.30506494641304016,
      0.12431671470403671,
      0.15763410925865173,
      0.23737765848636627,
      -0.009975901804864407,
      0.24616564810276031,
      0.08002383261919022,
      0.3581538498401642,
      0.07522422820329666,
      0.027339085936546326,
      -0.08178986608982086,
      -0.06227477267384529,
      -0.015073304064571857,
      -0.23608674108982086,
      0.05659729987382889,
      0.193269744515419,
      0.14816166460514069,
      -0.3498349189758301,
      -0.12057779729366302,
      0.21045316755771637,
      0.7246096134185791,
      0.3115066885948181,
      0.2521808445453644,
      -0.6411282420158386,
      -0.003821575315669179,
      -0.37410321831703186,
      -0.137611523270607,
      0.11895858496427536,
      0.2648550868034363,
      -0.0036861824337393045,
      0.1960698962211609,
      0.4597659409046173,
      -0.16884347796440125,
      0.3511166274547577,
      0.2054322510957718,
      -0.6699631810188293,
      0.2116021066904068,
      0.025493275374174118,
      0.20313000679016113,
      -0.1746777892112732,
      0.40379902720451355,
      0.05717209726572037,
      -0.17005673050880432,
      0.43238887190818787,
      0.08035904169082642,
      0.06190292164683342,
      -0.174885556101799,
      -0.6881995797157288,
      -0.22316494584083557,
      0.4838614761829376,
      -0.14844709634780884,
      0.1596185714006424,
      -0.3252130448818207,
      -0.3599206805229187,
      0.4158593714237213,
      -1.024215579032898,
      0.2035704106092453,
      0.18099698424339294,
      0.17012180387973785,
      -0.01856680028140545,
      0.012283194810152054,
      0.18782925605773926,
      -0.03528745844960213,
      -0.08518394827842712,
      0.1098218485713005,
      1.271225094795227,
      -0.050455451011657715,
      0.5211619138717651,
      0.4641760587692261,
      -0.1331533044576645,
      -0.19218099117279053,
      -0.10900559276342392,
      -0.26097869873046875,
      -0.041715774685144424,
      0.07323251664638519,
      0.6307917237281799,
      0.03276488557457924,
      0.49412551522254944,
      -0.13500411808490753,
      -0.06572172045707703,
      -0.1046786904335022,
      0.5564404726028442,
      -0.37587472796440125,
      -0.24050888419151306,
      0.12970395386219025,
      -0.27814504504203796,
      -0.08148309588432312,
      -0.10682869702577591,
      -0.12011364847421646,
      -0.20662976801395416,
      -0.2756711542606354,
      -0.06617015600204468,
      -0.10309689491987228,
      0.42000970244407654,
      0.3799627125263214,
      -0.05441287159919739,
      0.24125033617019653,
      -0.053209301084280014,
      0.21723535656929016,
      0.8202047348022461,
      0.52292400598526,
      -0.5090715289115906,
      0.23463097214698792,
      -0.08167921751737595,
      0.3623659610748291,
      -0.29017937183380127,
      0.02288792096078396,
      -0.3035804331302643,
      -0.4011516869068146,
      0.47945207357406616,
      0.04897883161902428,
      -0.24834191799163818,
      -0.2821933627128601,
      0.0726814866065979,
      0.03162083029747009,
      -0.13141180574893951,
      0.5124641060829163,
      0.37103357911109924,
      0.08416438847780228,
      0.07815326750278473,
      0.10814449191093445,
      0.032300978899002075,
      0.2331165373325348,
      0.213843435049057,
      0.15544679760932922,
      -0.2973575294017792,
      0.3972679376602173,
      0.06819339096546173,
      0.6615006327629089,
      -0.04451962932944298,
      0.24960602819919586,
      -0.0013615760253742337,
      -0.20071998238563538,
      -0.1477588266134262,
      -0.07549387961626053,
      -0.2703368663787842,
      -0.552244246006012,
      -0.22197619080543518,
      -0.3320057690143585,
      0.32316842675209045,
      -0.0803220346570015,
      -0.265929251909256,
      0.05193595215678215,
      -0.11271734535694122,
      -0.03251421079039574,
      -0.4611220359802246,
      0.23007550835609436,
      -0.27969321608543396,
      0.9264232516288757,
      0.363943874835968,
      0.15191039443016052,
      0.43301939964294434,
      -0.359536737203598,
      -0.09798475354909897,
      0.25228723883628845,
      0.12494045495986938,
      0.10421153903007507,
      0.3367452323436737,
      -0.1328829526901245,
      -0.46226656436920166,
      0.10098728537559509,
      -0.05325774848461151,
      0.5025852918624878,
      -0.29174432158470154,
      0.1565181463956833,
      -0.025352945551276207,
      -0.22588813304901123,
      -0.12477189302444458,
      -0.33416855335235596,
      -0.15445291996002197,
      -0.08098017424345016,
      0.19709575176239014,
      -0.33090323209762573,
      -0.04171629622578621,
      0.06501112878322601,
      0.3238581418991089,
      0.34702128171920776,
      -0.49588802456855774,
      -0.024773601442575455,
      0.005074538756161928,
      0.014271829277276993,
      -0.32287171483039856,
      0.2927672564983368,
      -0.022371001541614532,
      0.08991054445505142,
      0.8099981546401978,
      -0.2100924551486969,
      0.09343615174293518,
      0.05420217663049698,
      0.3866126239299774,
      0.04349633678793907,
      0.20916257798671722,
      -0.04457990080118179,
      -0.7491864562034607,
      0.17576082050800323,
      -0.05447172373533249,
      0.10894965380430222,
      -0.17394869029521942,
      -0.18618464469909668,
      -0.21353447437286377,
      0.028340622782707214,
      -1.178723931312561,
      0.013608412817120552,
      -0.3025279939174652,
      0.0007569725858047605,
      0.1381010115146637,
      -0.41147342324256897,
      0.4190290868282318,
      -0.1256820261478424,
      -0.4427468776702881,
      -0.1930290162563324,
      0.35505977272987366,
      0.02872339077293873,
      0.16629575192928314,
      0.27231910824775696,
      -0.0835157260298729,
      -0.06604669243097305,
      0.2543565332889557,
      0.10569508373737335,
      0.3810989260673523,
      -0.142062246799469,
      -0.09142106771469116,
      0.1512298882007599,
      -0.05897551029920578,
      0.0001014031731756404,
      -0.2387029528617859,
      -0.2624427378177643,
      0.43761688470840454,
      0.07798878848552704,
      0.3376302421092987,
      0.03029998578131199,
      0.24312512576580048,
      0.09686087816953659,
      -0.15678709745407104,
      -0.33008575439453125,
      0.2814275920391083,
      0.0017626037588343024,
      -0.20424073934555054,
      -0.10074444860219955,
      0.00632248492911458
    ]
  ],
  "actor_encoder_biases": [
    [
      -0.25091230869293213,
      0.11473159492015839,
      0.1277150958776474,
      -0.13607697188854218,
      -0.025658804923295975,
      0.1709926426410675,
      0.026865124702453613,
      -0.25219810009002686,
      -0.0020729403477162123,
      0.01625591330230236,
      0.001995167462155223,
      -0.021637994796037674,
      0.24393101036548615,
      0.21607187390327454,
      0.3581676483154297,
      -0.03308050334453583
    ],
    [
      0.07218308746814728,
      -0.05176139622926712,
      0.023722395300865173,
      -0.01779288612306118,
      0.06176790967583656,
      -0.12961949408054352,
      0.014110183343291283,
      -0.020929917693138123,
      -0.13997139036655426,
      0.11455914378166199,
      -0.09405981749296188,
      -0.10626737028360367,
      0.005881990771740675,
      0.05130495876073837,
      0.06106407940387726,
      -0.02802969701588154
    ]
  ],
  "actor_head_weights": [
    [
      0.3701486587524414,
      1.7306419610977173,
      -0.14064766466617584,
      -0.8159515857696533,
      0.2426677793264389,
      -0.12198629230260849,
      -0.22559373080730438,
      -0.03635093569755554,
      0.659176766872406,
      -0.27128297090530396,
      -0.5388509631156921,
      0.41812822222709656,
      1.369266152381897,
      -0.7337523102760315,
      0.005041088443249464,
      0.8002938032150269,
      0.10171978175640106,
      -1.1192656755447388,
      -1.321911334991455,
      -0.8608102798461914,
      -0.006890204269438982,
      0.3926251232624054,
      0.08531884104013443,
      -0.044060807675123215,
      -0.30950072407722473,
      0.7716780304908752,
      -0.07807786017656326,
      -0.3123171329498291,
      -0.6651242971420288,
      0.5300114750862122,
      0.8194866180419922,
      0.2687741816043854,
      -0.5985944867134094,
      0.12080894410610199,
      0.034489527344703674,
      -0.542626678943634,
      0.4822799265384674,
      -0.10070794075727463,
      -0.3556627333164215,
      0.6258962750434875,
      -1.1058627367019653,
      -0.24673646688461304,
      0.08729543536901474,
      -0.529056966304779,
      1.3851088285446167,
      -0.3060864210128784,
      0.1447257548570633,
      -0.8050917387008667,
      -0.3917440176010132,
      -0.3642938435077667,
      0.27423423528671265,
      0.16096581518650055,
      -1.1016002893447876,
      0.19902965426445007,
      -0.999691903591156,
      -0.8137619495391846,
      1.0883275270462036,
      0.7106025218963623,
      0.14312979578971863,
      -0.16925431787967682,
      0.021907538175582886,
      -0.08808641880750656,
      0.08529291301965714,
      0.13684959709644318
    ]
  ],
  "actor_head_biases": [
    [
      0.6258476376533508,
      0.3345504403114319,
      0.7928498387336731,
      -0.1354837864637375
    ]
  ],
  "gru_weight_ih": [
    -0.41178253293037415,
    -0.7229594588279724,
    -1.6908743381500244,
    0.9886610507965088,
    0.03322368860244751,
    -0.30779320001602173,
    -0.18066440522670746,
    1.9824656248092651,
    0.12744255363941193,
    1.8401464223861694,
    -0.22567865252494812,
    1.430954933166504,
    -0.7370861768722534,
    -0.2032371163368225,
    0.025497999042272568,
    -1.3315916061401367,
    -0.14987735450267792,
    -0.2567097842693329,
    0.12468411028385162,
    0.4382287561893463,
    -2.538611888885498,
    0.4828290045261383,
    -0.045291222631931305,
    -0.1184500977396965,
    -0.052203189581632614,
    1.828228235244751,
    0.8971282243728638,
    0.25253936648368835,
    -0.2710113227367401,
    0.22125732898712158,
    -0.052390359342098236,
    1.7967036962509155,
    -1.589390516281128,
    0.6108376383781433,
    0.06026758253574371,
    -1.1672112941741943,
    -1.068743348121643,
    -0.45084547996520996,
    -0.15982235968112946,
    0.5592264533042908,
    0.33652156591415405,
    -0.7020297646522522,
    -0.9880874752998352,
    1.435495376586914,
    0.2139916718006134,
    1.550281286239624,
    0.06839095056056976,
    -0.11390692740678787,
    0.2341502457857132,
    0.13142210245132446,
    0.10103548318147659,
    0.4311852753162384,
    1.1929644346237183,
    1.3916187286376953,
    -0.7469910383224487,
    1.0114573240280151,
    -1.3037644624710083,
    -0.5277940630912781,
    1.231224536895752,
    -1.1600468158721924,
    -0.58790522813797,
    -0.32964596152305603,
    1.152071237564087,
    0.48745226860046387,
    -0.07753601670265198,
    0.26809927821159363,
    -0.583990216255188,
    1.0514658689498901,
    0.19506847858428955,
    0.2198585420846939,
    0.20560701191425323,
    0.8002691864967346,
    0.11445849388837814,
    -0.4845058023929596,
    -0.29384806752204895,
    -0.29948773980140686,
    -0.8531979322433472,
    -1.1792057752609253,
    -0.12829278409481049,
    -0.06629393249750137,
    -0.37589213252067566,
    -1.8279913663864136,
    1.3689543008804321,
    -1.440998911857605,
    1.4254504442214966,
    2.33732271194458,
    1.6018503904342651,
    1.0383778810501099,
    -1.8964688777923584,
    0.10418502241373062,
    1.5741314888000488,
    0.4924081861972809,
    0.9256001710891724,
    0.3020097017288208,
    0.06182550638914108,
    -0.30814889073371887,
    0.8445169925689697,
    -0.335238516330719,
    -0.4719656705856323,
    -1.335032343864441,
    0.22446124255657196,
    -0.5190344452857971,
    0.19785499572753906,
    0.802645206451416,
    -0.418867290019989,
    0.15544922649860382,
    -1.2317382097244263,
    -0.7252814769744873,
    0.026334432885050774,
    -0.00787588395178318,
    0.5385041236877441,
    0.10935044288635254,
    -1.4587171077728271,
    -0.7271387577056885,
    -0.05181903764605522,
    2.113403797149658,
    -0.4382718801498413,
    0.025871317833662033,
    0.21711096167564392,
    0.18242312967777252,
    -1.3616336584091187,
    2.286820888519287,
    0.5757476091384888,
    1.4828779697418213,
    -0.6885098218917847,
    1.305177092552185,
    -1.1204317808151245,
    1.5148520469665527,
    1.3756872415542603,
    0.6973142623901367,
    0.21699868142604828,
    0.5340752005577087,
    0.017972370609641075,
    0.4091606140136719,
    0.07795505225658417,
    -1.4204928874969482,
    -0.3124677538871765,
    -0.158445805311203,
    0.4745422899723053,
    0.16075843572616577,
    -0.5604391098022461,
    0.047628726810216904,
    0.04489718750119209,
    0.6023158431053162,
    0.46300363540649414,
    -0.03937939181923866,
    -0.41701462864875793,
    -0.7655400037765503,
    -1.4163621664047241,
    -1.0483152866363525,
    -1.0591765642166138,
    0.3269234001636505,
    1.0109872817993164,
    -1.1895250082015991,
    -0.5319619178771973,
    0.0016352004604414105,
    -0.9434683918952942,
    1.1240986585617065,
    -0.1306210607290268,
    -0.24183818697929382,
    0.8362449407577515,
    0.661141037940979,
    0.8818294405937195,
    -1.063642144203186,
    0.3966856896877289,
    -1.16207754611969,
    0.06130943074822426,
    -1.7807341814041138,
    -0.36442115902900696,
    -1.311216115951538,
    -0.21913762390613556,
    -1.4002749919891357,
    0.8539997935295105,
    1.175206184387207,
    -0.4480120837688446,
    -0.13827356696128845,
    -0.16617348790168762,
    0.5831129550933838,
    0.6765779852867126,
    -0.4782281517982483,
    -0.7825404405593872,
    -0.4442731440067291,
    -1.129446268081665,
    -0.8543407320976257,
    0.9720407128334045,
    -1.1159793138504028,
    0.7837403416633606,
    -0.5852901935577393,
    1.6426109075546265,
    -0.048147983849048615,
    0.39622095227241516,
    0.31888118386268616,
    0.6838722825050354,
    -0.0907134860754013,
    -1.0925697088241577,
    -0.4489976167678833,
    0.36388134956359863,
    -0.5716205835342407,
    0.9114153981208801,
    -0.47345343232154846,
    0.4069862961769104,
    -1.7017936706542969,
    -0.011810768395662308,
    -1.650194525718689,
    -0.42232346534729004,
    -0.6984233260154724,
    0.42291057109832764,
    -0.340013712644577,
    0.13477101922035217,
    -1.306924819946289,
    -0.530902624130249,
    -0.1688697636127472,
    1.104763388633728,
    2.1686670780181885,
    0.5273973345756531,
    0.8672872185707092,
    -0.651921808719635,
    0.032819174230098724,
    -1.0954965353012085,
    -0.17708313465118408,
    -0.5685899257659912,
    -0.4967082142829895,
    0.10103736817836761,
    0.8939511775970459,
    1.8289332389831543,
    -0.9667108058929443,
    -0.5191962718963623,
    0.14394977688789368,
    -0.0187324620783329,
    -0.30021288990974426,
    -0.29907068610191345,
    -2.2553253173828125,
    0.4334085285663605,
    -1.1390161514282227,
    -0.1171475201845169,
    -0.5521010160446167,
    -1.0927742719650269,
    0.40187910199165344,
    -0.24840408563613892,
    -1.4174467325210571,
    -1.0482534170150757,
    -0.5672394633293152,
    -0.8078961968421936,
    0.1922704577445984,
    0.24920526146888733,
    0.40797552466392517,
    1.0802435874938965,
    1.7031859159469604,
    -0.9587661027908325,
    -0.274112731218338,
    -0.33939629793167114,
    0.021040132269263268,
    0.20038272440433502,
    0.09143608808517456,
    0.3820936679840088,
    0.09114033728837967,
    -2.137387990951538,
    0.3509373962879181,
    -1.353278398513794,
    1.52360200881958,
    0.1892080307006836,
    -1.231435775756836,
    -1.3990323543548584,
    -0.33162665367126465,
    0.43714097142219543,
    0.8518981337547302,
    -0.36914920806884766,
    0.06803804636001587,
    -2.5244085788726807,
    -0.40569865703582764,
    -1.6744129657745361,
    -0.3959742784500122,
    0.3820095658302307,
    0.013495229184627533,
    -0.5685462355613708,
    0.03062036633491516,
    -0.3657137453556061,
    -0.02032214030623436,
    0.3499751687049866,
    -0.3079167604446411,
    -0.3685874938964844,
    0.6017178297042847,
    0.29655712842941284,
    0.6083298921585083,
    -1.1036250591278076,
    0.350734680891037,
    0.38243088126182556,
    0.4318910539150238,
    0.2023027092218399,
    1.0775614976882935,
    0.22332289814949036,
    -0.7034629583358765,
    -0.05901216343045235,
    0.38930565118789673,
    0.19122546911239624,
    0.570701003074646,
    0.9950309991836548,
    0.5604327321052551,
    -0.39304637908935547,
    0.3949376046657562,
    -1.906868815422058,
    -0.18057534098625183,
    -1.1490519046783447,
    0.09350469708442688,
    0.386421799659729,
    -0.1309790462255478,
    -0.4424628019332886,
    -0.025551723316311836,
    -0.40879395604133606,
    -0.28047657012939453,
    -0.5649548172950745,
    -0.0016630715690553188,
    -0.05692495405673981,
    0.43613022565841675,
    0.1310381442308426,
    -0.18106675148010254,
    -0.5347061157226562,
    -0.09915599226951599,
    -0.216435968875885,
    0.1937132030725479,
    0.16022494435310364,
    -0.03939599543809891,
    0.2973192036151886,
    0.5829743146896362,
    0.40672874450683594,
    0.24105015397071838,
    0.7482706904411316,
    0.7086179256439209,
    0.736128032207489,
    -0.3445418179035187,
    0.15224817395210266,
    -0.1867658793926239,
    -1.3869608640670776,
    -0.06339379400014877,
    -0.42468348145484924,
    -0.035960376262664795,
    0.23515547811985016,
    0.47471436858177185,
    -1.0545096397399902,
    0.8595702052116394,
    0.67820143699646,
    -1.1582286357879639,
    -0.3905840516090393,
    -0.6220566034317017,
    0.1466888189315796,
    -0.8013790845870972,
    -1.544278621673584,
    -0.6120044589042664,
    -0.7514297962188721,
    -0.7179815769195557,
    0.4704066514968872,
    0.326774001121521,
    -1.81330144405365,
    1.53684663772583,
    1.152023196220398,
    0.5721015334129333,
    0.16429992020130157,
    -1.6832078695297241,
    2.349430799484253,
    -1.702292561531067,
    0.2861160635948181,
    -1.4072984457015991,
    -0.6958913207054138,
    -0.32224297523498535,
    0.9888858199119568,
    -1.1722753047943115,
    -0.8787293434143066,
    -0.6544514298439026,
    0.5346195101737976,
    -0.7936916351318359,
    0.499674528837204,
    -0.6098360419273376,
    -0.012347607873380184,
    -0.3616569936275482,
    -0.34024178981781006,
    0.9654260873794556,
    -0.5695745944976807,
    -0.28201910853385925,
    0.20074860751628876,
    -0.16597038507461548,
    -0.3676738142967224,
    1.6513243913650513,
    0.567981481552124,
    -0.18505407869815826,
    -0.20001842081546783,
    0.2207311987876892,
    0.12225230038166046,
    -0.4138304591178894,
    0.12032322585582733,
    0.1733229011297226,
    -0.6469202041625977,
    0.2834770381450653,
    0.07288451492786407,
    0.03703736886382103,
    0.7375314831733704,
    0.48461225628852844,
    -1.640173316001892,
    0.6372617483139038,
    -1.1456966400146484,
    -0.6952298879623413,
    -0.4201570749282837,
    -1.529737114906311,
    -1.2133324146270752,
    -0.7962525486946106,
    -0.272538423538208,
    -0.312391072511673,
    -0.4560364782810211,
    -0.2878693640232086,
    -0.5409228801727295,
    -0.10585398972034454,
    -0.12354006618261337,
    0.06816715002059937,
    -1.5575240850448608,
    0.6121877431869507,
    -0.6456235647201538,
    0.6382972598075867,
    0.18392133712768555,
    -0.4722537398338318,
    0.023391922935843468,
    -1.0596691370010376,
    -1.0697981119155884,
    0.1205369308590889,
    0.7298173308372498,
    -0.24533477425575256,
    -0.7179170846939087,
    0.179075226187706,
    0.21628178656101227,
    -0.1352400779724121,
    -0.08259829133749008,
    0.4748593866825104,
    -0.18113583326339722,
    0.1612943410873413,
    -0.16619078814983368,
    -0.09803514927625656,
    0.24276266992092133,
    -0.28572794795036316,
    -0.24315372109413147,
    -0.11538675427436829,
    -0.26583200693130493,
    0.30647605657577515,
    0.3237546682357788,
    -0.09438975155353546,
    -0.22743724286556244,
    -0.14278805255889893,
    0.5112335085868835,
    -0.1777622252702713,
    0.09732770919799805,
    0.07941890507936478,
    0.35812029242515564,
    0.10037354379892349,
    -0.3521811068058014,
    0.1389555186033249,
    0.2531818449497223,
    0.011577114462852478,
    -0.5771124958992004,
    -0.7021824717521667,
    -0.7200879454612732,
    -0.3386194705963135,
    -0.0420796163380146,
    -0.0954112857580185,
    -0.5860199332237244,
    0.206014022231102,
    -0.5848743319511414,
    -0.12170451134443283,
    -1.5651603937149048,
    -1.0539780855178833,
    -1.8656433820724487,
    0.016248418018221855,
    0.059510961174964905,
    -0.10584361851215363,
    -0.27939754724502563,
    1.4000352621078491,
    -1.5990538597106934,
    -0.05127132683992386,
    0.1604762226343155,
    0.5641264319419861,
    -1.1662929058074951,
    0.9060478210449219,
    0.6605215072631836,
    -0.4220099151134491,
    -0.22778575122356415,
    1.6629749536514282,
    0.4005458354949951,
    -1.2858513593673706,
    0.030603133141994476,
    0.5171568989753723,
    1.5315965414047241,
    0.16518765687942505,
    1.7532795667648315,
    -1.776505708694458,
    -0.3283323049545288,
    -0.789390504360199,
    -1.554215669631958,
    -1.5734273195266724,
    -0.3203139305114746,
    0.6946878433227539,
    -1.016895055770874,
    -0.7562914490699768,
    0.27469345927238464,
    -0.7261644601821899,
    -0.03623511269688606,
    -1.23292875289917,
    1.3624476194381714,
    -1.0665074586868286,
    -0.9457228779792786,
    0.34904977679252625,
    -0.029093919321894646,
    0.056948184967041016,
    -0.09145203232765198,
    0.717478334903717,
    -0.6284332275390625,
    -0.1934376060962677,
    -0.29980039596557617,
    0.2044650763273239,
    -0.2376292645931244,
    0.5253217816352844,
    0.22445689141750336,
    -0.3524322509765625,
    -0.567376434803009,
    0.4567582309246063,
    0.07852751761674881,
    -0.01064810249954462,
    0.04971251264214516,
    -0.295048326253891,
    -0.035501718521118164,
    -0.6896887421607971,
    0.2509652078151703,
    0.3109065890312195,
    -0.0599970705807209,
    0.01039543654769659,
    -0.1389201134443283,
    0.17836548388004303,
    0.05436867102980614,
    -0.06180610507726669,
    -0.25798383355140686,
    0.08947797119617462,
    -0.36524030566215515,
    0.30812591314315796,
    -0.4739065170288086,
    0.16318343579769135,
    0.03930150717496872,
    0.34226366877555847,
    0.0035509648732841015,
    0.13144589960575104,
    -0.00627328734844923,
    0.02794463187456131,
    -0.39302802085876465,
    -0.1552521139383316,
    0.04610453546047211,
    0.5168694257736206,
    0.4801367223262787,
    -0.16880348324775696,
    -0.06157396733760834,
    -0.1578691005706787,
    -0.4732404053211212,
    0.10707471519708633,
    0.14285686612129211,
    -0.3827853798866272,
    0.001058200839906931,
    -0.28098806738853455,
    0.2996711730957031,
    0.09623793512582779,
    0.45659947395324707,
    -0.18070219457149506,
    0.9531261920928955,
    0.8222506046295166,
    0.21201439201831818,
    0.07564619928598404,
    0.12342524528503418,
    0.12574359774589539,
    -0.2592966854572296,
    0.3184204697608948,
    0.15409131348133087,
    -0.5374780297279358,
    -0.24974854290485382,
    -0.15367808938026428,
    -0.2813234031200409,
    0.115296371281147,
    -0.2648582458496094,
    0.3630456328392029,
    0.03576844558119774,
    -0.2845878303050995,
    -0.062379252165555954,
    -0.4851164221763611,
    -0.08619753271341324,
    0.1613798588514328,
    -0.29500964283943176,
    0.13384784758090973,
    0.4166952073574066,
    -0.5670313239097595,
    -0.11818432062864304,
    -0.1835290789604187,
    0.2210952490568161,
    0.46416178345680237,
    0.44708946347236633,
    -0.8272085785865784,
    -0.02092059701681137,
    -0.2164657562971115,
    -0.423878014087677,
    0.4028836488723755,
    1.2638665437698364,
    -0.5605658292770386,
    -0.12286742031574249,
    -0.7937808632850647,
    -0.9322564601898193,
    0.08344223350286484,
    0.5073201060295105,
    0.21659578382968903,
    -0.05479157716035843,
    -0.27888795733451843,
    -0.6195933222770691,
    0.9437835216522217,
    0.4098051190376282,
    -0.054452475160360336,
    0.35119006037712097,
    -0.7037320137023926,
    -0.04498675465583801,
    0.303099125623703,
    -0.2834990918636322,
    -0.4136681854724884,
    -0.3901686668395996,
    -0.7002467513084412,
    -0.04678886756300926,
    0.074189193546772,
    -0.22540469467639923,
    0.3539285361766815,
    -0.557163417339325,
    0.31008443236351013,
    -0.22340695559978485,
    -0.40370237827301025,
    -0.4006344974040985,
    -0.6886730194091797,
    0.31300246715545654,
    0.13550183176994324,
    -0.9763771891593933,
    0.05889303609728813,
    -0.8352857828140259,
    0.3337358236312866,
    -0.23303817212581635,
    0.3480776846408844,
    0.1126156821846962,
    0.04981343820691109,
    -0.06787919998168945,
    -0.09344249963760376,
    -0.07604528963565826,
    0.32080867886543274,
    -0.02912953309714794,
    0.5426989197731018,
    -0.175151988863945,
    0.2052394300699234,
    -0.12926426529884338,
    -0.05358551815152168,
    0.14648331701755524,
    0.22486147284507751,
    -0.23298434913158417,
    0.12541291117668152,
    0.9044370055198669,
    0.17335475981235504,
    -0.1385074257850647,
    0.48887452483177185,
    0.22122953832149506,
    -0.10081984102725983,
    -0.26893752813339233,
    0.25875023007392883,
    -0.21608786284923553,
    -0.29534703493118286,
    0.21150098741054535,
    0.18325898051261902,
    -0.2691820561885834,
    0.5111720561981201,
    -0.3353360891342163,
    -0.43087366223335266,
    0.23778468370437622,
    0.15868140757083893,
    0.5911647081375122,
    -0.04462782293558121,
    -0.3289707899093628,
    -0.30491510033607483,
    0.023190593346953392,
    -0.7498387694358826,
    0.3985726237297058,
    -0.0760439783334732,
    0.06434903293848038,
    0.27563273906707764,
    0.6684261560440063,
    -0.1715603470802307,
    0.3601441979408264,
    0.12909787893295288,
    -0.13496674597263336,
    0.07481273263692856,
    0.277587890625,
    0.42567533254623413,
    0.33165493607521057,
    0.11491958796977997,
    0.0971485823392868,
    -0.4438515305519104,
    0.1522284746170044,
    0.016697466373443604,
    -0.2904466390609741,
    -0.1920069009065628,
    -0.5903350710868835,
    0.26703426241874695,
    0.1800103634595871,
    0.1938522458076477,
    -0.4296131730079651,
    -0.042346708476543427,
    0.04238484427332878,
    -0.26611313223838806,
    -0.14543040096759796,
    -0.835847020149231,
    0.2671365737915039,
    -0.1467781811952591,
    -0.05846116691827774,
    -0.09040270745754242,
    -0.31493502855300903,
    0.012237493880093098,
    0.1628146469593048,
    0.2577746510505676,
    -0.1367911696434021,
    -0.090339794754982,
    -0.011453358456492424,
    0.22604699432849884,
    0.4824361503124237,
    0.28850850462913513,
    -0.03761078044772148,
    0.07564519345760345,
    0.16850025951862335,
    0.475162535905838,
    0.628440797328949,
    -0.10333098471164703,
    0.19631652534008026,
    0.41181859374046326,
    -0.275714635848999,
    -0.4931391775608063,
    -0.13900873064994812,
    -0.17877286672592163,
    -0.15309594571590424,
    0.1576719433069229,
    0.6634715795516968,
    0.5231337547302246,
    0.1564236432313919,
    -1.124161958694458,
    -0.1286962777376175,
    0.1246965304017067,
    0.6179907917976379,
    0.11994906514883041,
    0.6301859021186829,
    0.23694849014282227,
    -0.23572222888469696,
    -0.30004388093948364,
    0.28405269980430603,
    0.015607843175530434,
    -0.8595107197761536,
    -0.05640430375933647,
    0.04049146920442581,
    0.38689231872558594,
    0.23190616071224213,
    0.23646844923496246,
    0.5965597033500671,
    0.6081576347351074,
    -0.03887377306818962,
    -0.5616066455841064,
    0.7376332879066467,
    0.14065520465373993,
    0.21315014362335205,
    -0.1166897565126419,
    -0.13910818099975586,
    -0.5286603569984436
  ],
  "gru_weight_hh": [
    -0.6159604787826538,
    -1.5693892240524292,
    0.44669485092163086,
    -0.6288642287254333,
    -0.8148231506347656,
    -0.8060267567634583,
    -0.4531707167625427,
    1.3220139741897583,
    0.3579311668872833,
    0.21073903143405914,
    0.1656423807144165,
    -1.104013442993164,
    0.7103430032730103,
    0.608099102973938,
    0.9917172789573669,
    -0.1234944686293602,
    -0.436823308467865,
    1.5246039628982544,
    1.197991132736206,
    -1.1481930017471313,
    0.02060694992542267,
    -0.6923723220825195,
    -0.3972615897655487,
    0.049318086355924606,
    -0.4825085401535034,
    -0.31351444125175476,
    0.4272257387638092,
    0.14351828396320343,
    0.24162723124027252,
    0.38180115818977356,
    -0.8181623220443726,
    -0.19283488392829895,
    0.6981450915336609,
    1.5886825323104858,
    -0.30397769808769226,
    0.8671730756759644,
    -0.5258963108062744,
    0.5533156394958496,
    0.30534979701042175,
    1.016555905342102,
    1.1500359773635864,
    -0.189682736992836,
    0.5786936283111572,
    0.49390774965286255,
    1.0506367683410645,
    0.5259610414505005,
    1.0777177810668945,
    -0.8637279272079468,
    -0.19228585064411163,
    -1.2961719036102295,
    -0.40260517597198486,
    -0.6212871670722961,
    0.7377975583076477,
    -0.7281965613365173,
    -0.4124479591846466,
    -1.0106894969940186,
    0.18906429409980774,
    2.3659355640411377,
    0.6492319703102112,
    2.2773139476776123,
    -1.595184564590454,
    -1.9751256704330444,
    0.8552781343460083,
    1.1444414854049683,
    0.7239723801612854,
    0.1611536741256714,
    0.47953128814697266,
    -0.21341215074062347,
    0.28030696511268616,
    -1.2463090419769287,
    1.2801599502563477,
    -0.10583248734474182,
    -0.4343034029006958,
    -0.19665151834487915,
    0.03670315071940422,
    -0.38652896881103516,
    -1.1742329597473145,
    -0.25315797328948975,
    -0.4183875322341919,
    0.7115070223808289,
    -0.43624556064605713,
    -0.3025469183921814,
    -0.19797402620315552,
    0.3167186975479126,
    0.46135351061820984,
    -1.4046202898025513,
    -0.19078165292739868,
    -1.885229468345642,
    0.3998563885688782,
    0.170859232544899,
    1.215880036354065,
    -0.9042956829071045,
    0.1653193086385727,
    -1.7840099334716797,
    -1.0039548873901367,
    0.03149828687310219,
    0.5023869276046753,
    -0.11972880363464355,
    0.46600988507270813,
    0.4034958481788635,
    -0.4104647934436798,
    -0.3843548893928528,
    0.3404712677001953,
    0.4397113621234894,
    0.6909598112106323,
    0.31291407346725464,
    0.8154986500740051,
    1.627368450164795,
    -0.010646346025168896,
    -0.6188675165176392,
    0.14242397248744965,
    -0.03765658661723137,
    -1.5861893892288208,
    1.7641609907150269,
    -1.2165113687515259,
    0.9906799793243408,
    0.3360498249530792,
    -0.8522616028785706,
    0.8931818604469299,
    1.258407473564148,
    -0.008455290459096432,
    1.8858836889266968,
    -0.8764398097991943,
    2.4956674575805664,
    0.704339861869812,
    -1.0788207054138184,
    0.06365110725164413,
    0.40213996171951294,
    -0.49584728479385376,
    -0.5251559019088745,
    0.7654516696929932,
    -0.7069884538650513,
    0.21232835948467255,
    -0.3613837659358978,
    0.05884067714214325,
    -0.0946122333407402,
    0.21740703284740448,
    0.36454257369041443,
    -0.1109982505440712,
    -2.30072021484375,
    -0.3851982355117798,
    0.7905026078224182,
    -0.5463166832923889,
    -0.8085286617279053,
    -0.7947462201118469,
    -1.3391059637069702,
    0.496002197265625,
    -0.7494118809700012,
    -2.34375262260437,
    -0.44194111227989197,
    -0.974910318851471,
    0.9582751989364624,
    2.509932279586792,
    0.19246645271778107,
    -1.5192586183547974,
    -1.1953082084655762,
    0.6226274371147156,
    1.3523213863372803,
    1.5345226526260376,
    -0.7114466428756714,
    0.012915167026221752,
    -0.16039058566093445,
    0.5536510348320007,
    -1.5166294574737549,
    -0.22813984751701355,
    -2.0093367099761963,
    0.09802980720996857,
    0.8773836493492126,
    -0.29944369196891785,
    -0.13324353098869324,
    -1.9770020246505737,
    -1.2414054870605469,
    -0.21015706658363342,
    0.11344895511865616,
    -0.5273668766021729,
    -1.764813780784607,
    -0.3718660771846771,
    0.9703472256660461,
    2.017998218536377,
    0.2906990945339203,
    -0.8116610050201416,
    0.9644808173179626,
    -0.830645740032196,
    0.5395124554634094,
    1.2842200994491577,
    -0.3926851451396942,
    -1.512350082397461,
    0.4183906018733978,
    -0.5608793497085571,
    0.4293275475502014,
    -0.0012294254265725613,
    0.2533687353134155,
    0.23010675609111786,
    0.5266746282577515,
    0.16901858150959015,
    0.9897027015686035,
    0.401128351688385,
    -0.10191395878791809,
    -0.43646302819252014,
    0.3732322156429291,
    0.19278448820114136,
    -0.4700007736682892,
    -0.2665441334247589,
    -0.040925007313489914,
    -0.9366755485534668,
    -0.24410557746887207,
    -0.012720203027129173,
    -0.07596147060394287,
    -0.9940063953399658,
    0.1137515977025032,
    0.30819281935691833,
    1.183928370475769,
    -0.8572726845741272,
    1.2178614139556885,
    2.31238055229187,
    1.4383845329284668,
    1.6721192598342896,
    0.5686471462249756,
    -0.065185546875,
    1.6071438789367676,
    -0.8377512097358704,
    0.831636905670166,
    1.8537931442260742,
    0.901276171207428,
    0.8268067836761475,
    1.0214380025863647,
    -0.8530412912368774,
    1.737386703491211,
    -0.8880656361579895,
    -0.4103316366672516,
    0.6785191893577576,
    1.510057806968689,
    -0.3670915365219116,
    0.3586615324020386,
    -0.5999550223350525,
    2.219865083694458,
    1.9686169624328613,
    0.058194685727357864,
    0.4437547028064728,
    0.06467000395059586,
    0.5689548254013062,
    -0.13316145539283752,
    1.2041199207305908,
    1.221492052078247,
    0.4534601867198944,
    -1.2820630073547363,
    -0.49750807881355286,
    0.38783326745033264,
    0.6387227773666382,
    -0.17529338598251343,
    0.15773455798625946,
    1.661501169204712,
    1.8848435878753662,
    -0.575509786605835,
    0.32657983899116516,
    -1.2411118745803833,
    0.5700173377990723,
    0.6288959383964539,
    -0.6681349277496338,
    -2.1341333389282227,
    0.713312029838562,
    -0.047788187861442566,
    0.3257031738758087,
    -1.0925885438919067,
    -0.40381160378456116,
    -0.32225701212882996,
    -0.003142985515296459,
    0.43313533067703247,
    -0.17873238027095795,
    -0.08762503415346146,
    0.32712286710739136,
    -0.642025887966156,
    0.5315276980400085,
    0.28012388944625854,
    1.2282463312149048,
    -0.4160079061985016,
    0.5541307926177979,
    1.1627116203308105,
    0.2533823549747467,
    -0.6823537349700928,
    0.4964979588985443,
    1.6987991333007812,
    -0.0834626704454422,
    -0.10196957737207413,
    0.30431392788887024,
    -0.7902653813362122,
    -0.11839540302753448,
    0.1003212258219719,
    -1.317469835281372,
    1.0288259983062744,
    0.333604097366333,
    1.41248619556427,
    -0.9108738899230957,
    2.5926618576049805,
    1.221487045288086,
    -0.0802454799413681,
    -0.432497501373291,
    -1.317077398300171,
    -0.6092041730880737,
    -0.32432135939598083,
    -0.14002574980258942,
    1.7035770416259766,
    -0.9238982200622559,
    -0.19314542412757874,
    -0.4797841012477875,
    -0.2510068416595459,
    0.4700288474559784,
    -0.40598049759864807,
    -0.010971304029226303,
    0.6480933427810669,
    -0.5160029530525208,
    -0.728158712387085,
    -0.40511274337768555,
    -0.035167817026376724,
    0.09430013597011566,
    0.02306210622191429,
    0.010870254598557949,
    0.0035688839852809906,
    -0.08664368838071823,
    0.6319529414176941,
    0.5346128940582275,
    0.0829424262046814,
    0.9790863394737244,
    -2.45086669921875,
    1.290840983390808,
    -1.1383525133132935,
    1.8462449312210083,
    0.19126033782958984,
    -0.3409172296524048,
    0.13316790759563446,
    1.9045963287353516,
    1.4629628658294678,
    -0.927325427532196,
    -0.761698305606842,
    -0.17598722875118256,
    0.6163263320922852,
    -1.2063707113265991,
    -0.06827054917812347,
    -0.38416221737861633,
    -0.3738042712211609,
    -0.3324064314365387,
    -2.221479892730713,
    -0.5207167267799377,
    -0.39842620491981506,
    -0.03512220457196236,
    1.4219026565551758,
    0.9880215525627136,
    0.28134962916374207,
    -0.27854299545288086,
    -0.005671692080795765,
    -0.26663893461227417,
    0.05226331576704979,
    -1.7712000608444214,
    0.7088769674301147,
    -1.8918975591659546,
    2.420437812805176,
    -0.07945847511291504,
    0.7595376372337341,
    0.22338323295116425,
    -0.9782074093818665,
    1.26558256149292,
    -1.3794128894805908,
    1.473829746246338,
    0.018987908959388733,
    0.3462153673171997,
    0.37017154693603516,
    -0.41699057817459106,
    0.3848554491996765,
    -0.1113855391740799,
    -0.22381125390529633,
    -1.382665991783142,
    0.21733854711055756,
    -0.46751612424850464,
    -0.102376788854599,
    -0.007889168336987495,
    -0.9023737907409668,
    0.10509837418794632,
    1.7514907121658325,
    0.9949563145637512,
    -1.2217252254486084,
    0.3808850944042206,
    -0.13620708882808685,
    0.29141801595687866,
    -1.0251975059509277,
    -0.9893959760665894,
    0.9688960313796997,
    -0.4075002670288086,
    -1.2677730321884155,
    0.6502304077148438,
    -1.1830018758773804,
    1.4183399677276611,
    -1.2290301322937012,
    -0.8858151435852051,
    -0.6074693202972412,
    1.4774446487426758,
    -1.2651358842849731,
    0.09555618464946747,
    -1.2971383333206177,
    -1.3438775539398193,
    -0.3377462327480316,
    -1.3586584329605103,
    1.4697306156158447,
    -0.2351255863904953,
    1.652824878692627,
    -2.3189547061920166,
    0.8760508298873901,
    1.7440768480300903,
    -1.373557448387146,
    1.9960325956344604,
    -1.4336109161376953,
    -0.1027599349617958,
    -0.659144937992096,
    1.1092865467071533,
    1.3330813646316528,
    -0.3564811646938324,
    0.18479247391223907,
    0.23077890276908875,
    0.0787159726023674,
    -0.8917465806007385,
    -0.6134343147277832,
    1.3050180673599243,
    -0.8844558000564575,
    0.22083066403865814,
    0.7776235938072205,
    -1.029341697692871,
    0.6939218640327454,
    0.7722766995429993,
    -0.06601344048976898,
    0.9174954295158386,
    0.6229046583175659,
    -1.0196157693862915,
    -1.494015097618103,
    0.26007676124572754,
    0.06655574589967728,
    0.5701191425323486,
    -0.07295259833335876,
    -0.08001833409070969,
    -0.6549596786499023,
    -0.21286015212535858,
    0.06703624874353409,
    -0.253539115190506,
    0.11991235613822937,
    -0.192345529794693,
    0.5359688401222229,
    -0.15724363923072815,
    -0.12108208984136581,
    -0.13260728120803833,
    -0.507235050201416,
    0.18366007506847382,
    -0.006829998921602964,
    -0.02149013616144657,
    0.566529393196106,
    1.0265939235687256,
    0.21099136769771576,
    -0.24107860028743744,
    0.4422110319137573,
    -0.05471925809979439,
    0.224986732006073,
    0.9660844802856445,
    -0.5740574598312378,
    -0.6410707831382751,
    -0.19014990329742432,
    -0.12277649343013763,
    -0.37399083375930786,
    2.5696022510528564,
    -0.860249936580658,
    -0.47335290908813477,
    -0.31246957182884216,
    -0.7827633023262024,
    1.0750408172607422,
    0.08988398313522339,
    0.8262377381324768,
    0.5363768935203552,
    -0.9264571070671082,
    1.0555156469345093,
    0.9677002429962158,
    1.044270396232605,
    1.9527502059936523,
    -0.14924222230911255,
    -1.1027793884277344,
    -2.0796492099761963,
    -0.15238650143146515,
    2.412966012954712,
    0.8503888845443726,
    -0.6307129859924316,
    1.1176292896270752,
    1.8028336763381958,
    0.027950288727879524,
    2.118673801422119,
    -2.4442806243896484,
    -0.24877792596817017,
    0.7823673486709595,
    0.5447403788566589,
    2.9435293674468994,
    -0.9189637303352356,
    0.0860501229763031,
    1.9536646604537964,
    0.9530195593833923,
    0.8356003761291504,
    -0.062284842133522034,
    0.265549898147583,
    -0.265148788690567,
    0.2596359848976135,
    -0.7969542145729065,
    -0.45676127076148987,
    -0.36501020193099976,
    0.4424300789833069,
    0.42481181025505066,
    0.24375386536121368,
    -0.5641801953315735,
    0.30289405584335327,
    1.6317977905273438,
    -0.92549067735672,
    -0.04774422198534012,
    -0.4454377293586731,
    0.17954128980636597,
    0.8397583365440369,
    -1.0761475563049316,
    -0.7748377323150635,
    -0.535378634929657,
    -0.8214200735092163,
    0.22667372226715088,
    0.5301851630210876,
    -0.1212381049990654,
    0.9216708540916443,
    -0.5887447595596313,
    -1.1941306591033936,
    0.712592363357544,
    -0.3241616189479828,
    -0.8355269432067871,
    -0.4638771116733551,
    0.516232430934906,
    -0.30466359853744507,
    0.19314789772033691,
    0.02653675712645054,
    0.15380707383155823,
    0.46972742676734924,
    -1.0315583944320679,
    0.28874143958091736,
    -0.1888052523136139,
    -0.7600851058959961,
    0.3051171600818634,
    0.5942118167877197,
    -0.4548353850841522,
    0.7998715043067932,
    0.6192576885223389,
    -0.503204882144928,
    -0.7653571367263794,
    0.08024038374423981,
    0.01561848446726799,
    0.46429702639579773,
    -0.10698239505290985,
    0.7919591069221497,
    0.10652298480272293,
    -0.5175557136535645,
    0.5286245346069336,
    0.6159230470657349,
    -0.44936129450798035,
    0.5870011448860168,
    0.6479964852333069,
    -0.43130892515182495,
    -1.0618644952774048,
    -0.9617236852645874,
    -0.7221919894218445,
    -0.37894758582115173,
    -0.22387175261974335,
    -0.453929603099823,
    -0.10313590615987778,
    -0.8582029342651367,
    0.13581474125385284,
    0.20678120851516724,
    0.655186116695404,
    0.047313615679740906,
    -0.4643261134624481,
    -0.04623665288090706,
    -1.267864465713501,
    0.035751067101955414,
    0.3625141978263855,
    0.1623411625623703,
    0.7614953517913818,
    -0.9593464732170105,
    1.4017231464385986,
    0.5182944536209106,
    -1.3821940422058105,
    1.545994520187378,
    0.19784943759441376,
    0.688169002532959,
    -0.8138596415519714,
    -0.9640623331069946,
    0.21358191967010498,
    0.23436394333839417,
    0.9379570484161377,
    -0.37035316228866577,
    -0.4016023576259613,
    -0.08596022427082062,
    -1.6263140439987183,
    0.1686420738697052,
    -1.7334741353988647,
    1.200305461883545,
    0.055794645100831985,
    -1.8258411884307861,
    0.9518440961837769,
    -0.35043418407440186,
    1.1313230991363525,
    1.60557222366333,
    -0.20888198912143707,
    -2.2016968727111816,
    -1.47501802444458,
    0.42473527789115906,
    0.4897848963737488,
    -0.609283983707428,
    -0.17042873799800873,
    -0.48216691613197327,
    -0.05681007355451584,
    -0.0995967909693718,
    -1.0450589656829834,
    0.7552773356437683,
    0.20227257907390594,
    -0.1899895966053009,
    -1.7117111682891846,
    0.22120700776576996,
    0.5495087504386902,
    -0.1946336030960083,
    0.7318740487098694,
    0.2666114568710327,
    0.3696553707122803,
    0.800193190574646,
    -0.13892251253128052,
    0.3889971971511841,
    0.6741677522659302,
    0.7757263779640198,
    -0.6708250045776367,
    0.20459429919719696,
    -0.5957918167114258,
    0.11399675160646439,
    -0.6336469650268555,
    -1.4656513929367065,
    1.1690168380737305,
    0.3875981867313385,
    0.11473209410905838,
    -0.3948218524456024,
    -0.464309424161911,
    -0.01922730915248394,
    1.0620768070220947,
    -0.3140355348587036,
    0.14323115348815918,
    0.11823438853025436,
    0.0738900676369667,
    -0.41139379143714905,
    -0.6221936345100403,
    0.2233281135559082,
    0.7884418368339539,
    -0.08005610853433609,
    0.5760737061500549,
    0.05382503941655159,
    -0.08190349489450455,
    -0.10068707913160324,
    0.4706534147262573,
    0.7385168671607971,
    0.6391820311546326,
    -0.4755561351776123,
    0.4826250374317169,
    -0.7603516578674316,
    0.35489246249198914,
    0.7988836169242859,
    -1.0365549325942993,
    0.016141988337039948,
    0.856281578540802,
    -0.48799097537994385,
    -0.31868281960487366,
    -0.6255098581314087,
    0.5079153776168823,
    0.22928309440612793,
    0.47228941321372986,
    0.7173708081245422,
    0.5910910964012146,
    -1.051590919494629,
    -0.196503147482872,
    0.832159698009491,
    -0.8071476221084595,
    0.9669994711875916,
    0.8967028260231018,
    -1.1488804817199707,
    0.49290069937705994,
    -2.2502760887145996,
    0.32118314504623413,
    -0.6187986135482788,
    1.5720689296722412,
    0.6759739518165588,
    -1.1775035858154297,
    -0.21202045679092407,
    0.31691256165504456,
    0.8616040349006653,
    -0.1885509490966797,
    1.1774367094039917,
    1.4328770637512207,
    -1.9528017044067383,
    -1.5295227766036987,
    0.5041211247444153,
    -1.214282512664795,
    0.4405193626880646,
    0.4248313903808594,
    1.4077657461166382,
    -1.043959617614746,
    -0.36237555742263794,
    -0.4492121636867523,
    -0.37624678015708923,
    1.0919208526611328,
    -0.10682597011327744,
    -0.3727780878543854,
    0.12745575606822968,
    -0.3453623056411743,
    -0.11530009657144547,
    0.5821831822395325,
    0.30919918417930603,
    -0.32845911383628845,
    -1.0191593170166016,
    -0.06774340569972992,
    0.335967093706131,
    -0.1728334128856659,
    -0.7954033613204956,
    1.5173357725143433,
    1.5336217880249023,
    0.09018779546022415,
    -0.5708531141281128,
    -0.6181396245956421,
    0.7410867214202881,
    -0.9707534909248352,
    0.22640161216259003,
    -1.022490382194519,
    0.32926130294799805,
    1.0599417686462402,
    -0.3524433672428131,
    -0.6070005893707275,
    -1.5188065767288208,
    -0.45012566447257996,
    0.4267638921737671,
    -0.5924137234687805,
    0.13517512381076813,
    -0.42468348145484924,
    0.012344381771981716,
    -0.051943421363830566,
    -0.15317966043949127,
    -0.0704580694437027,
    0.3434623181819916,
    -0.4523409605026245,
    0.33819642663002014,
    -1.0092971324920654,
    0.42936813831329346,
    0.73211270570755,
    -0.18447323143482208,
    0.1231275200843811,
    -0.9650735259056091,
    -0.8472094535827637,
    -0.19373495876789093,
    0.8105599880218506,
    0.2706763744354248,
    -0.29801225662231445,
    -0.050038646906614304,
    0.1962701976299286,
    -0.3443650007247925,
    0.0028018427547067404,
    0.257845401763916,
    0.9219253659248352,
    -0.4211726486682892,
    -0.44995859265327454,
    -0.12781983613967896,
    -0.9033538103103638
  ],
  "gru_bias_ih": [
    -0.9341138601303101,
    -0.28397136926651,
    -1.3445796966552734,
    2.0084123611450195,
    0.44157811999320984,
    0.9532318711280823,
    -0.02167724445462227,
    -0.33874690532684326,
    0.17083679139614105,
    -1.7823855876922607,
    -0.2931670844554901,
    -0.9615994691848755,
    -0.011498290114104748,
    0.5900726914405823,
    -0.1549566239118576,
    -0.20829173922538757,
    0.0022737374529242516,
    -1.149379849433899,
    -2.4406726360321045,
    0.15278522670269012,
    -1.4488571882247925,
    2.136590003967285,
    -3.8705785274505615,
    0.19346942007541656,
    -2.6352014541625977,
    -3.390397787094116,
    -0.9326010942459106,
    -0.42867228388786316,
    -1.433858871459961,
    -2.8548312187194824,
    -1.6907552480697632,
    -2.6156771183013916,
    0.19179978966712952,
    0.5814518928527832,
    -0.3692612946033478,
    -0.744651734828949,
    0.637395441532135,
    -0.3735102713108063,
    -0.15022458136081696,
    0.20437517762184143,
    0.5192470550537109,
    1.7235498428344727,
    0.42337921261787415,
    0.07681123167276382,
    -0.1473330408334732,
    -1.9370187520980835,
    -0.3718745708465576,
    0.23645225167274475
  ],
  "gru_bias_hh": [
    -0.6871982216835022,
    -0.29470139741897583,
    -1.4438834190368652,
    1.8468561172485352,
    0.4649464786052704,
    1.0293272733688354,
    0.1441224068403244,
    -0.13070513308048248,
    0.10782604664564133,
    -1.7181892395019531,
    -0.22133439779281616,
    -0.9137026071548462,
    -0.1470312476158142,
    0.6913285255432129,
    -0.3290691673755646,
    -0.20126771926879883,
    -0.1409202367067337,
    -1.0187983512878418,
    -2.575078248977661,
    -0.21304967999458313,
    -1.0802316665649414,
    2.2718310356140137,
    -3.6739342212677,
    0.5174408555030823,
    -2.4397971630096436,
    -3.44599986076355,
    -0.9432072639465332,
    -0.18129730224609375,
    -1.1365652084350586,
    -2.8207130432128906,
    -1.8869601488113403,
    -2.5939414501190186,
    0.19113387167453766,
    -0.34846800565719604,
    0.15939854085445404,
    -0.12109187245368958,
    1.4211299419403076,
    0.11001742631196976,
    -0.7045676112174988,
    -0.15639398992061615,
    -0.5792050957679749,
    0.5973882079124451,
    0.7043712735176086,
    -0.333280473947525,
    0.07869269698858261,
    -1.2987838983535767,
    0.1314794421195984,
    0.36347129940986633
  ],
  "example_input": [
    -1.0,
    -0.931034505367279,
    -0.8620689511299133,
    -0.7931034564971924,
    -0.7241379022598267,
    -0.6551724076271057,
    -0.5862069129943848,
    -0.517241358757019,
    -0.4482758641242981,
    -0.37931033968925476,
    -0.3103448152542114,
    -0.24137932062149048,
    -0.17241379618644714,
    -0.1034482792019844,
    -0.03448276221752167,
    0.03448276221752167,
    0.1034482792019844,
    0.17241379618644714,
    0.24137932062149048,
    0.3103448152542114,
    0.37931033968925476,
    0.4482758641242981,
    0.517241358757019,
    0.5862069129943848,
    0.6551724076271057,
    0.7241379022598267,
    0.7931034564971924,
    0.8620689511299133,
    0.931034505367279,
    1.0
  ],
  "example_output": [
    0.019000550732016563,
    0.38197213411331177,
    0.6499823331832886,
    0.13254033029079437
  ],
  "checkpoint_name": "best_checkpoint_model_953.pt",
  "checkpoint_step": -1,
  "requires_obs_normalization": false,
  "compat_reset_output": [
    0.8977721333503723,
    0.6767107248306274,
    0.702937126159668,
    0.3315817713737488
  ],
  "compat_hover_output": [
    0.8977721333503723,
    0.6767107248306274,
    0.702937126159668,
    0.3315817713737488
  ],
  "export_format": "rl_tools_checkpoint_blob",
  "policy_distribution": "BetaDistribution",
  "action_output_transform": "beta_mean_sigmoid"
}