{
  "observation_dim": 35,
  "action_dim": 4,
  "structure": "mlp_gru",
  "rnn_type": "gru",
  "gru_input_dim": 16,
  "gru_hidden_dim": 16,
  "gru_num_layers": 1,
  "activation": "elu",
  "use_observation_normalization": false,
  "normalization_folded_into_first_layer": false,
  "observation_mean": [
    0.0,
    0.0,
    0.0,
    0.0,
    0.0,
    0.0,
    0.0,
    0.0,
    0.0,
    0.0,
    0.0,
    0.0,
    0.0,
    0.0,
    0.0,
    0.0,
    0.0,
    0.0,
    0.0,
    0.0,
    0.0,
    0.0,
    0.0,
    0.0,
    0.0,
    0.0,
    0.0,
    0.0,
    0.0,
    0.0,
    0.0,
    0.0,
    0.0,
    0.0,
    0.0
  ],
  "observation_inv_std": [
    1.0,
    1.0,
    1.0,
    1.0,
    1.0,
    1.0,
    1.0,
    1.0,
    1.0,
    1.0,
    1.0,
    1.0,
    1.0,
    1.0,
    1.0,
    1.0,
    1.0,
    1.0,
    1.0,
    1.0,
    1.0,
    1.0,
    1.0,
    1.0,
    1.0,
    1.0,
    1.0,
    1.0,
    1.0,
    1.0,
    1.0,
    1.0,
    1.0,
    1.0,
    1.0
  ],
  "actor_encoder_dims": [
    35,
    16,
    16
  ],
  "actor_encoder_activations": [
    "elu",
    "identity"
  ],
  "actor_head_dims": [
    16,
    4
  ],
  "actor_head_activations": [
    "identity"
  ],
  "actor_encoder_weights": [
    [
      0.8992494344711304,
      -0.22094003856182098,
      -0.6859765648841858,
      -0.34092044830322266,
      0.15737836062908173,
      1.8566285371780396,
      -0.6631958484649658,
      -0.3507004678249359,
      -0.053916096687316895,
      -1.8962091207504272,
      -0.5374205708503723,
      -0.19450418651103973,
      -1.7058677673339844,
      -0.13777612149715424,
      0.33646053075790405,
      0.9711707830429077,
      -0.6894788146018982,
      -0.11776451766490936,
      -0.03960062935948372,
      0.6430625915527344,
      0.005666673183441162,
      0.27997612953186035,
      0.662178635597229,
      0.05585421621799469,
      -0.06728657335042953,
      0.798008143901825,
      -0.0759323462843895,
      0.19426319003105164,
      0.0429573580622673,
      0.008080771192908287,
      -0.23064397275447845,
      0.31783759593963623,
      -0.7797404527664185,
      0.09143354743719101,
      -0.3502867519855499,
      -1.5425262451171875,
      1.2977142333984375,
      0.9151632189750671,
      -0.10194889456033707,
      0.3607669472694397,
      -1.1124086380004883,
      -0.25842544436454773,
      0.009538022801280022,
      2.2047386169433594,
      0.9825805425643921,
      -2.5941762924194336,
      0.005128755699843168,
      0.8976027369499207,
      -2.42134690284729,
      -0.18672187626361847,
      -1.0508044958114624,
      1.6334420442581177,
      0.9215367436408997,
      -0.8676621317863464,
      -0.33228909969329834,
      -0.3381655812263489,
      0.002268928801640868,
      -0.008415336720645428,
      0.016977839171886444,
      0.032105762511491776,
      0.23784911632537842,
      -0.053748518228530884,
      0.0868762657046318,
      -0.09160821884870529,
      0.14974695444107056,
      0.30046793818473816,
      0.3197247385978699,
      -0.03894641250371933,
      0.08234679698944092,
      -0.03412614390254021,
      -0.0424116849899292,
      0.19024604558944702,
      0.3374316990375519,
      0.2178921103477478,
      -0.9229723215103149,
      -1.5468004941940308,
      1.0528080463409424,
      -0.048994846642017365,
      1.0677237510681152,
      2.1064043045043945,
      -1.3337492942810059,
      0.13417567312717438,
      1.3500913381576538,
      -1.1571323871612549,
      0.06304801255464554,
      -0.6979956030845642,
      -0.34060364961624146,
      0.2226947695016861,
      -0.5519551634788513,
      -0.7852662801742554,
      0.7885366678237915,
      0.1435707062482834,
      -0.7273014783859253,
      -0.0888485237956047,
      -0.015150620602071285,
      -0.17548531293869019,
      -0.9813581705093384,
      -0.5444333553314209,
      -0.025025906041264534,
      -0.3811829388141632,
      0.356915682554245,
      0.18554142117500305,
      0.03360878303647041,
      0.3984857499599457,
      0.10914281755685806,
      0.7117286920547485,
      0.7456291317939758,
      -0.10832080990076065,
      -0.19093716144561768,
      -0.35174641013145447,
      1.0241923332214355,
      -0.06527029722929001,
      -0.3297598361968994,
      -0.7022354602813721,
      -1.621634840965271,
      1.4551621675491333,
      -0.4175325930118561,
      -0.8377071022987366,
      0.8507683277130127,
      0.3954804837703705,
      0.7170405983924866,
      0.8960486650466919,
      -0.42721083760261536,
      0.5872415900230408,
      -0.6029080748558044,
      0.1870688945055008,
      -0.14573311805725098,
      0.08873090893030167,
      -0.08104626089334488,
      -0.0639708936214447,
      0.36693111062049866,
      -0.1552284061908722,
      0.08677950501441956,
      -0.0964725911617279,
      0.2291082739830017,
      0.10663796216249466,
      -0.6019728779792786,
      0.6680095791816711,
      -0.21827806532382965,
      0.09917572885751724,
      -0.543335497379303,
      -1.0622284412384033,
      -1.178879737854004,
      -0.16443437337875366,
      -0.3571372926235199,
      -0.8847153186798096,
      0.46606913208961487,
      -0.1434589922428131,
      0.21691586077213287,
      1.6601375341415405,
      -0.08612971752882004,
      -0.06632336974143982,
      1.162727952003479,
      -0.4830392301082611,
      0.022496867924928665,
      -0.7303674817085266,
      -0.13290344178676605,
      -0.4775920808315277,
      0.12365351617336273,
      -0.30661341547966003,
      -0.07976817339658737,
      -0.029314400628209114,
      0.16821445524692535,
      0.02863002009689808,
      0.03477029129862785,
      -0.16935184597969055,
      0.3321358263492584,
      0.09842778742313385,
      -0.28710871934890747,
      -0.2209724485874176,
      -0.014870129525661469,
      -0.013567082583904266,
      -0.19455228745937347,
      0.5277595520019531,
      -1.0352586507797241,
      -0.1874372661113739,
      0.2271575629711151,
      1.0458903312683105,
      -0.19201597571372986,
      0.8066659569740295,
      0.9582458734512329,
      -0.6244229674339294,
      -0.04665805399417877,
      0.3539949953556061,
      -1.0420494079589844,
      -0.05137399584054947,
      -0.058388229459524155,
      -0.8692770600318909,
      -0.2696891725063324,
      0.13076350092887878,
      0.15007196366786957,
      -0.17977610230445862,
      0.3108297288417816,
      -0.21531955897808075,
      0.5380072593688965,
      0.20188164710998535,
      -1.3407917022705078,
      -0.9367412328720093,
      -0.2198183834552765,
      -0.13450337946414948,
      0.19764499366283417,
      0.3242133557796478,
      0.08009648323059082,
      0.16119073331356049,
      -0.14494957029819489,
      -0.0594412200152874,
      0.11318307369947433,
      0.12005669623613358,
      0.26881057024002075,
      0.18525321781635284,
      1.21377432346344,
      0.8144055008888245,
      -1.39727783203125,
      -0.02864682488143444,
      -0.5249411463737488,
      1.0454281568527222,
      0.07917622476816177,
      -0.0024460607673972845,
      2.444492816925049,
      -1.4848768711090088,
      -2.635021686553955,
      0.0929170548915863,
      -1.1123651266098022,
      -2.696643590927124,
      0.1891619861125946,
      1.0630861520767212,
      1.6313472986221313,
      -0.5288035869598389,
      -1.2893911600112915,
      0.6238726377487183,
      0.3741079270839691,
      -0.04873280972242355,
      -0.006866911426186562,
      0.033742569386959076,
      0.004776421468704939,
      -0.14094312489032745,
      0.24958384037017822,
      0.08747944235801697,
      -0.0598037950694561,
      -0.20110251009464264,
      -0.041021496057510376,
      0.012330431491136551,
      0.10750691592693329,
      0.19391031563282013,
      -0.0979759469628334,
      -0.36598265171051025,
      0.09049319475889206,
      -0.08263520151376724,
      -0.2277904450893402,
      -0.266920804977417,
      -0.6188916563987732,
      0.86870276927948,
      -0.20979845523834229,
      -0.7372806668281555,
      0.7626877427101135,
      0.4935552477836609,
      -0.00437091663479805,
      0.5240723490715027,
      0.8753573298454285,
      0.045059747993946075,
      -0.30704739689826965,
      -0.14800599217414856,
      -0.09944881498813629,
      -1.2069092988967896,
      -0.3367398679256439,
      0.5734235048294067,
      0.08057212829589844,
      0.05683469772338867,
      -0.028561986982822418,
      0.03338057920336723,
      -0.01891883835196495,
      -0.010669786483049393,
      -0.2882497310638428,
      0.6511259078979492,
      -0.005529649090021849,
      -0.46539318561553955,
      0.5469565391540527,
      -0.6538471579551697,
      -0.14093618094921112,
      0.4950854778289795,
      0.4434090256690979,
      0.013110124506056309,
      -0.029877861961722374,
      0.02578546106815338,
      -2.0891635417938232,
      -0.21811702847480774,
      2.4347548484802246,
      0.1963646560907364,
      -1.3093516826629639,
      -0.2805342674255371,
      1.5310131311416626,
      -0.03244104981422424,
      -0.04400108754634857,
      1.3618024587631226,
      -0.10800384730100632,
      0.11879429966211319,
      -0.6328533291816711,
      0.06387649476528168,
      1.007270336151123,
      0.17686110734939575,
      4.174879550933838,
      0.04178933426737785,
      -0.02425336092710495,
      0.0030728767160326242,
      -0.003192021744325757,
      0.18555901944637299,
      -0.06459904462099075,
      -0.13610617816448212,
      -0.022766003385186195,
      0.07635869085788727,
      0.005498071201145649,
      0.1194118931889534,
      -0.2037050873041153,
      -0.13908088207244873,
      0.012935115024447441,
      -0.2753823399543762,
      0.12013834714889526,
      0.7416354417800903,
      -0.11759535223245621,
      0.15797574818134308,
      -0.39616620540618896,
      -0.02695520780980587,
      -0.11275943368673325,
      -1.1718089580535889,
      0.6865182518959045,
      1.864174485206604,
      0.13251088559627533,
      0.34490928053855896,
      1.1128710508346558,
      -0.11519909650087357,
      -0.6992255449295044,
      -0.4545609652996063,
      0.6298001408576965,
      1.9896886348724365,
      -0.6095243692398071,
      -0.4775742292404175,
      -0.0574539378285408,
      -0.4190637767314911,
      -0.0019952303264290094,
      -0.06453143060207367,
      -0.848771333694458,
      0.07199261337518692,
      0.06209615245461464,
      0.05508238822221756,
      -0.12494170665740967,
      -0.07074101269245148,
      0.02369767427444458,
      -0.009771357290446758,
      0.3376423120498657,
      0.34993451833724976,
      -0.11343767493963242,
      0.033781107515096664,
      0.37650761008262634,
      0.010153759270906448,
      -0.5841785669326782,
      -2.000382661819458,
      0.584081768989563,
      0.16936084628105164,
      0.3167000114917755,
      2.2010908126831055,
      -0.2721860408782959,
      0.034228093922138214,
      1.7187113761901855,
      -0.381224662065506,
      -0.05729291960597038,
      -0.757893979549408,
      0.03745146840810776,
      -0.770327091217041,
      0.3712292015552521,
      -0.8942340016365051,
      0.17681527137756348,
      0.1084117665886879,
      0.05128207802772522,
      -0.12274109572172165,
      -0.028064630925655365,
      -0.026049016043543816,
      -0.2025006264448166,
      -0.13981665670871735,
      -0.6313034892082214,
      0.25937023758888245,
      -0.08367828279733658,
      -0.09471636265516281,
      -0.13345862925052643,
      -1.3795355558395386,
      0.1847248375415802,
      0.5552518963813782,
      -0.9868963360786438,
      -3.293840169906616,
      0.008523880504071712,
      0.1644088178873062,
      0.1320372223854065,
      0.18392550945281982,
      0.19392718374729156,
      -0.028694389387965202,
      0.7455475330352783,
      -0.16566701233386993,
      -0.13293516635894775,
      0.21481382846832275,
      -0.33543580770492554,
      0.08975281566381454,
      -0.5175748467445374,
      0.22046220302581787,
      -4.28317928314209,
      0.18709957599639893,
      -0.03900955617427826,
      0.007371411193162203,
      0.012704662047326565,
      -0.026579048484563828,
      0.0006118486053310335,
      -0.0014514479553326964,
      -0.2048935741186142,
      -0.08287780731916428,
      0.05891353264451027,
      0.1027679443359375,
      0.04634460061788559,
      0.10854579508304596,
      0.08696437627077103,
      0.06660357117652893,
      -0.01880461908876896,
      0.026103096082806587,
      1.2543059587478638,
      0.8182252049446106,
      -0.17927220463752747,
      -0.006377806421369314,
      1.7834900617599487,
      -0.3425080180168152,
      -2.0859360694885254,
      0.023462481796741486,
      1.3764084577560425,
      0.2640523314476013,
      -1.1712430715560913,
      -0.046454332768917084,
      0.255037784576416,
      -1.3958337306976318,
      -0.15780645608901978,
      0.42652371525764465,
      1.0609596967697144,
      -0.11430490016937256,
      0.03839597478508949,
      -0.5435834527015686,
      -1.24137282371521,
      -0.024509483948349953,
      -0.008257691748440266,
      -0.02100098878145218,
      -0.0030946482438594103,
      -0.3732824921607971,
      -0.3562600314617157,
      -0.25853851437568665,
      -0.02423212304711342,
      0.015897125005722046,
      -0.09755957126617432,
      -0.031219717115163803,
      0.1418355405330658,
      -0.05860894173383713,
      -0.9597812294960022,
      -0.03783448785543442,
      -0.9522695541381836,
      0.30295896530151367,
      -0.38771554827690125,
      -0.16407130658626556,
      -0.05511125177145004,
      1.4136486053466797,
      -0.14022749662399292,
      -0.534506618976593,
      0.9552258849143982,
      -0.16023124754428864,
      -0.030469447374343872,
      -0.14938631653785706,
      0.4432477355003357,
      -0.2533898651599884,
      0.06991098076105118,
      -0.970219075679779,
      0.11058194190263748,
      -0.10850778222084045,
      -0.42485949397087097,
      -0.6160933375358582,
      0.2057126760482788,
      0.1550484597682953,
      -0.04145359992980957,
      0.031181713566184044,
      -0.5907177329063416,
      -0.25477397441864014,
      -0.04327071085572243,
      0.13368861377239227,
      0.01253428403288126,
      0.6066577434539795,
      -1.2950717210769653,
      0.4792782962322235,
      -0.15145398676395416,
      0.21054412424564362,
      -0.39810362458229065,
      0.9722038507461548,
      -0.30039724707603455,
      0.10282197594642639,
      -0.657649576663971,
      0.2238708734512329,
      0.49574002623558044,
      0.16788701713085175,
      1.9234899282455444,
      -0.08661381155252457,
      -2.669506072998047,
      0.057673174887895584,
      0.17595811188220978,
      -2.5224995613098145,
      0.14891855418682098,
      -0.5729585886001587,
      1.1844693422317505,
      -0.31805261969566345,
      -1.221247911453247,
      0.10731357336044312,
      1.1698260307312012,
      0.022284889593720436,
      0.007932544685900211,
      -0.010217702016234398,
      -0.0333641916513443,
      -0.2757455110549927,
      0.16573241353034973,
      0.0401548333466053,
      -0.15432889759540558,
      -0.0015044950414448977,
      0.1128564402461052,
      -0.6838694214820862,
      0.45777469873428345,
      0.13723796606063843,
      -0.3352475166320801,
      0.4722573459148407,
      -0.0537089966237545,
      0.22711767256259918,
      0.2218642681837082,
      1.2956651449203491,
      2.0092427730560303,
      -1.2360866069793701,
      0.12555980682373047,
      -0.6598723530769348,
      -3.227174997329712,
      0.6838554739952087,
      0.10424856841564178,
      -2.0108416080474854,
      0.6219661831855774,
      -0.10524450242519379,
      1.3443255424499512,
      -0.2456522136926651,
      0.23738974332809448,
      0.4833518862724304,
      1.9643886089324951,
      -0.8148966431617737,
      -0.1437198966741562,
      -0.13482540845870972,
      0.07198958098888397,
      0.04248444736003876,
      0.43090930581092834,
      0.5213627815246582,
      0.1734173744916916,
      0.07001462578773499,
      0.020960509777069092,
      -0.24217738211154938,
      0.15206605195999146,
      -0.06934057921171188,
      -0.03643939644098282,
      -0.09217466413974762
    ],
    [
      -0.21853412687778473,
      -0.1102706789970398,
      0.4158656895160675,
      0.23508141934871674,
      0.2440546303987503,
      -0.6551369428634644,
      -0.21650294959545135,
      -0.12531118094921112,
      -0.25382551550865173,
      0.3161284625530243,
      0.05806950107216835,
      0.3097859025001526,
      0.08891762793064117,
      0.30127033591270447,
      -0.1611955761909485,
      -0.1530492752790451,
      -0.08027761429548264,
      0.42852121591567993,
      0.32745474576950073,
      0.3927064538002014,
      -0.02070540189743042,
      -0.3683061897754669,
      -0.5083679556846619,
      -0.1249629482626915,
      -0.16683775186538696,
      -0.2445840686559677,
      -0.23588746786117554,
      -0.4570225179195404,
      0.32091251015663147,
      -0.22969631850719452,
      0.07865641266107559,
      -0.25912466645240784,
      -0.2024173140525818,
      -0.20050863921642303,
      -0.2112109214067459,
      -0.07989413291215897,
      -0.05539513751864433,
      0.05658372864127159,
      -0.09733481705188751,
      0.1505664438009262,
      0.08079779893159866,
      -0.0413426049053669,
      0.07490450143814087,
      -0.48365500569343567,
      0.24280528724193573,
      0.17265461385250092,
      -0.13689205050468445,
      -0.12398090213537216,
      0.07420586794614792,
      0.7210174202919006,
      -0.024176262319087982,
      -0.028335319831967354,
      -0.17892032861709595,
      0.056539393961429596,
      -0.04947319254279137,
      0.0538945347070694,
      0.2485458105802536,
      0.1699087768793106,
      -0.007659316994249821,
      0.5741677284240723,
      0.34293052554130554,
      0.21068017184734344,
      0.21564990282058716,
      -0.07112763822078705,
      -0.21599990129470825,
      -0.3858192265033722,
      0.19671179354190826,
      -0.16928014159202576,
      0.03353017568588257,
      -0.2986305356025696,
      -0.4604215621948242,
      0.12122265249490738,
      -0.32301247119903564,
      0.22949548065662384,
      0.18850591778755188,
      -0.1696842759847641,
      0.08237919211387634,
      -0.24720802903175354,
      0.12486904114484787,
      0.09335458278656006,
      0.12427568435668945,
      -0.05412808060646057,
      -0.09463730454444885,
      -0.1310534030199051,
      -0.14896583557128906,
      0.2841879725456238,
      0.025145551189780235,
      -0.05492199584841728,
      -1.1008179187774658,
      -0.11628152430057526,
      0.09599786251783371,
      0.03677404299378395,
      0.16608130931854248,
      0.07539232075214386,
      -0.14362341165542603,
      0.265941858291626,
      0.04912180081009865,
      0.12906013429164886,
      -0.09476512670516968,
      0.13870996236801147,
      -0.2674846649169922,
      -0.3791244924068451,
      -0.6647964715957642,
      -0.3329431712627411,
      0.18991942703723907,
      0.253139853477478,
      0.19826237857341766,
      -0.5622620582580566,
      -0.10706023871898651,
      -0.04854721948504448,
      0.23177537322044373,
      0.26900920271873474,
      0.039488211274147034,
      0.06172500178217888,
      -0.08353304862976074,
      0.10095071792602539,
      -0.4567785859107971,
      0.13684499263763428,
      -0.07892672717571259,
      -0.21780478954315186,
      0.12482237070798874,
      0.1648126244544983,
      -0.34925082325935364,
      -0.7467113733291626,
      0.16303221881389618,
      -0.04120416194200516,
      -0.4146491587162018,
      0.5520290732383728,
      0.09502605348825455,
      -0.28303518891334534,
      0.17869651317596436,
      0.04603913426399231,
      0.1578977406024933,
      0.08447056263685226,
      -0.16947536170482635,
      0.09758096933364868,
      0.38441169261932373,
      -0.37796103954315186,
      0.15243835747241974,
      -0.4746001660823822,
      0.32915565371513367,
      0.10448898375034332,
      0.012622064910829067,
      0.29108166694641113,
      -0.08922725170850754,
      -0.602372407913208,
      -0.19802924990653992,
      0.1551603227853775,
      -0.008293158374726772,
      -0.03984548896551132,
      -0.3536930978298187,
      -0.3198373317718506,
      0.045325785875320435,
      -0.18741190433502197,
      -0.04903962090611458,
      0.6568918824195862,
      -0.07445986568927765,
      -0.30971840023994446,
      -0.3989606499671936,
      -0.1474868506193161,
      0.23037132620811462,
      -0.30071738362312317,
      0.2654266357421875,
      0.23521606624126434,
      -0.40566161274909973,
      -0.19954919815063477,
      -0.11273230612277985,
      -0.02235059253871441,
      -0.10100167989730835,
      -0.12968435883522034,
      -0.151995450258255,
      0.43374183773994446,
      0.1325707733631134,
      0.017138352617621422,
      0.3243897259235382,
      -0.12505923211574554,
      -0.10522761940956116,
      0.25784456729888916,
      0.38284456729888916,
      -0.3295672535896301,
      -0.04897543415427208,
      -0.24624599516391754,
      -0.7490382790565491,
      0.22864343225955963,
      -0.038108546286821365,
      -0.01904463954269886,
      0.36440691351890564,
      -0.2219483107328415,
      -0.3653288781642914,
      0.16607631742954254,
      -0.5507935285568237,
      -0.1919371485710144,
      0.10812497138977051,
      -0.28674226999282837,
      -0.20249640941619873,
      -0.27533280849456787,
      0.3184347450733185,
      0.3332924544811249,
      -0.4927080571651459,
      -0.020396722480654716,
      -0.006043676286935806,
      0.06495815515518188,
      -0.42872142791748047,
      -0.23013365268707275,
      -0.05883735790848732,
      0.14029854536056519,
      0.18177884817123413,
      -0.11461189389228821,
      -0.09277898073196411,
      -0.07778497785329819,
      -0.039971787482500076,
      0.09291910380125046,
      0.2983189523220062,
      0.13913750648498535,
      -0.43457362055778503,
      0.0514947809278965,
      0.007898454554378986,
      0.00670824758708477,
      -0.10744131356477737,
      0.45080527663230896,
      0.0168098583817482,
      0.13917425274848938,
      -0.09346579760313034,
      0.4076777994632721,
      -0.35240957140922546,
      0.21701104938983917,
      0.29423341155052185,
      -0.06937097012996674,
      -0.27623724937438965,
      -0.37414902448654175,
      -0.26198235154151917,
      -0.13213063776493073,
      0.17739631235599518,
      -0.01447251532226801,
      0.19023504853248596,
      0.34979408979415894,
      -0.19804762303829193,
      0.25057023763656616,
      0.42831096053123474,
      -0.3512393534183502,
      -0.200882226228714,
      0.2335335612297058,
      0.24947842955589294,
      -0.25697898864746094,
      0.05396685749292374,
      -0.0450558140873909,
      0.8385347723960876,
      -0.027371784672141075,
      -0.307933509349823,
      -0.3534358739852905,
      -0.23235347867012024,
      -0.20965953171253204,
      0.1019013524055481,
      0.19170205295085907,
      0.6294072270393372,
      -0.18218065798282623
    ]
  ],
  "actor_encoder_biases": [
    [
      0.011796681210398674,
      -0.17575986683368683,
      -0.04722512140870094,
      -0.07908524572849274,
      0.2584669589996338,
      -0.0950714722275734,
      0.17229944467544556,
      0.12907041609287262,
      -0.17408865690231323,
      0.17736102640628815,
      0.026525871828198433,
      0.09623445570468903,
      0.13885639607906342,
      0.06508700549602509,
      0.06286905705928802,
      -0.14493116736412048
    ],
    [
      0.11336755752563477,
      0.19467103481292725,
      0.0622069351375103,
      -0.23196803033351898,
      -0.08120390772819519,
      0.17520014941692352,
      -0.04294779151678085,
      0.11324695497751236,
      0.1898791640996933,
      0.06392280757427216,
      0.07991369068622589,
      0.16123440861701965,
      -0.03745955228805542,
      0.0517120286822319,
      -0.1500873565673828,
      -0.20836810767650604
    ]
  ],
  "actor_head_weights": [
    [
      -0.40291810035705566,
      0.12251216918230057,
      -0.10454671084880829,
      -0.2451462596654892,
      -0.6486436128616333,
      -0.0983894020318985,
      -0.20029275119304657,
      0.040574267506599426,
      -0.3490457832813263,
      0.302649587392807,
      -0.9093841314315796,
      0.2780025005340576,
      -0.6606260538101196,
      -0.3364783823490143,
      -0.005968078505247831,
      -0.3249875009059906,
      -0.10090624541044235,
      0.11130097508430481,
      0.36427542567253113,
      0.43894529342651367,
      0.30679187178611755,
      0.1874151974916458,
      0.26043206453323364,
      -0.05922321230173111,
      0.6720215678215027,
      -0.17898984253406525,
      0.1744789183139801,
      0.14256608486175537,
      0.5840124487876892,
      0.42360615730285645,
      0.2668485641479492,
      -0.57062828540802,
      0.02499876543879509,
      -0.1285218596458435,
      -0.10823452472686768,
      0.05755319818854332,
      0.27410975098609924,
      0.10657613724470139,
      -0.49660277366638184,
      0.7473767399787903,
      0.13204129040241241,
      0.2743102014064789,
      -0.10839851945638657,
      -0.20461547374725342,
      -0.1329086422920227,
      0.3189927935600281,
      -0.06835686415433884,
      -0.2377299815416336,
      -0.5036852359771729,
      -0.2837607264518738,
      0.2662780284881592,
      0.015998274087905884,
      -0.24368129670619965,
      -0.27242475748062134,
      0.6929283738136292,
      0.04670362547039986,
      -0.0015540129970759153,
      0.27052778005599976,
      0.4107154607772827,
      -0.17391760647296906,
      0.44385552406311035,
      -0.2193646878004074,
      0.4891500771045685,
      -0.12732335925102234
    ]
  ],
  "actor_head_biases": [
    [
      0.24856853485107422,
      0.1681612730026245,
      0.41374918818473816,
      -0.013877692632377148
    ]
  ],
  "gru_weight_ih": [
    0.30129626393318176,
    -0.9296835660934448,
    -0.1812608391046524,
    0.6887625455856323,
    -1.876211166381836,
    0.055023301392793655,
    0.008592270314693451,
    -0.15811468660831451,
    0.7328101396560669,
    -1.173971176147461,
    -0.6783494353294373,
    0.10335090011358261,
    0.08233822137117386,
    0.6922081112861633,
    -0.08405976742506027,
    -0.3735713064670563,
    0.0017796291504055262,
    0.38342320919036865,
    0.5241440534591675,
    0.47665613889694214,
    -0.16365946829319,
    -0.3220023512840271,
    1.134078860282898,
    0.705503523349762,
    -0.3212444484233856,
    -0.5549579858779907,
    -0.009042679332196712,
    0.08431611955165863,
    1.8426378965377808,
    -0.39520105719566345,
    -0.04230700805783272,
    -1.3750789165496826,
    0.002220457885414362,
    -0.40445494651794434,
    0.2529528737068176,
    0.4518936276435852,
    0.5562179088592529,
    -0.6712573766708374,
    0.5836371779441833,
    0.11804259568452835,
    0.5447681546211243,
    -0.2057865709066391,
    -0.177024245262146,
    -0.6833464503288269,
    0.3720155358314514,
    0.42685630917549133,
    -0.42439407110214233,
    0.05952690914273262,
    0.14730027318000793,
    -0.10431858152151108,
    -0.6333096027374268,
    1.5044782161712646,
    -0.8812344074249268,
    -0.7045333981513977,
    -0.4098738133907318,
    -0.03886009007692337,
    0.9035348296165466,
    -1.1753294467926025,
    -0.16792690753936768,
    0.2516237497329712,
    -0.672130823135376,
    0.02507929317653179,
    -0.3878810405731201,
    -0.2508559226989746,
    0.17382556200027466,
    -0.19723545014858246,
    -0.1808498650789261,
    0.9741815328598022,
    0.05799771100282669,
    -0.36658772826194763,
    -0.048646703362464905,
    -0.31787097454071045,
    -0.11450360715389252,
    0.0728059858083725,
    0.23055320978164673,
    -0.28983959555625916,
    0.028873218223452568,
    0.19584397971630096,
    0.03663957118988037,
    -0.9378682971000671,
    0.19904176890850067,
    0.17007163166999817,
    -0.09690409153699875,
    -0.38759052753448486,
    -0.8198768496513367,
    -0.6485661268234253,
    -0.023876791819930077,
    -0.1850482076406479,
    -0.260641872882843,
    -0.13838739693164825,
    -0.5434726476669312,
    0.07359655201435089,
    0.1775130033493042,
    -0.4048486351966858,
    -0.31439489126205444,
    0.28415441513061523,
    -0.11412976682186127,
    -0.9622087478637695,
    0.10153709352016449,
    -0.6407152414321899,
    0.2590453326702118,
    0.6605817079544067,
    -0.15207700431346893,
    -0.9212430119514465,
    -0.6613467335700989,
    -0.2502491772174835,
    -0.2520802915096283,
    0.2954738736152649,
    0.1994391232728958,
    0.04780799522995949,
    0.7748912572860718,
    0.060196682810783386,
    0.11528895795345306,
    0.7936360239982605,
    0.2263183742761612,
    -0.25232160091400146,
    -0.9389181137084961,
    -0.30741050839424133,
    -0.07594989240169525,
    -0.2124178260564804,
    -0.3840925097465515,
    1.417212724685669,
    0.07912337779998779,
    -0.040045566856861115,
    0.21484176814556122,
    -0.3904130160808563,
    0.0233459509909153,
    0.17413963377475739,
    -0.07574661821126938,
    -0.6154366731643677,
    0.2475750893354416,
    -0.45165345072746277,
    -0.6392698884010315,
    -0.10790996998548508,
    -0.6752015948295593,
    0.7736292481422424,
    -0.07699745893478394,
    1.0028760433197021,
    -0.21591845154762268,
    0.17207595705986023,
    1.380609154701233,
    0.28677940368652344,
    -0.49399664998054504,
    0.11471381038427353,
    -0.23651175200939178,
    0.5398119688034058,
    0.7754389643669128,
    -0.14082874357700348,
    -0.28229546546936035,
    0.5010256171226501,
    -0.5970402359962463,
    0.23670946061611176,
    0.006992942653596401,
    -0.302817702293396,
    -0.0171250868588686,
    0.06339425593614578,
    -0.4613094925880432,
    0.14722684025764465,
    -0.3916030824184418,
    -0.3550322651863098,
    0.32207757234573364,
    0.6956074833869934,
    -0.39203041791915894,
    -0.22474652528762817,
    0.5449573993682861,
    -0.8113911747932434,
    0.18276000022888184,
    0.21061372756958008,
    -0.06714089959859848,
    0.7813476324081421,
    -0.06820308417081833,
    -0.17283757030963898,
    -0.5682792067527771,
    -0.12835995852947235,
    -0.7610576748847961,
    -0.8223255276679993,
    0.8779233694076538,
    -1.111168384552002,
    -0.37804701924324036,
    -1.1938743591308594,
    -0.34549784660339355,
    0.030434392392635345,
    0.9405547976493835,
    -0.5032904148101807,
    0.28575947880744934,
    -0.03139106556773186,
    -0.24005502462387085,
    -0.06252522766590118,
    -0.965255081653595,
    0.1869489997625351,
    0.3969079852104187,
    -0.6278676986694336,
    -0.8942620158195496,
    0.2131601870059967,
    0.6083812117576599,
    0.15477631986141205,
    -0.38889357447624207,
    0.8109736442565918,
    -0.2005268931388855,
    -0.15745876729488373,
    0.2988240122795105,
    0.15649309754371643,
    0.04596792533993721,
    0.3533899188041687,
    0.37130001187324524,
    0.3059242367744446,
    -0.04862565919756889,
    0.8114368915557861,
    -0.49977806210517883,
    0.39395371079444885,
    0.011857475154101849,
    -0.2790820598602295,
    -0.7032602429389954,
    0.006576005835086107,
    0.3113904297351837,
    -0.3312069773674011,
    0.11427118629217148,
    -0.31825026869773865,
    0.45057472586631775,
    -0.09171269088983536,
    -0.3293655812740326,
    -0.8887907862663269,
    -0.13279938697814941,
    0.30012810230255127,
    -0.30129382014274597,
    0.10404537618160248,
    -0.6753181219100952,
    -0.6663179993629456,
    -0.21686488389968872,
    0.5980050563812256,
    0.3547390401363373,
    0.2580828368663788,
    0.041648801416158676,
    -0.19748423993587494,
    -0.3096473813056946,
    -0.20731806755065918,
    -0.28863346576690674,
    -0.06199396774172783,
    -1.2061599493026733,
    -0.0991859883069992,
    0.2900628447532654,
    0.16887140274047852,
    0.03735188767313957,
    0.9532539248466492,
    -1.1434862613677979,
    0.5065573453903198,
    0.12990884482860565,
    -0.10675838589668274,
    -0.4945977032184601,
    -0.6760956048965454,
    -0.46574729681015015,
    -0.39530766010284424,
    -0.3522627055644989,
    1.061157464981079,
    0.2949560880661011,
    -0.2140273004770279,
    -0.43012097477912903,
    0.0497845821082592,
    -0.04516253620386124,
    -0.9115321040153503,
    -0.13761596381664276,
    0.9038709998130798,
    0.9363722801208496,
    0.08448769152164459,
    -0.4561312794685364,
    1.149645209312439,
    0.07876620441675186,
    -0.1390903741121292,
    -0.1672619730234146,
    -1.2494767904281616,
    -0.13758109509944916,
    -0.044875215739011765,
    1.2293710708618164,
    0.45849087834358215,
    -0.7682924270629883,
    -0.36279645562171936,
    0.4526529312133789,
    -0.05889046564698219,
    0.3858734965324402,
    -1.0453448295593262,
    -0.1679484248161316,
    -0.03852703422307968,
    0.7664758563041687,
    -0.27792125940322876,
    -0.3575991988182068,
    -0.7671245336532593,
    0.027437778189778328,
    -0.06929559260606766,
    -0.32583269476890564,
    1.5108476877212524,
    -0.20209920406341553,
    0.05294382944703102,
    -0.27995383739471436,
    0.27786123752593994,
    -0.9362906813621521,
    -1.2476887702941895,
    0.8621771335601807,
    -0.046862971037626266,
    0.0022166469134390354,
    0.5681771636009216,
    0.22429895401000977,
    -0.3027813136577606,
    -1.687737226486206,
    -0.5528481006622314,
    0.3788449466228485,
    -0.3570554256439209,
    0.22872287034988403,
    0.0031544461380690336,
    -0.2970254123210907,
    -0.024307260289788246,
    0.22496312856674194,
    0.26192229986190796,
    -0.24287709593772888,
    0.17669370770454407,
    -0.753567099571228,
    0.00017864513210952282,
    -0.08968118578195572,
    0.06013539806008339,
    -0.5304046869277954,
    -0.1687413454055786,
    0.46605852246284485,
    -0.5035730004310608,
    0.2980751395225525,
    0.0472060889005661,
    -0.3817415237426758,
    -0.19055795669555664,
    0.056348029524087906,
    -0.18073269724845886,
    -0.21880532801151276,
    -0.23980821669101715,
    -0.2635836601257324,
    -0.4074140787124634,
    0.5992409586906433,
    0.29640084505081177,
    -0.16262593865394592,
    -0.12549875676631927,
    0.13822241127490997,
    0.337747722864151,
    -0.18252770602703094,
    0.2169799953699112,
    -0.47321099042892456,
    -0.21795476973056793,
    0.3824707567691803,
    -0.056608445942401886,
    0.7801742553710938,
    0.3087233304977417,
    -0.2537814676761627,
    -0.12484834343194962,
    -0.26988595724105835,
    0.23008030652999878,
    0.31366026401519775,
    0.0056663029827177525,
    0.26496705412864685,
    -0.28102344274520874,
    0.5085682272911072,
    -0.05169075354933739,
    0.6385390758514404,
    0.40127986669540405,
    0.4656759798526764,
    -0.21125265955924988,
    0.690522313117981,
    -0.15077632665634155,
    -0.1531287133693695,
    -0.12549319863319397,
    -0.2338382601737976,
    -0.008498948998749256,
    -0.5129506587982178,
    -0.6350268125534058,
    0.14464078843593597,
    0.3197450339794159,
    -1.2058351039886475,
    -0.8555871844291687,
    0.40909984707832336,
    -0.5001813769340515,
    -0.7339953780174255,
    -1.1068395376205444,
    -0.4026830792427063,
    -0.6441248655319214,
    0.6003851890563965,
    -0.7048977613449097,
    0.9628689885139465,
    -0.31181415915489197,
    -0.18291179835796356,
    0.6184742450714111,
    0.630619466304779,
    -0.22318947315216064,
    0.11158958822488785,
    -0.6623607873916626,
    0.8728777766227722,
    0.3085767924785614,
    0.1637330800294876,
    0.4765937328338623,
    -0.7225649356842041,
    0.3881831467151642,
    0.457081139087677,
    -0.15814505517482758,
    0.2278764694929123,
    0.08360549062490463,
    0.3006289601325989,
    -0.06959516555070877,
    -0.4764396548271179,
    0.5535675287246704,
    0.690123975276947,
    0.34099286794662476,
    -0.03491009399294853,
    -0.28159695863723755,
    0.48413559794425964,
    -0.12283546477556229,
    0.07871019840240479,
    0.7150218486785889,
    0.7957574129104614,
    0.23846186697483063,
    -0.1966014802455902,
    0.3814240097999573,
    0.33998528122901917,
    0.2651098370552063,
    0.5864839553833008,
    -0.5691313743591309,
    0.6737967729568481,
    -0.011498362757265568,
    0.9891340136528015,
    0.578801155090332,
    0.586576521396637,
    -1.3973143100738525,
    0.9549378156661987,
    -0.3641864061355591,
    0.09566494077444077,
    0.8883929252624512,
    -0.4001504182815552,
    -0.3949659466743469,
    -0.45575469732284546,
    -1.0214200019836426,
    -1.4759907722473145,
    -0.3429037928581238,
    -0.620200514793396,
    0.36039263010025024,
    -1.4022520780563354,
    1.3561513423919678,
    0.40908265113830566,
    -0.39298421144485474,
    -0.3141756057739258,
    0.08803994953632355,
    0.22896508872509003,
    0.9240190386772156,
    0.6300615072250366,
    -0.1932622343301773,
    0.668026328086853,
    0.27623844146728516,
    0.1104508489370346,
    -0.503404974937439,
    -0.20497003197669983,
    0.4145049452781677,
    -0.1625095158815384,
    0.20274029672145844,
    0.32043370604515076,
    -0.03950990363955498,
    0.2283608466386795,
    -0.26199281215667725,
    0.3415711522102356,
    0.44871604442596436,
    -0.15161152184009552,
    0.161021888256073,
    -0.09469722211360931,
    0.22795522212982178,
    -0.2795089781284332,
    -0.2535434663295746,
    -0.15167924761772156,
    0.025047965347766876,
    -0.18292731046676636,
    0.29515576362609863,
    -0.1600373536348343,
    0.0430736169219017,
    0.14252854883670807,
    0.24755044281482697,
    -0.014959110878407955,
    0.417758047580719,
    -0.14611689746379852,
    0.4921993017196655,
    0.1845264881849289,
    0.15448546409606934,
    0.059959787875413895,
    -0.28304797410964966,
    -0.27421534061431885,
    1.151793360710144,
    -1.4515230655670166,
    0.09686146676540375,
    0.23678617179393768,
    -0.49710988998413086,
    0.9142470359802246,
    -0.7119042277336121,
    0.007023254409432411,
    0.0077358693815767765,
    0.23442958295345306,
    1.6592485904693604,
    0.43097057938575745,
    -0.29432275891304016,
    0.8608611226081848,
    0.10498711466789246,
    0.17603130638599396,
    0.6444576978683472,
    -0.1394595056772232,
    -0.5657145977020264,
    1.30301034450531,
    -0.6369497776031494,
    -0.1233174279332161,
    0.15710248053073883,
    -0.21065478026866913,
    0.005904271267354488,
    -0.4566347897052765,
    -0.38427096605300903,
    0.2526760697364807,
    -1.110158920288086,
    0.6010989546775818,
    -0.14035475254058838,
    0.3654193580150604,
    -0.16741521656513214,
    -0.020015940070152283,
    -0.11128411442041397,
    -0.13133284449577332,
    -0.3513415455818176,
    0.5359477400779724,
    0.45737287402153015,
    0.27153968811035156,
    -0.23079948127269745,
    0.26930925250053406,
    0.3160427212715149,
    0.4128386378288269,
    0.22052127122879028,
    0.467705100774765,
    0.18533258140087128,
    -0.08410605043172836,
    -0.006185730919241905,
    0.25175049901008606,
    0.3626514971256256,
    -0.05641093850135803,
    -0.10808248817920685,
    -0.31052646040916443,
    0.5109571814537048,
    -0.12477204203605652,
    -0.01590142957866192,
    0.17157328128814697,
    0.02135317772626877,
    -0.2315659373998642,
    -0.32354551553726196,
    0.09820802509784698,
    -0.10859208554029465,
    0.20717236399650574,
    -0.03581545129418373,
    0.1319006234407425,
    0.036200594156980515,
    -0.03927714005112648,
    0.10161394625902176,
    -0.19403596222400665,
    -0.21007239818572998,
    -0.4713970720767975,
    0.09240616112947464,
    -0.03446859493851662,
    0.11708781868219376,
    0.4382742941379547,
    0.46211495995521545,
    0.03890187665820122,
    -0.014398022554814816,
    -0.057197779417037964,
    0.022615090012550354,
    -0.031558819115161896,
    0.39022043347358704,
    -0.3409249186515808,
    -0.03149600699543953,
    0.5380315780639648,
    -0.3650631904602051,
    0.06006518006324768,
    0.39401549100875854,
    -0.10067460685968399,
    -0.02761784754693508,
    -0.4883541762828827,
    -0.13003003597259521,
    0.015113376080989838,
    -0.21203511953353882,
    0.04192623868584633,
    0.20438171923160553,
    -0.17072464525699615,
    -0.08403072506189346,
    -0.0059005687944591045,
    0.2948850393295288,
    -0.29302912950515747,
    0.0856720358133316,
    -0.04456372186541557,
    -0.019320853054523468,
    0.03588222712278366,
    0.08388577401638031,
    -0.07059913873672485,
    -0.4831998348236084,
    -0.16764388978481293,
    -0.16963742673397064,
    0.036057982593774796,
    -0.254582017660141,
    -0.1000027135014534,
    0.32365259528160095,
    0.18172819912433624,
    0.13264323770999908,
    -0.27832818031311035,
    0.16986027359962463,
    0.02890232391655445,
    0.3640313148498535,
    -0.12972392141819,
    -0.09540845453739166,
    0.33873432874679565,
    -0.04819059744477272,
    -0.5428067445755005,
    0.09040698409080505,
    -0.026008618995547295,
    0.022148821502923965,
    -0.3513697385787964,
    0.2680533826351166,
    -0.14040659368038177,
    0.30469727516174316,
    -0.1815425306558609,
    0.09426738321781158,
    0.093082956969738,
    -0.28065454959869385,
    0.12586309015750885,
    0.0895715206861496,
    -0.28591200709342957,
    0.12983444333076477,
    0.3250889182090759,
    0.40224069356918335,
    -0.09396017342805862,
    0.1897638440132141,
    0.09499101340770721,
    -0.38737952709198,
    0.24873358011245728,
    0.28786104917526245,
    -0.005536799319088459,
    0.004927078727632761,
    0.40670517086982727,
    0.21422527730464935,
    0.0367325060069561,
    -0.10563026368618011,
    0.05925066024065018,
    -0.27136358618736267,
    -0.2215976119041443,
    0.023395713418722153,
    -0.22352536022663116,
    -0.08244268596172333,
    0.32136255502700806,
    -0.16262850165367126,
    0.3690316677093506,
    0.2611640989780426,
    -0.11891768872737885,
    0.23589010536670685,
    -0.4869510531425476,
    -0.41197916865348816,
    -0.08889205008745193,
    0.039374928921461105,
    -0.30044224858283997,
    -0.2608494460582733,
    -0.32376495003700256,
    0.198912113904953,
    0.002541002817451954,
    -0.440695583820343,
    0.22014179825782776,
    -0.4216337203979492,
    -0.6456483602523804,
    -0.01645246148109436,
    0.010312781669199467,
    0.28539368510246277,
    -0.3555131256580353,
    0.6460240483283997,
    -0.23701688647270203,
    -0.10664814710617065,
    -0.11514309793710709,
    0.3885005712509155,
    0.03817156329751015,
    -0.4445156753063202,
    -0.11869484186172485,
    -0.09629691392183304,
    0.002967755077406764,
    -0.2313881367444992,
    -0.11757638305425644,
    0.2130281776189804,
    0.09181711077690125,
    0.03191562369465828,
    -0.12496224045753479,
    -0.17369531095027924,
    -0.011439681053161621,
    0.36649569869041443,
    0.03323919698596001,
    0.020808640867471695,
    0.24085159599781036,
    0.15209893882274628,
    -0.08540625125169754,
    0.06937634199857712,
    0.10195361077785492,
    0.6995561718940735,
    0.018468283116817474,
    0.37337490916252136,
    -0.307510644197464,
    -0.001681943191215396,
    0.17568787932395935,
    0.017371295019984245,
    0.026641540229320526,
    0.4556054472923279,
    0.039502039551734924,
    0.11852965503931046,
    0.05189691111445427,
    -0.09391472488641739,
    0.19362910091876984,
    -0.34168198704719543,
    -0.24677011370658875,
    0.24249744415283203,
    0.23781496286392212,
    0.5982329845428467,
    0.4109915792942047,
    0.08198074251413345,
    0.7867258787155151,
    0.13388559222221375,
    -0.32738927006721497,
    -0.243179589509964,
    0.6018802523612976,
    0.12498580664396286,
    -0.03801708668470383,
    -0.12778936326503754,
    -0.0847473219037056,
    -0.2399667501449585,
    0.09943181276321411,
    -0.09992112964391708,
    0.16625815629959106,
    0.005210724659264088,
    0.15881118178367615,
    0.25597310066223145,
    -0.02889414317905903,
    -0.34301695227622986,
    1.1188815832138062,
    0.7676796913146973,
    -0.16771766543388367,
    -0.12820212543010712,
    -0.4945937693119049,
    -0.3458765149116516,
    0.3096621036529541,
    -0.3250802457332611,
    -0.10117515921592712,
    0.21158456802368164,
    0.263123095035553,
    -0.049172233790159225,
    -0.10830137878656387,
    -0.12652304768562317,
    0.014577136375010014,
    -0.1620807945728302,
    0.15658053755760193,
    -0.2022905945777893,
    -0.021517274901270866,
    0.3475736677646637,
    -0.18260346353054047,
    -0.25934645533561707,
    -0.2563338279724121,
    -0.09333571046590805,
    0.12108858674764633,
    -0.05652114376425743,
    -0.2658024728298187,
    -0.5116232633590698,
    -0.06749685108661652,
    0.4022233188152313,
    0.2533136010169983,
    -0.1795707792043686,
    -0.19777968525886536,
    -0.08583041280508041,
    -0.15794441103935242,
    0.0212235189974308
  ],
  "gru_weight_hh": [
    0.5205857753753662,
    0.7632051110267639,
    -0.6004810929298401,
    -0.21978341042995453,
    0.7710590362548828,
    -1.3120248317718506,
    1.092258095741272,
    0.349455863237381,
    -0.6634134650230408,
    -0.35893866419792175,
    0.6233870387077332,
    -0.7323897480964661,
    -0.23677954077720642,
    -0.49259844422340393,
    -1.8834525346755981,
    0.5758344531059265,
    0.23502251505851746,
    -0.6194570064544678,
    0.19236741960048676,
    -1.0892301797866821,
    0.3635779917240143,
    -0.2527018189430237,
    0.007247623056173325,
    0.096138596534729,
    0.25799089670181274,
    -0.3784419298171997,
    0.38679635524749756,
    -0.618835985660553,
    0.8195437788963318,
    0.33088627457618713,
    -0.4487030506134033,
    -0.4835607707500458,
    -1.341540813446045,
    0.6401947140693665,
    0.34600529074668884,
    -0.1443389505147934,
    1.0417629480361938,
    0.1994239091873169,
    -2.1400585174560547,
    0.6686164140701294,
    -0.3171873092651367,
    -1.6566312313079834,
    1.2921918630599976,
    -1.2915700674057007,
    -1.3270374536514282,
    -1.3845288753509521,
    1.136542797088623,
    0.6890354156494141,
    -0.46094051003456116,
    0.7969529032707214,
    -0.2447359412908554,
    0.06461597979068756,
    -0.672860324382782,
    0.8419288396835327,
    -0.058869197964668274,
    0.7822360992431641,
    0.2507288455963135,
    -1.2465404272079468,
    0.5627011060714722,
    0.0990210622549057,
    -1.9965749979019165,
    -0.6264363527297974,
    -0.6817076802253723,
    -0.7005741000175476,
    0.5313222408294678,
    -0.507190465927124,
    0.2438267022371292,
    1.3254565000534058,
    -0.06324346363544464,
    0.5003432631492615,
    -0.2628280520439148,
    0.3615645468235016,
    -0.19425922632217407,
    -0.21222561597824097,
    -0.45653432607650757,
    -0.7903549075126648,
    0.7178381681442261,
    0.9964766502380371,
    -0.6052142977714539,
    1.1105000972747803,
    -0.09295359998941422,
    -0.30205878615379333,
    0.23025913536548615,
    -0.06737566739320755,
    -0.7119352221488953,
    -0.269081711769104,
    -0.257340669631958,
    0.2676840126514435,
    -0.10913524776697159,
    -0.6569467186927795,
    -0.10085927695035934,
    0.23860879242420197,
    0.13780216872692108,
    -0.25006428360939026,
    -0.26864171028137207,
    0.12946444749832153,
    -0.03119460865855217,
    -0.13141922652721405,
    0.9129384160041809,
    -0.2592751681804657,
    -0.45091426372528076,
    0.750412106513977,
    0.23502902686595917,
    0.22777093946933746,
    -0.3722767233848572,
    0.03555358573794365,
    0.4755254089832306,
    -0.2575933039188385,
    -0.17080967128276825,
    -0.6014350652694702,
    0.015519928187131882,
    -0.2676048278808594,
    0.17322179675102234,
    -0.7674058675765991,
    0.11852051317691803,
    -0.3334023058414459,
    -0.749275803565979,
    0.9609333872795105,
    -0.4221560060977936,
    0.16236327588558197,
    -0.0077459258027374744,
    -0.8277567028999329,
    0.40535810589790344,
    0.5408274531364441,
    -0.11965936422348022,
    0.7890377044677734,
    -0.19187314808368683,
    0.39359065890312195,
    1.4766925573349,
    -0.3859499990940094,
    1.7368685007095337,
    -0.8934994339942932,
    0.06051040068268776,
    -1.4183518886566162,
    -0.225515216588974,
    -0.08821636438369751,
    -1.1687040328979492,
    0.0013738059205934405,
    -0.12438404560089111,
    -0.11700774729251862,
    0.3555660545825958,
    0.9903925657272339,
    0.7749624252319336,
    0.8328660130500793,
    1.0770262479782104,
    0.2890862226486206,
    0.18075549602508545,
    0.8152623176574707,
    0.2263038456439972,
    -1.3235174417495728,
    -0.01877906173467636,
    -0.11666818708181381,
    1.2053821086883545,
    -0.372604101896286,
    -0.9904744029045105,
    1.4192276000976562,
    1.2443041801452637,
    0.08930730819702148,
    -0.3850134015083313,
    1.202209711074829,
    -0.5500452518463135,
    -0.7394636273384094,
    -0.5507983565330505,
    0.46545884013175964,
    -0.3812966048717499,
    -0.5327323079109192,
    -0.04229507967829704,
    0.08556080609560013,
    0.6309228539466858,
    -0.3521885871887207,
    -0.09034431725740433,
    -0.45579400658607483,
    -0.0893915593624115,
    0.9726003408432007,
    -0.2262606918811798,
    -0.4299498498439789,
    1.5022457838058472,
    0.22476822137832642,
    -1.4514695405960083,
    -0.41432762145996094,
    -0.2606797218322754,
    0.9933488965034485,
    0.21203294396400452,
    -0.7575882077217102,
    -0.45213571190834045,
    -0.833238959312439,
    -0.7579005360603333,
    -0.697113573551178,
    -2.3659844398498535,
    1.3229752779006958,
    -0.8426941633224487,
    0.02503170818090439,
    0.41254374384880066,
    0.4825783371925354,
    0.9592346549034119,
    1.0016121864318848,
    -0.5133867859840393,
    -0.27819764614105225,
    -0.5223751664161682,
    0.19924043118953705,
    -0.21108494699001312,
    0.2553793787956238,
    -0.09052033722400665,
    -0.6518643498420715,
    -1.0408520698547363,
    0.005556758027523756,
    -0.8612245321273804,
    -0.5152443647384644,
    0.1735602617263794,
    -0.5500427484512329,
    0.5443428158760071,
    0.21481239795684814,
    -0.1384805142879486,
    0.004307729657739401,
    -0.1749558448791504,
    -0.01397052500396967,
    -0.41803595423698425,
    -0.14447157084941864,
    -0.1322685033082962,
    -0.19666187465190887,
    -0.37185248732566833,
    -0.4103114604949951,
    0.23007851839065552,
    0.10261545330286026,
    0.307145893573761,
    1.646478533744812,
    0.06925331801176071,
    0.07361622899770737,
    1.118569254875183,
    -0.9460052251815796,
    0.09857667237520218,
    -0.35494744777679443,
    -0.29322540760040283,
    -0.28926539421081543,
    -0.5599241852760315,
    -0.13468484580516815,
    0.26796767115592957,
    0.42942142486572266,
    -0.8452470302581787,
    0.9313015937805176,
    0.7864229679107666,
    0.2841476798057556,
    -0.17139454185962677,
    0.18903975188732147,
    0.11707092821598053,
    -0.391414999961853,
    0.7190619111061096,
    0.19784952700138092,
    -0.3727034330368042,
    -0.6382765173912048,
    -0.6267926692962646,
    0.12319053709506989,
    0.16220764815807343,
    -0.16319699585437775,
    -0.9353641271591187,
    -0.3935117721557617,
    0.16232258081436157,
    0.15253232419490814,
    1.828531265258789,
    -1.0458934307098389,
    0.13905036449432373,
    -0.47684699296951294,
    -0.2864401638507843,
    -0.37527796626091003,
    -0.24330228567123413,
    0.9535617828369141,
    -1.4945133924484253,
    -1.5365939140319824,
    0.2619923949241638,
    0.849647045135498,
    1.1542630195617676,
    0.7718783020973206,
    0.8916964530944824,
    -0.5538661479949951,
    -0.1403615027666092,
    -0.25371432304382324,
    0.5925421118736267,
    0.6793267726898193,
    0.2639579772949219,
    -0.27100321650505066,
    0.001884673722088337,
    0.11773286759853363,
    0.06532959640026093,
    -0.5445921421051025,
    0.08001237362623215,
    -0.6766166090965271,
    -0.4134357273578644,
    -0.862623929977417,
    1.2271829843521118,
    0.25596508383750916,
    0.3163168132305145,
    -0.9517094492912292,
    -1.3403879404067993,
    -3.053877592086792,
    0.6110105514526367,
    1.3109959363937378,
    -0.20275630056858063,
    -1.812713861465454,
    -1.3953579664230347,
    0.3899082541465759,
    0.9481287598609924,
    1.1174883842468262,
    0.8334389925003052,
    -0.6317715644836426,
    0.14511758089065552,
    -0.4904930889606476,
    -0.1665121614933014,
    0.12143946439027786,
    -0.3469366729259491,
    -0.058361511677503586,
    -0.5783624649047852,
    -0.6023773550987244,
    -0.4409081041812897,
    0.11079636216163635,
    -0.43676722049713135,
    0.016645191237330437,
    1.7680294513702393,
    0.2548530399799347,
    -0.7173503041267395,
    -0.21744436025619507,
    -0.6897624135017395,
    -0.04813964664936066,
    0.2637122571468353,
    0.4170457720756531,
    0.519079864025116,
    0.7137343287467957,
    0.6265965700149536,
    0.18101200461387634,
    0.5274673700332642,
    0.6480021476745605,
    -0.8772040605545044,
    -0.5463743209838867,
    0.6581403017044067,
    0.8474454283714294,
    -0.35284531116485596,
    1.6049500703811646,
    -0.052090298384428024,
    0.37767359614372253,
    -0.1751142144203186,
    -0.7938817143440247,
    -0.36801451444625854,
    -0.11583226174116135,
    -0.3254815638065338,
    0.3897934556007385,
    0.03377741947770119,
    0.04359256476163864,
    0.18151108920574188,
    0.62828528881073,
    0.19436629116535187,
    0.7342783808708191,
    -0.63958740234375,
    -0.11755839735269547,
    -0.09252958744764328,
    0.6290099024772644,
    0.18276295065879822,
    -0.6840893030166626,
    0.06637129187583923,
    0.8262519836425781,
    0.15170180797576904,
    -0.5327836871147156,
    0.06491632759571075,
    0.8604053854942322,
    -0.2927994430065155,
    -0.2766628563404083,
    0.8720940351486206,
    0.4432297945022583,
    0.425231009721756,
    -0.27256911993026733,
    1.4276994466781616,
    -1.3549704551696777,
    -1.5574650764465332,
    -0.6095249652862549,
    0.45231151580810547,
    -0.0793595090508461,
    -0.5612873435020447,
    0.9241183996200562,
    0.26493725180625916,
    -0.03479861840605736,
    -0.6764526963233948,
    -0.6009914875030518,
    0.20667710900306702,
    1.7776702642440796,
    -0.957981526851654,
    -0.6950531005859375,
    0.6779615879058838,
    0.18352475762367249,
    -0.10214356333017349,
    0.07310675829648972,
    1.5551369190216064,
    1.2567631006240845,
    0.7840405106544495,
    -0.045347608625888824,
    0.028881030157208443,
    1.3690447807312012,
    -0.4325607419013977,
    0.5281409025192261,
    0.34298643469810486,
    0.07290025055408478,
    0.7754125595092773,
    1.2565380334854126,
    0.8951641321182251,
    0.4230014979839325,
    -0.15218092501163483,
    0.2428741604089737,
    0.5309604406356812,
    0.6158062219619751,
    0.8269663453102112,
    0.17249462008476257,
    -0.32384422421455383,
    0.42363807559013367,
    -0.6467697620391846,
    -0.5380411148071289,
    -1.0564374923706055,
    0.646249532699585,
    0.5781850218772888,
    -0.9245885610580444,
    0.5156515836715698,
    -0.9968935251235962,
    -0.3907783329486847,
    -1.2562440633773804,
    -1.0702989101409912,
    -1.461437463760376,
    0.8369696140289307,
    -0.40623557567596436,
    1.0278549194335938,
    -0.9607687592506409,
    -0.6234152913093567,
    0.18513818085193634,
    -0.6641082763671875,
    1.574638843536377,
    0.21402977406978607,
    1.6267849206924438,
    -0.3280678987503052,
    0.8515154123306274,
    -0.8045635223388672,
    -0.23487547039985657,
    -1.112964153289795,
    -0.20133180916309357,
    0.6692395806312561,
    0.5085143446922302,
    -1.0174161195755005,
    -1.453201174736023,
    -0.26301926374435425,
    -0.36361441016197205,
    -2.2028207778930664,
    0.4093051254749298,
    -0.8338434100151062,
    1.0122737884521484,
    0.6481176614761353,
    0.48170334100723267,
    0.6852009296417236,
    -0.6882073283195496,
    -0.15713749825954437,
    0.022430280223488808,
    -0.1389276087284088,
    0.36132311820983887,
    0.19125331938266754,
    0.42265957593917847,
    -0.3390142321586609,
    -0.16391824185848236,
    -0.6036004424095154,
    -0.0698089674115181,
    0.6079146862030029,
    -0.14850455522537231,
    0.3575212061405182,
    0.27649548649787903,
    0.8480091094970703,
    -0.1354994773864746,
    0.20635120570659637,
    -0.17979522049427032,
    -0.23503921926021576,
    0.39835822582244873,
    0.09682850539684296,
    0.06888539344072342,
    -0.5084530711174011,
    -0.1456567645072937,
    -0.6488637924194336,
    -0.07594111561775208,
    0.5548072457313538,
    0.255756676197052,
    -0.36567890644073486,
    0.08116654306650162,
    0.6670322418212891,
    -0.18491412699222565,
    0.14745841920375824,
    1.0590229034423828,
    -0.13250327110290527,
    -1.2497459650039673,
    1.3517935276031494,
    -0.21712180972099304,
    -1.180417537689209,
    -0.9780800342559814,
    0.5006528496742249,
    -0.2803063988685608,
    0.5131852626800537,
    0.9677225351333618,
    -0.9802871942520142,
    -0.13141289353370667,
    -2.518272638320923,
    0.3079509735107422,
    -0.6577746272087097,
    1.216860294342041,
    0.6039116978645325,
    0.35339242219924927,
    -0.18178319931030273,
    -0.371527761220932,
    1.2063641548156738,
    -0.14429187774658203,
    -1.028347373008728,
    -0.6949300169944763,
    -0.80259770154953,
    -0.3405151069164276,
    -0.7940321564674377,
    -0.6710617542266846,
    -0.7066664099693298,
    -0.849870502948761,
    -0.03806200250983238,
    -0.07906895875930786,
    -0.02956346794962883,
    0.46802225708961487,
    0.38491949439048767,
    -0.20482881367206573,
    -0.7543497085571289,
    -0.24736276268959045,
    -0.2610052227973938,
    -1.3395516872406006,
    -0.36423543095588684,
    0.3099353611469269,
    0.07950001209974289,
    -0.3504355847835541,
    0.0126541368663311,
    1.0650851726531982,
    0.6841704845428467,
    -0.00507313571870327,
    -0.20836272835731506,
    0.5765917301177979,
    -0.6072133183479309,
    0.06954091042280197,
    0.3622225821018219,
    0.10356669872999191,
    0.3937681019306183,
    -0.8971982002258301,
    -0.29969322681427,
    -0.018917419016361237,
    -0.3021121025085449,
    -0.20353464782238007,
    -0.05533817410469055,
    -0.17253655195236206,
    1.1678386926651,
    -0.02784089930355549,
    -1.4616985321044922,
    1.4315263032913208,
    -0.592055082321167,
    0.43848973512649536,
    -0.387524276971817,
    0.02776828408241272,
    -1.6374424695968628,
    -1.1206188201904297,
    0.1780892312526703,
    -0.3316625654697418,
    0.6652711033821106,
    -1.1370611190795898,
    0.15256677567958832,
    -0.23962131142616272,
    -0.593765139579773,
    -0.7298448085784912,
    0.08500556647777557,
    0.10912487655878067,
    -1.3073021173477173,
    -0.6062895655632019,
    0.18828892707824707,
    -0.7237061858177185,
    -0.4740983843803406,
    0.660223126411438,
    -0.6443431377410889,
    1.1055902242660522,
    -0.4338076412677765,
    0.22461861371994019,
    0.2392725795507431,
    -0.11171022057533264,
    0.03400396183133125,
    0.4028041958808899,
    0.028748610988259315,
    -0.16146527230739594,
    0.07254103571176529,
    0.9977766871452332,
    -0.8273763656616211,
    -0.021895114332437515,
    0.21712002158164978,
    -0.1753891557455063,
    0.4835968613624573,
    0.08488808572292328,
    -0.49086758494377136,
    -0.3684057295322418,
    -0.2568148374557495,
    0.27604302763938904,
    -0.1422940045595169,
    0.4040588140487671,
    0.28723928332328796,
    -0.5933946967124939,
    -0.32084670662879944,
    -0.12458763271570206,
    0.21043714880943298,
    -0.08743636310100555,
    -0.9249299764633179,
    1.3687940835952759,
    -0.2910701036453247,
    -0.15186026692390442,
    0.16869105398654938,
    0.39342376589775085,
    0.1611478179693222,
    -0.0576479509472847,
    0.02542983926832676,
    -1.1761449575424194,
    -0.3158469498157501,
    -0.105727419257164,
    -0.33602070808410645,
    0.03665242716670036,
    -0.37762269377708435,
    -0.6566969752311707,
    1.3001481294631958,
    -0.8027510046958923,
    -0.3087555468082428,
    -0.4251489043235779,
    -0.9829091429710388,
    -0.5794323682785034,
    -0.32783934473991394,
    0.34374693036079407,
    0.020059596747159958,
    0.8659993410110474,
    -0.3696964383125305,
    -0.33041149377822876,
    -0.3267744779586792,
    -0.15418246388435364,
    0.11879674345254898,
    -0.4029045104980469,
    -0.1333620399236679,
    0.6549498438835144,
    0.23219960927963257,
    -0.16621574759483337,
    -0.526070773601532,
    0.0632539615035057,
    -0.08223682641983032,
    0.6376868486404419,
    0.3266957104206085,
    0.1542029231786728,
    0.16635744273662567,
    0.03802284598350525,
    0.08355824649333954,
    0.6008455157279968,
    -1.0312796831130981,
    0.09812330454587936,
    0.9408602714538574,
    0.6627965569496155,
    0.07190060615539551,
    0.3223119080066681,
    -0.6636379361152649,
    0.17409348487854004,
    -0.6160725355148315,
    -0.529137134552002,
    -1.9877784252166748,
    -0.15149901807308197,
    0.2624368667602539,
    -0.8480421304702759,
    -0.49195101857185364,
    -0.6788289546966553,
    0.05021526291966438,
    0.02295398898422718,
    -0.6351505517959595,
    0.07347112149000168,
    -0.2636086642742157,
    -0.03762423247098923,
    0.6622214913368225,
    0.003175207180902362,
    0.22126345336437225,
    -0.525300145149231,
    0.4523296356201172,
    0.8122096657752991,
    -0.5408048629760742,
    -0.4962921738624573,
    0.09359490126371384,
    -0.1329760104417801,
    -0.7300670146942139,
    0.14698678255081177,
    0.48054152727127075,
    -0.3978167772293091,
    0.3632538914680481,
    0.7661357522010803,
    0.025432173162698746,
    -1.313956379890442,
    0.32261812686920166,
    -0.765032947063446,
    -0.10496221482753754,
    -0.20734648406505585,
    0.8744235038757324,
    -0.32762235403060913,
    0.44367051124572754,
    -0.5592756867408752,
    1.0934072732925415,
    -0.7073091864585876,
    0.26124635338783264,
    -0.5907641053199768,
    1.1021356582641602,
    0.019787956029176712,
    0.3309761583805084,
    -0.10121078044176102,
    -0.017426520586013794,
    -0.5061017274856567,
    -1.3698887825012207,
    1.027779459953308,
    -0.7434340119361877,
    0.3713199198246002,
    -0.7229456305503845,
    -0.09181009232997894,
    0.10426057130098343,
    -0.01487454678863287,
    -0.728937566280365,
    -0.5647662878036499,
    -0.6388244032859802,
    -0.1536175012588501,
    -0.3267931342124939,
    0.03255581855773926,
    -0.00041013697045855224,
    -0.2235511690378189,
    -1.1767960786819458,
    -1.1608128547668457,
    0.46310147643089294,
    -0.1843256652355194,
    -0.5688125491142273,
    0.6798569560050964,
    -0.6510394215583801,
    0.27173012495040894,
    0.5174194574356079,
    0.3801040053367615,
    0.1163603663444519,
    0.024251705035567284,
    0.7414354681968689,
    0.25474444031715393,
    0.23646758496761322,
    -0.65287846326828,
    0.914916455745697,
    -0.41069474816322327,
    -0.4585622549057007,
    0.2157294601202011,
    -0.36639973521232605,
    -0.1586512178182602,
    -0.42978715896606445,
    -0.26130545139312744,
    0.3242369592189789,
    0.6945772171020508,
    0.15585212409496307,
    0.2069329023361206,
    -1.2772835493087769,
    -0.29831695556640625,
    0.7022157311439514,
    -0.3765517771244049,
    -0.2817171514034271,
    -0.056517522782087326,
    0.4092196524143219,
    1.2592796087265015,
    0.3339887261390686,
    1.0086368322372437,
    -1.0577847957611084,
    -0.44716978073120117,
    0.20563311874866486,
    -0.6994472742080688,
    1.0771371126174927,
    -0.659451425075531
  ],
  "gru_bias_ih": [
    -0.40077900886535645,
    -0.36863037943840027,
    0.3839259445667267,
    -0.3505125939846039,
    -0.07617191970348358,
    0.25727981328964233,
    0.5500652194023132,
    0.15457691252231598,
    0.8161016702651978,
    -0.10374440997838974,
    -0.9976077675819397,
    -0.8394855260848999,
    0.4745215177536011,
    0.8588099479675293,
    -0.3162691295146942,
    -1.11113703250885,
    0.466235488653183,
    -0.7595284581184387,
    0.5480857491493225,
    0.030129482969641685,
    -0.7243748307228088,
    -0.17057651281356812,
    -0.7322454452514648,
    -0.8013989925384521,
    -1.14003324508667,
    0.06865465641021729,
    -1.2292792797088623,
    -0.8242977857589722,
    1.5749884843826294,
    1.5798777341842651,
    -0.7957925796508789,
    -0.43360012769699097,
    0.06429647654294968,
    0.0901012271642685,
    1.4826757907867432,
    0.06916549056768417,
    -0.4603191316127777,
    0.09422694891691208,
    0.10185999423265457,
    0.06350689381361008,
    0.046786922961473465,
    0.519077718257904,
    -0.12252381443977356,
    -0.012575263157486916,
    -0.0425492487847805,
    -0.1622554361820221,
    0.11770281940698624,
    -0.25101926922798157
  ],
  "gru_bias_hh": [
    -0.5393965840339661,
    -0.5142740607261658,
    0.37600815296173096,
    -0.4255220890045166,
    0.0726095512509346,
    -0.007510192226618528,
    0.4108879864215851,
    0.1251232624053955,
    0.5935345888137817,
    0.040293361991643906,
    -1.045034646987915,
    -0.8000830411911011,
    0.6161506772041321,
    0.8778336048126221,
    -0.2200118452310562,
    -0.8895521759986877,
    0.612770140171051,
    -0.8867297172546387,
    0.5149567127227783,
    -0.22944281995296478,
    -1.0831390619277954,
    -0.3735966682434082,
    -0.4703989326953888,
    -0.8013938665390015,
    -0.7649322748184204,
    -0.17673170566558838,
    -1.4356379508972168,
    -0.9274662137031555,
    1.5379739999771118,
    1.3991889953613281,
    -1.1741942167282104,
    -0.4939175844192505,
    -0.7999199032783508,
    -0.12675340473651886,
    0.8572976589202881,
    -0.5928505659103394,
    0.4440925717353821,
    0.16313022375106812,
    -0.47421014308929443,
    0.2671932280063629,
    -0.08774545043706894,
    0.11085181683301926,
    0.17163178324699402,
    -0.22887951135635376,
    0.040157053619623184,
    -0.23258653283119202,
    0.41912680864334106,
    -0.6259890198707581
  ],
  "example_input": [
    -1.0,
    -0.9411764740943909,
    -0.8823529481887817,
    -0.8235294222831726,
    -0.7647058963775635,
    -0.7058823704719543,
    -0.6470588445663452,
    -0.5882353186607361,
    -0.529411792755127,
    -0.47058823704719543,
    -0.4117647111415863,
    -0.3529411852359772,
    -0.29411762952804565,
    -0.23529411852359772,
    -0.1764705777168274,
    -0.11764705181121826,
    -0.05882352590560913,
    -3.725290298461914e-09,
    0.05882352590560913,
    0.11764705181121826,
    0.1764705777168274,
    0.23529411852359772,
    0.29411762952804565,
    0.3529411852359772,
    0.4117647111415863,
    0.47058823704719543,
    0.529411792755127,
    0.5882353186607361,
    0.6470588445663452,
    0.7058823704719543,
    0.7647058963775635,
    0.8235294222831726,
    0.8823529481887817,
    0.9411764740943909,
    1.0
  ],
  "example_output": [
    -0.42993712425231934,
    -1.1137608289718628,
    0.28834131360054016,
    -0.3802269995212555
  ],
  "checkpoint_name": "best_checkpoint_model_681.pt",
  "checkpoint_step": -1,
  "requires_obs_normalization": false,
  "compat_reset_output": [
    0.8133857846260071,
    0.02727609872817993,
    0.5056312084197998,
    -0.06212097033858299
  ],
  "compat_hover_output": [
    0.8133857846260071,
    0.02727609872817993,
    0.5056312084197998,
    -0.06212097033858299
  ],
  "export_format": "rl_tools_checkpoint_blob"
}