{
  "observation_dim": 35,
  "action_dim": 4,
  "structure": "mlp_gru",
  "rnn_type": "gru",
  "gru_input_dim": 16,
  "gru_hidden_dim": 16,
  "gru_num_layers": 1,
  "activation": "elu",
  "use_observation_normalization": false,
  "normalization_folded_into_first_layer": false,
  "observation_mean": [
    0.0,
    0.0,
    0.0,
    0.0,
    0.0,
    0.0,
    0.0,
    0.0,
    0.0,
    0.0,
    0.0,
    0.0,
    0.0,
    0.0,
    0.0,
    0.0,
    0.0,
    0.0,
    0.0,
    0.0,
    0.0,
    0.0,
    0.0,
    0.0,
    0.0,
    0.0,
    0.0,
    0.0,
    0.0,
    0.0,
    0.0,
    0.0,
    0.0,
    0.0,
    0.0
  ],
  "observation_inv_std": [
    1.0,
    1.0,
    1.0,
    1.0,
    1.0,
    1.0,
    1.0,
    1.0,
    1.0,
    1.0,
    1.0,
    1.0,
    1.0,
    1.0,
    1.0,
    1.0,
    1.0,
    1.0,
    1.0,
    1.0,
    1.0,
    1.0,
    1.0,
    1.0,
    1.0,
    1.0,
    1.0,
    1.0,
    1.0,
    1.0,
    1.0,
    1.0,
    1.0,
    1.0,
    1.0
  ],
  "actor_encoder_dims": [
    35,
    16,
    16
  ],
  "actor_head_dims": [
    16,
    4
  ],
  "actor_encoder_weights": [
    [
      0.5495906472206116,
      0.974784255027771,
      -0.014500172808766365,
      0.10017052292823792,
      0.032400693744421005,
      1.3099340200424194,
      0.7415133118629456,
      0.14703333377838135,
      1.7069036960601807,
      -0.666869580745697,
      -2.037731885910034,
      0.21931670606136322,
      2.1398775577545166,
      -1.4080252647399902,
      -0.07448287308216095,
      0.406946063041687,
      0.7037587761878967,
      0.5976061820983887,
      -0.5595864057540894,
      -0.7557415962219238,
      0.5270677208900452,
      -0.165469229221344,
      -0.6628596782684326,
      -0.21562990546226501,
      0.01262896228581667,
      -0.10774253308773041,
      -1.2267873287200928,
      -1.781711459159851,
      -0.3659404516220093,
      0.5783005356788635,
      -0.22277934849262238,
      0.26563164591789246,
      0.04953000321984291,
      -0.08834870904684067,
      -0.22340139746665955,
      3.105401039123535,
      -2.1507654190063477,
      -1.8153823614120483,
      0.07352866232395172,
      -0.45664745569229126,
      0.9166690111160278,
      -0.1634564995765686,
      -0.1761886328458786,
      -1.3034613132476807,
      -1.7707407474517822,
      1.8550447225570679,
      -0.10371629893779755,
      -4.967206001281738,
      0.8183225989341736,
      -0.08155637234449387,
      1.3542348146438599,
      -0.2875528037548065,
      -0.48770806193351746,
      0.1717098504304886,
      1.3279798030853271,
      1.172070860862732,
      -0.008181155659258366,
      0.2797205150127411,
      0.06417058408260345,
      0.06144627183675766,
      -0.9198114275932312,
      0.5043849349021912,
      -0.20549839735031128,
      1.0711344480514526,
      -0.024959512054920197,
      0.0859932079911232,
      -0.017262203618884087,
      -0.6510127186775208,
      -0.10774338245391846,
      0.05524859204888344,
      -0.038119517266750336,
      -1.1848504543304443,
      0.45255735516548157,
      -0.10827890038490295,
      4.416646957397461,
      1.4739879369735718,
      -4.648189067840576,
      -0.11587317287921906,
      -2.3207385540008545,
      -1.4722872972488403,
      1.231607437133789,
      0.14329713582992554,
      1.041356086730957,
      2.5153708457946777,
      -0.26892799139022827,
      -0.807647705078125,
      -1.575986385345459,
      0.5296091437339783,
      0.8189342617988586,
      -0.09891100972890854,
      -4.366157531738281,
      0.008552012033760548,
      -0.001555655268020928,
      -0.02099102921783924,
      0.01995394192636013,
      0.08895497769117355,
      0.15482883155345917,
      -0.4908329248428345,
      0.4931487441062927,
      -0.09537637233734131,
      -0.9030794501304626,
      -0.013339539058506489,
      -0.021185096353292465,
      -0.1624106913805008,
      0.03407203033566475,
      0.9927196502685547,
      -1.209306240081787,
      1.6270873546600342,
      -0.053198788315057755,
      -0.8225574493408203,
      0.8733648657798767,
      0.9911507368087769,
      0.0870092362165451,
      -0.7278699278831482,
      -0.7670307755470276,
      0.6123417615890503,
      0.10055232048034668,
      1.0289485454559326,
      0.0671914592385292,
      0.07919446378946304,
      0.23271363973617554,
      -0.31551456451416016,
      0.9033405184745789,
      -0.4244840145111084,
      0.7467496991157532,
      0.01673644222319126,
      0.1306917816400528,
      0.2787640690803528,
      0.03574485331773758,
      0.01504844706505537,
      0.3210506737232208,
      -0.23756574094295502,
      0.07687600702047348,
      -0.14643487334251404,
      0.1316857784986496,
      -0.19021454453468323,
      -0.7281796336174011,
      0.09071692824363708,
      -1.1077988147735596,
      0.397616982460022,
      -0.33094069361686707,
      0.9924079775810242,
      -1.8548994064331055,
      -0.13441231846809387,
      -0.2451176941394806,
      1.4277129173278809,
      0.18091127276420593,
      0.162210613489151,
      2.3200502395629883,
      -1.4105733633041382,
      -2.2224490642547607,
      -0.10193224996328354,
      1.803804636001587,
      -1.1168076992034912,
      -0.02469532936811447,
      -0.8857929110527039,
      0.808897852897644,
      -1.2841111421585083,
      0.39531877636909485,
      -0.11890289932489395,
      2.1857752799987793,
      -0.1344124972820282,
      -0.1626082956790924,
      -0.031426068395376205,
      0.16629555821418762,
      -0.9449873566627502,
      0.405225545167923,
      -0.2233147770166397,
      0.6671199798583984,
      -0.7048386931419373,
      0.10283870995044708,
      -0.31487640738487244,
      0.33824655413627625,
      -0.07730641216039658,
      0.1718694567680359,
      0.5290773510932922,
      -2.366142511367798,
      0.38907772302627563,
      -0.2162339985370636,
      -3.0804104804992676,
      0.5350668430328369,
      2.25516676902771,
      -0.22612494230270386,
      -1.0266194343566895,
      -0.7623917460441589,
      2.2392518520355225,
      -0.16384996473789215,
      -1.1778203248977661,
      3.508033275604248,
      0.023445039987564087,
      -0.9135802984237671,
      -1.682824730873108,
      0.1280335783958435,
      1.2517555952072144,
      0.4247826635837555,
      2.2543623447418213,
      -0.05010855570435524,
      -0.03062865138053894,
      -0.08047590404748917,
      -0.06496256589889526,
      -0.054636150598526,
      0.33179476857185364,
      -0.295727014541626,
      -0.5707939267158508,
      -0.47302401065826416,
      0.5103151202201843,
      0.06032545864582062,
      -0.33858853578567505,
      0.4553290903568268,
      0.4603929817676544,
      -3.741380214691162,
      1.3328495025634766,
      -0.11659615486860275,
      -0.043700024485588074,
      -0.25441479682922363,
      -1.096431851387024,
      -0.16014216840267181,
      0.09964833408594131,
      0.36488595604896545,
      1.481562614440918,
      -0.23979532718658447,
      0.15061232447624207,
      4.578547477722168,
      -2.6924779415130615,
      0.14933374524116516,
      -2.288827419281006,
      0.4179311990737915,
      0.0760602056980133,
      -1.6472748517990112,
      -1.7003623247146606,
      0.8882942795753479,
      -0.07498998194932938,
      -0.007692188024520874,
      0.04913141205906868,
      -0.044566765427589417,
      0.3193404972553253,
      -0.5300700068473816,
      -0.3583153784275055,
      0.21228569746017456,
      -0.1847405582666397,
      -0.24783653020858765,
      0.1433897316455841,
      -0.26586875319480896,
      -0.11511588841676712,
      0.0035263793542981148,
      2.560040235519409,
      2.2210493087768555,
      -0.524669349193573,
      -0.2119930386543274,
      -1.3398447036743164,
      2.201133966445923,
      0.9652285575866699,
      -0.3405018448829651,
      0.5009890794754028,
      -3.0798375606536865,
      -0.6923157572746277,
      -0.30617037415504456,
      -4.044012069702148,
      -1.1513936519622803,
      -0.035254087299108505,
      0.885965883731842,
      0.41195663809776306,
      -0.26716867089271545,
      0.948016345500946,
      1.921014428138733,
      0.19266508519649506,
      0.2616071403026581,
      0.13306653499603271,
      0.004968998488038778,
      -0.022929631173610687,
      0.096859410405159,
      0.5168526768684387,
      0.3219629228115082,
      0.0034458113368600607,
      1.2922894954681396,
      0.633327305316925,
      -0.03902480751276016,
      0.39518657326698303,
      -0.0736866146326065,
      0.3430559039115906,
      -0.8313707709312439,
      -0.597138524055481,
      -0.4400455951690674,
      0.15855570137500763,
      -0.583625078201294,
      -1.7798066139221191,
      -0.36846598982810974,
      0.20709021389484406,
      0.9139691591262817,
      1.187082052230835,
      0.5112326741218567,
      0.1488037109375,
      0.18215858936309814,
      1.3252320289611816,
      -0.27270838618278503,
      0.004839533008635044,
      1.0313525199890137,
      0.4735911190509796,
      2.5085830688476562,
      -0.01043799240142107,
      -0.40707534551620483,
      -0.024157745763659477,
      -0.07531312108039856,
      0.1043352484703064,
      0.0020302049815654755,
      0.4376470744609833,
      0.17659209668636322,
      -0.04487239196896553,
      -0.2375122606754303,
      0.09308530390262604,
      0.34745222330093384,
      -0.28523337841033936,
      -0.27018290758132935,
      0.03447360917925835,
      -0.47363054752349854,
      0.34399154782295227,
      -5.476030349731445,
      1.3669439554214478,
      -0.028252771124243736,
      -0.4520314037799835,
      0.6615354418754578,
      0.7580119967460632,
      -0.10367036610841751,
      -3.0602712631225586,
      -1.3042209148406982,
      2.5017616748809814,
      -0.05859454348683357,
      -1.9283390045166016,
      7.338357448577881,
      -0.17099304497241974,
      0.40528765320777893,
      -2.4304397106170654,
      0.3328383266925812,
      1.9538171291351318,
      0.40390047430992126,
      0.7905641794204712,
      0.016544755548238754,
      -0.005011986009776592,
      0.07175219804048538,
      -0.014474739320576191,
      0.23116753995418549,
      0.15656574070453644,
      0.4170583486557007,
      0.21320568025112152,
      -0.0450408011674881,
      0.9097901582717896,
      0.08789979666471481,
      0.16512800753116608,
      -0.20517143607139587,
      0.16259585320949554,
      1.557195782661438,
      -1.6646744012832642,
      -0.8499252200126648,
      0.14051882922649384,
      -0.4630272686481476,
      0.9198508858680725,
      0.12912248075008392,
      0.20601893961429596,
      -1.6307945251464844,
      -1.351890206336975,
      2.460397481918335,
      0.1294449418783188,
      -1.6159433126449585,
      2.112917423248291,
      0.18967776000499725,
      0.7055482864379883,
      -1.5659748315811157,
      0.7340548038482666,
      0.26867058873176575,
      -0.5243642926216125,
      2.209404468536377,
      0.06906195729970932,
      0.09873024374246597,
      0.12698955833911896,
      0.02854796126484871,
      0.04760923981666565,
      0.1579822152853012,
      -0.293525755405426,
      0.20759989321231842,
      0.06526206433773041,
      -0.22705182433128357,
      -0.12933745980262756,
      -0.9236317276954651,
      0.29525813460350037,
      -0.3110406696796417,
      2.2188470363616943,
      3.8293938636779785,
      -0.100551538169384,
      -0.06591642647981644,
      -0.4101766347885132,
      2.4882493019104004,
      -0.05213932320475578,
      0.008438761346042156,
      1.2134990692138672,
      -3.191372871398926,
      -1.1806232929229736,
      -0.07864631712436676,
      -4.636394500732422,
      -5.45305061340332,
      -0.15371651947498322,
      2.2245168685913086,
      2.1060774326324463,
      0.021572433412075043,
      -1.9579041004180908,
      1.5334805250167847,
      0.017943125218153,
      -0.10680952668190002,
      -0.006464529316872358,
      0.0038276182021945715,
      -0.03186580911278725,
      0.1286085993051529,
      0.8317383527755737,
      0.5001130104064941,
      0.24400316178798676,
      -0.40428805351257324,
      -0.58138507604599,
      0.036136385053396225,
      0.0932680144906044,
      -0.012518445029854774,
      -0.07221457362174988,
      0.0609479621052742,
      1.0412123203277588,
      -0.13707374036312103,
      0.24479857087135315,
      -1.49639892578125,
      0.7384070158004761,
      1.794931411743164,
      0.07009564340114594,
      0.34078261256217957,
      -0.020350445061922073,
      0.06853975355625153,
      0.03848870471119881,
      1.5664057731628418,
      -2.6379644870758057,
      -0.05822117626667023,
      0.040161967277526855,
      -0.35092225670814514,
      0.5124884247779846,
      -0.519179105758667,
      -0.5406439304351807,
      2.2170815467834473,
      0.014862729236483574,
      -0.042055267840623856,
      -0.027709780260920525,
      0.015649788081645966,
      -0.9875025153160095,
      -0.026718519628047943,
      0.4039634168148041,
      0.5253537893295288,
      0.2753826081752777,
      -0.8193463087081909,
      -1.4438800811767578,
      0.39447373151779175,
      0.2687593102455139,
      -0.07490845769643784,
      -0.8122708797454834,
      -0.3856872618198395,
      -8.554092407226562,
      0.11950508505105972,
      0.34088239073753357,
      1.4082356691360474,
      -0.09533223509788513,
      0.06319160759449005,
      -1.237497329711914,
      -1.4611107110977173,
      1.367679238319397,
      -0.03680093213915825,
      -0.6947155594825745,
      0.009442015551030636,
      0.1298486888408661,
      0.3758644163608551,
      -0.2408379763364792,
      -6.407637119293213,
      -0.07340116053819656,
      0.37883853912353516,
      0.02809382975101471,
      -0.05800093337893486,
      -0.023194504901766777,
      -0.03283503279089928,
      0.03716213256120682,
      -0.22838528454303741,
      0.45103493332862854,
      0.17694735527038574,
      -0.03832206875085831,
      0.016429224982857704,
      0.5545462369918823,
      -0.04224536940455437,
      0.049231480807065964,
      -0.06294070929288864,
      0.12808389961719513,
      0.7556062340736389,
      0.6478561758995056,
      -0.4293612837791443,
      -0.0077857873402535915,
      0.6003507375717163,
      1.0139954090118408,
      -0.4470999538898468,
      -0.07207521051168442,
      -0.3886430859565735,
      -1.7979577779769897,
      1.1147563457489014,
      0.07748080044984818,
      -2.2584996223449707,
      -0.9266318082809448,
      0.19923804700374603,
      0.5936901569366455,
      -0.09262072294950485,
      0.7663877606391907,
      -0.38426223397254944,
      1.1160368919372559,
      0.39750394225120544,
      -1.4278101921081543,
      -1.0936590433120728,
      -0.20973604917526245,
      0.07275081425905228,
      -0.12327232956886292,
      1.303371548652649,
      0.5395046472549438,
      -0.23855429887771606,
      0.49671661853790283,
      0.42296528816223145,
      0.05549805611371994,
      0.22896502912044525,
      -0.05155942961573601,
      0.24483753740787506,
      1.5895367860794067,
      -1.3788272142410278,
      -0.4876473844051361,
      -0.15594442188739777,
      1.0467087030410767,
      -1.3753567934036255,
      -0.7322477698326111,
      0.0924597829580307,
      -1.1178096532821655,
      0.9015222787857056,
      1.11249577999115,
      0.021301044151186943,
      -3.347747325897217,
      3.1001996994018555,
      -0.11744751036167145,
      1.844947099685669,
      -2.6490254402160645,
      -0.6260846853256226,
      1.831966757774353,
      0.975867748260498,
      -0.7287566661834717,
      -0.43499743938446045,
      -0.07674034684896469,
      -0.1018652692437172,
      -0.01243648212403059,
      -0.514532744884491,
      0.04837816581130028,
      0.27430862188339233,
      -0.4835340976715088,
      -0.26354196667671204,
      1.7585344314575195,
      -0.22600258886814117,
      0.1770840436220169,
      0.103925921022892,
      -0.43248236179351807
    ],
    [
      0.11490782350301743,
      -0.07741284370422363,
      -0.2805844843387604,
      0.14268521964550018,
      0.05913568660616875,
      -0.16737501323223114,
      0.4064877927303314,
      0.1476905792951584,
      -0.12365756183862686,
      -0.8195759057998657,
      -0.12272173166275024,
      0.8382754921913147,
      0.1616530567407608,
      -0.5553123354911804,
      -0.021878693252801895,
      -0.2803106904029846,
      -0.11082661896944046,
      -0.1843065321445465,
      0.14135289192199707,
      0.12558424472808838,
      -0.4126444458961487,
      0.10974428802728653,
      0.3817545175552368,
      -0.045369863510131836,
      -0.060422420501708984,
      -0.48360034823417664,
      0.24097642302513123,
      0.32874831557273865,
      0.34279537200927734,
      0.8632081747055054,
      0.32125699520111084,
      0.0580722950398922,
      0.06745673716068268,
      0.6913141012191772,
      -0.4443165361881256,
      0.07222671061754227,
      -0.19922854006290436,
      0.05858692154288292,
      -0.34340929985046387,
      0.25814157724380493,
      -0.28160595893859863,
      0.32565295696258545,
      -0.0344587005674839,
      0.6587556004524231,
      -0.02907506376504898,
      0.42060229182243347,
      0.3650827705860138,
      0.22485189139842987,
      -0.2847011983394623,
      -0.017941920086741447,
      0.09159208089113235,
      0.20115147531032562,
      0.24587614834308624,
      -0.08927126228809357,
      0.21802565455436707,
      0.004482098389416933,
      -0.4088657796382904,
      0.04620184376835823,
      -0.45408493280410767,
      0.0058913277462124825,
      -0.3073863983154297,
      0.22950634360313416,
      0.2689891755580902,
      -0.3132920563220978,
      -0.06283985823392868,
      0.6010778546333313,
      0.6833938956260681,
      -0.3844248354434967,
      -0.15077610313892365,
      -0.34350690245628357,
      -0.13911406695842743,
      -0.11803267896175385,
      -0.17937874794006348,
      -0.406304270029068,
      0.0393863171339035,
      0.26273655891418457,
      -0.34728965163230896,
      -0.18927152454853058,
      0.31337210536003113,
      0.2322831153869629,
      0.045239437371492386,
      -0.25457704067230225,
      -0.03047041781246662,
      0.2544124126434326,
      -0.4133419096469879,
      -0.5608654022216797,
      0.11933819949626923,
      -0.1836514174938202,
      0.0656592845916748,
      -0.06831145286560059,
      0.06944359838962555,
      0.05075480416417122,
      -0.21527832746505737,
      0.4485394060611725,
      -0.21932052075862885,
      0.08964154124259949,
      0.20208537578582764,
      0.00013908995606470853,
      -0.13174597918987274,
      -0.022730477154254913,
      -0.253481924533844,
      0.04205860197544098,
      0.2578866183757782,
      0.2175433486700058,
      -0.034071143716573715,
      0.1992185413837433,
      0.0524955578148365,
      0.16082081198692322,
      -0.1556088775396347,
      0.11529634892940521,
      0.05598032474517822,
      -0.05190684646368027,
      0.22364844381809235,
      -0.30510613322257996,
      -0.2151407152414322,
      -0.05631415173411369,
      0.04951385408639908,
      0.08933082222938538,
      -0.15758468210697174,
      -0.3567763864994049,
      -0.17966783046722412,
      -0.07856456935405731,
      0.24068789184093475,
      0.3356285095214844,
      -0.049462247639894485,
      -0.5376361012458801,
      -0.019577020779252052,
      -0.0005511412164196372,
      -0.14573067426681519,
      0.5495597720146179,
      -0.53656005859375,
      -0.09592871367931366,
      -0.04752742499113083,
      -0.05521709844470024,
      0.22728277742862701,
      0.15444211661815643,
      0.389017790555954,
      -0.0804772600531578,
      0.1486268937587738,
      -0.13622458279132843,
      -0.4974965751171112,
      -0.25035327672958374,
      0.5183089971542358,
      0.02581985481083393,
      -0.03572702035307884,
      0.1567499339580536,
      -0.06352583318948746,
      -0.10385929048061371,
      -0.12043697386980057,
      0.2521251440048218,
      0.016842179000377655,
      0.08866792917251587,
      -0.24854163825511932,
      0.1888672560453415,
      0.321652352809906,
      -0.13739676773548126,
      -0.45678526163101196,
      -0.07967410981655121,
      0.1969326138496399,
      -0.22461068630218506,
      0.10368986427783966,
      -0.1589536964893341,
      -0.17251738905906677,
      -0.21347717940807343,
      -0.06014377996325493,
      -0.2840957045555115,
      0.24766905605793,
      0.3049367070198059,
      -0.0860741063952446,
      0.4167359173297882,
      0.06593391299247742,
      0.21048112213611603,
      0.15557558834552765,
      0.14148519933223724,
      0.022224262356758118,
      -0.07762695103883743,
      -0.5572633743286133,
      0.09868127852678299,
      -0.13178899884223938,
      -0.23152031004428864,
      0.10974538326263428,
      -0.08182547986507416,
      -0.35137131810188293,
      0.35499921441078186,
      0.002423940459266305,
      -0.3225898742675781,
      -0.19405497610569,
      0.17191144824028015,
      0.22667862474918365,
      -0.4924342632293701,
      0.47301551699638367,
      0.2107367068529129,
      0.1523030549287796,
      -0.13026835024356842,
      0.1992853879928589,
      -0.37116849422454834,
      -0.018116867169737816,
      0.4346354603767395,
      0.210533007979393,
      0.190017431974411,
      -0.2788170874118805,
      -0.4562412202358246,
      -0.34711015224456787,
      -0.3206101357936859,
      0.05792750045657158,
      0.09938042610883713,
      -0.21461477875709534,
      0.014732099138200283,
      -0.08285955339670181,
      0.13787361979484558,
      -0.5177282094955444,
      -0.20858488976955414,
      0.40424707531929016,
      -0.228629931807518,
      0.3936849534511566,
      -0.2055230289697647,
      -0.15700623393058777,
      -0.20173710584640503,
      -0.11801598966121674,
      -0.39712753891944885,
      0.08218447864055634,
      0.5235580801963806,
      -0.3658905327320099,
      -0.21906951069831848,
      0.4789715111255646,
      -0.13183234632015228,
      0.15172097086906433,
      0.16016235947608948,
      0.34880900382995605,
      -0.5400195121765137,
      -0.18427635729312897,
      0.25645431876182556,
      0.010904436931014061,
      0.03667715936899185,
      -0.19487982988357544,
      -0.1414545476436615,
      0.1531008630990982,
      0.06681227684020996,
      0.008509054780006409,
      -0.09700687229633331,
      0.018835650756955147,
      -0.31699690222740173,
      -0.021481504663825035,
      -0.3074154555797577,
      -0.05708139389753342,
      -0.040474481880664825,
      -0.48522210121154785,
      0.043417055159807205,
      0.19627191126346588,
      -0.45095187425613403,
      -0.08281361311674118,
      0.42019423842430115,
      -0.00670575350522995,
      0.3734264075756073,
      -0.014578617177903652,
      -0.16482007503509521
    ]
  ],
  "actor_encoder_biases": [
    [
      0.17225828766822815,
      0.020522931590676308,
      -0.14330297708511353,
      -0.06381145864725113,
      -0.07344672083854675,
      -0.09800954163074493,
      0.015664177015423775,
      -0.2680739760398865,
      -0.01216795388609171,
      0.044370733201503754,
      -0.0037116496823728085,
      0.09646354615688324,
      0.055112969130277634,
      0.1050909161567688,
      0.22069963812828064,
      -0.12834371626377106
    ],
    [
      -0.0798223614692688,
      -0.11067076027393341,
      0.03465026617050171,
      -0.18718253076076508,
      -0.07847863435745239,
      -0.11336815357208252,
      -0.0265375804156065,
      0.1284872591495514,
      0.0920059010386467,
      0.004482156131416559,
      -0.12802736461162567,
      0.11637641489505768,
      -0.03809962049126625,
      0.09308401495218277,
      -0.04897667095065117,
      -0.0766482949256897
    ]
  ],
  "actor_head_weights": [
    [
      -0.10388188064098358,
      -0.4045103192329407,
      0.2557775676250458,
      -0.18289151787757874,
      -0.2358791083097458,
      0.4027208685874939,
      0.5280801057815552,
      0.1420975625514984,
      -0.2032414674758911,
      0.018483007326722145,
      0.5372211337089539,
      -0.3064149022102356,
      0.06332442164421082,
      0.24503383040428162,
      0.44228866696357727,
      0.04922943562269211,
      -0.28624606132507324,
      0.16386762261390686,
      0.6866746544837952,
      0.12132519483566284,
      -0.04523170739412308,
      0.15845216810703278,
      -0.3235415518283844,
      -0.0009998753666877747,
      0.12004932761192322,
      -0.013468504883348942,
      -0.11324900388717651,
      0.3076820969581604,
      0.09626584500074387,
      -0.13140861690044403,
      0.3356214165687561,
      0.03586689382791519,
      0.22502487897872925,
      0.1307414174079895,
      0.003357012290507555,
      0.1941000521183014,
      0.13078618049621582,
      0.2317841351032257,
      -0.01552350353449583,
      -0.43621164560317993,
      0.11854398995637894,
      -0.5608217716217041,
      0.5940616130828857,
      -0.11946026980876923,
      -0.0970371812582016,
      0.18299052119255066,
      0.23720747232437134,
      -0.04501309245824814,
      0.2659429609775543,
      -0.3088398873806,
      0.0567016527056694,
      -0.28349921107292175,
      0.08897251635789871,
      0.0744515135884285,
      -0.04615291208028793,
      -0.0025871754623949528,
      0.6456201672554016,
      -0.09732608497142792,
      -0.6412408351898193,
      0.2154056429862976,
      0.03332134336233139,
      0.060296203941106796,
      0.1708604246377945,
      -0.5354030132293701
    ]
  ],
  "actor_head_biases": [
    [
      0.5750144124031067,
      0.6134098172187805,
      0.4712948799133301,
      0.48245859146118164
    ]
  ],
  "gru_weight_ih": [
    1.1919845342636108,
    0.22236596047878265,
    -0.12203128635883331,
    0.5372253060340881,
    1.7715612649917603,
    1.373160719871521,
    -0.6770922541618347,
    0.028738325461745262,
    -0.8006800413131714,
    -0.7486637234687805,
    0.41378289461135864,
    0.42448827624320984,
    -1.0411814451217651,
    -0.636713445186615,
    1.2542171478271484,
    -0.5682393312454224,
    -1.3298616409301758,
    -3.1150925159454346,
    0.2863621115684509,
    1.0018376111984253,
    0.7837079167366028,
    0.8427758812904358,
    0.5895086526870728,
    1.1215566396713257,
    -1.0010002851486206,
    1.613748550415039,
    -1.483149766921997,
    0.21355219185352325,
    -1.2967840433120728,
    -0.8922848105430603,
    0.3282419741153717,
    -1.0840415954589844,
    0.8415119051933289,
    -0.1065445989370346,
    -1.7728776931762695,
    1.150627851486206,
    -0.18495047092437744,
    0.5508067011833191,
    -0.3974762260913849,
    1.0409249067306519,
    -0.10877730697393417,
    -0.5854305028915405,
    0.21874788403511047,
    0.10266301035881042,
    -0.6729979515075684,
    1.4236021041870117,
    0.5473119020462036,
    -1.121962070465088,
    0.076754629611969,
    -0.7062395215034485,
    0.8556369543075562,
    -0.07768389582633972,
    -0.17952431738376617,
    -0.2998965084552765,
    0.4936825931072235,
    0.24595721065998077,
    -0.1626112312078476,
    0.21448837220668793,
    -0.5857380628585815,
    -1.0177929401397705,
    0.13224168121814728,
    -0.3029681444168091,
    -0.3551833927631378,
    0.8118765354156494,
    -0.7270066142082214,
    2.8072104454040527,
    -0.5798002481460571,
    0.872048020362854,
    -1.0096818208694458,
    0.3788248896598816,
    -0.8696414232254028,
    -0.6996557712554932,
    0.3271148204803467,
    -0.4103727340698242,
    0.918165385723114,
    2.0723378658294678,
    -0.06333828717470169,
    0.9832994937896729,
    1.5080724954605103,
    -1.7193140983581543,
    -0.01852625235915184,
    0.6666272282600403,
    -1.2941019535064697,
    -1.242596983909607,
    2.050205707550049,
    1.6510813236236572,
    0.5908629894256592,
    2.2052230834960938,
    0.4417944550514221,
    0.302925705909729,
    0.3851918578147888,
    -0.0688413456082344,
    0.6181626915931702,
    0.8487234711647034,
    -0.14382892847061157,
    -0.8152022957801819,
    -0.9383586049079895,
    -0.01698513701558113,
    0.6416667103767395,
    0.3662460744380951,
    -0.9151796698570251,
    0.5417819619178772,
    -0.804965615272522,
    0.1424957662820816,
    -1.0976101160049438,
    -1.313801646232605,
    1.0113062858581543,
    0.39321550726890564,
    0.3480978012084961,
    0.6956344842910767,
    -0.30225443840026855,
    1.2291743755340576,
    -0.29529544711112976,
    0.04833275452256203,
    -0.3094881772994995,
    -0.7899037003517151,
    -0.09196551889181137,
    1.0385770797729492,
    -0.032275982201099396,
    -0.12523365020751953,
    -0.1277109980583191,
    -0.045587003231048584,
    0.3762507736682892,
    -0.3412840962409973,
    0.21487395465373993,
    -0.1766229271888733,
    0.9305463433265686,
    0.25083810091018677,
    0.5040600895881653,
    0.14856500923633575,
    0.6767756938934326,
    0.5023022294044495,
    0.11022248864173889,
    0.8871520757675171,
    1.1565215587615967,
    0.04747914522886276,
    -0.5971701145172119,
    0.5758154392242432,
    0.666001558303833,
    -1.1504095792770386,
    -0.9870182275772095,
    0.5149508714675903,
    -0.20731867849826813,
    0.5335547924041748,
    0.005404804367572069,
    1.230993390083313,
    1.2297744750976562,
    1.2346552610397339,
    0.10653865337371826,
    -0.48358815908432007,
    0.6344057321548462,
    -0.5037741661071777,
    0.6491299271583557,
    1.578781247138977,
    0.040649451315402985,
    0.9678489565849304,
    0.23203414678573608,
    0.4199914038181305,
    -0.3421010673046112,
    -0.8948659300804138,
    0.33647605776786804,
    -0.2970307767391205,
    2.78116512298584,
    -0.2586548328399658,
    -0.7078057527542114,
    1.9542473554611206,
    0.19999858736991882,
    0.39358243346214294,
    -1.5025748014450073,
    -1.5061999559402466,
    -0.8621334433555603,
    -1.2578986883163452,
    -3.0055198669433594,
    -1.119038462638855,
    0.3662470579147339,
    -0.11373604089021683,
    0.12299048155546188,
    0.9096984267234802,
    -0.16919700801372528,
    0.16923056542873383,
    0.08403926342725754,
    0.31921133399009705,
    -0.28288593888282776,
    -0.6010668277740479,
    -0.9065336585044861,
    -0.13153114914894104,
    -0.06829164922237396,
    0.5782363414764404,
    0.18848305940628052,
    0.3072163760662079,
    -1.2502973079681396,
    -0.6803970336914062,
    -0.9871030449867249,
    1.8806653022766113,
    0.8310872316360474,
    -1.2828716039657593,
    -0.5166640877723694,
    0.2717438042163849,
    0.13686488568782806,
    1.8679351806640625,
    -2.267908811569214,
    0.4349111318588257,
    -0.26917147636413574,
    0.13646407425403595,
    0.15816548466682434,
    -0.20555315911769867,
    -1.9214390516281128,
    -0.8133386373519897,
    0.05079509690403938,
    0.2653490900993347,
    -0.2797214984893799,
    0.023519204929471016,
    -0.4962114989757538,
    0.6734553575515747,
    -0.8317075967788696,
    -0.9601413011550903,
    0.5920518040657043,
    0.3585658371448517,
    -0.6844703555107117,
    -0.22233498096466064,
    -0.23949646949768066,
    0.0641513392329216,
    -0.5777505040168762,
    0.5897015333175659,
    0.9827936291694641,
    -0.01051707100123167,
    0.7236607074737549,
    0.6365819573402405,
    -2.0788869857788086,
    0.6262922286987305,
    0.8687768578529358,
    -0.23408672213554382,
    0.1437634378671646,
    -0.34971854090690613,
    1.6698243618011475,
    0.7071868181228638,
    0.3800199627876282,
    -0.7344563007354736,
    0.5202736854553223,
    0.892859697341919,
    1.3120840787887573,
    -0.6200006008148193,
    0.19145993888378143,
    0.2078145146369934,
    1.082017183303833,
    0.18672415614128113,
    0.5311474800109863,
    0.2727271318435669,
    0.7154749035835266,
    -0.6009275913238525,
    1.042558193206787,
    0.8634991645812988,
    -0.6142098903656006,
    -0.9060026407241821,
    1.055243730545044,
    -0.06521976739168167,
    -0.12564915418624878,
    -0.3776956796646118,
    0.23948229849338531,
    -0.1323768049478531,
    0.9459870457649231,
    -0.10787788778543472,
    -0.5282471179962158,
    0.17581579089164734,
    -0.1729440987110138,
    -0.5406624674797058,
    0.3039828836917877,
    0.2442559450864792,
    -0.5723123550415039,
    0.47613462805747986,
    -1.0131196975708008,
    0.5799658298492432,
    0.7288147807121277,
    0.26255765557289124,
    1.4886236190795898,
    -0.8146088123321533,
    1.3378472328186035,
    -0.12232838571071625,
    0.5952985882759094,
    -0.003016942646354437,
    0.40315499901771545,
    -0.05514329671859741,
    0.4397079646587372,
    -0.2800617218017578,
    0.931399941444397,
    -0.11936239153146744,
    0.915411114692688,
    0.8861072659492493,
    0.09146909415721893,
    0.404789000749588,
    0.43243640661239624,
    0.7240111231803894,
    -0.14205875992774963,
    -0.5823850035667419,
    0.17634719610214233,
    0.20890332758426666,
    -0.23023946583271027,
    -0.5660779476165771,
    0.4356270432472229,
    0.17683641612529755,
    -0.473674476146698,
    0.11555679887533188,
    1.718530297279358,
    0.31350305676460266,
    -0.24353626370429993,
    -0.4151984751224518,
    -0.32988807559013367,
    0.5755922794342041,
    -0.3210393786430359,
    0.05927363038063049,
    -0.19329097867012024,
    0.3088783621788025,
    -0.2723357379436493,
    -0.23407848179340363,
    -0.18435589969158173,
    0.4782606363296509,
    0.8298502564430237,
    0.31562256813049316,
    -0.26217031478881836,
    0.4000946581363678,
    -0.1614995151758194,
    -0.05241183936595917,
    1.4893254041671753,
    -0.29636842012405396,
    0.20024318993091583,
    -1.121191143989563,
    0.3134782016277313,
    -0.5753173232078552,
    -0.022213581949472427,
    -0.17410437762737274,
    -0.044310376048088074,
    -0.9404906630516052,
    0.31644243001937866,
    -0.48709750175476074,
    0.26181015372276306,
    -0.8564916849136353,
    1.0696566104888916,
    -0.7452848553657532,
    -0.11419770121574402,
    -0.16359104216098785,
    1.2624242305755615,
    -0.5415800213813782,
    0.20739634335041046,
    0.6893346309661865,
    0.6788869500160217,
    -0.8523880243301392,
    0.020714126527309418,
    0.43991875648498535,
    1.686201572418213,
    0.12536369264125824,
    -0.3593948781490326,
    0.8804885149002075,
    0.1671532243490219,
    -0.16120678186416626,
    0.24172930419445038,
    -0.11136960238218307,
    -0.16934482753276825,
    0.12326010316610336,
    -0.06103234365582466,
    -0.4416046440601349,
    -0.20533081889152527,
    0.019860409200191498,
    -0.0004080717917531729,
    -0.679062008857727,
    -0.09551079571247101,
    -0.2226971685886383,
    -0.1875014752149582,
    0.029004080221056938,
    0.10585171729326248,
    0.5868520736694336,
    0.04882393404841423,
    -0.36904406547546387,
    0.6897715926170349,
    -0.7409186363220215,
    0.2825145721435547,
    -0.6215930581092834,
    0.09767819941043854,
    0.27550575137138367,
    -0.15444281697273254,
    0.3711603879928589,
    0.19387760758399963,
    -0.5096325874328613,
    -0.20574840903282166,
    0.8536399006843567,
    0.589489221572876,
    -0.7134287357330322,
    -0.3939037024974823,
    -0.37150347232818604,
    0.4539337754249573,
    -0.23069894313812256,
    -0.7146814465522766,
    0.4494369328022003,
    -0.5958280563354492,
    -0.43722546100616455,
    -0.40669700503349304,
    -0.5163301825523376,
    -0.27171942591667175,
    0.20789271593093872,
    0.5168271660804749,
    0.3844861090183258,
    0.5156087279319763,
    -0.3154545724391937,
    0.08484521508216858,
    0.15989843010902405,
    -1.9066816568374634,
    0.5618371367454529,
    0.4410358965396881,
    1.1173540353775024,
    -0.19564606249332428,
    -0.22765596210956573,
    -0.6640846729278564,
    -0.7083775401115417,
    0.07414061576128006,
    -1.0440276861190796,
    -0.1368655562400818,
    -0.8611276149749756,
    -0.03186147287487984,
    -0.1891036331653595,
    0.2434769868850708,
    -0.2745513916015625,
    0.2812482714653015,
    -0.1326175332069397,
    0.16039027273654938,
    -0.22197911143302917,
    -0.45406386256217957,
    0.46480584144592285,
    0.1219489648938179,
    0.41952115297317505,
    0.6064891219139099,
    0.6434697508811951,
    -0.10360950976610184,
    -0.12981478869915009,
    -0.45911628007888794,
    -0.5092860460281372,
    0.001048755249939859,
    0.0563821904361248,
    0.6074247360229492,
    -0.003651656676083803,
    0.14490272104740143,
    0.446817547082901,
    -0.21180789172649384,
    0.4494535028934479,
    -1.5143638849258423,
    -0.13405965268611908,
    0.9473870992660522,
    -1.2917230129241943,
    0.43885359168052673,
    0.1777263730764389,
    -0.056380677968263626,
    0.3441198766231537,
    -0.005527623929083347,
    -0.043799836188554764,
    0.21420173346996307,
    0.19034789502620697,
    0.20717878639698029,
    0.6527387499809265,
    -0.8957306146621704,
    -0.23418283462524414,
    -0.7786321043968201,
    -0.0040247174911201,
    0.09231425076723099,
    -0.40586355328559875,
    0.14756876230239868,
    0.35085737705230713,
    -0.699891984462738,
    -1.1146098375320435,
    0.8572123050689697,
    -0.3680959939956665,
    -0.1671118587255478,
    0.7769443988800049,
    0.0050543686375021935,
    -0.7514147162437439,
    -0.4878414273262024,
    -0.04065975546836853,
    0.4106946885585785,
    -0.24272474646568298,
    0.09970427304506302,
    0.42863526940345764,
    0.6807143688201904,
    0.4023047685623169,
    -0.6871946454048157,
    -0.48228904604911804,
    0.2643851339817047,
    2.119687557220459,
    0.8311444520950317,
    0.18204748630523682,
    -0.2283119410276413,
    -1.339888334274292,
    0.2083532065153122,
    -0.13513614237308502,
    -0.24643145501613617,
    0.36224812269210815,
    -0.38547927141189575,
    0.10562433302402496,
    0.9537903666496277,
    -0.4165586829185486,
    0.3154248893260956,
    0.2301432490348816,
    -0.31235602498054504,
    0.24472062289714813,
    -1.1557385921478271,
    0.4454306364059448,
    0.37541693449020386,
    -0.20441076159477234,
    -0.4623953104019165,
    -0.016830993816256523,
    0.40786850452423096,
    0.3556690514087677,
    -0.13632000982761383,
    -0.6149397492408752,
    0.23505949974060059,
    -0.6078518033027649,
    0.03345270827412605,
    -0.15463930368423462,
    0.034982066601514816,
    -0.38528239727020264,
    -0.431217223405838,
    -0.32516178488731384,
    0.08827584236860275,
    0.4063268005847931,
    0.018077634274959564,
    0.4256923496723175,
    0.08743803948163986,
    -0.11998933553695679,
    0.18443137407302856,
    0.2523680627346039,
    -0.2841116487979889,
    0.2456027716398239,
    -0.38065361976623535,
    -0.2571476995944977,
    -0.18012428283691406,
    -0.44881150126457214,
    -0.2795204520225525,
    0.07202453166246414,
    -0.09272388368844986,
    -0.24711643159389496,
    0.21669507026672363,
    -0.058724064379930496,
    -0.1410951316356659,
    0.035447049885988235,
    -0.09550409764051437,
    -0.09189549088478088,
    0.003903126809746027,
    0.1357293426990509,
    -0.49731576442718506,
    -0.37606221437454224,
    -0.0641903206706047,
    0.0252574160695076,
    0.4238632917404175,
    -0.07064500451087952,
    -0.08292654156684875,
    0.09815200418233871,
    0.12861476838588715,
    0.1863551288843155,
    0.04525309056043625,
    0.48298463225364685,
    -0.03471390902996063,
    -0.4074705243110657,
    -0.07893675565719604,
    0.047590382397174835,
    -0.715777575969696,
    0.17474879324436188,
    0.013996997848153114,
    0.44733497500419617,
    -0.13889892399311066,
    -0.39501452445983887,
    0.224062979221344,
    -0.37861737608909607,
    -0.40455931425094604,
    -0.1119861826300621,
    0.08112671226263046,
    -0.23969699442386627,
    0.06404747813940048,
    -0.17764227092266083,
    0.010914419777691364,
    -0.4381336569786072,
    -0.34818828105926514,
    -0.1213846355676651,
    0.3638930320739746,
    -0.13734540343284607,
    -0.5567545890808105,
    -1.0852028131484985,
    -0.45027968287467957,
    -0.17974400520324707,
    0.4289534091949463,
    0.18278145790100098,
    -0.13526561856269836,
    0.4824770390987396,
    0.02238135039806366,
    0.35295453667640686,
    -0.2624235451221466,
    -0.22275345027446747,
    -0.1871291995048523,
    -0.560344398021698,
    -0.23978310823440552,
    0.5425739288330078,
    -0.3193180561065674,
    -0.0010513063753023744,
    -0.10253461450338364,
    0.26416710019111633,
    -0.14930833876132965,
    -0.12376213073730469,
    0.023632576689124107,
    -0.02970663458108902,
    0.29489484429359436,
    0.4407932162284851,
    0.04722658917307854,
    0.38320019841194153,
    0.2677460014820099,
    -0.32254210114479065,
    0.08741439878940582,
    0.21914999186992645,
    0.6784052848815918,
    0.29488494992256165,
    0.249431312084198,
    0.32206863164901733,
    0.6380682587623596,
    0.7221021056175232,
    -0.5277093052864075,
    -0.6611378788948059,
    0.05560345575213432,
    0.45651775598526,
    -1.0345057249069214,
    0.0024443543516099453,
    0.5571697950363159,
    0.1731795072555542,
    0.10974016785621643,
    0.3126544952392578,
    0.6950704455375671,
    -0.13013669848442078,
    -0.2797124981880188,
    0.03471038490533829,
    -0.6421105861663818,
    -0.25533440709114075,
    -0.32513293623924255,
    0.4519255459308624,
    0.15391597151756287,
    -0.1062542274594307,
    0.015805097296833992,
    0.08851264417171478,
    0.290141761302948,
    0.3483026623725891,
    0.36017751693725586,
    0.18165084719657898,
    0.13552697002887726,
    -0.45986562967300415,
    0.026858175173401833,
    0.022113535553216934,
    0.1757940948009491,
    -0.2916678488254547,
    -0.02932298183441162,
    0.13159888982772827,
    -0.07673057168722153,
    -0.3378940522670746,
    -0.10697008669376373,
    -0.15174584090709686,
    0.22334465384483337,
    0.4035625755786896,
    0.23817457258701324,
    0.21492816507816315,
    0.08379663527011871,
    0.48731374740600586,
    0.15127576887607574,
    -0.061994608491659164,
    0.23070651292800903,
    -0.3283419609069824,
    0.20448213815689087,
    -0.18452440202236176,
    0.06657612323760986,
    -0.27514341473579407,
    0.1775658279657364,
    0.5730473399162292,
    -0.12757086753845215,
    -0.14480870962142944,
    -0.41250312328338623,
    -0.8925599455833435,
    -0.023137064650654793,
    0.5492122173309326,
    -0.11037083715200424,
    0.47200775146484375,
    -0.2891751229763031,
    -0.15522781014442444,
    0.0017589679919183254,
    0.1516297161579132,
    -0.09011200070381165,
    0.23501428961753845,
    -0.3880484700202942,
    0.44255301356315613,
    -0.33732372522354126,
    -0.018342595547437668,
    0.6816823482513428,
    -0.11369939148426056,
    -0.05523259937763214,
    0.07386160641908646,
    0.08761250972747803,
    0.07161737233400345,
    0.0002791592269204557,
    0.14346693456172943,
    -0.09740476310253143,
    0.35817548632621765,
    -0.3400583565235138,
    -0.40139415860176086,
    -0.36408793926239014,
    0.1299254298210144,
    0.035559870302677155,
    -0.172634094953537,
    -0.11633159220218658,
    0.1488094925880432,
    -0.2630089521408081,
    -0.10137142241001129,
    -0.2562650740146637,
    -0.3021017014980316,
    -0.8183860182762146,
    -0.06491410732269287,
    -0.03796922415494919,
    0.5701120495796204,
    0.18934811651706696,
    0.21868662536144257,
    0.07153505086898804,
    0.6047442555427551,
    0.3498136103153229,
    0.31052038073539734,
    -0.28475475311279297,
    -0.43657124042510986,
    -0.2383221685886383,
    -0.29468438029289246,
    0.0685984343290329,
    0.1437177062034607,
    -0.172820046544075,
    -0.16415724158287048,
    0.11338802427053452,
    -0.22975629568099976,
    0.2916557490825653,
    -0.27696675062179565,
    0.021549493074417114,
    -0.06628234684467316,
    0.7237843871116638,
    0.04257487133145332,
    -0.5655736327171326,
    -0.10942138731479645,
    -0.16914372146129608,
    -0.07362725585699081,
    0.027198435738682747,
    0.18514622747898102,
    0.09471756219863892,
    0.19182072579860687,
    -0.1045558899641037,
    -0.12064244598150253,
    -0.33915674686431885,
    -0.8287140130996704,
    0.04723986238241196,
    -0.4589684009552002,
    -0.3161475956439972,
    0.09508075565099716,
    -0.5202123522758484,
    -0.028463691473007202,
    0.4064745008945465,
    -0.22598251700401306,
    -0.028394628316164017,
    0.04959918186068535,
    -0.1079850047826767,
    0.2519666850566864,
    -0.043656446039676666,
    -0.34387749433517456,
    0.014295901171863079,
    -0.36002588272094727,
    -0.19929486513137817,
    0.019083216786384583
  ],
  "gru_weight_hh": [
    0.35072314739227295,
    0.45035359263420105,
    -0.6242202520370483,
    1.927980661392212,
    -0.7975379228591919,
    -1.056796908378601,
    -0.30338308215141296,
    0.8637768626213074,
    -0.4334914982318878,
    -0.6602450609207153,
    0.9461042284965515,
    -0.9095465540885925,
    0.5110901594161987,
    -0.8894332647323608,
    -1.0597503185272217,
    1.5282610654830933,
    0.7688777446746826,
    -1.4817839860916138,
    -0.5687955617904663,
    -0.15971127152442932,
    0.7396047115325928,
    1.0182157754898071,
    1.6283247470855713,
    0.8685047626495361,
    0.7473219037055969,
    -0.7883663773536682,
    -1.5498979091644287,
    -0.047244276851415634,
    1.833346962928772,
    -1.0357133150100708,
    -1.5422964096069336,
    -0.3845038115978241,
    -0.1499052494764328,
    -0.6217383742332458,
    0.9173583984375,
    -0.4639750123023987,
    -0.27606403827667236,
    -0.30123236775398254,
    1.3553131818771362,
    -0.988312304019928,
    0.8261270523071289,
    0.21744774281978607,
    0.09008021652698517,
    -0.24592521786689758,
    1.208666205406189,
    0.15304525196552277,
    -0.12253828346729279,
    -0.7403351068496704,
    -0.3421199917793274,
    0.3261902928352356,
    -0.4417644739151001,
    -0.4817557632923126,
    0.7643125057220459,
    0.06400430202484131,
    0.9310116767883301,
    0.021867629140615463,
    -0.7884182333946228,
    -0.35606932640075684,
    0.3114524483680725,
    0.03235435113310814,
    -0.5500085949897766,
    0.22961334884166718,
    0.45078539848327637,
    0.39722004532814026,
    -4.5917253494262695,
    0.37424436211586,
    0.5958579778671265,
    0.26110291481018066,
    0.924269437789917,
    0.08962835371494293,
    -2.3733763694763184,
    0.9445690512657166,
    -0.044052232056856155,
    -0.20842044055461884,
    -1.4430694580078125,
    -1.5444791316986084,
    -1.0387566089630127,
    0.21687814593315125,
    0.41572144627571106,
    -0.1664685159921646,
    -1.9830814599990845,
    0.010213034227490425,
    1.3203070163726807,
    0.5020216703414917,
    1.2796180248260498,
    -1.5314663648605347,
    0.03916974738240242,
    2.0457968711853027,
    0.21387749910354614,
    1.7095500230789185,
    1.3308277130126953,
    -0.8548698425292969,
    -0.20474770665168762,
    -0.05747785046696663,
    -0.28446146845817566,
    0.1888440102338791,
    0.45874398946762085,
    0.9098914265632629,
    -0.3832409083843231,
    -0.28920215368270874,
    1.5126293897628784,
    0.2483065128326416,
    -2.1827783584594727,
    -0.18023952841758728,
    -0.6587327122688293,
    -0.29284796118736267,
    -1.0598326921463013,
    0.39665329456329346,
    0.5246281027793884,
    0.28427010774612427,
    -1.2004344463348389,
    0.22588342428207397,
    -1.5690698623657227,
    -0.19385671615600586,
    -0.2727912664413452,
    0.802017331123352,
    -0.4998609125614166,
    0.23261982202529907,
    1.225759744644165,
    0.43613335490226746,
    0.4855964779853821,
    0.229540154337883,
    -0.055723026394844055,
    0.317116379737854,
    -0.07909239083528519,
    -0.1138819232583046,
    -0.11072784662246704,
    0.2752625048160553,
    -0.9154585003852844,
    -0.5427983999252319,
    0.7339534163475037,
    -0.9981273412704468,
    0.5840725898742676,
    -0.10882598906755447,
    0.8718429803848267,
    0.16832976043224335,
    0.5966443419456482,
    -0.45801016688346863,
    0.07129712402820587,
    -0.6115753650665283,
    -1.051316738128662,
    -0.26842010021209717,
    -0.5681558847427368,
    0.16297678649425507,
    0.8499288558959961,
    0.06622199714183807,
    -0.12586969137191772,
    -1.0166126489639282,
    -0.14351612329483032,
    -0.8800418972969055,
    -1.029273509979248,
    -0.3753410279750824,
    -0.3316865861415863,
    -0.08620511740446091,
    -1.905494213104248,
    -1.2178597450256348,
    -0.39865270256996155,
    -0.39061370491981506,
    0.8214592933654785,
    0.4774174988269806,
    0.3355761468410492,
    -0.9653010368347168,
    -0.8890551924705505,
    -0.5698269009590149,
    -1.202307105064392,
    -0.5881856679916382,
    -0.7561432719230652,
    -1.127294898033142,
    -2.0047848224639893,
    -0.005562643054872751,
    0.4027000963687897,
    -0.10061796009540558,
    0.5175991654396057,
    0.3459832966327667,
    0.06950592249631882,
    0.41605332493782043,
    -0.06892488896846771,
    -0.3014717102050781,
    -0.8996566534042358,
    0.18099039793014526,
    0.09866902232170105,
    0.4916607141494751,
    1.2443864345550537,
    0.9675655961036682,
    1.0905097723007202,
    0.7193195223808289,
    -0.10473500937223434,
    0.6815361380577087,
    -1.6846060752868652,
    -0.025013411417603493,
    -0.37183091044425964,
    0.3613528609275818,
    -0.38845598697662354,
    -0.8514694571495056,
    -0.1437358260154724,
    -0.550470769405365,
    -1.164546251296997,
    -0.12990713119506836,
    -2.5023255348205566,
    0.179827019572258,
    0.7041049599647522,
    -0.13340260088443756,
    -0.6968613266944885,
    0.07970752567052841,
    0.4628268778324127,
    -0.21589741110801697,
    -0.03495163097977638,
    0.6509604454040527,
    -0.18192149698734283,
    0.06414999812841415,
    -1.1738066673278809,
    0.7475030422210693,
    -0.1363282948732376,
    -0.7726418375968933,
    2.3600502014160156,
    0.5321438908576965,
    0.5871330499649048,
    -0.23849661648273468,
    0.18270531296730042,
    -0.2829168438911438,
    0.30410298705101013,
    0.14003914594650269,
    -0.9478048086166382,
    -1.3229137659072876,
    -0.8307450413703918,
    0.8734664916992188,
    -1.0784677267074585,
    0.33394134044647217,
    -0.719482958316803,
    -0.6157546043395996,
    0.4180943965911865,
    1.5954697132110596,
    -1.380886435508728,
    0.8664774894714355,
    0.17107625305652618,
    -0.1409456878900528,
    0.3912871181964874,
    -0.26715442538261414,
    -0.6037464141845703,
    0.37726542353630066,
    -1.1187984943389893,
    1.10739004611969,
    0.18669430911540985,
    -0.8851041197776794,
    -0.15013651549816132,
    -0.06342212110757828,
    0.42383643984794617,
    1.955663800239563,
    0.27328357100486755,
    -0.5259364247322083,
    1.2898091077804565,
    -0.5224764943122864,
    -0.01009440142661333,
    -0.6385538578033447,
    -0.05237623304128647,
    1.1760594844818115,
    0.19423425197601318,
    0.6183083057403564,
    -0.006089961156249046,
    -1.4565036296844482,
    -0.3474038541316986,
    -0.6782528162002563,
    -0.7901418209075928,
    -0.5961098074913025,
    -1.321460247039795,
    0.3355216085910797,
    -0.41940823197364807,
    0.843604564666748,
    -0.565892219543457,
    0.20801058411598206,
    -0.3784777820110321,
    -1.049329161643982,
    0.4156671166419983,
    -0.17130641639232635,
    1.2153822183609009,
    -0.6838916540145874,
    1.3948378562927246,
    -0.3809209167957306,
    -0.5091617703437805,
    0.8858166933059692,
    -2.7031137943267822,
    -2.2057790756225586,
    -0.8301777243614197,
    -1.0482730865478516,
    0.10671716928482056,
    -1.1885523796081543,
    0.19926872849464417,
    0.28087857365608215,
    -1.3580445051193237,
    0.8187442421913147,
    0.7537828683853149,
    1.0439237356185913,
    0.19449476897716522,
    -0.11107374727725983,
    -1.2474581003189087,
    1.2255010604858398,
    -0.4556085467338562,
    0.0974074974656105,
    -0.23887579143047333,
    -0.19723649322986603,
    -0.08637438714504242,
    0.3179008960723877,
    0.08741072565317154,
    -0.7717795372009277,
    0.4895615577697754,
    0.5673553347587585,
    -0.29398876428604126,
    0.1625055968761444,
    -0.43307074904441833,
    0.5482062101364136,
    -0.2551288604736328,
    -0.6283326745033264,
    0.3525702953338623,
    0.45559340715408325,
    -0.31339600682258606,
    0.986373782157898,
    0.18770956993103027,
    0.207201287150383,
    0.6703410744667053,
    0.17865073680877686,
    0.6924880743026733,
    1.7250845432281494,
    0.05341358482837677,
    -0.5460579991340637,
    0.2164515256881714,
    0.07199402898550034,
    2.412816047668457,
    0.28229469060897827,
    0.760915219783783,
    -0.9691864252090454,
    0.45009133219718933,
    0.6697483658790588,
    0.01457427442073822,
    -0.9771583080291748,
    0.8738051652908325,
    0.4189615249633789,
    1.3150889873504639,
    -0.641696035861969,
    0.7282515168190002,
    0.6988751292228699,
    0.4518205523490906,
    0.7781310081481934,
    0.4747055768966675,
    -1.6986991167068481,
    -0.32781368494033813,
    -1.2521206140518188,
    -1.1338921785354614,
    2.0623342990875244,
    -2.3957231044769287,
    0.2753085196018219,
    -1.5107041597366333,
    0.2611830532550812,
    -0.17626547813415527,
    0.14382058382034302,
    0.6932129263877869,
    0.36303451657295227,
    0.35247477889060974,
    0.6864055395126343,
    0.6579634547233582,
    0.33627626299858093,
    -0.7135487794876099,
    -0.38018733263015747,
    0.03590080142021179,
    -0.03158381208777428,
    -0.5571357011795044,
    0.42708906531333923,
    0.08519339561462402,
    0.005195336416363716,
    0.26180198788642883,
    0.3273456394672394,
    -1.2687835693359375,
    0.1148286983370781,
    0.7696715593338013,
    0.9369169473648071,
    0.08405213057994843,
    0.3451848030090332,
    -0.5988144278526306,
    0.6224167346954346,
    1.2818007469177246,
    0.06215117871761322,
    -1.4099764823913574,
    -0.08396678417921066,
    -0.07734417915344238,
    -0.28110432624816895,
    -0.3491024672985077,
    -0.21462884545326233,
    0.22674690186977386,
    0.21105973422527313,
    0.8453111052513123,
    -0.23014625906944275,
    -0.8483004570007324,
    0.14871515333652496,
    0.2285597175359726,
    -0.15365900099277496,
    -1.3011302947998047,
    -0.5547289848327637,
    -0.31372693181037903,
    -0.7521035075187683,
    -1.519574761390686,
    -0.0004113094473723322,
    3.562891288311221e-05,
    -1.2858319282531738,
    -1.8040128946304321,
    -2.3717103004455566,
    -0.08917103707790375,
    -2.07222318649292,
    -2.293121576309204,
    0.3334048390388489,
    -0.8981243968009949,
    -0.061865951865911484,
    0.01105903834104538,
    -0.5290459394454956,
    -0.38568365573883057,
    -0.3961980640888214,
    -0.6403846740722656,
    -0.9210799336433411,
    -0.37626442313194275,
    0.2402837723493576,
    0.4942502975463867,
    -0.11905580759048462,
    -0.12285416573286057,
    1.578896403312683,
    0.4660356342792511,
    0.20346558094024658,
    0.05750492587685585,
    0.04565265402197838,
    -0.4205390512943268,
    -0.1266617774963379,
    0.04021913558244705,
    -0.043497029691934586,
    -0.012457828968763351,
    -0.4618805944919586,
    1.6934363842010498,
    -1.586654782295227,
    -0.8530945181846619,
    -0.5998939275741577,
    1.3802779912948608,
    0.05565120652318001,
    -0.30877527594566345,
    0.19494812190532684,
    0.28291869163513184,
    0.24881626665592194,
    0.23135113716125488,
    0.23377351462841034,
    -0.9464147686958313,
    -0.3287128806114197,
    -0.9250900149345398,
    0.3560076355934143,
    0.3978593051433563,
    0.11268657445907593,
    0.034182485193014145,
    -0.13521504402160645,
    -0.2133796066045761,
    0.1384768784046173,
    -0.31513693928718567,
    0.8183141350746155,
    -0.08556284010410309,
    -0.3249240815639496,
    -0.2889438569545746,
    -0.18488891422748566,
    0.7190374135971069,
    0.1975259780883789,
    -0.08312398940324783,
    0.11384334415197372,
    -0.08238442242145538,
    1.9269459247589111,
    -1.9207425117492676,
    0.7479569911956787,
    -0.21645487844944,
    -0.045777905732393265,
    0.1512296050786972,
    1.6264781951904297,
    -0.13770270347595215,
    -0.22803762555122375,
    0.4369167387485504,
    -0.06483800709247589,
    -0.545272707939148,
    -0.9371801614761353,
    0.1226830929517746,
    -1.1489744186401367,
    0.8038650751113892,
    -0.029264576733112335,
    -1.489603877067566,
    -2.116790533065796,
    -0.3740781545639038,
    -0.1842270791530609,
    0.4896896183490753,
    0.39935413002967834,
    -0.27985960245132446,
    0.8823467493057251,
    -0.043891411274671555,
    0.9702653288841248,
    -0.9097046256065369,
    -0.788868248462677,
    -0.3323207199573517,
    -0.19501134753227234,
    -0.36273521184921265,
    0.07411128282546997,
    0.44322818517684937,
    -0.11114485561847687,
    -0.37524884939193726,
    0.5690876245498657,
    0.937957227230072,
    1.1862648725509644,
    0.6182290315628052,
    0.820979118347168,
    0.2845478355884552,
    -0.5546176433563232,
    -0.03755387291312218,
    0.04649846628308296,
    -0.03361815959215164,
    -0.38275811076164246,
    0.263937383890152,
    -0.37530517578125,
    0.1105310246348381,
    0.01775289699435234,
    -0.4920034110546112,
    0.3699257969856262,
    0.5508733987808228,
    -0.3557054102420807,
    -1.9467400312423706,
    -0.30975064635276794,
    0.9747613668441772,
    0.25764036178588867,
    0.5338025689125061,
    0.3278980255126953,
    0.4125266969203949,
    0.13994663953781128,
    0.3985830545425415,
    -0.3409733772277832,
    0.20353803038597107,
    0.03358669951558113,
    -0.03534448519349098,
    -0.16564078629016876,
    -0.20045727491378784,
    0.09073373675346375,
    -0.2085307240486145,
    -0.13273748755455017,
    -0.6172292828559875,
    0.019608233124017715,
    -0.4842110872268677,
    -0.43987730145454407,
    -0.18297843635082245,
    -0.20159879326820374,
    0.22815535962581635,
    0.34226343035697937,
    -0.9458412528038025,
    0.2094745635986328,
    -0.2067815512418747,
    -0.3206484913825989,
    -1.189147710800171,
    -0.39293503761291504,
    0.5155041813850403,
    0.17321984469890594,
    -1.033682942390442,
    -0.2715899646282196,
    -0.4420603811740875,
    -0.36662203073501587,
    -0.3168581426143646,
    -0.16585415601730347,
    -0.19350750744342804,
    -1.4088492393493652,
    -0.1661088466644287,
    -0.3094662129878998,
    0.2560661733150482,
    0.5237864851951599,
    -0.7611477375030518,
    0.43658706545829773,
    0.4291137158870697,
    -0.10816579312086105,
    0.5732244253158569,
    0.2528907358646393,
    -0.987777590751648,
    0.09028595685958862,
    0.20610080659389496,
    -0.4775862991809845,
    -0.5899900197982788,
    -0.6300154328346252,
    0.7878786325454712,
    -0.678381621837616,
    -0.33526611328125,
    0.7894560098648071,
    -0.05099017545580864,
    -0.4874711036682129,
    0.7738381624221802,
    0.6418815851211548,
    -0.3403168320655823,
    0.19210943579673767,
    0.2964610457420349,
    -0.18129469454288483,
    -0.07956213504076004,
    -0.6003748178482056,
    -0.30061134696006775,
    0.3291599750518799,
    0.035370223224163055,
    0.2579072415828705,
    0.052536651492118835,
    -0.09059399366378784,
    -0.014027793891727924,
    1.0380263328552246,
    0.28328737616539,
    0.13595053553581238,
    -0.1702938824892044,
    -0.140630304813385,
    1.1671539545059204,
    -0.5674558877944946,
    -0.5480936169624329,
    -0.6355137825012207,
    -0.3209773302078247,
    0.3575311303138733,
    0.8571831583976746,
    0.5463067889213562,
    0.3757771849632263,
    -0.6923235654830933,
    -0.6182630658149719,
    -0.815395176410675,
    0.9508528709411621,
    0.7297251224517822,
    -0.36470744013786316,
    -0.6737079620361328,
    -0.2873997390270233,
    -1.2328858375549316,
    -0.3072492182254791,
    0.1815146654844284,
    1.183536171913147,
    1.4458268880844116,
    0.2687702476978302,
    -0.5430235266685486,
    0.07451197504997253,
    -0.26928505301475525,
    0.17160142958164215,
    -0.3234480023384094,
    -0.440199613571167,
    -0.5748528838157654,
    -0.4517468214035034,
    0.23399809002876282,
    0.29236242175102234,
    0.373483270406723,
    -0.7847943305969238,
    0.3919249176979065,
    0.23538389801979065,
    0.2941500246524811,
    -0.15483468770980835,
    -0.6381338834762573,
    -0.08008313179016113,
    -0.35136908292770386,
    -0.6097061038017273,
    0.34538206458091736,
    -0.9769397974014282,
    -0.008029916323721409,
    0.31863898038864136,
    0.0013416444417089224,
    -0.38492992520332336,
    -0.22488592565059662,
    -0.252104252576828,
    0.3069981634616852,
    0.6084519028663635,
    0.6235905289649963,
    -0.06954114884138107,
    -0.28585198521614075,
    0.6235763430595398,
    0.16346611082553864,
    -0.1978590488433838,
    0.28011554479599,
    0.2000703066587448,
    -0.7975049018859863,
    -0.531982421875,
    0.48159441351890564,
    -0.1714627891778946,
    0.19921360909938812,
    1.262878179550171,
    -0.9059290885925293,
    0.15591534972190857,
    0.7400298714637756,
    0.02159785106778145,
    -0.11343783140182495,
    -0.7147344946861267,
    -1.239073395729065,
    0.15396103262901306,
    0.47999000549316406,
    0.12050234526395798,
    1.015262246131897,
    -1.0021815299987793,
    0.2340651899576187,
    0.08010857552289963,
    0.5070412158966064,
    -0.010686292313039303,
    -0.2604219615459442,
    0.3074323534965515,
    -0.5112642049789429,
    0.013111191801726818,
    0.08244664967060089,
    -0.3440849781036377,
    0.7096596360206604,
    -0.5287295579910278,
    -0.2267485111951828,
    -0.5473148822784424,
    -0.031513918191194534,
    0.7151267528533936,
    -1.13010573387146,
    -0.5476250648498535,
    -0.5116747617721558,
    0.26280978322029114,
    0.08016538619995117,
    -0.07944358885288239,
    1.073906660079956,
    -0.1038341298699379,
    1.444318413734436,
    -0.768109142780304,
    -1.2165812253952026,
    0.36102673411369324,
    -0.696858823299408,
    0.17740215361118317,
    0.6041309833526611,
    -0.5220268368721008,
    0.07376130670309067,
    -0.644049882888794,
    0.6796948909759521,
    0.2732301950454712,
    0.020191606134176254,
    -1.3469702005386353,
    0.6016679406166077,
    0.6076831221580505,
    0.06365979462862015,
    0.26004916429519653,
    0.013279765844345093,
    0.23753689229488373,
    0.5222919583320618,
    0.04827502742409706,
    -0.6796762347221375,
    -0.3607623875141144,
    0.5290209054946899,
    1.2493774890899658,
    -0.5769239068031311,
    0.12338217347860336,
    -0.9603804349899292,
    -0.03562512248754501,
    0.4532559812068939,
    -0.22757205367088318,
    1.1055079698562622,
    -0.32805997133255005,
    0.048387542366981506,
    0.11202208697795868,
    0.1328638792037964,
    -0.06226310878992081,
    -0.589813768863678,
    0.2637796998023987,
    0.13367724418640137,
    0.1404237598180771,
    -0.562142550945282,
    -0.7056540846824646,
    -0.414541631937027,
    0.053922224789857864,
    -0.472382515668869,
    -0.6124184131622314,
    -0.7673665881156921,
    0.21761859953403473,
    0.03872062265872955,
    -0.7900843024253845,
    -0.9424570798873901,
    0.954974353313446,
    0.673352837562561,
    -1.12812077999115,
    -0.5929186344146729,
    -0.02861074171960354,
    0.8120299577713013,
    -1.478518009185791,
    -1.1997767686843872
  ],
  "gru_bias_ih": [
    -0.5039690732955933,
    0.5713106989860535,
    0.10119471698999405,
    0.6977839469909668,
    0.1806563138961792,
    -0.1287461668252945,
    0.8064693212509155,
    0.927696704864502,
    0.3589095175266266,
    -0.8872082829475403,
    0.225843608379364,
    0.8470790386199951,
    0.017753083258867264,
    0.2784826159477234,
    -0.6717087626457214,
    -0.4074062705039978,
    -0.45601242780685425,
    -1.493589162826538,
    -1.5611904859542847,
    -0.7773531079292297,
    -0.582686185836792,
    -1.4077093601226807,
    1.5730713605880737,
    -0.6747740507125854,
    -0.4097132980823517,
    -2.7905800342559814,
    1.2549649477005005,
    -0.9849904179573059,
    -0.024604015052318573,
    -1.0954405069351196,
    -0.9563283920288086,
    -0.3495869040489197,
    0.10307472199201584,
    -0.15770208835601807,
    0.4375561773777008,
    0.06907927244901657,
    0.25854769349098206,
    1.6267369985580444,
    0.2734651565551758,
    -0.07171652466058731,
    0.4790850579738617,
    -0.518905520439148,
    0.10339432954788208,
    -0.12431595474481583,
    0.15078668296337128,
    -0.16294267773628235,
    0.30263087153434753,
    0.1117195412516594
  ],
  "gru_bias_hh": [
    -0.3849939703941345,
    0.46650224924087524,
    -0.03806426376104355,
    0.9773953557014465,
    -0.041299983859062195,
    -0.09590538591146469,
    0.7044419646263123,
    0.9208138585090637,
    0.5954923629760742,
    -0.7508481740951538,
    -0.10909410566091537,
    0.8491734862327576,
    0.26342809200286865,
    0.32921913266181946,
    -0.7080885171890259,
    -0.47774985432624817,
    -0.5525768399238586,
    -1.7212189435958862,
    -1.4075995683670044,
    -0.49208053946495056,
    -0.38213345408439636,
    -1.382203459739685,
    1.6751837730407715,
    -0.7341132760047913,
    -0.6352832317352295,
    -2.422916889190674,
    1.3601402044296265,
    -1.0798927545547485,
    -0.3330182433128357,
    -1.3025362491607666,
    -0.9159759879112244,
    -0.36479851603507996,
    0.030768198892474174,
    -0.05850323662161827,
    0.5472941994667053,
    -0.30937206745147705,
    0.7509946823120117,
    1.5839422941207886,
    0.4021940231323242,
    -0.22330033779144287,
    0.3307354152202606,
    -0.612884521484375,
    -0.7193434238433838,
    -0.054449647665023804,
    0.02840801142156124,
    0.298220694065094,
    0.8503260612487793,
    -0.23323965072631836
  ],
  "example_input": [
    -1.0,
    -0.9411764740943909,
    -0.8823529481887817,
    -0.8235294222831726,
    -0.7647058963775635,
    -0.7058823704719543,
    -0.6470588445663452,
    -0.5882353186607361,
    -0.529411792755127,
    -0.47058823704719543,
    -0.4117647111415863,
    -0.3529411852359772,
    -0.29411762952804565,
    -0.23529411852359772,
    -0.1764705777168274,
    -0.11764705181121826,
    -0.05882352590560913,
    -3.725290298461914e-09,
    0.05882352590560913,
    0.11764705181121826,
    0.1764705777168274,
    0.23529411852359772,
    0.29411762952804565,
    0.3529411852359772,
    0.4117647111415863,
    0.47058823704719543,
    0.529411792755127,
    0.5882353186607361,
    0.6470588445663452,
    0.7058823704719543,
    0.7647058963775635,
    0.8235294222831726,
    0.8823529481887817,
    0.9411764740943909,
    1.0
  ],
  "example_output": [
    -0.42417699098587036,
    0.4967994689941406,
    0.7061825394630432,
    -0.1353989839553833
  ],
  "export_format": "rl_tools_checkpoint_blob"
}