{
  "observation_dim": 35,
  "action_dim": 4,
  "structure": "mlp_gru",
  "rnn_type": "gru",
  "gru_input_dim": 16,
  "gru_hidden_dim": 16,
  "gru_num_layers": 1,
  "activation": "elu",
  "use_observation_normalization": false,
  "normalization_folded_into_first_layer": false,
  "observation_mean": [
    0.0,
    0.0,
    0.0,
    0.0,
    0.0,
    0.0,
    0.0,
    0.0,
    0.0,
    0.0,
    0.0,
    0.0,
    0.0,
    0.0,
    0.0,
    0.0,
    0.0,
    0.0,
    0.0,
    0.0,
    0.0,
    0.0,
    0.0,
    0.0,
    0.0,
    0.0,
    0.0,
    0.0,
    0.0,
    0.0,
    0.0,
    0.0,
    0.0,
    0.0,
    0.0
  ],
  "observation_inv_std": [
    1.0,
    1.0,
    1.0,
    1.0,
    1.0,
    1.0,
    1.0,
    1.0,
    1.0,
    1.0,
    1.0,
    1.0,
    1.0,
    1.0,
    1.0,
    1.0,
    1.0,
    1.0,
    1.0,
    1.0,
    1.0,
    1.0,
    1.0,
    1.0,
    1.0,
    1.0,
    1.0,
    1.0,
    1.0,
    1.0,
    1.0,
    1.0,
    1.0,
    1.0,
    1.0
  ],
  "actor_encoder_dims": [
    35,
    16,
    16
  ],
  "actor_encoder_activations": [
    "elu",
    "identity"
  ],
  "actor_head_dims": [
    16,
    4
  ],
  "actor_head_activations": [
    "identity"
  ],
  "actor_encoder_weights": [
    [
      1.0031843185424805,
      0.4390157163143158,
      1.8315784931182861,
      -0.27002280950546265,
      -0.9899336695671082,
      -0.6196630001068115,
      0.7053912878036499,
      -0.18392881751060486,
      1.1655646562576294,
      -0.0423637293279171,
      -1.0745407342910767,
      -0.0022598793730139732,
      -1.6819729804992676,
      -0.6845393180847168,
      0.10230136662721634,
      0.9388958215713501,
      -0.24887755513191223,
      -0.5735998749732971,
      -0.019477492198348045,
      0.03495318070054054,
      1.5443061590194702,
      -0.20785506069660187,
      -0.02408665046095848,
      0.02749841846525669,
      0.03655872493982315,
      -0.7183862924575806,
      -0.4294452369213104,
      0.6228423714637756,
      0.25948184728622437,
      0.010228102095425129,
      -0.568681538105011,
      0.09331943094730377,
      -0.4024668037891388,
      0.6219496726989746,
      0.10084206610918045,
      -2.8543291091918945,
      -0.0347333587706089,
      0.1403360366821289,
      -0.13416758179664612,
      -0.1675375998020172,
      -1.4434211254119873,
      -0.22107809782028198,
      -0.02000192552804947,
      -2.184133529663086,
      1.2823078632354736,
      2.244537115097046,
      -0.15659178793430328,
      3.0161893367767334,
      -1.30391526222229,
      0.08081469684839249,
      -0.9606321454048157,
      0.9350341558456421,
      1.320053219795227,
      -0.052269116044044495,
      -0.8833277225494385,
      -0.9868422746658325,
      -0.06433917582035065,
      -0.5941451191902161,
      -0.07620677351951599,
      0.00933690182864666,
      0.7911602854728699,
      -0.1554260402917862,
      -0.6497073173522949,
      0.2345484495162964,
      -0.1763441115617752,
      0.3724927604198456,
      0.4142136573791504,
      -0.11044866591691971,
      0.6745511293411255,
      0.23409263789653778,
      -0.8440626859664917,
      3.0684540271759033,
      0.6551739573478699,
      0.23730945587158203,
      0.3189886212348938,
      1.3436387777328491,
      -0.8470425009727478,
      0.011477054096758366,
      0.5917471647262573,
      -1.3637399673461914,
      -1.2636486291885376,
      0.14475075900554657,
      -1.7591006755828857,
      -2.8787248134613037,
      0.09812229871749878,
      -0.06746149808168411,
      -0.5688161253929138,
      -0.6186991333961487,
      -0.24822886288166046,
      0.0827096700668335,
      -0.6037052273750305,
      0.262431800365448,
      -0.22173893451690674,
      -0.05563456937670708,
      -0.1094314455986023,
      0.9173826575279236,
      0.3025048077106476,
      -0.15636301040649414,
      -0.19395366311073303,
      -0.2819221019744873,
      0.12242274731397629,
      -0.3595377206802368,
      0.06134101375937462,
      0.1072295606136322,
      -0.6907882690429688,
      -0.02140841819345951,
      -3.5942301750183105,
      -0.5445722341537476,
      -0.03245876729488373,
      2.228154182434082,
      0.5541859269142151,
      -2.0234289169311523,
      -0.08590798079967499,
      3.29683256149292,
      -0.7682116627693176,
      -3.4843380451202393,
      -0.18191637098789215,
      0.41742509603500366,
      1.6618484258651733,
      0.4903932213783264,
      0.48557034134864807,
      0.49903595447540283,
      -0.6390337347984314,
      0.456183522939682,
      -0.35866427421569824,
      -0.564199686050415,
      -0.169301375746727,
      -0.0243662279099226,
      0.10267001390457153,
      0.13979214429855347,
      -2.3115053176879883,
      0.8423227667808533,
      0.3402939736843109,
      -0.2644869089126587,
      -0.0931331142783165,
      -0.8082444071769714,
      -0.26323509216308594,
      0.4781081974506378,
      -0.629258394241333,
      0.12836916744709015,
      0.050003375858068466,
      -3.1008927822113037,
      0.7297391295433044,
      -0.11071193218231201,
      -4.895233631134033,
      -0.7184473872184753,
      5.172501564025879,
      0.12696443498134613,
      -0.2760453522205353,
      0.5412848591804504,
      0.46089184284210205,
      0.05960894748568535,
      -0.06421790271997452,
      0.2810937166213989,
      -0.11432760208845139,
      0.02893063612282276,
      -0.8301394581794739,
      0.8295796513557434,
      0.009736361913383007,
      -0.10918936133384705,
      4.103785991668701,
      0.005947839934378862,
      0.04636969417333603,
      0.010751617141067982,
      -0.02814634144306183,
      0.4879317879676819,
      0.05538136512041092,
      -0.2912578582763672,
      -0.008248421363532543,
      0.056684717535972595,
      0.14044849574565887,
      -0.2371160089969635,
      -0.04289674013853073,
      -0.13780565559864044,
      0.046070121228694916,
      -0.39202067255973816,
      -1.963951587677002,
      -1.2174545526504517,
      -0.14477340877056122,
      1.6252514123916626,
      2.209613561630249,
      -1.3137685060501099,
      -0.2356547862291336,
      -0.8711888194084167,
      -2.33923602104187,
      1.5887880325317383,
      -0.15159787237644196,
      2.411149740219116,
      2.2117884159088135,
      0.1809321492910385,
      -0.7862910628318787,
      -0.5146792531013489,
      -0.004929959308356047,
      0.46242672204971313,
      0.022772841155529022,
      -0.3453623652458191,
      0.08275182545185089,
      0.5427398681640625,
      0.27463555335998535,
      -0.10919798910617828,
      0.048651162534952164,
      0.18243607878684998,
      0.29152441024780273,
      -0.20966260135173798,
      -0.39755430817604065,
      -0.03788384795188904,
      -0.29065534472465515,
      0.11994356662034988,
      -0.4357191324234009,
      0.28011777997016907,
      -0.073524609208107,
      -0.17783194780349731,
      0.9738882780075073,
      0.05577688291668892,
      3.782233238220215,
      0.3407052159309387,
      -3.561738967895508,
      -0.15032978355884552,
      0.5227950215339661,
      -0.04710949957370758,
      -0.9558282494544983,
      0.1919916272163391,
      0.61866694688797,
      -1.3201268911361694,
      0.3400074541568756,
      -0.2849900424480438,
      1.0965489149093628,
      0.5838220119476318,
      0.35505619645118713,
      -0.04852478578686714,
      -2.199965476989746,
      -0.01916898600757122,
      0.15715256333351135,
      0.024173831567168236,
      0.0308842696249485,
      -0.25804805755615234,
      -0.029860898852348328,
      -0.27624034881591797,
      -0.089476577937603,
      -0.1891024112701416,
      0.13966791331768036,
      -0.9338177442550659,
      0.22549878060817719,
      -0.19188684225082397,
      -0.029037432745099068,
      2.3358206748962402,
      4.455642223358154,
      -2.2951292991638184,
      -0.2227170765399933,
      -2.345646619796753,
      -0.44660693407058716,
      2.210062026977539,
      -0.038184791803359985,
      1.0700082778930664,
      -0.1173977330327034,
      -1.164320707321167,
      0.10281993448734283,
      -1.378859043121338,
      -0.9249614477157593,
      -0.06426535546779633,
      2.1293108463287354,
      2.9397501945495605,
      -2.5824108123779297,
      0.2303079068660736,
      0.0014366221148520708,
      1.590896487236023,
      -0.11290570348501205,
      0.0269184373319149,
      -0.02755659632384777,
      0.020859403535723686,
      -0.29494690895080566,
      -0.028754238039255142,
      0.3334047198295593,
      0.07950443029403687,
      -0.10369057953357697,
      -0.061261385679244995,
      -0.3657393157482147,
      0.0875035747885704,
      0.08848219364881516,
      0.035109490156173706,
      0.12500058114528656,
      -5.84955358505249,
      -0.5250659584999084,
      0.07929084450006485,
      -1.075522541999817,
      0.5834526419639587,
      0.4839017987251282,
      0.08331333845853806,
      -2.0121703147888184,
      0.4710671901702881,
      2.926729202270508,
      -0.05844008922576904,
      0.057638708502054214,
      6.317686080932617,
      -0.08008366078138351,
      0.05186259746551514,
      -2.860565185546875,
      -0.020382573828101158,
      1.3954904079437256,
      -0.1348486989736557,
      0.41956669092178345,
      -0.0492633581161499,
      -0.05871077626943588,
      -0.05658602714538574,
      -0.011345497332513332,
      0.06847675144672394,
      -0.031579673290252686,
      -0.08828330039978027,
      0.03284965455532074,
      0.14170406758785248,
      0.03192281350493431,
      0.09440186619758606,
      -0.04594045132398605,
      0.024793073534965515,
      0.06772878766059875,
      -2.25447678565979,
      -2.9793381690979004,
      0.5830242037773132,
      -0.02548227831721306,
      -0.49709421396255493,
      -0.9447895288467407,
      0.09455294162034988,
      -0.01439194567501545,
      0.06934572011232376,
      1.1602610349655151,
      0.5991998910903931,
      0.18601182103157043,
      4.986037731170654,
      3.8463497161865234,
      -0.29360947012901306,
      -1.5776593685150146,
      -1.2174837589263916,
      0.5986430644989014,
      0.5469076633453369,
      -0.9603513479232788,
      0.06011899933218956,
      0.16722773015499115,
      -0.20518721640110016,
      -0.025160565972328186,
      0.031212428584694862,
      0.2849288284778595,
      -0.8328643441200256,
      -0.20407333970069885,
      -0.08860166370868683,
      -0.022668562829494476,
      0.4537104666233063,
      -0.007129679899662733,
      -0.03012697398662567,
      -0.2349439412355423,
      0.20053710043430328,
      2.516319751739502,
      -0.710957407951355,
      1.013073444366455,
      0.08169206976890564,
      -0.061498161405324936,
      -0.18830464780330658,
      0.5901555418968201,
      0.13862188160419464,
      0.5840916633605957,
      -0.2643781900405884,
      0.2897980213165283,
      0.12434978038072586,
      -4.023425102233887,
      2.518245220184326,
      -0.19911226630210876,
      1.2306480407714844,
      -0.690055251121521,
      1.2430227994918823,
      0.3849979639053345,
      0.7318299412727356,
      -0.19063709676265717,
      -0.8124424815177917,
      -0.7468850016593933,
      -0.09621443599462509,
      -0.15169844031333923,
      0.26186293363571167,
      0.5488288402557373,
      0.19358275830745697,
      0.04233170673251152,
      0.4882242679595947,
      0.503275990486145,
      0.12833769619464874,
      -0.16460095345973969,
      0.06727924197912216,
      0.13752490282058716,
      0.8174628019332886,
      -2.067927360534668,
      -0.06010427325963974,
      0.0996001660823822,
      0.7047712206840515,
      -1.2335261106491089,
      -1.5778913497924805,
      0.17121660709381104,
      -0.059867940843105316,
      2.4304301738739014,
      -0.9347357749938965,
      0.0018919912399724126,
      1.8861970901489258,
      3.442918300628662,
      0.06368353217840195,
      -0.22644981741905212,
      -0.02183612249791622,
      -1.8855217695236206,
      0.7094905972480774,
      -0.7952622175216675,
      -1.403063178062439,
      -0.042327843606472015,
      0.11132784187793732,
      -0.06744150072336197,
      -0.06240757927298546,
      -0.5540178418159485,
      -0.18493932485580444,
      -0.23951895534992218,
      0.18186388909816742,
      -0.04711269959807396,
      0.223035991191864,
      -0.10432259738445282,
      -0.5765782594680786,
      -0.3459887206554413,
      -0.04139599949121475,
      3.9848170280456543,
      4.67177152633667,
      1.2113696336746216,
      -0.0664047822356224,
      0.16148099303245544,
      0.4763163626194,
      -0.3385487198829651,
      -0.1323244422674179,
      -0.5381307601928711,
      -0.3267768621444702,
      -0.2106105387210846,
      -0.20787569880485535,
      -2.4331629276275635,
      -3.1184887886047363,
      -0.00764824403449893,
      2.494628667831421,
      2.2939271926879883,
      -0.7366995811462402,
      0.3552490770816803,
      -0.23647768795490265,
      -0.5061894059181213,
      -0.09736043214797974,
      0.02224034257233143,
      0.0021138342563062906,
      -0.026664476841688156,
      0.12429559230804443,
      -0.8373614549636841,
      -0.3846760392189026,
      0.0028408467769622803,
      0.5611146688461304,
      0.07720442116260529,
      0.1420019268989563,
      0.16780242323875427,
      0.2617696523666382,
      0.027108727023005486,
      1.1806089878082275,
      -3.6640329360961914,
      -0.05458401143550873,
      -0.11122500151395798,
      -0.8851585388183594,
      -1.1476249694824219,
      1.402207851409912,
      0.0007731916848570108,
      0.4675133526325226,
      1.472085952758789,
      -1.0239527225494385,
      -0.13292963802814484,
      -0.4259224832057953,
      0.9575434923171997,
      -0.09624068439006805,
      1.4001446962356567,
      -3.979613780975342,
      -0.24514852464199066,
      -1.1369906663894653,
      -0.026710854843258858,
      -0.30124223232269287,
      0.05847205966711044,
      0.07784491032361984,
      0.031786710023880005,
      -0.058178819715976715,
      0.24804948270320892,
      -0.16498546302318573,
      0.04592013359069824,
      -0.08040399104356766,
      0.1596670150756836,
      -0.18634219467639923,
      0.11587678641080856,
      -0.1582140028476715,
      -0.4133489429950714,
      0.29939889907836914,
      1.2382780313491821,
      -1.575968861579895,
      -6.745436191558838,
      0.2328163981437683,
      -0.2626418471336365,
      -0.9810456037521362,
      0.13713163137435913,
      0.14735454320907593,
      0.10970209538936615,
      2.088472843170166,
      -0.31370168924331665,
      0.06490793824195862,
      0.4279295802116394,
      0.05334428697824478,
      0.39762911200523376,
      -0.361786812543869,
      -0.8555968999862671,
      -4.91227388381958,
      0.03755952790379524,
      0.04521619528532028,
      0.17088045179843903,
      0.016164755448698997,
      -0.10277609527111053,
      -0.014614026062190533,
      0.008397410623729229,
      -0.184940904378891,
      -0.0014047125587239861,
      -0.17430882155895233,
      0.12936876714229584,
      0.04007077217102051,
      -0.01075955480337143,
      -0.012975816614925861,
      0.0676194429397583,
      0.1015973687171936,
      0.0806679055094719,
      4.183345794677734,
      -1.7947412729263306,
      0.7608979940414429,
      0.18512201309204102,
      -0.12209560722112656,
      0.862494707107544,
      -0.03384595364332199,
      0.07875557988882065,
      0.3300033211708069,
      -1.5220810174942017,
      0.050938524305820465,
      -0.010065371170639992,
      -6.315059661865234,
      2.9069085121154785,
      -0.11952468007802963,
      2.5845577716827393,
      -0.9291985630989075,
      0.21595829725265503,
      0.610321044921875,
      1.1202589273452759,
      0.16448108851909637,
      0.046992503106594086,
      -0.04014430567622185,
      -0.06923408806324005,
      -0.00720026483759284,
      -0.24191369116306305,
      0.2529597878456116,
      0.19329126179218292,
      0.210716113448143,
      -0.3119352459907532,
      -0.014103804714977741,
      0.03081047162413597,
      -0.17596660554409027,
      -0.02704925462603569,
      0.07531793415546417
    ],
    [
      -0.1844385862350464,
      0.1929842084646225,
      0.08164097368717194,
      0.04284227266907692,
      -0.21950314939022064,
      0.0753588005900383,
      0.357602596282959,
      0.09519506245851517,
      0.7095887660980225,
      0.5278278589248657,
      -0.2005470097064972,
      -0.060686275362968445,
      0.25748661160469055,
      -0.1660214364528656,
      -0.43163833022117615,
      -0.23325851559638977,
      0.024644093587994576,
      0.18853384256362915,
      0.00018868975166697055,
      0.002795756794512272,
      0.33185651898384094,
      -0.22465670108795166,
      0.11293062567710876,
      0.0942060798406601,
      -0.7368913888931274,
      0.005065443459898233,
      0.11488300561904907,
      -0.24790751934051514,
      -0.06781671196222305,
      -0.6080592274665833,
      -0.6247982978820801,
      -0.36861997842788696,
      -0.17148809134960175,
      -0.16816346347332,
      -0.047330643981695175,
      -0.04288496449589729,
      0.09514118731021881,
      0.33121994137763977,
      -0.14040499925613403,
      -0.4567442536354065,
      0.7243381142616272,
      -0.02628163993358612,
      -0.29658043384552,
      0.2020280808210373,
      0.16989682614803314,
      -0.41089335083961487,
      -0.11285615712404251,
      -0.16298605501651764,
      0.1096595972776413,
      -0.011972625739872456,
      0.06294649094343185,
      -0.2893793284893036,
      0.04326235502958298,
      -0.3122728765010834,
      0.030116694048047066,
      -0.2753138542175293,
      -0.09397715330123901,
      0.3029446005821228,
      -0.14422710239887238,
      0.3143606185913086,
      0.039139654487371445,
      0.06282079964876175,
      -0.06750240176916122,
      -0.3248612582683563,
      0.10752388089895248,
      -0.11857788264751434,
      0.08704864978790283,
      -0.09655243158340454,
      -0.08027996867895126,
      -0.17052973806858063,
      -0.2971426844596863,
      0.1572316437959671,
      0.90981125831604,
      -0.19171707332134247,
      -0.13655517995357513,
      -0.02535870485007763,
      -0.19829922914505005,
      -0.05436563864350319,
      0.6004505753517151,
      -0.3468739688396454,
      -0.013526411727070808,
      -0.37412041425704956,
      0.21568958461284637,
      -0.05360493063926697,
      -0.48949676752090454,
      -0.2796326279640198,
      -0.15427978336811066,
      -0.015520636923611164,
      -0.3960585296154022,
      -0.5022750496864319,
      0.531216561794281,
      0.07963603734970093,
      0.4767173230648041,
      -0.1344330906867981,
      -0.44488194584846497,
      0.8876669406890869,
      0.14295510947704315,
      -0.2112744003534317,
      -0.23228523135185242,
      0.0713040828704834,
      -0.12126467376947403,
      -0.054046764969825745,
      0.05565338581800461,
      -0.22402404248714447,
      1.2334671020507812,
      -0.027110276743769646,
      0.163553848862648,
      0.0698908269405365,
      -0.02879725769162178,
      -0.06323480606079102,
      0.5124216079711914,
      0.5559508800506592,
      0.15797941386699677,
      0.11151031404733658,
      -0.0812220349907875,
      0.34710946679115295,
      0.10287236422300339,
      -0.11148294806480408,
      -0.008717110380530357,
      -0.33173781633377075,
      0.6813409924507141,
      0.2814359664916992,
      -0.24829193949699402,
      0.08829626441001892,
      -0.060964640229940414,
      0.1971709281206131,
      -0.281381219625473,
      -0.09312804043292999,
      0.19087354838848114,
      -0.15643911063671112,
      0.1200956404209137,
      -0.035484474152326584,
      0.6097084879875183,
      0.06931702792644501,
      -0.26082363724708557,
      0.2777774930000305,
      0.39550405740737915,
      -0.0030827566515654325,
      0.20551644265651703,
      -0.12147356569766998,
      -0.026792678982019424,
      -0.03549739718437195,
      -0.6325066089630127,
      0.605339765548706,
      0.1778246909379959,
      -0.02312038280069828,
      0.28329724073410034,
      0.14228646457195282,
      0.17177443206310272,
      0.20669019222259521,
      -0.04333895817399025,
      -0.12207803130149841,
      0.023395560681819916,
      -0.022667638957500458,
      0.11699974536895752,
      0.212477445602417,
      0.17073580622673035,
      0.004728797823190689,
      -0.0878179520368576,
      0.008327208459377289,
      0.03448044881224632,
      -0.10211540758609772,
      0.18053750693798065,
      0.0003737355873454362,
      -0.03901144117116928,
      0.03924041613936424,
      -0.08319520205259323,
      0.6522390246391296,
      -0.669045627117157,
      -0.09681210666894913,
      -0.08222866803407669,
      0.1280975043773651,
      0.40208128094673157,
      -0.32088398933410645,
      0.64875328540802,
      -0.15949183702468872,
      0.2600319981575012,
      -0.1265767514705658,
      0.07623624056577682,
      -0.26561877131462097,
      -0.10985897481441498,
      0.10211236774921417,
      0.1733870655298233,
      0.02821086347103119,
      0.399294376373291,
      -0.28730568289756775,
      0.14176613092422485,
      -0.08736804872751236,
      -0.1499224305152893,
      0.09499427676200867,
      -0.37162676453590393,
      -0.42247405648231506,
      -0.10569927841424942,
      -0.15290720760822296,
      -0.18101228773593903,
      -0.09858082234859467,
      0.033416498452425,
      0.10288890451192856,
      0.07712351530790329,
      0.042194534093141556,
      0.3409830629825592,
      0.020792067050933838,
      0.09340592473745346,
      -0.06070154905319214,
      0.025533700361847878,
      0.019680852070450783,
      -0.13877227902412415,
      -0.3550582826137543,
      -0.04565265402197838,
      -0.06577979028224945,
      0.07747375965118408,
      -0.01795380376279354,
      0.1961628943681717,
      0.05153088644146919,
      0.3976503908634186,
      -0.16814567148685455,
      0.5341046452522278,
      -0.2560268044471741,
      0.009678644128143787,
      -0.06390687078237534,
      -0.10174544900655746,
      -0.19268837571144104,
      -0.028162844479084015,
      0.05082801729440689,
      -0.1510685235261917,
      0.15727916359901428,
      0.01729794219136238,
      -0.08198314160108566,
      0.25004637241363525,
      -0.16987942159175873,
      0.11238259822130203,
      -0.16405630111694336,
      -0.015863586217164993,
      0.16689281165599823,
      -0.252023309469223,
      -0.5269651412963867,
      0.42784810066223145,
      0.2351253777742386,
      0.434221476316452,
      -0.01746135763823986,
      -0.2282891869544983,
      -0.07933668047189713,
      0.23381486535072327,
      0.07840955257415771,
      0.34754490852355957,
      -0.34467068314552307,
      0.30873000621795654,
      0.004151951055973768,
      -0.475941002368927,
      -0.35285577178001404,
      0.0006659002392552793,
      -0.3003085255622864,
      -0.09966876357793808,
      0.15768730640411377,
      -0.24323725700378418,
      -0.1711474061012268
    ]
  ],
  "actor_encoder_biases": [
    [
      0.014102629385888577,
      -0.04976635053753853,
      0.0904703363776207,
      -0.05246873199939728,
      0.0926995798945427,
      -0.3731320798397064,
      0.16447021067142487,
      0.0032413634471595287,
      -0.12236753106117249,
      -0.06240973249077797,
      -0.06209031119942665,
      -0.030533546581864357,
      -0.008052290417253971,
      -0.05799395591020584,
      0.1836700737476349,
      -0.07084833830595016
    ],
    [
      -0.004679158795624971,
      0.1101989671587944,
      0.1030338779091835,
      -0.0921173170208931,
      -0.08478154242038727,
      0.07665633410215378,
      -0.3061080873012543,
      0.22338519990444183,
      -0.027223732322454453,
      0.13820484280586243,
      -0.130852609872818,
      0.11840414255857468,
      -0.02069411426782608,
      -0.08972704410552979,
      -0.19177965819835663,
      -0.04320201277732849
    ]
  ],
  "actor_head_weights": [
    [
      -0.10787832736968994,
      0.17206056416034698,
      0.26510855555534363,
      -0.060905493795871735,
      -0.4748286008834839,
      0.23725025355815887,
      0.9991567730903625,
      -0.3343009650707245,
      -0.996127188205719,
      0.6805447340011597,
      -0.2726329267024994,
      0.027211351320147514,
      0.01946423202753067,
      -0.012310657650232315,
      0.5497444272041321,
      0.16096912324428558,
      0.24229665100574493,
      -0.12075616419315338,
      0.13088558614253998,
      0.5819831490516663,
      -0.14832796156406403,
      0.2621784508228302,
      -0.9486839175224304,
      -0.8006561994552612,
      -0.030274150893092155,
      0.16434486210346222,
      0.5851830840110779,
      0.2843809127807617,
      -0.28798240423202515,
      0.20105880498886108,
      -0.2887265980243683,
      -0.10846822708845139,
      -0.0007859995821490884,
      -0.023519037291407585,
      -0.0385299026966095,
      0.2450355738401413,
      -0.3277210295200348,
      -0.33352965116500854,
      0.6010165810585022,
      0.189883753657341,
      0.19658121466636658,
      0.4314195513725281,
      0.5384909510612488,
      0.1197149008512497,
      0.1469636708498001,
      -0.8362856507301331,
      -0.1334170550107956,
      -0.42950013279914856,
      -0.208743155002594,
      -1.2830034494400024,
      0.2378978282213211,
      -0.028538234531879425,
      -0.3914167582988739,
      -0.2520204186439514,
      -0.6761473417282104,
      0.03892507031559944,
      0.28966590762138367,
      0.10543189942836761,
      -0.09917989373207092,
      -0.20901182293891907,
      0.04915693774819374,
      0.22803783416748047,
      0.23166874051094055,
      0.180964857339859
    ]
  ],
  "actor_head_biases": [
    [
      0.4192672371864319,
      0.17403735220432281,
      0.21065136790275574,
      0.20377127826213837
    ]
  ],
  "gru_weight_ih": [
    1.0942720174789429,
    1.7608810663223267,
    -1.9512978792190552,
    -1.3464109897613525,
    -0.7769560813903809,
    -0.5901747941970825,
    1.3374555110931396,
    -0.2790985405445099,
    1.2906265258789062,
    -1.1257742643356323,
    0.20201078057289124,
    -0.5405417084693909,
    -0.052623048424720764,
    0.9115393757820129,
    -0.2902370095252991,
    0.34582147002220154,
    0.07498984783887863,
    0.1365932822227478,
    1.1239190101623535,
    -0.26385974884033203,
    0.21908028423786163,
    -0.5234335660934448,
    0.15187714993953705,
    0.5401327013969421,
    0.2903364598751068,
    0.21294823288917542,
    -0.709426999092102,
    0.4631251096725464,
    -0.2674109637737274,
    0.640923023223877,
    -0.23822999000549316,
    -0.049227140843868256,
    -0.6518515944480896,
    -0.2541002333164215,
    0.948067307472229,
    -0.49752551317214966,
    -0.4633212983608246,
    1.5377979278564453,
    -0.25370851159095764,
    -0.06686147302389145,
    -1.4147700071334839,
    -0.5520915985107422,
    -0.4268929064273834,
    -0.23956558108329773,
    -1.577572226524353,
    0.07819772511720657,
    -0.9948213696479797,
    -0.09932747483253479,
    1.38626229763031,
    0.3794696033000946,
    0.860967755317688,
    -0.24885126948356628,
    0.3372049033641815,
    1.6293020248413086,
    1.2971431016921997,
    0.00945287011563778,
    0.6446108818054199,
    0.7857035994529724,
    -0.3499963581562042,
    0.3830292224884033,
    -0.7846036553382874,
    0.25884920358657837,
    -0.0690380334854126,
    -0.050652336329221725,
    0.45111173391342163,
    0.5782335996627808,
    -0.3549569845199585,
    0.9395413398742676,
    0.9375569224357605,
    -0.966654896736145,
    0.5485991835594177,
    0.509372353553772,
    -0.37305426597595215,
    -0.6363309025764465,
    -0.3839069604873657,
    0.5041981339454651,
    -0.4195553660392761,
    -0.6192371249198914,
    1.8636187314987183,
    -0.39713501930236816,
    0.9697225093841553,
    2.004636287689209,
    0.261694997549057,
    0.7475849986076355,
    -1.0363869667053223,
    0.09790826588869095,
    0.12875594198703766,
    -1.5796514749526978,
    0.6596214175224304,
    -0.6927699446678162,
    -1.5265295505523682,
    1.2694754600524902,
    -0.009745235554873943,
    0.3386901617050171,
    0.5933465361595154,
    1.4434471130371094,
    -0.1012720987200737,
    -1.4322549104690552,
    0.5333791971206665,
    -1.6712363958358765,
    -1.2445147037506104,
    -0.18620704114437103,
    0.5307168960571289,
    -0.20038820803165436,
    -0.16119073331356049,
    -0.36193427443504333,
    0.018531974405050278,
    -1.458937168121338,
    0.0845286101102829,
    0.508192241191864,
    1.0197399854660034,
    0.7151899337768555,
    -1.1367745399475098,
    0.6146363019943237,
    -0.049318380653858185,
    -0.5923023223876953,
    0.26672765612602234,
    -1.0708520412445068,
    0.0944276824593544,
    -0.9839476346969604,
    1.8490465879440308,
    0.5809808373451233,
    0.5654624104499817,
    -0.7950882315635681,
    0.3357931077480316,
    0.04470466449856758,
    -0.6987367868423462,
    1.0333274602890015,
    -0.38902950286865234,
    -1.5679280757904053,
    0.17883628606796265,
    0.5953761339187622,
    1.4112305641174316,
    -0.9083886742591858,
    -0.3380824625492096,
    1.0332533121109009,
    1.0159435272216797,
    -0.3770906627178192,
    -0.5351730585098267,
    -0.4570460915565491,
    0.18039482831954956,
    -0.42850416898727417,
    -0.07308954000473022,
    0.2951350212097168,
    -0.9734686017036438,
    0.9840042591094971,
    0.6677106618881226,
    0.13345743715763092,
    -0.44152939319610596,
    0.3929870128631592,
    -0.410431832075119,
    -0.08757893741130829,
    0.8725143671035767,
    0.2726682722568512,
    -0.13419578969478607,
    1.2923452854156494,
    0.6589145064353943,
    -0.08783514052629471,
    -1.5720068216323853,
    -0.4942949712276459,
    -0.16511490941047668,
    0.09088493138551712,
    1.2184455394744873,
    0.4566434621810913,
    0.7374011278152466,
    0.18463820219039917,
    0.001787978457286954,
    0.1576956808567047,
    0.3665088713169098,
    -0.36444321274757385,
    -0.18122510612010956,
    -0.1668781340122223,
    0.25157761573791504,
    0.16213785111904144,
    -0.6046318411827087,
    -0.33790358901023865,
    -0.7588611841201782,
    -0.7981297373771667,
    -0.48245710134506226,
    -0.47271010279655457,
    0.8671277165412903,
    -0.9685294032096863,
    0.7756789922714233,
    0.7043662071228027,
    -0.12038642168045044,
    1.8707078695297241,
    -1.6892502307891846,
    0.04761384055018425,
    -0.8403031826019287,
    0.24398814141750336,
    1.2821581363677979,
    2.549635171890259,
    -0.4256606101989746,
    1.4752668142318726,
    -0.03904144838452339,
    0.9692592620849609,
    0.047641653567552567,
    -1.2696433067321777,
    -0.19820797443389893,
    0.5044453740119934,
    -0.0833372175693512,
    -1.4497812986373901,
    -1.8374134302139282,
    -0.6322299242019653,
    -0.800121545791626,
    -0.14854805171489716,
    1.3332353830337524,
    0.5953683257102966,
    -0.08279719948768616,
    -0.5614629983901978,
    1.0521358251571655,
    0.08769567310810089,
    0.46101680397987366,
    -0.09275410324335098,
    -0.5104831457138062,
    0.994310200214386,
    -0.34089425206184387,
    -0.3093363046646118,
    0.4984738230705261,
    -0.015449866652488708,
    0.3049517273902893,
    -0.03839413449168205,
    -0.22923767566680908,
    -0.9976802468299866,
    0.3434818983078003,
    -0.6817241907119751,
    0.29826298356056213,
    -0.7440465688705444,
    0.5470906496047974,
    -0.13237276673316956,
    0.7490021586418152,
    -0.3586626648902893,
    0.7729573845863342,
    0.27317261695861816,
    1.067408561706543,
    0.15572583675384521,
    0.32313045859336853,
    1.517977237701416,
    0.026878535747528076,
    0.3929600715637207,
    1.191595435142517,
    0.4858296513557434,
    0.22200684249401093,
    -0.09961798787117004,
    -0.7884640097618103,
    0.19786012172698975,
    0.5388179421424866,
    -0.5634325742721558,
    0.25082018971443176,
    -0.8340485692024231,
    0.9327027201652527,
    -0.14749708771705627,
    0.08964037895202637,
    0.43275904655456543,
    0.19744792580604553,
    -1.5418622493743896,
    1.8017909526824951,
    0.5843670964241028,
    -0.4237329065799713,
    0.15028931200504303,
    -0.7383108735084534,
    -1.618068814277649,
    0.4715477228164673,
    -0.20233607292175293,
    -0.6642767190933228,
    0.3932572603225708,
    0.9508289694786072,
    -0.21481752395629883,
    0.7913128137588501,
    0.530023455619812,
    1.2104982137680054,
    0.3539036512374878,
    -0.2202485352754593,
    1.010401964187622,
    -0.35612422227859497,
    0.1409977227449417,
    -0.6815021634101868,
    -0.38292041420936584,
    -0.08769674599170685,
    -1.241086721420288,
    0.2107190638780594,
    -0.22979944944381714,
    -1.1204774379730225,
    1.2978546619415283,
    -0.7057589292526245,
    0.3366353213787079,
    -0.07789033651351929,
    0.08422563225030899,
    0.17326049506664276,
    -0.9622923731803894,
    0.010502378456294537,
    0.05102617293596268,
    -0.9163192510604858,
    1.1935408115386963,
    -0.5402626395225525,
    -0.14853417873382568,
    -0.8021876811981201,
    -0.9981483817100525,
    0.5939152836799622,
    -0.4671376645565033,
    -0.3234803378582001,
    0.5066767334938049,
    -1.0606251955032349,
    0.4382493197917938,
    -0.3832032084465027,
    -0.34143513441085815,
    0.16004620492458344,
    0.6645415425300598,
    -1.0687335729599,
    -0.8704606294631958,
    0.43271440267562866,
    0.8311683535575867,
    0.2693423330783844,
    -0.607831597328186,
    -1.2754676342010498,
    0.2094462364912033,
    0.9225743412971497,
    0.7748346328735352,
    -0.08062028884887695,
    0.5546685457229614,
    -0.4057275056838989,
    0.3581109344959259,
    0.0829833447933197,
    -0.0863923504948616,
    0.9526017904281616,
    -0.14485324919223785,
    -0.33725255727767944,
    -0.46501603722572327,
    0.6108505129814148,
    0.925683319568634,
    0.05126514285802841,
    1.3350231647491455,
    0.24900461733341217,
    0.44022276997566223,
    -1.1629003286361694,
    0.07280033826828003,
    -0.0365140326321125,
    0.2033146470785141,
    -0.08911258727312088,
    0.32408642768859863,
    -0.7966421842575073,
    -0.1841045767068863,
    0.7270889282226562,
    0.0771961361169815,
    1.2295664548873901,
    0.15491893887519836,
    -0.4627140164375305,
    -0.6982640624046326,
    1.477588415145874,
    0.9193910360336304,
    2.3086140155792236,
    0.10224933177232742,
    0.06819310784339905,
    -0.1613333374261856,
    0.03312888741493225,
    -0.007885473780333996,
    -0.04878677427768707,
    0.15364761650562286,
    -0.3812732398509979,
    0.2648348808288574,
    0.22333811223506927,
    0.34250500798225403,
    0.20813560485839844,
    0.1046447679400444,
    -0.18234135210514069,
    0.27236518263816833,
    0.40424057841300964,
    -0.2743304371833801,
    -0.28883838653564453,
    0.5029991269111633,
    -0.5420845150947571,
    0.14323973655700684,
    -0.12305178493261337,
    -0.7256473302841187,
    0.8873248100280762,
    0.02896011807024479,
    -0.42117762565612793,
    0.2645515203475952,
    0.5378218293190002,
    0.7832318544387817,
    -0.7921941876411438,
    0.8838247060775757,
    0.664395809173584,
    -0.2550315856933594,
    0.47155535221099854,
    0.1688947230577469,
    -0.053054362535476685,
    -0.5343403816223145,
    -0.025288468226790428,
    0.03419991210103035,
    1.7334773540496826,
    -0.9017429351806641,
    -0.2192779928445816,
    -0.5153144598007202,
    -0.5924627780914307,
    0.501681923866272,
    -0.7116736173629761,
    -0.12993183732032776,
    -0.3278828561306,
    -1.0769715309143066,
    -0.5487968325614929,
    0.727299690246582,
    0.838789701461792,
    1.8245924711227417,
    0.23720161616802216,
    0.9956129193305969,
    0.36717426776885986,
    1.0523701906204224,
    -0.21909907460212708,
    0.422012060880661,
    -0.2759077847003937,
    0.8804975152015686,
    -0.25450658798217773,
    -2.433380126953125,
    0.3200375437736511,
    -2.0255515575408936,
    -0.4613434374332428,
    0.4641140103340149,
    0.35536471009254456,
    0.33759450912475586,
    -0.03596238046884537,
    0.2889081835746765,
    0.2451229691505432,
    -0.1260213702917099,
    -0.5415133833885193,
    0.3319980204105377,
    0.629840075969696,
    -0.1643686592578888,
    -0.5876339077949524,
    0.046414006501436234,
    -0.4832848012447357,
    -1.0058262348175049,
    -0.981659471988678,
    -0.7148688435554504,
    0.190607488155365,
    -0.21884775161743164,
    -0.7562459111213684,
    0.38218048214912415,
    -0.18174035847187042,
    -0.585090160369873,
    -1.0976145267486572,
    0.07284323871135712,
    -0.23117570579051971,
    -0.3100956976413727,
    -1.3121426105499268,
    -0.09201748669147491,
    0.46588191390037537,
    0.9094998240470886,
    0.7194969654083252,
    0.5471847653388977,
    -0.3685818314552307,
    1.2310911417007446,
    0.5507444143295288,
    0.12973083555698395,
    -0.525955319404602,
    -0.34778815507888794,
    -0.04211264103651047,
    -0.22900588810443878,
    -0.1746618151664734,
    0.5425997972488403,
    -0.17998795211315155,
    0.12731704115867615,
    0.3221084177494049,
    1.1557601690292358,
    0.13283821940422058,
    0.5239185690879822,
    -0.8966131806373596,
    -0.3060888648033142,
    0.24181295931339264,
    -0.208414688706398,
    0.2928987443447113,
    -0.346945583820343,
    -0.3101227879524231,
    0.09366047382354736,
    0.1886717975139618,
    -0.4007735550403595,
    -0.45545893907546997,
    0.23356783390045166,
    -0.4047585427761078,
    0.4414137899875641,
    -0.0012148896930739284,
    0.19151242077350616,
    -0.07381358742713928,
    0.30234020948410034,
    -0.446087121963501,
    0.06636995822191238,
    0.3321758508682251,
    -0.5519726276397705,
    -0.506507396697998,
    0.5400671362876892,
    0.31623926758766174,
    0.35423657298088074,
    -0.4175700545310974,
    0.45879194140434265,
    -0.03715377673506737,
    0.26902997493743896,
    -0.11029453575611115,
    -0.42909032106399536,
    -0.21592001616954803,
    1.1828653812408447,
    0.6745532751083374,
    0.32518234848976135,
    1.1850742101669312,
    -0.1775358021259308,
    -0.5634416937828064,
    -0.022852817550301552,
    0.3110988140106201,
    -1.4322450160980225,
    -1.0922123193740845,
    0.25866734981536865,
    0.6283929944038391,
    -0.03306136280298233,
    0.5050695538520813,
    -0.17520630359649658,
    -0.0003557639429345727,
    0.14706988632678986,
    0.3951003849506378,
    0.12190207093954086,
    0.23471640050411224,
    -0.2789526581764221,
    0.1731283962726593,
    -0.5027396082878113,
    0.08604834973812103,
    0.08780071139335632,
    0.09928983449935913,
    -0.18697679042816162,
    -0.10981404781341553,
    -0.3072887659072876,
    0.4692944586277008,
    -0.19967567920684814,
    0.19591949880123138,
    0.298987478017807,
    0.21504203975200653,
    -0.3544454574584961,
    0.24050788581371307,
    0.0849253311753273,
    -0.3125363886356354,
    0.09841711819171906,
    0.15752141177654266,
    0.08514242619276047,
    0.1364343911409378,
    0.07374401390552521,
    -0.053098078817129135,
    -0.23074589669704437,
    -0.9123350977897644,
    0.08504358679056168,
    -0.5941665768623352,
    -0.6064499616622925,
    0.4680527150630951,
    -0.0011461006943136454,
    0.16327518224716187,
    -0.1706753671169281,
    0.32456517219543457,
    -0.0012618274195119739,
    -0.49732670187950134,
    0.8692132830619812,
    -0.05420554801821709,
    0.014207850210368633,
    0.44926491379737854,
    0.15163423120975494,
    -0.03900792822241783,
    0.023152722045779228,
    0.6722137331962585,
    -0.271074116230011,
    -0.15114820003509521,
    -0.010644668713212013,
    0.15437330305576324,
    -0.24750040471553802,
    0.21495620906352997,
    -0.019833873957395554,
    -0.22739583253860474,
    0.010384541004896164,
    0.10962129384279251,
    0.35842543840408325,
    -0.09443611651659012,
    0.1302555799484253,
    -0.41440460085868835,
    -0.503801703453064,
    0.043236639350652695,
    -0.33151236176490784,
    0.3766252398490906,
    -0.42624732851982117,
    -0.06701166182756424,
    -0.12238801270723343,
    -0.1642647683620453,
    -0.030822597444057465,
    0.19924071431159973,
    -0.014399135485291481,
    -0.05328488349914551,
    0.13579747080802917,
    0.169700488448143,
    0.2967481315135956,
    -0.11745128035545349,
    -0.3031402826309204,
    -0.15805202722549438,
    -0.4514477252960205,
    -0.45255085825920105,
    0.4130515158176422,
    -0.09579773992300034,
    -0.14039531350135803,
    -0.787669837474823,
    -0.02712022326886654,
    -0.3726356327533722,
    0.11156247556209564,
    -0.12960438430309296,
    -0.2848551273345947,
    -0.49233368039131165,
    -0.17822764813899994,
    -0.23863492906093597,
    0.3914492428302765,
    -0.12415566295385361,
    0.778376579284668,
    0.8581695556640625,
    0.1945631206035614,
    -0.04122428223490715,
    0.7539147734642029,
    0.030932892113924026,
    0.17429286241531372,
    -0.19744352996349335,
    -0.1574629247188568,
    -0.29026052355766296,
    -0.2642400562763214,
    -1.0894405841827393,
    -0.2341117560863495,
    -0.22758884727954865,
    0.04912116006016731,
    -0.28980645537376404,
    0.47943177819252014,
    0.1415109634399414,
    -0.41023367643356323,
    -0.31468650698661804,
    -0.0767451673746109,
    -0.14767786860466003,
    0.11877499520778656,
    0.3006168603897095,
    0.09075633436441422,
    -0.34662410616874695,
    -0.2637518346309662,
    0.016285957768559456,
    -0.29515549540519714,
    0.01911832205951214,
    -0.040618281811475754,
    -0.2229667603969574,
    -0.28880739212036133,
    0.14651189744472504,
    0.13824261724948883,
    0.7625857591629028,
    -0.10600300133228302,
    0.44690772891044617,
    -0.032003987580537796,
    0.0782172754406929,
    0.35360413789749146,
    0.21476948261260986,
    0.31054967641830444,
    -0.23298685252666473,
    -0.1371937245130539,
    -0.05690985918045044,
    0.353699654340744,
    0.32895103096961975,
    0.22554640471935272,
    0.24942101538181305,
    -0.4404743015766144,
    -0.2856343686580658,
    0.25749021768569946,
    -0.057592060416936874,
    -0.17235523462295532,
    -0.3606480062007904,
    0.13883312046527863,
    0.12983855605125427,
    -0.1479024440050125,
    0.015999367460608482,
    0.0034646987915039062,
    0.23720389604568481,
    -0.3476885259151459,
    -0.3343428075313568,
    0.29870155453681946,
    -0.013886147178709507,
    0.0354919359087944,
    0.23838704824447632,
    0.47689810395240784,
    0.3855760395526886,
    0.11626144498586655,
    -0.17424289882183075,
    0.03634960576891899,
    -0.11195529997348785,
    0.039439957588911057,
    -0.04016364365816116,
    0.01546693779528141,
    0.2107069343328476,
    0.15381212532520294,
    0.19421881437301636,
    -0.13963301479816437,
    0.4006304144859314,
    0.44429919123649597,
    0.061329178512096405,
    0.0211250651627779,
    -0.3070234954357147,
    0.08845729380846024,
    0.10981282591819763,
    0.19230544567108154,
    -0.12142419815063477,
    0.35187169909477234,
    0.08469722419977188,
    0.2188301980495453,
    0.3054051101207733,
    0.08460453897714615,
    0.20103496313095093,
    0.1512301117181778,
    0.334804892539978,
    -0.23847870528697968,
    -0.4195193350315094,
    0.32098522782325745,
    0.5007855296134949,
    0.15359143912792206,
    0.4189641773700714,
    -0.04863583669066429,
    -0.03010810725390911,
    -0.09821157157421112,
    -0.07146205008029938,
    -0.25357750058174133,
    -0.5500749349594116,
    -0.14303424954414368,
    0.09742479771375656,
    0.16344250738620758,
    0.3334239721298218,
    0.6876511573791504,
    -0.23509225249290466,
    -0.0941237360239029,
    0.06165523827075958,
    0.0912189930677414,
    0.006350051146000624,
    0.12989646196365356,
    0.03149711713194847,
    -0.02717914618551731,
    -0.2090827375650406,
    0.1263209730386734,
    0.25280997157096863,
    0.007844192907214165,
    -0.34969407320022583,
    0.05391011759638786,
    -0.4656079411506653,
    -0.3967369496822357,
    -0.3436700403690338,
    -0.033527810126543045,
    -0.10860021412372589,
    0.24101950228214264,
    0.07989636808633804,
    0.245345801115036,
    -0.10942616313695908,
    0.44549527764320374,
    0.0212630033493042,
    0.47469672560691833,
    -0.34593623876571655,
    0.16889633238315582,
    -0.35186949372291565,
    -0.052770234644412994,
    -0.2229173481464386,
    0.26082825660705566,
    -0.02800839953124523,
    -0.34286823868751526,
    -0.13215889036655426,
    0.04177270829677582,
    0.2730392813682556,
    -0.23520588874816895,
    0.08466430753469467,
    -0.2917606234550476,
    0.012875890359282494,
    0.17298458516597748
  ],
  "gru_weight_hh": [
    1.1289403438568115,
    -0.2174469530582428,
    -1.6772851943969727,
    -2.1089465618133545,
    0.6138674020767212,
    1.3646477460861206,
    0.6179100275039673,
    0.7541264891624451,
    2.6094183921813965,
    -0.25742071866989136,
    -0.058606602251529694,
    0.16157294809818268,
    0.5674570798873901,
    2.1340503692626953,
    -0.7584313154220581,
    1.0311599969863892,
    0.02306666038930416,
    0.02925115078687668,
    0.004785636905580759,
    -0.20129698514938354,
    0.8635726571083069,
    0.24617739021778107,
    0.6776435375213623,
    0.11669392883777618,
    -0.030582554638385773,
    -0.2357868254184723,
    -0.5465223789215088,
    -1.0382691621780396,
    -1.0661706924438477,
    0.5608693957328796,
    0.5103853344917297,
    0.44019681215286255,
    -0.13417094945907593,
    -0.6197220683097839,
    2.9003121852874756,
    0.8751062154769897,
    -0.5448437333106995,
    1.0467618703842163,
    1.2120490074157715,
    0.5001071095466614,
    -0.647526741027832,
    -0.32029107213020325,
    -1.194040298461914,
    -0.29874858260154724,
    0.33792439103126526,
    0.13912279903888702,
    0.6392838954925537,
    -0.845204770565033,
    -0.7200227379798889,
    0.7453977465629578,
    0.44822943210601807,
    -1.6035014390945435,
    -0.04235244169831276,
    0.4752837121486664,
    0.547883927822113,
    -0.06431505084037781,
    0.22940051555633545,
    0.346841424703598,
    0.8135637640953064,
    0.040895186364650726,
    -0.9232256412506104,
    0.5799359083175659,
    -0.8568017482757568,
    1.0519042015075684,
    -1.1596771478652954,
    0.06374434381723404,
    -0.2197117656469345,
    0.43192318081855774,
    -1.0880215167999268,
    1.1637492179870605,
    1.119105339050293,
    -1.661254644393921,
    0.14343678951263428,
    0.2358420342206955,
    -0.7689089775085449,
    0.12623901665210724,
    -1.2800652980804443,
    0.4934789836406708,
    0.3319356441497803,
    -0.32930073142051697,
    0.493076890707016,
    0.44081273674964905,
    0.37044206261634827,
    0.28772151470184326,
    -0.6987391114234924,
    1.3087596893310547,
    0.6628850102424622,
    1.02095627784729,
    1.0016894340515137,
    -1.17386794090271,
    -0.7169797420501709,
    0.8501734137535095,
    -0.0813019648194313,
    -0.25141605734825134,
    0.902567982673645,
    -0.8397046327590942,
    0.8861994743347168,
    0.7174137234687805,
    -0.40611112117767334,
    0.10970005393028259,
    0.2182367742061615,
    -0.33053362369537354,
    2.5622103214263916,
    -0.4277931749820709,
    -0.8270509243011475,
    -0.06025971844792366,
    0.0912974402308464,
    -1.283227801322937,
    0.4985359311103821,
    0.6271669268608093,
    -0.49997061491012573,
    0.5402967929840088,
    0.9257650971412659,
    -0.2931540608406067,
    1.0007269382476807,
    0.8421176075935364,
    -0.6850171089172363,
    -0.12364280223846436,
    2.309676170349121,
    0.2135680764913559,
    0.5269858241081238,
    -0.20591838657855988,
    -1.1585493087768555,
    0.5486232042312622,
    0.8234190940856934,
    -1.6690013408660889,
    0.11397683620452881,
    1.0374380350112915,
    0.07985994219779968,
    -0.8510963320732117,
    1.2159713506698608,
    1.0885013341903687,
    -0.2900431454181671,
    -1.096056342124939,
    0.5611535906791687,
    0.735110342502594,
    0.3296045660972595,
    -0.4943458139896393,
    -0.8351849317550659,
    0.23784209787845612,
    -0.29264602065086365,
    1.6264300346374512,
    -0.09212595969438553,
    1.7112667560577393,
    0.437486857175827,
    0.5428818464279175,
    -2.13016676902771,
    -1.2116776704788208,
    -0.3119538426399231,
    0.21540014445781708,
    -2.024204969406128,
    0.7758220434188843,
    0.039418455213308334,
    -0.7512426972389221,
    -0.7732362747192383,
    0.04715639725327492,
    -0.7426313757896423,
    -0.03493689373135567,
    0.00427653081715107,
    -0.532677412033081,
    -0.6964068412780762,
    0.16707102954387665,
    -0.2109166830778122,
    -0.9947518706321716,
    0.6911433339118958,
    0.33819153904914856,
    0.274324506521225,
    -0.1480264663696289,
    0.1188170313835144,
    -0.4762865900993347,
    -0.12687964737415314,
    -0.45643284916877747,
    -0.38860464096069336,
    0.6411145925521851,
    0.4814150929450989,
    0.35455378890037537,
    0.8783975839614868,
    0.6525980234146118,
    -0.010995552875101566,
    0.8270342350006104,
    0.04100945591926575,
    0.39510953426361084,
    -1.5420373678207397,
    0.4713193476200104,
    1.4456560611724854,
    0.08538558334112167,
    0.7016507387161255,
    -0.4350271224975586,
    0.4043078124523163,
    0.3360726535320282,
    2.2969768047332764,
    0.3053402304649353,
    0.43938103318214417,
    -0.9022867679595947,
    -0.07504729181528091,
    -0.4172590374946594,
    -1.6912087202072144,
    0.09765508025884628,
    1.4037963151931763,
    0.09556358307600021,
    1.3258169889450073,
    0.09375064074993134,
    -0.7046220898628235,
    -1.5017061233520508,
    1.0831636190414429,
    -0.7739192843437195,
    -0.06470248103141785,
    0.4439263641834259,
    0.12590791285037994,
    -0.7486156821250916,
    -0.04565822333097458,
    0.7423742413520813,
    0.16199861466884613,
    0.1066121831536293,
    1.4058877229690552,
    -0.1222613975405693,
    0.5982603430747986,
    0.04444082826375961,
    -0.40689247846603394,
    -0.7005215883255005,
    -0.8388192057609558,
    0.21550139784812927,
    -0.3835180699825287,
    0.42722517251968384,
    -0.6791748404502869,
    -0.7333024144172668,
    -0.436847448348999,
    -0.8995091915130615,
    -0.10026080906391144,
    0.19674082100391388,
    -1.6237796545028687,
    0.64461350440979,
    -0.38003116846084595,
    0.5127638578414917,
    1.1411902904510498,
    -0.4151609241962433,
    -0.3147786259651184,
    -0.30953529477119446,
    -0.17124155163764954,
    -1.1958117485046387,
    0.21417169272899628,
    0.1969730406999588,
    -0.8623217940330505,
    -0.761883020401001,
    -0.9662846922874451,
    -0.10000642389059067,
    -0.13356386125087738,
    -0.4770771265029907,
    -0.6702255010604858,
    0.28048139810562134,
    0.3646356463432312,
    0.8568069338798523,
    0.0481550507247448,
    -0.3840344250202179,
    -0.48152241110801697,
    -0.6855976581573486,
    0.6571028828620911,
    -1.1232590675354004,
    0.9957925081253052,
    -0.19594956934452057,
    1.211172103881836,
    0.9586004614830017,
    0.908469557762146,
    -0.9482314586639404,
    1.0529868602752686,
    -0.3299923241138458,
    -0.2374715954065323,
    -0.7811011075973511,
    1.0677828788757324,
    1.6373590230941772,
    -1.5766159296035767,
    1.4883583784103394,
    2.452110767364502,
    -0.5112280249595642,
    -0.4350980520248413,
    -0.45757704973220825,
    1.5286865234375,
    0.6628872752189636,
    -2.0520660877227783,
    1.4708226919174194,
    2.167416572570801,
    -0.10482483357191086,
    0.16510631144046783,
    -0.9463039636611938,
    0.6842278838157654,
    -0.7472872734069824,
    0.7387915849685669,
    -1.0158672332763672,
    1.3412580490112305,
    -0.2509784698486328,
    1.350414514541626,
    1.0932537317276,
    0.5465995073318481,
    -0.6370639204978943,
    -0.9685029983520508,
    -0.6633748412132263,
    -0.15335074067115784,
    1.241326928138733,
    1.0853110551834106,
    1.194788932800293,
    -0.9017001390457153,
    0.5917298197746277,
    -0.10891477763652802,
    0.36764127016067505,
    0.11760106682777405,
    -0.31419748067855835,
    -0.2940039336681366,
    -0.9017338752746582,
    0.726574182510376,
    -1.8556311130523682,
    0.1798344850540161,
    -0.32835420966148376,
    0.26169610023498535,
    -1.2261258363723755,
    -2.5498015880584717,
    2.206336736679077,
    1.1375824213027954,
    0.6798824071884155,
    -0.29050278663635254,
    2.0445947647094727,
    -0.3733821511268616,
    0.9317717552185059,
    -1.1058928966522217,
    -1.5308902263641357,
    0.11919240653514862,
    1.3405511379241943,
    -0.8561534285545349,
    -0.0226989034563303,
    0.07015275210142136,
    0.17719419300556183,
    -0.8850592374801636,
    -1.1483789682388306,
    -0.2429172247648239,
    -0.938082218170166,
    -1.1609537601470947,
    1.5053422451019287,
    0.07030923664569855,
    -0.505253255367279,
    -2.092170000076294,
    -1.6366976499557495,
    -1.1777677536010742,
    1.0383124351501465,
    0.20871692895889282,
    0.7104350328445435,
    0.8480916023254395,
    1.0294253826141357,
    -0.2422609031200409,
    1.1058603525161743,
    0.12921765446662903,
    0.7058544158935547,
    -2.0230934619903564,
    -0.4461855888366699,
    0.05632227659225464,
    -0.13799308240413666,
    0.10158635675907135,
    -0.1640293449163437,
    0.20224463939666748,
    0.5265409350395203,
    1.4562114477157593,
    -0.3656250536441803,
    -0.06939668953418732,
    0.6587607860565186,
    -0.3833981454372406,
    -0.3324753940105438,
    0.18694567680358887,
    -0.3044172525405884,
    0.20902974903583527,
    0.3583817780017853,
    -1.632668137550354,
    -0.31148433685302734,
    -1.7211939096450806,
    0.22908730804920197,
    -1.6173640489578247,
    0.2364344745874405,
    -2.227875232696533,
    0.17319917678833008,
    0.5547479391098022,
    -1.4160985946655273,
    -0.26094430685043335,
    1.1540911197662354,
    -1.5945276021957397,
    0.73089998960495,
    -1.8951153755187988,
    -0.2841717600822449,
    -0.6689290404319763,
    -0.5459036827087402,
    -1.004034161567688,
    1.7187165021896362,
    1.009598731994629,
    -1.357774019241333,
    -0.35247913002967834,
    2.515941858291626,
    0.8854535222053528,
    0.44581007957458496,
    -0.6892257928848267,
    -0.0916968509554863,
    -0.880558431148529,
    -0.15611697733402252,
    0.9941734671592712,
    0.27142882347106934,
    -0.0764441266655922,
    -0.43318361043930054,
    0.41451939940452576,
    0.3483690619468689,
    2.0632402896881104,
    -1.5390039682388306,
    -0.6039513349533081,
    -0.1396838128566742,
    0.5682651996612549,
    2.2773914337158203,
    -0.9067556262016296,
    1.6070835590362549,
    -2.124131917953491,
    0.0319356732070446,
    2.6923365592956543,
    0.8062555193901062,
    -1.2485065460205078,
    0.12475214153528214,
    0.06104150041937828,
    0.2671066224575043,
    0.15452708303928375,
    -0.03234070912003517,
    0.31160664558410645,
    0.29202592372894287,
    0.14448139071464539,
    -0.3829785883426666,
    -0.024996886029839516,
    -0.1252342164516449,
    -1.0454261302947998,
    -0.67763751745224,
    -0.6549236178398132,
    -0.82738196849823,
    -0.2811538279056549,
    0.9547088146209717,
    -0.5820152759552002,
    -1.3261359930038452,
    -1.0663951635360718,
    -2.2148969173431396,
    0.3460381329059601,
    0.34098902344703674,
    -0.3844296932220459,
    -1.5442668199539185,
    -1.1508889198303223,
    1.290749192237854,
    -1.2407407760620117,
    0.43826693296432495,
    -1.6208927631378174,
    1.613348364830017,
    0.4317505955696106,
    0.3391953706741333,
    0.3392004668712616,
    -0.1013803482055664,
    -1.1891957521438599,
    0.922836422920227,
    -0.9508891701698303,
    0.4915134310722351,
    1.9616999626159668,
    -0.17785587906837463,
    0.4765888452529907,
    -0.763668954372406,
    0.14822159707546234,
    -0.10063600540161133,
    0.4354392886161804,
    0.1459839791059494,
    0.03275539353489876,
    -0.3024090528488159,
    -0.314337819814682,
    0.14997535943984985,
    -0.1814248114824295,
    -0.16492316126823425,
    -0.6942344307899475,
    0.2284155786037445,
    0.16099539399147034,
    0.4540902078151703,
    -0.24038152396678925,
    0.9294626712799072,
    -0.730163037776947,
    0.13018189370632172,
    -0.5335359573364258,
    -0.5033915638923645,
    0.8598597049713135,
    -0.614567756652832,
    0.22342714667320251,
    0.16051095724105835,
    0.04567724093794823,
    -0.3444444239139557,
    0.4712734818458557,
    -0.11084126681089401,
    0.07302885502576828,
    0.10202819854021072,
    0.2677082419395447,
    -1.2539005279541016,
    -0.6202249526977539,
    0.11748751997947693,
    -0.49143630266189575,
    0.5890213251113892,
    0.9847390055656433,
    -0.011912128888070583,
    -0.15056639909744263,
    -0.8593989610671997,
    -0.9737185835838318,
    -0.29152944684028625,
    -0.6693044900894165,
    0.3430768549442291,
    0.011910004541277885,
    0.3070530295372009,
    -1.5958600044250488,
    -0.9268375039100647,
    0.3371496796607971,
    -1.3872346878051758,
    -0.5616374611854553,
    -0.3269050419330597,
    -0.40413251519203186,
    -0.9145037531852722,
    -0.519058883190155,
    0.4737547039985657,
    -0.6178253293037415,
    -0.15712226927280426,
    0.4025469422340393,
    -0.04243706166744232,
    0.0300738587975502,
    0.524655818939209,
    -1.3682072162628174,
    1.520802617073059,
    -0.2893575131893158,
    -1.0678613185882568,
    0.2422226071357727,
    -0.7355223894119263,
    -0.2073754221200943,
    -0.37781989574432373,
    0.2757422626018524,
    0.1324189007282257,
    0.16976064443588257,
    0.3424524962902069,
    0.7612167000770569,
    0.24977020919322968,
    0.21388237178325653,
    0.08663277328014374,
    0.23022110760211945,
    -0.2931067943572998,
    -0.863483190536499,
    -0.531075119972229,
    -0.18397949635982513,
    0.1413572132587433,
    0.6948775053024292,
    -0.3538847267627716,
    0.013694331981241703,
    1.0480438470840454,
    -2.2203195095062256,
    1.2618299722671509,
    -1.424473762512207,
    0.27827033400535583,
    0.12939774990081787,
    1.9183629751205444,
    -0.45592376589775085,
    0.626822292804718,
    0.5501267313957214,
    1.2430598735809326,
    -0.9571174383163452,
    -1.800419569015503,
    -0.1992160528898239,
    -0.12011036276817322,
    0.5432820320129395,
    -0.07738202810287476,
    -0.21430248022079468,
    0.916924238204956,
    0.9324175715446472,
    -0.24714437127113342,
    -0.1650560200214386,
    -0.407863974571228,
    1.1286170482635498,
    -0.5531588792800903,
    0.5111124515533447,
    0.2641434967517853,
    -0.1318560689687729,
    -1.1236391067504883,
    0.4499872028827667,
    -1.0109920501708984,
    0.10020636767148972,
    0.27614733576774597,
    -0.33492812514305115,
    0.22359351813793182,
    -1.2428314685821533,
    -0.07403094321489334,
    -0.11754251271486282,
    0.8635276556015015,
    -0.26227208971977234,
    -0.480436235666275,
    0.471071720123291,
    0.009655162692070007,
    -0.5941407084465027,
    1.0592889785766602,
    0.6224165558815002,
    -0.9932126998901367,
    -0.29828158020973206,
    -0.7433249354362488,
    -0.39101728796958923,
    -0.7763844132423401,
    -0.13883011043071747,
    0.169973224401474,
    1.3965404033660889,
    0.7786690592765808,
    -0.09927495568990707,
    -1.0462406873703003,
    1.352243185043335,
    -0.03879452124238014,
    0.5285918712615967,
    -0.10479004681110382,
    -1.034305453300476,
    -0.1064278781414032,
    0.09554242342710495,
    0.0939796045422554,
    -0.09930026531219482,
    0.32470038533210754,
    -1.9075201749801636,
    0.6138598322868347,
    0.7502532601356506,
    0.01555606909096241,
    -0.8371208906173706,
    0.18259400129318237,
    -0.14677150547504425,
    1.702898383140564,
    -0.5496764779090881,
    0.1691252440214157,
    0.8685936331748962,
    -0.45263373851776123,
    -0.5209755301475525,
    0.47206494212150574,
    0.8871482610702515,
    -0.49488651752471924,
    0.9241146445274353,
    -0.7213961482048035,
    -0.49360477924346924,
    0.4677044451236725,
    -0.6914789080619812,
    0.13316629827022552,
    -0.23187625408172607,
    0.046164389699697495,
    -0.38637569546699524,
    -0.10916893929243088,
    -0.5288277864456177,
    0.13852253556251526,
    -0.312625527381897,
    0.07102932035923004,
    0.5265173316001892,
    0.05306299403309822,
    -1.3995202779769897,
    0.22900457680225372,
    -0.3614552617073059,
    0.3371284306049347,
    0.4168807566165924,
    -0.02156045287847519,
    0.015213550068438053,
    0.41257044672966003,
    -0.522505521774292,
    0.1903873234987259,
    -0.3402237594127655,
    0.15363474190235138,
    0.14054635167121887,
    0.7572892308235168,
    0.9686471223831177,
    -0.30359622836112976,
    0.8451756238937378,
    0.4085952639579773,
    -0.7817090153694153,
    -1.0317397117614746,
    0.45903080701828003,
    0.396845281124115,
    -0.7329808473587036,
    -0.0010861821938306093,
    0.401544451713562,
    -0.4115532338619232,
    -0.5106786489486694,
    -0.1574697643518448,
    0.13206709921360016,
    -0.8274205327033997,
    0.5785107612609863,
    0.1569531112909317,
    -0.745403528213501,
    0.3997265100479126,
    -0.4454701244831085,
    -0.2569192349910736,
    -0.10224397480487823,
    -1.1886440515518188,
    -0.0358709841966629,
    0.5883926749229431,
    -0.2823616564273834,
    -0.07022934406995773,
    -0.39380285143852234,
    0.8931516408920288,
    0.045441798865795135,
    0.009732557460665703,
    -0.02160465717315674,
    -0.003722258610650897,
    -0.7595365643501282,
    -0.25294139981269836,
    -0.5498166084289551,
    0.03133139759302139,
    0.26833590865135193,
    0.29306265711784363,
    0.0950651466846466,
    -0.03985537961125374,
    0.2996196448802948,
    -0.36389437317848206,
    0.4368784725666046,
    0.7054368853569031,
    0.5634947419166565,
    -0.504020094871521,
    -0.13636575639247894,
    0.6178017854690552,
    -2.0142111778259277,
    -0.900280773639679,
    0.25872868299484253,
    -0.3650570511817932,
    0.1330818235874176,
    -1.0801353454589844,
    -1.1277000904083252,
    0.11323749274015427,
    0.45149412751197815,
    1.9556612968444824,
    0.10533753037452698,
    0.8226315379142761,
    -1.0157617330551147,
    -0.31394529342651367,
    -0.33408334851264954,
    -0.22897639870643616,
    -1.8105037212371826,
    0.33729445934295654,
    -0.20578688383102417,
    0.14389829337596893,
    0.18509817123413086,
    0.6559078097343445,
    0.5819467902183533,
    0.11274438351392746,
    -0.20658431947231293,
    -0.17618755996227264,
    0.3969293236732483,
    0.3614364266395569,
    -0.26790714263916016,
    -0.05707099661231041,
    0.37702852487564087,
    -0.15057823061943054,
    0.6774752140045166,
    0.28961071372032166,
    1.373680830001831,
    -0.9133806228637695,
    -0.17639681696891785,
    0.29672443866729736,
    0.43945905566215515,
    -0.3475559651851654,
    0.14301592111587524,
    0.1737034171819687,
    -0.13314956426620483,
    0.6556954383850098,
    0.18640702962875366,
    1.5585633516311646,
    0.3559739887714386,
    -1.0946999788284302,
    0.7073371410369873,
    0.1146998479962349,
    0.26756879687309265,
    0.9784786105155945,
    0.3582329750061035,
    0.46798449754714966,
    -0.7162763476371765,
    -0.085160993039608,
    -0.6948069334030151,
    -0.23978030681610107
  ],
  "gru_bias_ih": [
    -1.5442863702774048,
    0.4204380512237549,
    1.8147156238555908,
    -0.6183321475982666,
    -1.175958275794983,
    -1.7704074382781982,
    0.7026862502098083,
    0.14716528356075287,
    2.328047513961792,
    -0.07482026517391205,
    0.30637651681900024,
    -0.7189513444900513,
    -1.1063458919525146,
    0.9549341797828674,
    0.5594868063926697,
    -0.5785176753997803,
    -1.1375949382781982,
    -2.499321222305298,
    2.4649980068206787,
    -1.0992248058319092,
    -0.2236206978559494,
    -1.8365063667297363,
    2.318906545639038,
    -2.203418016433716,
    -3.0404772758483887,
    -2.2859842777252197,
    -0.8840206861495972,
    -1.5975505113601685,
    0.19351375102996826,
    -0.22427088022232056,
    -0.6124187111854553,
    -0.649296760559082,
    0.23029208183288574,
    -0.15598784387111664,
    0.20571200549602509,
    0.18266835808753967,
    -0.14423903822898865,
    -0.10359390825033188,
    0.10713961720466614,
    -0.3013800382614136,
    -0.015122777782380581,
    0.29955947399139404,
    0.10107679665088654,
    -0.1882695108652115,
    -0.0734405666589737,
    0.0972176343202591,
    0.13336847722530365,
    -0.33095666766166687
  ],
  "gru_bias_hh": [
    -1.6829034090042114,
    0.27479448914527893,
    1.806797742843628,
    -0.6933394074440002,
    -1.0271717309951782,
    -2.0352091789245605,
    0.5635073184967041,
    0.11771110445261002,
    2.1054725646972656,
    0.0692184567451477,
    0.25894853472709656,
    -0.6795520782470703,
    -0.9647166132926941,
    0.9739573001861572,
    0.6557433009147644,
    -0.3569370210170746,
    -0.9910684823989868,
    -2.6265225410461426,
    2.431870460510254,
    -1.3587982654571533,
    -0.5823838114738464,
    -2.039517879486084,
    2.5807547569274902,
    -2.2034130096435547,
    -2.665377378463745,
    -2.531369924545288,
    -1.0903764963150024,
    -1.7007191181182861,
    0.15649856626987457,
    -0.4049602746963501,
    -0.9908186197280884,
    -0.7096156477928162,
    -1.0185915231704712,
    -0.20829297602176666,
    -0.02062930352985859,
    0.25035107135772705,
    0.1492219716310501,
    -0.2397295981645584,
    -0.4628041684627533,
    0.4536958336830139,
    -0.3148798644542694,
    0.11069504171609879,
    0.42515844106674194,
    0.03577229753136635,
    0.6048160791397095,
    -0.014092002995312214,
    0.060881730169057846,
    0.47060173749923706
  ],
  "example_input": [
    -1.0,
    -0.9411764740943909,
    -0.8823529481887817,
    -0.8235294222831726,
    -0.7647058963775635,
    -0.7058823704719543,
    -0.6470588445663452,
    -0.5882353186607361,
    -0.529411792755127,
    -0.47058823704719543,
    -0.4117647111415863,
    -0.3529411852359772,
    -0.29411762952804565,
    -0.23529411852359772,
    -0.1764705777168274,
    -0.11764705181121826,
    -0.05882352590560913,
    -3.725290298461914e-09,
    0.05882352590560913,
    0.11764705181121826,
    0.1764705777168274,
    0.23529411852359772,
    0.29411762952804565,
    0.3529411852359772,
    0.4117647111415863,
    0.47058823704719543,
    0.529411792755127,
    0.5882353186607361,
    0.6470588445663452,
    0.7058823704719543,
    0.7647058963775635,
    0.8235294222831726,
    0.8823529481887817,
    0.9411764740943909,
    1.0
  ],
  "example_output": [
    0.086371511220932,
    0.2852723002433777,
    1.7952256202697754,
    -1.4389939308166504
  ],
  "checkpoint_name": "best_checkpoint_model_974.pt",
  "checkpoint_step": -1,
  "requires_obs_normalization": false,
  "compat_reset_output": [
    1.446542739868164,
    0.14788398146629333,
    0.262713760137558,
    0.8022465705871582
  ],
  "compat_hover_output": [
    1.5806455612182617,
    1.4287776947021484,
    1.5340511798858643,
    1.2954930067062378
  ],
  "export_format": "rl_tools_checkpoint_blob"
}
