{
  "observation_dim": 35,
  "action_dim": 4,
  "structure": "mlp_gru",
  "rnn_type": "gru",
  "gru_input_dim": 16,
  "gru_hidden_dim": 16,
  "gru_num_layers": 1,
  "activation": "elu",
  "use_observation_normalization": false,
  "normalization_folded_into_first_layer": false,
  "observation_mean": [
    0.0,
    0.0,
    0.0,
    0.0,
    0.0,
    0.0,
    0.0,
    0.0,
    0.0,
    0.0,
    0.0,
    0.0,
    0.0,
    0.0,
    0.0,
    0.0,
    0.0,
    0.0,
    0.0,
    0.0,
    0.0,
    0.0,
    0.0,
    0.0,
    0.0,
    0.0,
    0.0,
    0.0,
    0.0,
    0.0,
    0.0,
    0.0,
    0.0,
    0.0,
    0.0
  ],
  "observation_inv_std": [
    1.0,
    1.0,
    1.0,
    1.0,
    1.0,
    1.0,
    1.0,
    1.0,
    1.0,
    1.0,
    1.0,
    1.0,
    1.0,
    1.0,
    1.0,
    1.0,
    1.0,
    1.0,
    1.0,
    1.0,
    1.0,
    1.0,
    1.0,
    1.0,
    1.0,
    1.0,
    1.0,
    1.0,
    1.0,
    1.0,
    1.0,
    1.0,
    1.0,
    1.0,
    1.0
  ],
  "actor_encoder_dims": [
    35,
    16,
    16
  ],
  "actor_encoder_activations": [
    "elu",
    "identity"
  ],
  "actor_head_dims": [
    16,
    4
  ],
  "actor_head_activations": [
    "identity"
  ],
  "actor_encoder_weights": [
    [
      0.05275415629148483,
      -0.04028032720088959,
      0.36965638399124146,
      -0.43810275197029114,
      0.3341197967529297,
      1.003177523612976,
      -0.4040382206439972,
      -0.3362414538860321,
      0.4095730483531952,
      -0.017352573573589325,
      -0.06606480479240417,
      -0.19571363925933838,
      0.44464659690856934,
      2.194135904312134,
      0.6241248250007629,
      0.6004008650779724,
      1.8525248765945435,
      0.8078335523605347,
      0.9986957311630249,
      0.4691096544265747,
      -0.4622507691383362,
      0.07966748625040054,
      -0.08099360018968582,
      0.05952436849474907,
      0.03392887860536575,
      -0.2866629362106323,
      0.03905147314071655,
      0.22968104481697083,
      0.018179919570684433,
      0.36057087779045105,
      -0.2951994836330414,
      -0.12412109971046448,
      0.27542465925216675,
      -0.2274017035961151,
      -0.12257416546344757,
      -3.1879491806030273,
      0.2978852391242981,
      -0.13187432289123535,
      0.03678271546959877,
      0.032175686210393906,
      -1.5008691549301147,
      -0.5157142877578735,
      0.052912164479494095,
      1.5456604957580566,
      1.1660070419311523,
      -1.7473578453063965,
      -0.05781742185354233,
      3.176401138305664,
      -1.4057377576828003,
      -0.16479338705539703,
      -1.2248786687850952,
      0.21786800026893616,
      0.44982853531837463,
      -0.10214148461818695,
      -0.8379814624786377,
      0.0350775383412838,
      -0.01778409816324711,
      0.01792873442173004,
      -0.0015406867023557425,
      -0.004003637470304966,
      0.06721524149179459,
      0.2592015862464905,
      0.0705956369638443,
      -0.08635857701301575,
      -0.0049230423755943775,
      -0.21956011652946472,
      -0.18423175811767578,
      0.13741381466388702,
      0.1096850261092186,
      -0.09137625992298126,
      -1.9448729753494263,
      1.5939933061599731,
      -1.8849574327468872,
      0.2278919816017151,
      -0.1594940423965454,
      0.2118145376443863,
      -1.0627307891845703,
      -0.05087772011756897,
      -0.15566928684711456,
      -0.4180118441581726,
      0.15273936092853546,
      0.06220806762576103,
      1.9481269121170044,
      -0.3305579721927643,
      0.31295037269592285,
      -2.0008175373077393,
      0.06868427991867065,
      -2.3754403591156006,
      0.11113574355840683,
      -0.24961628019809723,
      -0.31662052869796753,
      -0.06985748559236526,
      -0.08147625625133514,
      0.027630722150206566,
      -0.029713224619627,
      -0.06941035389900208,
      0.007875675335526466,
      0.07361812144517899,
      0.12887023389339447,
      -0.10463186353445053,
      0.10439459979534149,
      0.07930191606283188,
      0.0966135635972023,
      0.025443732738494873,
      0.026842936873435974,
      -0.6886917948722839,
      0.6412534713745117,
      -0.7681896090507507,
      -0.36630094051361084,
      -1.6791239976882935,
      -0.3657020032405853,
      1.1552494764328003,
      -0.37013643980026245,
      0.5598111748695374,
      0.6774389743804932,
      -0.9203357100486755,
      -0.27039438486099243,
      1.1851410865783691,
      0.6200705766677856,
      0.5827556252479553,
      -0.11200423538684845,
      -0.19976679980754852,
      0.31575149297714233,
      -0.15774768590927124,
      0.29245689511299133,
      0.8232747912406921,
      -0.39803606271743774,
      -0.11698867380619049,
      0.008563205599784851,
      -0.05870743468403816,
      0.1956925392150879,
      0.663162350654602,
      -0.4599648118019104,
      0.3496440351009369,
      -0.019916322082281113,
      -0.39929357171058655,
      -0.06281925737857819,
      0.2672320008277893,
      -0.8230240941047668,
      0.3209180235862732,
      -0.7502584457397461,
      -1.910192608833313,
      -0.7181731462478638,
      -0.06965143978595734,
      0.020503077656030655,
      -0.2646380066871643,
      0.14580252766609192,
      0.07317984849214554,
      0.12267384678125381,
      -0.45461001992225647,
      0.4805169105529785,
      0.016437023878097534,
      3.1361870765686035,
      2.5160515308380127,
      0.14964444935321808,
      -0.6628867387771606,
      -0.9138617515563965,
      -0.013848022557795048,
      0.32893693447113037,
      -0.7341650128364563,
      0.37969717383384705,
      0.15494252741336823,
      -0.26801228523254395,
      -0.043482743203639984,
      0.01213841699063778,
      0.34480810165405273,
      -0.47551196813583374,
      -0.038079895079135895,
      -0.177321657538414,
      0.1572694182395935,
      -0.013523003086447716,
      0.2752065658569336,
      -0.06199895590543747,
      0.12442797422409058,
      0.02843671478331089,
      0.4442962110042572,
      0.047917626798152924,
      -0.34289345145225525,
      -0.14686860144138336,
      -1.935856580734253,
      0.8255572319030762,
      1.6976032257080078,
      -0.2153908908367157,
      -0.5765961408615112,
      0.266901433467865,
      0.4450528919696808,
      -0.056358471512794495,
      -2.420741558074951,
      -0.7343265414237976,
      0.20677819848060608,
      0.5279442071914673,
      0.5666841268539429,
      -0.4436019957065582,
      0.07154429703950882,
      0.3350975215435028,
      0.2239048182964325,
      -0.11320766061544418,
      0.3863210082054138,
      0.13697129487991333,
      0.04510575532913208,
      -0.8428249955177307,
      -0.010635764338076115,
      -0.08741842210292816,
      0.14434918761253357,
      0.17472995817661285,
      0.21141017973423004,
      0.0986560583114624,
      -0.29558441042900085,
      0.40599524974823,
      -0.6795765161514282,
      -0.12897033989429474,
      0.6048356890678406,
      -4.800960063934326,
      0.07475695013999939,
      0.4381926953792572,
      -0.30001306533813477,
      -0.7702835202217102,
      0.038426473736763,
      -0.05163599178195,
      -0.2231793999671936,
      0.11977142840623856,
      0.26760050654411316,
      -0.03631353750824928,
      -0.5165078639984131,
      0.2950964868068695,
      0.08583006262779236,
      0.6342361569404602,
      -3.002596378326416,
      0.0013283558655530214,
      -0.08935638517141342,
      -0.5061112642288208,
      0.023945292457938194,
      -0.09360635280609131,
      0.018222223967313766,
      -0.012326854281127453,
      0.020281031727790833,
      -0.02198849432170391,
      -0.11111000180244446,
      -0.0470881350338459,
      0.08269434422254562,
      -0.06741020083427429,
      -0.12954086065292358,
      0.007792598567903042,
      -0.11460927128791809,
      0.011494316160678864,
      0.8655329942703247,
      -0.33711734414100647,
      -0.14018358290195465,
      -0.28871703147888184,
      0.7744163870811462,
      0.5883286595344543,
      0.2859650254249573,
      -0.09127780050039291,
      -0.8018673062324524,
      -0.6082109808921814,
      -0.39030805230140686,
      0.11654189229011536,
      -3.556144952774048,
      -0.35166630148887634,
      -0.056775614619255066,
      0.30669209361076355,
      0.05183115974068642,
      0.40471333265304565,
      -0.10948774218559265,
      1.0427987575531006,
      0.06087655574083328,
      -0.24270442128181458,
      -0.4967881441116333,
      -0.08040465414524078,
      -0.040358591824769974,
      0.16158199310302734,
      0.6581247448921204,
      0.6956477165222168,
      -0.09169783443212509,
      -0.05636081472039223,
      0.09160344302654266,
      -0.110291987657547,
      0.20401908457279205,
      -0.05947069823741913,
      0.2396351546049118,
      -1.9672836065292358,
      -2.0671017169952393,
      -1.650608777999878,
      0.06561689078807831,
      1.0288702249526978,
      0.036241836845874786,
      -0.9195140600204468,
      0.11746871471405029,
      -0.46175485849380493,
      0.12068474292755127,
      1.3711241483688354,
      -0.17463122308254242,
      1.5130540132522583,
      3.1271181106567383,
      -0.030769284814596176,
      -1.0825332403182983,
      -1.3664469718933105,
      -0.7365764379501343,
      0.488437682390213,
      -0.19899366796016693,
      -0.27715879678726196,
      0.044517792761325836,
      0.06365394592285156,
      -0.054806847125291824,
      0.019976966083049774,
      -0.06827910244464874,
      -0.05772829428315163,
      -0.05823560059070587,
      0.03487144783139229,
      0.0984051525592804,
      -0.1782059669494629,
      0.061485301703214645,
      -0.044531356543302536,
      -0.32229316234588623,
      0.3291071653366089,
      -0.7809122204780579,
      -0.9886316657066345,
      0.00668576592579484,
      0.06893422454595566,
      -0.4226768910884857,
      -0.6510320901870728,
      -0.3553530275821686,
      0.08955005556344986,
      -0.037756066769361496,
      0.8614802956581116,
      0.8568955063819885,
      0.11592841148376465,
      3.4692957401275635,
      1.5893330574035645,
      -0.22177863121032715,
      -0.9896357655525208,
      -0.47271057963371277,
      0.6201273202896118,
      0.4210264980792999,
      -0.7369287014007568,
      0.21351492404937744,
      0.17755122482776642,
      -0.10271478444337845,
      -0.02583499811589718,
      -0.014224779792129993,
      0.049061283469200134,
      -0.44177961349487305,
      -0.12017369270324707,
      -0.17921555042266846,
      0.0035813706927001476,
      0.027958305552601814,
      -0.26855751872062683,
      0.014389116317033768,
      -0.2520636320114136,
      -0.005245611537247896,
      -0.0203383881598711,
      0.73117995262146,
      -0.11766094714403152,
      -0.0015765982680022717,
      3.4855847358703613,
      -0.2684742212295532,
      -4.331056594848633,
      0.1836155503988266,
      -0.4356120824813843,
      0.2503519356250763,
      0.32848060131073,
      0.011699290946125984,
      0.4629979729652405,
      0.06708674877882004,
      -0.08051411062479019,
      -0.26656216382980347,
      0.3097619116306305,
      -0.0733628198504448,
      0.1933903992176056,
      -0.0064081293530762196,
      -3.7618823051452637,
      0.005597769748419523,
      0.06052108108997345,
      -0.0015010660281404853,
      -0.009422997012734413,
      -0.0173456072807312,
      -0.05608280003070831,
      -0.1227516308426857,
      0.07662474364042282,
      0.046778518706560135,
      0.025175610557198524,
      -0.08145880699157715,
      0.025817912071943283,
      -0.055181458592414856,
      -0.03601568937301636,
      1.0236831903457642,
      -2.664867877960205,
      -2.6310269832611084,
      -0.01097358949482441,
      1.5014880895614624,
      -0.7465872168540955,
      -1.463654637336731,
      0.14348077774047852,
      0.22847983241081238,
      0.41650640964508057,
      -1.424564242362976,
      0.016225464642047882,
      -1.2315975427627563,
      1.4888544082641602,
      0.2935669422149658,
      0.81578129529953,
      -2.402082920074463,
      -1.837098479270935,
      0.2343061864376068,
      -0.09922017902135849,
      -0.7205649614334106,
      -0.0261209849268198,
      0.044237568974494934,
      0.030704302713274956,
      0.016157953068614006,
      -0.33946242928504944,
      0.07120595127344131,
      0.10703752189874649,
      -0.0474519282579422,
      -0.10645738244056702,
      -0.05422203242778778,
      0.0943637490272522,
      0.021211158484220505,
      0.048781897872686386,
      0.16575659811496735,
      -0.8878045678138733,
      1.9842612743377686,
      0.3673841059207916,
      0.07501164823770523,
      0.7939279079437256,
      0.612199604511261,
      -1.0115114450454712,
      -0.012200901284813881,
      -0.30577996373176575,
      -0.3564029037952423,
      0.4976722300052643,
      -0.06847815960645676,
      1.0421785116195679,
      -1.689406394958496,
      -0.19005504250526428,
      -0.11951641738414764,
      0.27858641743659973,
      0.6423638463020325,
      -1.1228926181793213,
      -0.6704725027084351,
      -0.4237350821495056,
      0.0600416325032711,
      -0.2947715222835541,
      -0.031828172504901886,
      -0.023721612989902496,
      0.1971226930618286,
      -0.3028798997402191,
      0.0032027754932641983,
      -0.2858751714229584,
      -0.1788869947195053,
      0.21621303260326385,
      0.26890385150909424,
      -0.1688319444656372,
      -0.044328875839710236,
      -0.018741130828857422,
      0.2401740998029709,
      -1.0286580324172974,
      -0.4940847158432007,
      -0.02822653017938137,
      -0.9436782598495483,
      1.5658948421478271,
      1.2288752794265747,
      -0.0023689139634370804,
      -1.4591355323791504,
      -0.49999818205833435,
      1.41374933719635,
      -0.11127366125583649,
      -1.9977551698684692,
      2.1863276958465576,
      -0.10483594238758087,
      0.7266616821289062,
      -0.5867112278938293,
      -0.4285975396633148,
      0.26453983783721924,
      -0.0013886892702430487,
      0.09863926470279694,
      -0.12390369176864624,
      0.02203281782567501,
      0.0263602826744318,
      0.032152462750673294,
      -0.20539720356464386,
      -0.0091034434735775,
      0.08729393780231476,
      -0.031412459909915924,
      -0.14852583408355713,
      -0.2420380413532257,
      0.4034057855606079,
      -0.8414612412452698,
      -0.17857317626476288,
      0.15802453458309174,
      -0.18935661017894745,
      0.4962139129638672,
      -0.1737343817949295,
      0.13254521787166595,
      0.5942853093147278,
      0.029165402054786682,
      -0.7338552474975586,
      -0.006856979336589575,
      0.23554931581020355,
      -1.0060862302780151,
      -0.8627637624740601,
      0.04002201557159424,
      -1.3080041408538818,
      -2.179385185241699,
      0.3317389488220215,
      0.18812443315982819,
      0.7460138201713562,
      -0.10386369377374649,
      -0.488871693611145,
      0.004396955017000437,
      -0.036576710641384125,
      0.012327047064900398,
      0.021714696660637856,
      0.08352216333150864,
      0.01584392413496971,
      0.052688118070364,
      -0.2164221853017807,
      0.08565887063741684,
      -0.08625119924545288,
      -0.12287574261426926,
      0.055685289204120636,
      -0.6824175715446472,
      0.5170090794563293,
      0.266875296831131,
      -0.19621030986309052,
      0.9753432869911194,
      -2.3105993270874023,
      0.1510007679462433,
      0.20455007255077362,
      -0.4651595950126648,
      0.14537577331066132,
      -0.21230091154575348,
      0.005658579058945179,
      -1.1924335956573486,
      -0.20874238014221191,
      1.7305275201797485,
      0.057360075414180756,
      -2.3327624797821045,
      3.6741557121276855,
      -0.25968173146247864,
      0.6245301961898804,
      -1.2374252080917358,
      0.21873553097248077,
      1.0822036266326904,
      0.3537653088569641,
      0.0301071610301733,
      -0.10147464275360107,
      -0.1146436408162117,
      -0.0455387644469738,
      -0.025439105927944183,
      0.2331254631280899,
      0.25722959637641907,
      0.10404392331838608,
      0.06355397403240204,
      -0.10353276133537292,
      -0.03202345594763756,
      0.12485459446907043,
      -0.12445280700922012,
      -0.03033536858856678,
      -0.00034152870648540556
    ],
    [
      0.14556314051151276,
      0.4364597201347351,
      0.17082558572292328,
      0.23424620926380157,
      0.2170741707086563,
      -0.219927579164505,
      0.22345995903015137,
      -0.2541566789150238,
      0.11580689251422882,
      0.6091715693473816,
      0.46337395906448364,
      -0.04633432254195213,
      0.24443013966083527,
      0.07483972609043121,
      -0.012861840426921844,
      0.04722351208329201,
      -0.06883988529443741,
      0.2437404841184616,
      -0.06530220806598663,
      0.16716884076595306,
      -0.101984903216362,
      -0.08569716662168503,
      -0.454327791929245,
      -0.024366412311792374,
      -0.31124162673950195,
      -0.229820117354393,
      0.21145838499069214,
      -0.5613290071487427,
      0.36655741930007935,
      -0.42339545488357544,
      -0.13141214847564697,
      -0.5904626846313477,
      -0.27921977639198303,
      0.03644947335124016,
      -0.3520955443382263,
      0.013446902856230736,
      -0.45475152134895325,
      -0.31718114018440247,
      -0.23143520951271057,
      0.14700773358345032,
      0.05707433819770813,
      -0.26700735092163086,
      0.033073052763938904,
      -0.20918622612953186,
      0.3567207455635071,
      0.47533372044563293,
      -0.35826265811920166,
      -0.4471772313117981,
      0.20961527526378632,
      0.07983946055173874,
      0.19371673464775085,
      -0.26462605595588684,
      0.4253678023815155,
      -0.12036426365375519,
      -0.024632947519421577,
      -0.7073916792869568,
      0.3898659646511078,
      0.5830085873603821,
      -0.11996786296367645,
      0.054654039442539215,
      0.09828527271747589,
      0.058622561395168304,
      -0.26441773772239685,
      0.01797020435333252,
      -0.09834568202495575,
      0.024452928453683853,
      0.1473684161901474,
      -0.10519781708717346,
      0.4686374366283417,
      -0.49936071038246155,
      -0.05920139327645302,
      0.13121192157268524,
      0.7120038866996765,
      0.07166362553834915,
      -0.1097894161939621,
      -0.23256628215312958,
      -0.20357216894626617,
      -0.24425706267356873,
      0.057522524148225784,
      -0.35045069456100464,
      0.37034112215042114,
      -0.22472435235977173,
      -0.03196081146597862,
      -0.2501344382762909,
      0.024055084213614464,
      -0.052779845893383026,
      -0.2339669018983841,
      0.16692736744880676,
      0.044284626841545105,
      -0.05961787328124046,
      -0.002105331514030695,
      0.4282030165195465,
      -0.09196773916482925,
      0.015901094302535057,
      -0.3159138858318329,
      0.6905648708343506,
      0.019742919132113457,
      0.10661479085683823,
      -0.49847424030303955,
      0.19277720153331757,
      -0.16217297315597534,
      -0.08243434876203537,
      -0.1588859260082245,
      -0.21496139466762543,
      0.6010503172874451,
      0.05809767171740532,
      0.16807229816913605,
      -0.004239361733198166,
      -0.09961531311273575,
      -0.04808584973216057,
      0.2817080616950989,
      0.630058228969574,
      0.14871321618556976,
      -0.01912015862762928,
      0.10171118378639221,
      0.26097002625465393,
      -0.07581429183483124,
      -0.10116633027791977,
      0.24354158341884613,
      -0.3153839409351349,
      0.2367115616798401,
      0.15593735873699188,
      -0.2880384922027588,
      -0.41087833046913147,
      0.05360019579529762,
      0.18366491794586182,
      -0.030843861401081085,
      0.09699582308530807,
      0.12824374437332153,
      0.43907684087753296,
      -0.039135854691267014,
      0.028010649606585503,
      0.30234795808792114,
      0.1601928472518921,
      -0.22010719776153564,
      0.1616252362728119,
      0.3187890648841858,
      -0.43023449182510376,
      -0.09535827487707138,
      0.18382775783538818,
      0.08880157023668289,
      0.10067799687385559,
      -0.11546626687049866,
      0.27806729078292847,
      0.04355338588356972,
      -0.14377810060977936,
      -0.29031074047088623,
      0.06619217991828918,
      -0.04627520591020584,
      -0.3921169340610504,
      0.16103793680667877,
      -0.19699256122112274,
      -0.14470946788787842,
      -0.05040960758924484,
      -0.401435524225235,
      0.02130267396569252,
      -0.11729230731725693,
      0.02998506836593151,
      0.008905088528990746,
      -0.12661212682724,
      0.5047831535339355,
      -0.39659419655799866,
      -0.02386610023677349,
      -0.08802416175603867,
      0.15533456206321716,
      0.15219520032405853,
      -0.21499411761760712,
      0.1379956752061844,
      0.11494845151901245,
      0.36274343729019165,
      -0.10568006336688995,
      0.3012312352657318,
      0.09607215225696564,
      0.17428459227085114,
      0.09284111857414246,
      -0.07821664214134216,
      0.2620510160923004,
      -0.12165503203868866,
      0.43161845207214355,
      -0.2950005829334259,
      -0.08623619377613068,
      0.055623311549425125,
      1.0013991594314575,
      -0.01862870715558529,
      -0.016008608043193817,
      -0.2883125841617584,
      -0.4081663191318512,
      0.5486668944358826,
      0.24302293360233307,
      -0.29038479924201965,
      0.03006986901164055,
      -0.37969970703125,
      -0.25171807408332825,
      -0.43099445104599,
      0.005574155133217573,
      -0.11758599430322647,
      0.40372931957244873,
      0.35712695121765137,
      -0.2636590898036957,
      0.22802701592445374,
      0.5002922415733337,
      -0.27918094396591187,
      0.059268735349178314,
      -0.17474831640720367,
      -0.08359172940254211,
      -0.07433824241161346,
      -0.16260495781898499,
      -0.2118682563304901,
      -0.14776746928691864,
      -0.30485931038856506,
      -0.08689431846141815,
      0.186759814620018,
      0.1393030881881714,
      -0.09796781837940216,
      0.12517918646335602,
      0.1921558678150177,
      0.15978042781352997,
      -0.06385155022144318,
      -0.2429388165473938,
      0.3796198070049286,
      -0.05221860110759735,
      0.31791242957115173,
      0.1035686731338501,
      0.4085747301578522,
      -0.1078232005238533,
      0.35556283593177795,
      0.027027327567338943,
      -0.06635809689760208,
      -0.030586635693907738,
      0.14241567254066467,
      -0.0918055847287178,
      0.018605055287480354,
      0.030084965750575066,
      0.31533294916152954,
      -0.8498340845108032,
      -0.006272819824516773,
      -0.038799021393060684,
      -0.10009833425283432,
      0.01977035589516163,
      0.07682929933071136,
      -0.26032185554504395,
      -0.22320763766765594,
      -0.3311380445957184,
      -0.028142664581537247,
      0.29478275775909424,
      -0.08446937054395676,
      0.04098306968808174,
      -0.11318503320217133,
      -0.2900550365447998,
      0.04394828900694847,
      0.05627961456775665,
      -0.46253690123558044,
      0.2225368767976761,
      0.10580220818519592,
      0.47199729084968567,
      0.08754246681928635
    ]
  ],
  "actor_encoder_biases": [
    [
      -0.09244319051504135,
      -0.1072855219244957,
      -0.0029003818053752184,
      -0.23713913559913635,
      0.06943799555301666,
      -0.15198275446891785,
      0.25352364778518677,
      0.05256226286292076,
      -0.06382639706134796,
      -0.04309757426381111,
      -0.17844952642917633,
      -0.00039786554407328367,
      0.05252266675233841,
      0.0028815993573516607,
      0.1754477173089981,
      -0.13174518942832947
    ],
    [
      -0.03188790753483772,
      0.10134311765432358,
      0.08712226152420044,
      -0.2865341007709503,
      -0.06697797775268555,
      0.053784675896167755,
      -0.18887944519519806,
      0.12893298268318176,
      0.18125148117542267,
      0.09664753824472427,
      0.2693144381046295,
      0.18592849373817444,
      -0.09981997311115265,
      -0.00977468304336071,
      -0.08727673441171646,
      -0.2200566977262497
    ]
  ],
  "actor_head_weights": [
    [
      -0.03406209498643875,
      0.049867138266563416,
      -0.10526382178068161,
      -0.39904966950416565,
      0.046342819929122925,
      0.4699209928512573,
      -0.18132071197032928,
      0.20304915308952332,
      -0.1363237202167511,
      0.15687966346740723,
      -0.4512940049171448,
      -1.0120763778686523,
      -0.4533877670764923,
      -0.1821957379579544,
      -0.17006175220012665,
      -0.6502351760864258,
      -0.025481650605797768,
      0.14742743968963623,
      -0.1391722708940506,
      0.5759141445159912,
      0.1676245927810669,
      0.3959263265132904,
      0.038724254816770554,
      -0.36176055669784546,
      -0.182863250374794,
      -1.1056208610534668,
      0.3517777621746063,
      1.2371456623077393,
      0.1903049796819687,
      0.17333589494228363,
      0.09069090336561203,
      -0.6395495533943176,
      1.0075126886367798,
      -0.34027642011642456,
      -0.5521878600120544,
      0.27622225880622864,
      -0.8344617486000061,
      0.2851144075393677,
      0.13509096205234528,
      0.37854868173599243,
      0.4021250009536743,
      0.14376066625118256,
      0.43723317980766296,
      0.23018644750118256,
      0.17002904415130615,
      -0.7998673319816589,
      0.05677276849746704,
      0.104319266974926,
      -1.1970136165618896,
      -0.2988876402378082,
      0.4198985993862152,
      -0.07456527650356293,
      -0.5092365145683289,
      0.42044663429260254,
      0.36389103531837463,
      -0.11609943956136703,
      -0.17681445181369781,
      -0.10293611884117126,
      -0.23868049681186676,
      -0.6007238030433655,
      -0.1949859857559204,
      0.33076444268226624,
      1.0082274675369263,
      0.40379491448402405
    ]
  ],
  "actor_head_biases": [
    [
      0.17677773535251617,
      0.2771008312702179,
      0.10222312808036804,
      0.36504751443862915
    ]
  ],
  "gru_weight_ih": [
    0.7368274927139282,
    0.24371998012065887,
    0.3814855217933655,
    0.33623433113098145,
    0.9397499561309814,
    -0.09611143171787262,
    0.0854514017701149,
    -0.06954418122768402,
    0.6681042909622192,
    -0.7944923043251038,
    -0.7475311160087585,
    -0.6394632458686829,
    0.3587687313556671,
    0.5834500193595886,
    1.187593936920166,
    -0.17954877018928528,
    0.7004444003105164,
    0.0979335829615593,
    0.6675123572349548,
    -0.512130856513977,
    0.10110887140035629,
    0.18024612963199615,
    0.37571433186531067,
    -0.3643127381801605,
    -0.7541782259941101,
    0.24881161749362946,
    1.1481119394302368,
    0.29768645763397217,
    -0.39593780040740967,
    0.515455961227417,
    -1.6493504047393799,
    0.45039844512939453,
    -0.19395601749420166,
    -0.5902584195137024,
    -0.9297685623168945,
    0.8236972689628601,
    0.09817996621131897,
    -0.10506577044725418,
    0.6850537657737732,
    -0.5417981743812561,
    0.9300492405891418,
    0.08120299130678177,
    -0.008933614008128643,
    -0.8984928727149963,
    0.473440945148468,
    0.6938947439193726,
    0.9721323847770691,
    1.4278103113174438,
    -0.6481860876083374,
    -0.7995744943618774,
    -0.6971428394317627,
    -0.5006480813026428,
    -0.3061085343360901,
    0.39502954483032227,
    0.36792120337486267,
    -0.029083989560604095,
    0.393508642911911,
    -0.006016767118126154,
    -0.08259698748588562,
    -0.5488571524620056,
    -0.9851603507995605,
    0.5676466822624207,
    0.14221879839897156,
    -0.6419864296913147,
    1.3603074550628662,
    0.5284214019775391,
    -0.1657186597585678,
    0.5682891607284546,
    0.13782358169555664,
    -0.2761556804180145,
    0.17058199644088745,
    -0.3696099519729614,
    1.3789219856262207,
    -0.7420463562011719,
    0.26653945446014404,
    0.12617866694927216,
    0.5336114764213562,
    0.22800549864768982,
    -0.764323353767395,
    0.15690821409225464,
    -0.10171595960855484,
    1.0605639219284058,
    -0.03091549314558506,
    -0.36976325511932373,
    0.7433940768241882,
    0.36956703662872314,
    0.8796851634979248,
    -1.4539555311203003,
    0.9562138915061951,
    -0.9175149202346802,
    -0.5106313228607178,
    -1.469657063484192,
    0.7476353049278259,
    -1.1389673948287964,
    -1.3970643281936646,
    -0.7135200500488281,
    0.3296993672847748,
    0.36879074573516846,
    -0.22006526589393616,
    -0.830367386341095,
    0.2412027269601822,
    0.3753085434436798,
    -0.029578521847724915,
    0.6231715679168701,
    0.06388887763023376,
    -0.4931972622871399,
    -0.3816263675689697,
    -0.5464736223220825,
    -0.07580400258302689,
    -0.6246046423912048,
    -0.05768633261322975,
    0.621892511844635,
    -0.16955402493476868,
    0.41340887546539307,
    0.4776085317134857,
    0.9535390734672546,
    -0.027474911883473396,
    0.10899820178747177,
    -0.2904210686683655,
    0.09869354218244553,
    0.20856574177742004,
    -0.40948566794395447,
    -0.5321093201637268,
    -0.7331445813179016,
    1.4462374448776245,
    -1.2354246377944946,
    0.06965558230876923,
    -0.09495797008275986,
    -0.5471950173377991,
    0.18932299315929413,
    0.3941343426704407,
    -0.7632633447647095,
    -0.010851518251001835,
    -0.19098849594593048,
    0.3492265045642853,
    0.24386851489543915,
    0.3163144588470459,
    0.006614208221435547,
    0.11072839796543121,
    -0.7345197200775146,
    -0.040853351354599,
    0.2406071275472641,
    0.23780205845832825,
    0.13544140756130219,
    0.2647572457790375,
    0.6743089556694031,
    -0.3266497254371643,
    0.8440767526626587,
    -0.6804320216178894,
    0.3097468614578247,
    0.021753795444965363,
    -0.19662968814373016,
    -0.06950309872627258,
    -0.033437032252550125,
    0.518211305141449,
    0.18790103495121002,
    0.40788695216178894,
    0.36052441596984863,
    -0.3755929172039032,
    -0.12242352962493896,
    -0.3611074984073639,
    0.16702738404273987,
    0.252536803483963,
    0.44053947925567627,
    0.297879159450531,
    0.2878863215446472,
    0.6991888284683228,
    0.09827226400375366,
    0.5237862467765808,
    0.4326244592666626,
    -0.8095089197158813,
    0.3493139147758484,
    0.751865029335022,
    -0.06253306567668915,
    0.16107633709907532,
    -0.3715320825576782,
    0.1471782773733139,
    0.1426490992307663,
    -0.02515869028866291,
    -0.014376706443727016,
    0.02740708366036415,
    0.7115498781204224,
    1.0073153972625732,
    -1.2506153583526611,
    0.9987363219261169,
    0.4861587584018707,
    1.0478463172912598,
    0.766908586025238,
    -0.7781636714935303,
    0.6345759034156799,
    0.32362282276153564,
    -0.38168224692344666,
    0.3160247206687927,
    0.2056489884853363,
    -0.3313539922237396,
    -0.4685291051864624,
    -0.11401739716529846,
    -0.2725125849246979,
    0.6731029152870178,
    -0.4269818365573883,
    -0.8365805745124817,
    -0.3797472417354584,
    -0.17572462558746338,
    -0.34599658846855164,
    0.3727208077907562,
    0.0962991788983345,
    -1.1055712699890137,
    0.019092656672000885,
    0.3858306407928467,
    -0.24577529728412628,
    -0.034474872052669525,
    0.690650463104248,
    0.41225466132164,
    0.023254040628671646,
    -0.06627661734819412,
    0.00025500357151031494,
    -0.49291184544563293,
    -0.016939369961619377,
    -0.314614862203598,
    0.25956448912620544,
    -0.018333379179239273,
    -0.5328021049499512,
    0.4037131667137146,
    -0.1267528235912323,
    0.28734853863716125,
    0.6156845092773438,
    -0.45263174176216125,
    -0.7788083553314209,
    0.08597905933856964,
    -0.28501033782958984,
    0.4038626253604889,
    -0.7424961924552917,
    1.172337293624878,
    -0.738814115524292,
    0.24984727799892426,
    0.18224620819091797,
    0.462455689907074,
    0.5340946316719055,
    -0.35405734181404114,
    -0.616908609867096,
    0.737375795841217,
    0.5003911256790161,
    0.3005481958389282,
    0.10008503496646881,
    0.19650642573833466,
    0.45792922377586365,
    0.15526270866394043,
    -0.5084069967269897,
    0.4540235102176666,
    -0.2967624068260193,
    0.6064759492874146,
    -0.7595890760421753,
    0.5254489779472351,
    0.20124277472496033,
    -0.6278471946716309,
    0.6551854610443115,
    0.46943309903144836,
    -0.20921115577220917,
    0.15522460639476776,
    -0.06798262149095535,
    -0.24535316228866577,
    0.135031595826149,
    -0.2212049514055252,
    0.18231061100959778,
    -0.03190501034259796,
    -0.07183238118886948,
    -0.13742485642433167,
    -0.11067727208137512,
    -0.7165007591247559,
    0.12632620334625244,
    0.21194416284561157,
    0.05677413567900658,
    0.4720737338066101,
    0.759419858455658,
    -0.8660135269165039,
    -0.1490682065486908,
    0.22634464502334595,
    0.047941483557224274,
    0.07906527072191238,
    0.018328893929719925,
    -0.40996053814888,
    -0.19394451379776,
    -0.8977248072624207,
    -0.6131017208099365,
    -0.587421178817749,
    -0.8178213238716125,
    0.11005785316228867,
    -1.6086896657943726,
    -0.3371884524822235,
    0.07721596956253052,
    -0.29810231924057007,
    0.5499781966209412,
    -0.5637527108192444,
    0.4828495979309082,
    -0.5901676416397095,
    -1.398278832435608,
    -0.04667277634143829,
    0.021951671689748764,
    0.5849742293357849,
    -0.25903135538101196,
    -0.1905588060617447,
    0.4755152761936188,
    0.2618962526321411,
    -0.7234442830085754,
    -0.736363410949707,
    -0.181864395737648,
    0.4048161208629608,
    -0.47883275151252747,
    0.17711907625198364,
    -1.0309697389602661,
    -0.5007445812225342,
    0.01853824406862259,
    -0.29138103127479553,
    0.4154365360736847,
    -1.0411927700042725,
    0.14480489492416382,
    0.8514055013656616,
    0.1718868464231491,
    0.3257657587528229,
    0.33527031540870667,
    -0.10990730673074722,
    -0.058545537292957306,
    -0.4597007632255554,
    0.09991195797920227,
    0.26984450221061707,
    0.5165693163871765,
    -0.7704232335090637,
    -0.7803199887275696,
    0.834908127784729,
    -0.7911943793296814,
    0.5085609555244446,
    -0.5421290397644043,
    1.1501973867416382,
    0.2808915376663208,
    -0.24287524819374084,
    -0.321650892496109,
    -0.2649513781070709,
    -0.4312669634819031,
    -0.5548127293586731,
    0.10254627466201782,
    0.05540655180811882,
    -0.16253821551799774,
    0.3237776756286621,
    0.16148580610752106,
    0.4916936755180359,
    -0.8269926309585571,
    -0.282463401556015,
    0.9778358936309814,
    0.4200827181339264,
    -0.4341529607772827,
    -0.3577215075492859,
    -0.9569875597953796,
    -0.12939836084842682,
    1.1643717288970947,
    -1.122192621231079,
    -0.07722210884094238,
    -0.3226397931575775,
    0.30571484565734863,
    0.22838284075260162,
    0.09810932725667953,
    -0.6625029444694519,
    0.415416419506073,
    0.34426119923591614,
    -0.10882648825645447,
    -0.17816881835460663,
    -0.1827801614999771,
    -0.1211153045296669,
    -0.3079637587070465,
    -0.6256712079048157,
    0.04546712338924408,
    0.13253545761108398,
    -0.5059050917625427,
    0.9371702075004578,
    -0.5540498495101929,
    -0.3329337537288666,
    -0.7969852685928345,
    -0.7419173717498779,
    0.21284550428390503,
    0.37130311131477356,
    1.5365099906921387,
    -0.291630357503891,
    0.27731555700302124,
    0.9541118144989014,
    -0.860969603061676,
    -0.08442874252796173,
    -0.1220414936542511,
    0.4652675986289978,
    0.12332309037446976,
    -0.2491685003042221,
    0.5090495944023132,
    -0.46299120783805847,
    0.7751935720443726,
    0.16495925188064575,
    0.33120861649513245,
    0.9324418902397156,
    0.1445922553539276,
    0.44722074270248413,
    0.375160276889801,
    0.348929226398468,
    0.08442731201648712,
    -0.23716484010219574,
    0.14186012744903564,
    -0.2008683681488037,
    0.4920404553413391,
    0.4414835274219513,
    -0.9020360708236694,
    -0.4567398726940155,
    0.7625330686569214,
    -1.1615936756134033,
    0.4074583053588867,
    -0.04883531481027603,
    -0.22608855366706848,
    -0.18475455045700073,
    0.2553560435771942,
    0.49490824341773987,
    -0.5748708844184875,
    -0.6526724100112915,
    -1.0232903957366943,
    -0.056734826415777206,
    0.5263283848762512,
    0.21551038324832916,
    0.33614012598991394,
    0.5830264091491699,
    -0.5610837340354919,
    -0.21338114142417908,
    0.24761709570884705,
    -0.8911572694778442,
    -0.06122063472867012,
    0.4250086545944214,
    0.32219749689102173,
    0.10299940407276154,
    -0.6093816757202148,
    -0.07259572297334671,
    -0.647794246673584,
    0.18351981043815613,
    -0.13298332691192627,
    0.321418434381485,
    -0.13684919476509094,
    -0.1556931436061859,
    0.42786526679992676,
    -0.06226826086640358,
    -0.5090662837028503,
    0.1489739716053009,
    0.09755320101976395,
    -0.1012512668967247,
    -0.6259582042694092,
    0.14139102399349213,
    0.09567374736070633,
    0.6297711730003357,
    0.4405837655067444,
    0.09567822515964508,
    -0.06328798830509186,
    -0.22057361900806427,
    0.4201028048992157,
    -0.47113677859306335,
    0.1047794297337532,
    0.01784498803317547,
    -0.28318020701408386,
    0.41184133291244507,
    -0.33235442638397217,
    -0.647240936756134,
    -0.12034367024898529,
    -0.37945660948753357,
    -0.4000547230243683,
    -0.24057069420814514,
    -0.24146297574043274,
    0.16904470324516296,
    0.31144681572914124,
    0.1065654456615448,
    -0.2127131074666977,
    0.06099699065089226,
    0.33096277713775635,
    -0.08271804451942444,
    0.19506387412548065,
    -0.7151105403900146,
    -0.27873677015304565,
    0.324458509683609,
    0.24045957624912262,
    0.11995376646518707,
    0.1687900871038437,
    0.010060518980026245,
    0.449308305978775,
    -1.088094711303711,
    -0.22665733098983765,
    -1.227014422416687,
    -0.1408635526895523,
    -0.1794189065694809,
    -0.24451495707035065,
    -0.5492501258850098,
    -0.7592053413391113,
    -0.5685304999351501,
    0.2569212019443512,
    0.40437138080596924,
    -0.559783935546875,
    -0.39902937412261963,
    -0.629115104675293,
    -0.9892802238464355,
    -0.3409613370895386,
    0.018584739416837692,
    -0.01724778674542904,
    -0.6590149998664856,
    0.1316104531288147,
    -0.4157857596874237,
    0.32917681336402893,
    0.546610414981842,
    0.3911139667034149,
    -0.6624931693077087,
    -0.3549688756465912,
    1.5699363946914673,
    0.486895352602005,
    0.5056864023208618,
    0.469529926776886,
    0.20030421018600464,
    -0.04907109588384628,
    -0.5557258725166321,
    -0.08498707413673401,
    -0.6405277848243713,
    -0.21389342844486237,
    -0.03211890533566475,
    -0.15856583416461945,
    0.38131096959114075,
    -0.6341866850852966,
    -0.2384818196296692,
    -0.04990699142217636,
    -0.11272899061441422,
    -0.09642259776592255,
    0.6454976201057434,
    0.09049716591835022,
    0.19936347007751465,
    -0.2405904233455658,
    -0.04388536512851715,
    -0.25790128111839294,
    0.0461527481675148,
    -0.04857712239027023,
    0.39729171991348267,
    0.21932727098464966,
    0.19596904516220093,
    0.04484577849507332,
    0.44499456882476807,
    0.023026300594210625,
    -0.11684340983629227,
    0.053346045315265656,
    -0.06999742984771729,
    -0.26603981852531433,
    0.11209174245595932,
    0.22468529641628265,
    -0.31905537843704224,
    -0.4792593717575073,
    -0.2787085473537445,
    -0.434438556432724,
    0.05975286290049553,
    -0.09279415756464005,
    0.1987180858850479,
    -0.3292248845100403,
    0.20820452272891998,
    0.024501565843820572,
    0.4879324734210968,
    0.19434568285942078,
    0.1921229511499405,
    0.04356470704078674,
    -0.021816421300172806,
    -0.45419541001319885,
    -0.07902749627828598,
    -0.0373377725481987,
    -0.02344786562025547,
    0.2720463275909424,
    0.04053516313433647,
    -0.046336252242326736,
    0.4021248519420624,
    -0.23568102717399597,
    -0.037290554493665695,
    -0.2595956027507782,
    0.017901131883263588,
    0.11236333847045898,
    -0.20391520857810974,
    -0.2101641595363617,
    0.15710464119911194,
    -0.3111821711063385,
    0.2566205859184265,
    -0.26382017135620117,
    -0.04600348696112633,
    -0.06980661302804947,
    -0.23236332833766937,
    -0.4445178806781769,
    -0.21454013884067535,
    -0.41231992840766907,
    -0.2442808747291565,
    0.8746678829193115,
    -0.03207574784755707,
    0.09956404566764832,
    -0.7745802402496338,
    -0.27425557374954224,
    -0.0587167851626873,
    0.11104890704154968,
    -0.08732856065034866,
    -0.23369784653186798,
    0.22199545800685883,
    0.15412093698978424,
    -0.333994597196579,
    -0.25493597984313965,
    0.2244291454553604,
    -0.13674817979335785,
    0.45769771933555603,
    -0.12472838163375854,
    0.017823083326220512,
    0.018909327685832977,
    0.22401337325572968,
    0.024809494614601135,
    -0.44659310579299927,
    -0.18031294643878937,
    0.6795313358306885,
    -0.15208733081817627,
    0.12105157971382141,
    0.12391096353530884,
    0.28183016180992126,
    0.1833062618970871,
    0.01567864418029785,
    -0.1797230839729309,
    -0.2612001895904541,
    -0.018071293830871582,
    0.0505969300866127,
    -0.2762162685394287,
    0.03487074747681618,
    0.015376726165413857,
    0.2017800360918045,
    0.31867387890815735,
    0.1264863759279251,
    0.49599847197532654,
    -0.5649387836456299,
    -0.020752692595124245,
    0.06358442455530167,
    0.05422902852296829,
    0.3032841384410858,
    0.1472754180431366,
    0.12714414298534393,
    0.24449650943279266,
    0.08535420149564743,
    -0.10195719450712204,
    0.4081495702266693,
    -0.3665545880794525,
    -0.28353267908096313,
    0.20348238945007324,
    0.3092826008796692,
    -0.4832741916179657,
    0.701728105545044,
    -0.03441527858376503,
    0.28118881583213806,
    0.1586499810218811,
    -0.003352521453052759,
    0.23562443256378174,
    0.01987140066921711,
    -0.25413447618484497,
    0.10162074863910675,
    0.26728034019470215,
    0.3048311471939087,
    -0.49030283093452454,
    0.09654733538627625,
    0.11532142013311386,
    -0.007354977075010538,
    0.15326321125030518,
    0.3585028052330017,
    -0.3807995915412903,
    -0.3558090329170227,
    0.16507281363010406,
    0.07693803310394287,
    -0.007771457079797983,
    -0.062190257012844086,
    0.5203922390937805,
    0.24075062572956085,
    0.0959474965929985,
    0.12078879773616791,
    0.17744748294353485,
    0.025708096101880074,
    -0.23897269368171692,
    -0.5050780773162842,
    -0.023459989577531815,
    0.06726726144552231,
    0.25512266159057617,
    0.1745091676712036,
    -0.003969348967075348,
    -0.06996903568506241,
    -0.1791478842496872,
    0.24452976882457733,
    -0.12241878360509872,
    0.21983939409255981,
    0.20835427939891815,
    -0.006230317521840334,
    -0.12878192961215973,
    0.059995826333761215,
    0.07587067782878876,
    -0.5626923441886902,
    -0.07953358441591263,
    0.0694422498345375,
    0.08870748430490494,
    0.2564831078052521,
    -0.053476087749004364,
    -0.40711310505867004,
    0.2040897160768509,
    0.09280167520046234,
    0.07441268116235733,
    0.041347112506628036,
    -0.0294335950165987,
    0.16665373742580414,
    0.21043947339057922,
    -0.06026462838053703,
    -0.22210046648979187,
    0.30939221382141113,
    0.2901484966278076,
    -0.2785702347755432,
    0.2825066149234772,
    -0.48776185512542725,
    0.4355294108390808,
    0.3337014317512512,
    -0.0005421104142442346,
    0.20264841616153717,
    0.18662327527999878,
    0.28626349568367004,
    0.10554596036672592,
    0.042483851313591,
    -0.04919785261154175,
    -0.5084818005561829,
    0.07539362460374832,
    0.23154930770397186,
    -0.5998250246047974,
    0.014008664526045322,
    0.31295424699783325,
    -0.0738012045621872,
    -0.12070268392562866,
    0.380684494972229,
    0.0023381125647574663,
    -0.35414934158325195,
    0.2748558521270752,
    -0.13622799515724182,
    0.06931078433990479,
    0.10027806460857391,
    -0.2782119810581207,
    -0.17339791357517242,
    0.2156972438097,
    0.26774629950523376,
    -0.3515063226222992,
    -0.47222501039505005,
    -0.2358536422252655,
    -0.17857512831687927,
    0.14619074761867523,
    -0.25845471024513245,
    0.1668478399515152,
    0.013713136315345764,
    -0.22666162252426147,
    -0.09268901497125626,
    0.1512589454650879,
    0.24230678379535675,
    -0.0761743113398552,
    -0.3728101849555969,
    -0.6496479511260986,
    -0.194121316075325,
    0.04972725361585617,
    -0.046191487461328506,
    0.3132663667201996,
    -0.13349531590938568,
    0.07304490357637405,
    0.03942912817001343,
    0.24609090387821198,
    0.2106993943452835,
    0.2961757183074951,
    -0.24381563067436218,
    0.005191839300096035,
    0.40625983476638794,
    -0.11957062035799026
  ],
  "gru_weight_hh": [
    0.7318410873413086,
    -0.5846819877624512,
    0.32875263690948486,
    0.43408501148223877,
    2.0407984256744385,
    -0.6026462316513062,
    -0.050420522689819336,
    -0.260491281747818,
    0.021742699667811394,
    -0.16361765563488007,
    -0.6564043164253235,
    0.011200555600225925,
    -0.30134499073028564,
    1.0073446035385132,
    -0.1529257893562317,
    0.07188635319471359,
    0.835178554058075,
    0.5596231818199158,
    -0.24556908011436462,
    -0.48705369234085083,
    -0.37652361392974854,
    -1.2189435958862305,
    0.13461241126060486,
    -0.23371554911136627,
    0.2681775689125061,
    0.5260589122772217,
    0.634306788444519,
    -0.1373741626739502,
    0.6408478617668152,
    1.0801714658737183,
    1.2566359043121338,
    -0.4476918876171112,
    0.9821898937225342,
    -0.8283179402351379,
    0.690321683883667,
    -0.2753218412399292,
    0.6457254886627197,
    -0.3171873688697815,
    -0.38542836904525757,
    -0.593080997467041,
    0.890257716178894,
    0.21891650557518005,
    -0.41238051652908325,
    -0.08759976178407669,
    0.46942415833473206,
    0.059456273913383484,
    -0.11853045970201492,
    -0.010277345776557922,
    -0.44591426849365234,
    -0.33728358149528503,
    -0.01806773990392685,
    -1.1950844526290894,
    0.2929222881793976,
    0.6230372786521912,
    1.2606717348098755,
    -0.26360589265823364,
    -1.0317935943603516,
    -0.17004671692848206,
    2.834510326385498,
    1.0320347547531128,
    0.5447604060173035,
    0.7684712409973145,
    -0.9459910988807678,
    -0.7108386158943176,
    1.3137191534042358,
    -0.9966882467269897,
    0.1262722909450531,
    -0.5011553764343262,
    0.0005296850576996803,
    -0.47630399465560913,
    -0.14328472316265106,
    -0.37103137373924255,
    1.1886769533157349,
    -0.712516188621521,
    -0.7737706899642944,
    0.5741048455238342,
    0.6910498738288879,
    0.8689122200012207,
    -0.8805350065231323,
    0.892048180103302,
    0.369181364774704,
    -0.30695629119873047,
    0.6541962623596191,
    -0.11231716722249985,
    -0.017341258004307747,
    0.15747326612472534,
    0.0444587804377079,
    -0.9430630207061768,
    0.32048413157463074,
    0.41334232687950134,
    -0.34638893604278564,
    0.5752765536308289,
    0.08719068765640259,
    1.7866326570510864,
    -0.4104779362678528,
    0.4068550765514374,
    0.052837613970041275,
    -0.267240971326828,
    0.7679334282875061,
    -0.4762563109397888,
    -0.23707400262355804,
    0.8720963597297668,
    -0.06530066579580307,
    -0.19186271727085114,
    -0.21999864280223846,
    0.34757673740386963,
    1.5300520658493042,
    -1.36454439163208,
    -0.2367750108242035,
    0.006082908250391483,
    0.4971735179424286,
    -0.17968645691871643,
    0.24142979085445404,
    0.08082710951566696,
    0.1851268857717514,
    0.2262829691171646,
    1.132539987564087,
    0.5076175332069397,
    0.35987594723701477,
    -0.11400577425956726,
    1.0641595125198364,
    -0.5625057816505432,
    -0.20298096537590027,
    -0.7711323499679565,
    -0.33757680654525757,
    0.15226955711841583,
    -0.15406614542007446,
    0.6644765734672546,
    -2.572274923324585,
    -0.024544939398765564,
    0.7052387595176697,
    -0.01314388308674097,
    0.06457017362117767,
    -0.982858419418335,
    -0.8300148248672485,
    -0.2872251570224762,
    0.38658589124679565,
    -0.5932261347770691,
    -0.6411613821983337,
    -0.36982718110084534,
    0.44793203473091125,
    0.43468567728996277,
    0.794845461845398,
    0.502551794052124,
    0.30446258187294006,
    -0.4150482714176178,
    -0.1887117475271225,
    0.19596096873283386,
    -0.11645253002643585,
    -0.4354393482208252,
    -0.5261071920394897,
    -0.08014990389347076,
    -0.16179624199867249,
    -0.3367409110069275,
    -0.06467316299676895,
    -0.722720742225647,
    -0.14851032197475433,
    0.5980856418609619,
    0.38808488845825195,
    -0.14156129956245422,
    0.6361942887306213,
    0.45085981488227844,
    -0.7426454424858093,
    -0.9572198390960693,
    0.9536937475204468,
    -0.46736013889312744,
    0.2925978899002075,
    -0.30311840772628784,
    0.7309776544570923,
    0.5646573305130005,
    -0.5190432071685791,
    1.1225292682647705,
    1.2017394304275513,
    0.20323194563388824,
    -0.011002506129443645,
    -1.1330862045288086,
    0.4548294246196747,
    -0.5456157326698303,
    0.15889686346054077,
    -1.6084710359573364,
    -0.02449800632894039,
    -0.12929309904575348,
    -0.6347627639770508,
    -0.4457263648509979,
    -0.2746676206588745,
    -0.8882209658622742,
    -0.8244497179985046,
    0.3244844675064087,
    -0.8169880509376526,
    -0.33260974287986755,
    -0.981873631477356,
    0.08318857848644257,
    -1.0084218978881836,
    -0.15480871498584747,
    0.4431564509868622,
    0.1622040718793869,
    -0.678555428981781,
    -0.03203119710087776,
    -0.23081861436367035,
    -0.6142366528511047,
    0.30092310905456543,
    -0.2208137959241867,
    0.43278175592422485,
    0.20504924654960632,
    -0.2742042541503906,
    0.20763885974884033,
    0.26901307702064514,
    0.389970600605011,
    0.23143871128559113,
    0.3515360355377197,
    -0.10598358511924744,
    -0.0605546273291111,
    0.2751925587654114,
    0.8985931873321533,
    0.44872429966926575,
    -0.4612948000431061,
    0.6631672382354736,
    -0.0038704387843608856,
    0.7429289817810059,
    -0.37948405742645264,
    -0.28214067220687866,
    0.4700222909450531,
    -0.7934306859970093,
    0.02777218073606491,
    -0.036412861198186874,
    -1.3332618474960327,
    0.2994377613067627,
    -0.29321733117103577,
    -0.9178077578544617,
    -0.41756489872932434,
    -0.7262350916862488,
    0.007885088212788105,
    0.1553509682416916,
    0.3483908176422119,
    -0.6113162040710449,
    0.4724256992340088,
    0.01234921719878912,
    1.364795446395874,
    -0.2633344531059265,
    0.031145701184868813,
    1.3769162893295288,
    -0.19993455708026886,
    0.4369639754295349,
    -0.2833232283592224,
    0.29828646779060364,
    0.21039041876792908,
    -0.19703979790210724,
    -0.04818301275372505,
    -0.1748606115579605,
    -0.7332918643951416,
    0.6979754567146301,
    -0.0680801197886467,
    0.22267071902751923,
    -0.179600790143013,
    0.09439665824174881,
    0.19681072235107422,
    -0.8082627654075623,
    -0.2517606317996979,
    0.45648741722106934,
    -0.26869797706604004,
    0.15197822451591492,
    0.5752164721488953,
    1.115005373954773,
    0.060729727149009705,
    0.0038299579173326492,
    -0.4580608606338501,
    0.4056408405303955,
    -0.36460673809051514,
    0.036818329244852066,
    -0.5460216403007507,
    -0.16953206062316895,
    -0.0446905754506588,
    0.3234788775444031,
    -0.4479272961616516,
    -0.5957876443862915,
    -0.2379223108291626,
    0.9601830244064331,
    -1.3336634635925293,
    1.254683494567871,
    0.425497442483902,
    0.7475257515907288,
    -0.432978093624115,
    -1.6412657499313354,
    -0.09484384953975677,
    1.1292903423309326,
    -0.08893848210573196,
    1.0353189706802368,
    -0.5396809577941895,
    1.4388165473937988,
    -0.39226049184799194,
    -0.26501375436782837,
    0.3316807150840759,
    -0.5094174742698669,
    -1.174240231513977,
    -0.7991535067558289,
    -0.06176808476448059,
    0.41450387239456177,
    0.9682794213294983,
    -0.051448434591293335,
    1.682950496673584,
    -0.181790292263031,
    -0.5845749378204346,
    -1.4801691770553589,
    -1.0885800123214722,
    0.45263928174972534,
    -0.6512831449508667,
    -0.3024013042449951,
    1.727560043334961,
    0.1289023756980896,
    -0.810453474521637,
    -1.0050677061080933,
    -0.003878863761201501,
    -0.36792007088661194,
    -0.1714293658733368,
    -0.44683948159217834,
    -0.3310047388076782,
    -0.8524865508079529,
    -0.23200657963752747,
    -0.0670628622174263,
    -0.31484678387641907,
    1.5215178728103638,
    -1.336355209350586,
    -0.21425874531269073,
    0.3262512683868408,
    -0.5572924017906189,
    0.0892755314707756,
    -1.3226970434188843,
    0.17101773619651794,
    0.5324406623840332,
    -0.21458032727241516,
    -0.6502067446708679,
    0.4197481572628021,
    -0.29024407267570496,
    0.4512574374675751,
    0.3224545121192932,
    0.4433445632457733,
    -0.9301207065582275,
    0.4161367416381836,
    -0.4601652920246124,
    0.5289002060890198,
    -0.3657229244709015,
    1.1486600637435913,
    1.6750731468200684,
    0.7150391936302185,
    -0.6964178681373596,
    0.18019647896289825,
    0.12655504047870636,
    1.0128462314605713,
    0.2102663516998291,
    0.21638666093349457,
    0.6145410537719727,
    -1.5857163667678833,
    -0.029640544205904007,
    -0.39540284872055054,
    0.118111252784729,
    -0.8427528738975525,
    1.3722931146621704,
    -1.1214566230773926,
    0.04618147388100624,
    0.129691943526268,
    1.3104709386825562,
    -0.9268887042999268,
    -1.8323464393615723,
    0.5030426979064941,
    -0.15042684972286224,
    1.3613311052322388,
    -0.16016200184822083,
    -0.23599611222743988,
    -0.09044656902551651,
    0.07553882151842117,
    -0.992337167263031,
    1.7594412565231323,
    0.2266620397567749,
    -0.19930437207221985,
    0.8006981611251831,
    0.15855637192726135,
    0.5380027294158936,
    0.11640527844429016,
    -0.13283683359622955,
    -0.7161938548088074,
    -0.01840374991297722,
    -0.05843692272901535,
    0.10097146779298782,
    -0.38826626539230347,
    -0.24846123158931732,
    0.08507520705461502,
    1.182993769645691,
    -0.783293604850769,
    -0.1691068559885025,
    0.47778376936912537,
    -1.2031842470169067,
    -1.2560038566589355,
    0.04857887700200081,
    -0.30838239192962646,
    -1.9209296703338623,
    0.6179074048995972,
    1.0304373502731323,
    0.8900666236877441,
    -0.6579532623291016,
    0.25642508268356323,
    0.07008908689022064,
    -2.0862650871276855,
    0.04779544845223427,
    -1.144418716430664,
    1.1314013004302979,
    -1.4188288450241089,
    -0.7640540599822998,
    -1.170005440711975,
    1.83683443069458,
    0.08018471300601959,
    -0.6245220303535461,
    1.5472831726074219,
    0.22204816341400146,
    -0.4663473963737488,
    -1.4740500450134277,
    0.6676169037818909,
    1.1376075744628906,
    -0.6938608288764954,
    -1.5005031824111938,
    -0.13329146802425385,
    0.5544706583023071,
    -1.4072554111480713,
    0.9633229374885559,
    0.10587772727012634,
    0.4649698734283447,
    0.07986980676651001,
    -1.7303694486618042,
    0.9364867806434631,
    0.20387300848960876,
    -0.15009424090385437,
    -0.7026785016059875,
    -0.24890193343162537,
    -0.3847455680370331,
    0.0972796306014061,
    0.40629827976226807,
    0.25095638632774353,
    -0.23590855300426483,
    0.25950387120246887,
    0.17823810875415802,
    0.9643732309341431,
    -0.21538229286670685,
    -0.3689901828765869,
    0.15655213594436646,
    1.0177556276321411,
    -0.8914942741394043,
    -0.20853999257087708,
    0.17466481029987335,
    -0.2039744108915329,
    0.019779931753873825,
    -0.3147514760494232,
    -0.1737450808286667,
    0.2281206101179123,
    -0.5594224333763123,
    -0.7338000535964966,
    -1.1444836854934692,
    -0.6140580773353577,
    0.4781261384487152,
    0.344087153673172,
    -1.5572338104248047,
    0.485196590423584,
    -0.6855074167251587,
    -0.06129832938313484,
    -0.2382100224494934,
    0.4981699287891388,
    2.20823335647583,
    -1.1621253490447998,
    -1.2107754945755005,
    1.1126869916915894,
    0.6594356298446655,
    -0.5972931981086731,
    -0.47165265679359436,
    -0.5190309286117554,
    -0.0172807015478611,
    0.3937504291534424,
    -0.4136643409729004,
    -0.059833936393260956,
    -0.4575205147266388,
    0.09568722546100616,
    -0.3471454977989197,
    -0.0395212285220623,
    1.0173231363296509,
    -0.7586328983306885,
    0.19742903113365173,
    -1.1010445356369019,
    -0.33016812801361084,
    -2.9235339164733887,
    -2.607325553894043,
    -1.0776863098144531,
    0.23854325711727142,
    0.2697829604148865,
    -0.17436669766902924,
    0.11823096126317978,
    -0.6829738020896912,
    0.24444295465946198,
    0.32932955026626587,
    0.6503774523735046,
    1.4284930229187012,
    -0.7044313549995422,
    -0.3695423901081085,
    0.40709009766578674,
    0.49605295062065125,
    -1.1517504453659058,
    -2.005580425262451,
    -0.31191113591194153,
    0.23833586275577545,
    0.09743423759937286,
    -1.902777075767517,
    0.2457285076379776,
    -1.4915401935577393,
    0.2607394754886627,
    -1.2415555715560913,
    1.0509241819381714,
    -1.476009488105774,
    -0.7691398859024048,
    -0.18424910306930542,
    0.623460054397583,
    -0.13975189626216888,
    1.1310482025146484,
    1.3256102800369263,
    0.20681311190128326,
    -1.2474751472473145,
    -0.933090329170227,
    0.2656826674938202,
    -0.5512502789497375,
    -0.5948730707168579,
    0.9652169942855835,
    1.083786964416504,
    0.474221408367157,
    0.6799904704093933,
    0.19349825382232666,
    -0.34127578139305115,
    -0.45820289850234985,
    -0.4415815770626068,
    -0.45872488617897034,
    0.818130612373352,
    1.0186846256256104,
    0.36305320262908936,
    0.6040622591972351,
    -0.1925153136253357,
    -0.28742432594299316,
    -0.0563240647315979,
    1.448043704032898,
    0.8798535466194153,
    -0.005893903784453869,
    -0.012935438193380833,
    0.39110881090164185,
    -0.2389410138130188,
    0.25652799010276794,
    0.6196084022521973,
    -0.9070044159889221,
    -1.2045987844467163,
    -0.2990493178367615,
    -0.16823358833789825,
    -0.07562661170959473,
    0.6715781688690186,
    -0.4989479184150696,
    -0.21611160039901733,
    -0.5903839468955994,
    -0.435087114572525,
    0.3583291172981262,
    -0.321045845746994,
    -0.19828292727470398,
    -0.4112454056739807,
    0.30871713161468506,
    0.07071684300899506,
    -0.21496857702732086,
    0.2119099646806717,
    -0.21347378194332123,
    0.17256444692611694,
    0.27818411588668823,
    -0.3837938904762268,
    1.5397846698760986,
    1.3125721216201782,
    0.045374635607004166,
    0.25586074590682983,
    -0.45706769824028015,
    -0.7230963110923767,
    0.2622595727443695,
    -1.0595225095748901,
    -0.6962923407554626,
    -1.8016307353973389,
    -1.1044517755508423,
    0.6187694668769836,
    -0.28103989362716675,
    1.1525092124938965,
    0.540056049823761,
    -0.38305437564849854,
    0.7193683385848999,
    0.5758911967277527,
    1.1295369863510132,
    1.1384786367416382,
    0.4068812131881714,
    -0.4085948169231415,
    -0.4005085825920105,
    0.14918074011802673,
    0.36911433935165405,
    -0.38894185423851013,
    0.5082746744155884,
    0.530549168586731,
    -0.4654631018638611,
    -0.5639867782592773,
    0.13878598809242249,
    0.2678215205669403,
    0.03562087565660477,
    0.4069402813911438,
    0.4988943636417389,
    -0.17638731002807617,
    -0.3344910740852356,
    -0.42731425166130066,
    0.05682116746902466,
    0.6524619460105896,
    -0.21128444373607635,
    0.06333256512880325,
    0.13053390383720398,
    -0.3532310426235199,
    -0.5148661732673645,
    -0.9793501496315002,
    0.24591222405433655,
    0.0729902982711792,
    0.25221073627471924,
    -0.5200692415237427,
    0.8548627495765686,
    -0.2103784680366516,
    0.18444250524044037,
    0.3546779751777649,
    0.09074383229017258,
    -0.07928912341594696,
    0.6603676080703735,
    0.32791492342948914,
    0.8289310336112976,
    0.292703777551651,
    0.07834777981042862,
    -0.5410717725753784,
    -0.5467087030410767,
    0.3709809482097626,
    -1.8352018594741821,
    0.27111607789993286,
    0.11333777010440826,
    0.3451974391937256,
    0.24031996726989746,
    0.9060392379760742,
    0.1906319111585617,
    0.15311802923679352,
    0.36919966340065,
    1.6493834257125854,
    0.18197406828403473,
    -0.11304919421672821,
    -0.31977999210357666,
    -0.8224496245384216,
    -0.23185594379901886,
    0.1787450760602951,
    0.41709238290786743,
    0.10993695259094238,
    0.589076578617096,
    -0.41798171401023865,
    0.2102271467447281,
    -0.16850155591964722,
    0.1498870700597763,
    -0.2593671381473541,
    0.1807362288236618,
    -0.5006246566772461,
    0.40195325016975403,
    -0.22245152294635773,
    -0.17191363871097565,
    0.1829780489206314,
    -0.6913312673568726,
    0.23486913740634918,
    -1.672387957572937,
    -0.2898477613925934,
    -0.047045208513736725,
    -0.07263197749853134,
    0.0917896181344986,
    -0.06269891560077667,
    0.23690490424633026,
    -0.5499156713485718,
    -1.0590468645095825,
    0.11812110245227814,
    -0.23873116075992584,
    0.5809399485588074,
    -0.027951907366514206,
    -0.0785105973482132,
    0.8859586119651794,
    0.09210028499364853,
    0.43543267250061035,
    0.5106653571128845,
    -0.07039445638656616,
    0.5633008480072021,
    -0.5478079319000244,
    -0.30660268664360046,
    -0.1612471044063568,
    0.1842402219772339,
    -0.5426666140556335,
    -0.4514986574649811,
    0.3932832181453705,
    1.0060561895370483,
    0.34637951850891113,
    0.01528769638389349,
    0.40640509128570557,
    0.15250319242477417,
    -1.4813920259475708,
    -1.3116075992584229,
    -0.7421198487281799,
    0.03929837793111801,
    -0.461702436208725,
    0.11389754712581635,
    -0.27435415983200073,
    0.1100679561495781,
    -0.644773006439209,
    -0.07396946847438812,
    -0.05501479282975197,
    -0.16639915108680725,
    -0.40189728140830994,
    0.30482566356658936,
    -0.4029126763343811,
    -0.43719810247421265,
    1.3323110342025757,
    0.2085721343755722,
    -0.14232486486434937,
    -0.16977520287036896,
    -0.6581752300262451,
    -0.936528742313385,
    -0.7092301249504089,
    0.09764737635850906,
    -0.0009610328706912696,
    -0.6399315595626831,
    -0.6566486954689026,
    -0.3897300064563751,
    0.35689473152160645,
    -0.8840359449386597,
    0.14000140130519867,
    0.5793675780296326,
    0.5032716989517212,
    0.2861020565032959,
    -0.2700762450695038,
    -0.396943598985672,
    -0.13034246861934662,
    -1.2690967321395874,
    0.45488888025283813,
    0.8915784358978271,
    -0.3335070013999939,
    -0.1194024309515953,
    0.07265926152467728,
    0.0029451202135533094,
    -0.10165490210056305,
    -0.17026658356189728,
    -0.5094355940818787,
    0.5856079459190369,
    0.635047435760498,
    -0.2581222653388977,
    -0.6059191823005676,
    -0.960335910320282,
    0.030929384753108025,
    -0.1615714579820633,
    0.2103748768568039,
    0.49115946888923645,
    0.2646637260913849,
    -0.12214325368404388,
    -0.7140108346939087,
    0.15396708250045776,
    -1.0854804515838623,
    -0.08501538634300232,
    -0.13349097967147827,
    0.15848404169082642,
    0.8467646837234497,
    -0.04170634225010872,
    0.45784443616867065,
    -0.19483672082424164,
    -0.8024634122848511
  ],
  "gru_bias_ih": [
    -0.7124067544937134,
    -0.5538958311080933,
    -0.6569588780403137,
    0.29026761651039124,
    -0.8089122772216797,
    0.23590292036533356,
    0.2394370585680008,
    -0.29409560561180115,
    -0.3833080530166626,
    -0.45482295751571655,
    -0.2527008056640625,
    -0.3010494112968445,
    -0.3894156515598297,
    0.49983057379722595,
    -0.6643103361129761,
    -0.21077702939510345,
    1.4545788764953613,
    -1.1082401275634766,
    -1.9053936004638672,
    -0.3312170207500458,
    -0.727487325668335,
    1.0599037408828735,
    -1.5922378301620483,
    0.7050477266311646,
    -0.9195634126663208,
    -1.7997037172317505,
    -0.4813876748085022,
    1.649062156677246,
    -1.1844868659973145,
    -0.38886189460754395,
    -1.6184145212173462,
    -1.627970814704895,
    0.0780610516667366,
    -0.09393813461065292,
    0.16024422645568848,
    0.31770020723342896,
    -0.2097162902355194,
    0.03396099805831909,
    0.5215303301811218,
    0.06331339478492737,
    -0.035275012254714966,
    -0.04636330530047417,
    -0.07696700841188431,
    -0.18409062922000885,
    0.023560458794236183,
    -0.029256856068968773,
    0.05005745589733124,
    -0.26116982102394104
  ],
  "gru_bias_hh": [
    -0.8510242700576782,
    -0.6995400190353394,
    -0.6648767590522766,
    0.21526028215885162,
    -0.6601312160491943,
    -0.028887374326586723,
    0.10025984048843384,
    -0.3235490322113037,
    -0.6058700680732727,
    -0.3107857406139374,
    -0.300129234790802,
    -0.2616502642631531,
    -0.24778583645820618,
    0.5188536047935486,
    -0.5680549144744873,
    0.01080575492233038,
    1.6011111736297607,
    -1.2354389429092407,
    -1.9385225772857666,
    -0.5907876491546631,
    -1.086253046989441,
    0.8568875789642334,
    -1.3303924798965454,
    0.7050528526306152,
    -0.5444644093513489,
    -2.0450940132141113,
    -0.6877455115318298,
    1.5458933115005493,
    -1.2214992046356201,
    -0.5695546269416809,
    -1.996809959411621,
    -1.6882883310317993,
    -0.11408919095993042,
    0.41171932220458984,
    -0.026886193081736565,
    -0.20514953136444092,
    -0.4305811822414398,
    1.0712876319885254,
    0.3178490400314331,
    0.4744783043861389,
    -0.33655932545661926,
    0.2941880524158478,
    0.19019070267677307,
    0.21701361238956451,
    0.0938384085893631,
    -0.1645449846982956,
    0.3094778060913086,
    -0.25063902139663696
  ],
  "example_input": [
    -1.0,
    -0.9411764740943909,
    -0.8823529481887817,
    -0.8235294222831726,
    -0.7647058963775635,
    -0.7058823704719543,
    -0.6470588445663452,
    -0.5882353186607361,
    -0.529411792755127,
    -0.47058823704719543,
    -0.4117647111415863,
    -0.3529411852359772,
    -0.29411762952804565,
    -0.23529411852359772,
    -0.1764705777168274,
    -0.11764705181121826,
    -0.05882352590560913,
    -3.725290298461914e-09,
    0.05882352590560913,
    0.11764705181121826,
    0.1764705777168274,
    0.23529411852359772,
    0.29411762952804565,
    0.3529411852359772,
    0.4117647111415863,
    0.47058823704719543,
    0.529411792755127,
    0.5882353186607361,
    0.6470588445663452,
    0.7058823704719543,
    0.7647058963775635,
    0.8235294222831726,
    0.8823529481887817,
    0.9411764740943909,
    1.0
  ],
  "example_output": [
    -0.9320522546768188,
    -0.5703922510147095,
    -0.8580403327941895,
    -0.7571656107902527
  ],
  "checkpoint_name": "best_checkpoint_model_879.pt",
  "checkpoint_step": -1,
  "requires_obs_normalization": false,
  "compat_reset_output": [
    0.018274441361427307,
    -0.11559045314788818,
    -0.2867809236049652,
    0.8003705739974976
  ],
  "compat_hover_output": [
    0.018274441361427307,
    -0.11559045314788818,
    -0.2867809236049652,
    0.8003705739974976
  ],
  "export_format": "rl_tools_checkpoint_blob"
}
