{
  "observation_dim": 35,
  "action_dim": 4,
  "structure": "mlp_gru",
  "rnn_type": "gru",
  "gru_input_dim": 16,
  "gru_hidden_dim": 16,
  "gru_num_layers": 1,
  "activation": "elu",
  "use_observation_normalization": false,
  "normalization_folded_into_first_layer": false,
  "observation_mean": [
    0.0,
    0.0,
    0.0,
    0.0,
    0.0,
    0.0,
    0.0,
    0.0,
    0.0,
    0.0,
    0.0,
    0.0,
    0.0,
    0.0,
    0.0,
    0.0,
    0.0,
    0.0,
    0.0,
    0.0,
    0.0,
    0.0,
    0.0,
    0.0,
    0.0,
    0.0,
    0.0,
    0.0,
    0.0,
    0.0,
    0.0,
    0.0,
    0.0,
    0.0,
    0.0
  ],
  "observation_inv_std": [
    1.0,
    1.0,
    1.0,
    1.0,
    1.0,
    1.0,
    1.0,
    1.0,
    1.0,
    1.0,
    1.0,
    1.0,
    1.0,
    1.0,
    1.0,
    1.0,
    1.0,
    1.0,
    1.0,
    1.0,
    1.0,
    1.0,
    1.0,
    1.0,
    1.0,
    1.0,
    1.0,
    1.0,
    1.0,
    1.0,
    1.0,
    1.0,
    1.0,
    1.0,
    1.0
  ],
  "actor_encoder_dims": [
    35,
    16,
    16
  ],
  "actor_encoder_activations": [
    "elu",
    "identity"
  ],
  "actor_head_dims": [
    16,
    4
  ],
  "actor_head_activations": [
    "sigmoid"
  ],
  "actor_encoder_weights": [
    [
      0.8844403028488159,
      -0.8031536340713501,
      -0.9076327085494995,
      0.011805986985564232,
      -0.27838975191116333,
      1.161349892616272,
      0.6976288557052612,
      0.29571813344955444,
      0.14937594532966614,
      -1.439799427986145,
      -1.3141229152679443,
      -0.12727424502372742,
      -1.351703405380249,
      0.08204314112663269,
      0.13538751006126404,
      -0.4652065932750702,
      -0.15214115381240845,
      0.25633084774017334,
      0.6639262437820435,
      1.1101610660552979,
      0.16530393064022064,
      0.18001678586006165,
      -0.06010102853178978,
      -0.015943629667162895,
      -0.004254888743162155,
      -2.51973032951355,
      0.9184328317642212,
      0.3896467983722687,
      -0.25307172536849976,
      -0.04405684396624565,
      0.4166199564933777,
      -0.6335858106613159,
      0.36578765511512756,
      0.031549014151096344,
      -0.1303161233663559,
      0.4362005889415741,
      4.872255802154541,
      -1.1934385299682617,
      0.0038291900418698788,
      0.6971445083618164,
      -0.6180542707443237,
      -0.5715834498405457,
      0.0037194096948951483,
      3.2628300189971924,
      0.3749120235443115,
      -3.1223015785217285,
      -0.06342358142137527,
      0.8762696385383606,
      -3.363659620285034,
      0.3242802619934082,
      -0.2277068793773651,
      1.929088830947876,
      -0.6580431461334229,
      -0.5235959887504578,
      0.06856382638216019,
      -0.7777859568595886,
      0.2994275391101837,
      0.31477266550064087,
      0.11875388771295547,
      -0.1142447292804718,
      -0.8788350820541382,
      -0.4268796741962433,
      0.2567230761051178,
      -0.5052273869514465,
      -0.035224393010139465,
      0.09528844803571701,
      -0.38332265615463257,
      0.269767165184021,
      0.26407143473625183,
      -0.32196247577667236,
      -3.3512558937072754,
      -2.8480193614959717,
      -0.023465115576982498,
      -0.2290463000535965,
      -1.6432188749313354,
      -2.222597122192383,
      1.6801259517669678,
      -0.22847884893417358,
      -1.0746245384216309,
      1.639296531677246,
      1.3858916759490967,
      0.003264677245169878,
      2.2340898513793945,
      1.0610439777374268,
      0.09228281676769257,
      -0.5481334924697876,
      -0.6794920563697815,
      0.5273167490959167,
      -0.2605789303779602,
      -1.5190420150756836,
      1.9108673334121704,
      0.40437817573547363,
      -0.48140084743499756,
      -0.06201867386698723,
      -0.011539269238710403,
      -0.010716589167714119,
      -0.3025661110877991,
      -0.5582265853881836,
      0.23830929398536682,
      0.28350791335105896,
      -0.0773211196064949,
      0.06253978610038757,
      -0.16525501012802124,
      -0.10975516587495804,
      -0.09826897829771042,
      1.885116457939148,
      -1.2046191692352295,
      0.0469052754342556,
      -0.14886200428009033,
      4.100117206573486,
      1.7452422380447388,
      -3.801405668258667,
      0.10518468171358109,
      0.09971793740987778,
      -1.5956748723983765,
      1.19132399559021,
      0.0392482616007328,
      -1.5463131666183472,
      0.005184629932045937,
      -0.12976619601249695,
      1.4581259489059448,
      -0.2119169682264328,
      1.0455219745635986,
      0.19779278337955475,
      0.88298100233078,
      -3.5111782550811768,
      -0.055902689695358276,
      0.1333872526884079,
      0.0014019878581166267,
      0.0001936692715389654,
      -0.1743706911802292,
      0.1268732249736786,
      0.16527049243450165,
      0.08383698761463165,
      0.08620311319828033,
      -0.03973390534520149,
      0.14973455667495728,
      -0.26799389719963074,
      -0.101660817861557,
      -0.07624998688697815,
      -4.615941047668457,
      0.25637033581733704,
      -2.621506690979004,
      -0.161076158285141,
      0.7835689187049866,
      -2.734044313430786,
      0.23839645087718964,
      0.13453294336795807,
      -1.017769455909729,
      1.900036334991455,
      0.6082370281219482,
      -0.08836895227432251,
      2.7089576721191406,
      0.9136751294136047,
      0.03307793661952019,
      -3.195948362350464,
      -0.40718215703964233,
      -0.6716976165771484,
      0.6620845198631287,
      -0.3349866569042206,
      -0.2902767062187195,
      -0.034492190927267075,
      0.0009841426508501172,
      -0.05877785384654999,
      -0.0006388075998984277,
      0.9462035894393921,
      -0.19774149358272552,
      -0.07489672303199768,
      -0.10231848061084747,
      0.08890718221664429,
      0.20319928228855133,
      -0.16849924623966217,
      0.3588421940803528,
      -0.4052363932132721,
      0.6246010065078735,
      2.738450765609741,
      3.1725013256073,
      0.024345457553863525,
      0.07559564709663391,
      0.25963184237480164,
      1.065573811531067,
      0.22691108286380768,
      0.001173603581264615,
      2.401888847351074,
      -0.41761186718940735,
      -3.0404534339904785,
      0.10115689784288406,
      -1.0775409936904907,
      -2.5135409832000732,
      -0.10349661111831665,
      1.7263351678848267,
      1.7677143812179565,
      0.7660688757896423,
      -1.35212242603302,
      0.23116078972816467,
      0.09489734470844269,
      -0.354155570268631,
      -0.19151996076107025,
      -0.029593434184789658,
      -0.04438972845673561,
      -0.26396510004997253,
      -0.27924081683158875,
      0.04556739702820778,
      0.3139367401599884,
      0.4064413905143738,
      -0.3110808730125427,
      -0.10535037517547607,
      0.10080160945653915,
      0.17889010906219482,
      -0.1605040580034256,
      2.525562286376953,
      -1.4675194025039673,
      -6.20121955871582,
      -0.28288793563842773,
      0.1181340292096138,
      1.2251290082931519,
      0.05998833850026131,
      0.3121904134750366,
      -0.8941253423690796,
      -0.3683702349662781,
      0.519141674041748,
      -0.14452722668647766,
      -0.7919760942459106,
      0.9856446981430054,
      -0.06444741040468216,
      1.5571868419647217,
      -0.9537304639816284,
      -4.431501865386963,
      0.2737866938114166,
      0.41441020369529724,
      0.05495600029826164,
      -0.05835185572504997,
      0.09659122675657272,
      0.014255726709961891,
      0.002935563214123249,
      -0.5011971592903137,
      0.04388441890478134,
      0.00968517828732729,
      0.03387678042054176,
      0.3318265974521637,
      0.10791075974702835,
      0.2769125998020172,
      -0.03358061984181404,
      0.04378390684723854,
      0.16044339537620544,
      -0.8142388463020325,
      -5.399027347564697,
      0.5700832009315491,
      -0.1635291874408722,
      -0.6560352444648743,
      0.6475394368171692,
      -0.8350265622138977,
      -0.21072781085968018,
      -3.087660789489746,
      -0.7276726961135864,
      1.7707613706588745,
      -0.19321154057979584,
      -0.40632420778274536,
      3.308579206466675,
      0.2015775889158249,
      0.3234059512615204,
      -3.2037689685821533,
      0.10384290665388107,
      0.9944203495979309,
      -0.2399686872959137,
      -0.19440357387065887,
      -0.1502840518951416,
      0.1624538004398346,
      0.08198099583387375,
      0.0028166112024337053,
      0.19281701743602753,
      -0.471050500869751,
      0.46946340799331665,
      -0.11343713849782944,
      0.06409277021884918,
      -0.3865666091442108,
      0.31918129324913025,
      -0.12827171385288239,
      0.25091245770454407,
      0.3450968563556671,
      -1.4989756345748901,
      1.7349284887313843,
      0.8838047981262207,
      0.03609884902834892,
      -0.26439058780670166,
      0.23342780768871307,
      -0.4239630699157715,
      -0.1998664140701294,
      0.5835943222045898,
      -0.19235959649085999,
      -1.9013737440109253,
      -0.1617305427789688,
      -0.14262467622756958,
      -0.7322158813476562,
      0.2268928736448288,
      -0.8150309324264526,
      1.0478534698486328,
      2.4618990421295166,
      -1.291733980178833,
      -0.23523344099521637,
      -0.03479451686143875,
      0.0008630056399852037,
      -0.14536058902740479,
      0.11503050476312637,
      0.21679659187793732,
      -0.3008403182029724,
      -0.17104080319404602,
      -0.17765410244464874,
      0.580710232257843,
      0.8878665566444397,
      0.014081660658121109,
      -0.23553158342838287,
      0.06235445290803909,
      -0.12761381268501282,
      -0.18175536394119263,
      5.109238147735596,
      -2.298002243041992,
      -0.06534222513437271,
      0.11742743849754333,
      -1.0689672231674194,
      2.917661428451538,
      0.5028650760650635,
      -0.12372451275587082,
      -1.4257093667984009,
      -1.825509786605835,
      1.2383042573928833,
      0.12282881140708923,
      -2.9381322860717773,
      1.22526216506958,
      -0.11563104391098022,
      3.3707151412963867,
      -0.7593382000923157,
      0.03602290898561478,
      0.3160895109176636,
      0.5859002470970154,
      0.8745335936546326,
      0.06530339270830154,
      0.2140156328678131,
      -0.025178957730531693,
      -0.026351189240813255,
      0.27183452248573303,
      -0.09832282364368439,
      0.029865309596061707,
      0.002379483776167035,
      -0.1978885382413864,
      0.11782575398683548,
      0.5483226776123047,
      -0.5490248799324036,
      -0.1391540914773941,
      -0.05265413597226143,
      0.5124995708465576,
      7.137173175811768,
      -0.07577621936798096,
      0.12055150419473648,
      0.9325894713401794,
      1.1639028787612915,
      0.009513279423117638,
      -0.15653637051582336,
      2.9930930137634277,
      -0.41460222005844116,
      -1.8350348472595215,
      -0.17821656167507172,
      -0.9330847263336182,
      -2.898545026779175,
      0.2659945487976074,
      0.8951637744903564,
      4.606199741363525,
      -0.922165036201477,
      -0.12199518084526062,
      0.013546070083975792,
      -0.5255891680717468,
      -0.035875871777534485,
      0.03232027217745781,
      -0.0011497094528749585,
      0.08864422887563705,
      -0.24477031826972961,
      0.13986167311668396,
      0.047510500997304916,
      0.07102096825838089,
      -0.1273096650838852,
      -0.03443155437707901,
      -0.3706616163253784,
      0.42440199851989746,
      0.9127033948898315,
      -0.6280760169029236,
      -0.3455315828323364,
      -0.6441583037376404,
      0.8176973462104797,
      -0.21399788558483124,
      0.36131471395492554,
      -0.28649014234542847,
      -0.6160580515861511,
      0.10263131558895111,
      -1.3893041610717773,
      0.603912353515625,
      2.2732326984405518,
      -0.2704722583293915,
      0.3584449887275696,
      1.4780269861221313,
      0.1669357419013977,
      0.38359594345092773,
      0.13799026608467102,
      0.6335268020629883,
      1.5389893054962158,
      -0.7583073377609253,
      -0.3738630414009094,
      0.10663042962551117,
      -0.7999953627586365,
      0.11226357519626617,
      0.19803118705749512,
      1.3336023092269897,
      -0.20694056153297424,
      -0.4502192437648773,
      0.41073012351989746,
      -0.6660959720611572,
      0.08341362327337265,
      -0.31122535467147827,
      -0.2163664698600769,
      -0.6001104116439819,
      -0.0012239014031365514,
      3.0122835636138916,
      -2.069716453552246,
      -1.1469923257827759,
      -0.06794862449169159,
      0.36632606387138367,
      1.1479661464691162,
      0.8634713292121887,
      -0.37472423911094666,
      -0.6849185228347778,
      -0.5266261696815491,
      -0.1187569722533226,
      -0.9787772297859192,
      -1.2623766660690308,
      0.7400445342063904,
      0.6864872574806213,
      0.5458343625068665,
      0.06668570637702942,
      -0.39153218269348145,
      -0.3857170045375824,
      1.8938548564910889,
      -0.7636037468910217,
      0.8734319806098938,
      -0.5582815408706665,
      -0.12443067133426666,
      0.053994979709386826,
      0.02415943704545498,
      1.7025190591812134,
      -0.8200247287750244,
      0.4345093071460724,
      0.3872314691543579,
      -0.24446336925029755,
      -0.2119639813899994,
      0.05046216771006584,
      0.05650201439857483,
      -0.4480353891849518,
      3.280642032623291,
      -1.8367924690246582,
      1.782622218132019,
      -0.077761709690094,
      0.28631582856178284,
      1.8603984117507935,
      -0.328740656375885,
      -0.2068627029657364,
      -0.6452561020851135,
      -0.3142823874950409,
      1.4624433517456055,
      0.18693283200263977,
      -1.8275649547576904,
      0.7844451069831848,
      -0.1780538111925125,
      1.5971035957336426,
      -0.7952959537506104,
      1.2782999277114868,
      0.3177594840526581,
      0.9263566136360168,
      0.16871587932109833,
      -1.1142776012420654,
      -0.7635409832000732,
      -0.16302326321601868,
      0.06110188737511635,
      0.5208523869514465,
      0.5428577661514282,
      0.2704409062862396,
      -0.14647440612316132,
      0.051418233662843704,
      0.20010724663734436,
      0.13510677218437195,
      -0.02238359861075878,
      0.043373025953769684,
      0.017291512340307236,
      -3.4496443271636963,
      1.9917900562286377,
      -2.986875057220459,
      0.10156768560409546,
      0.14286558330059052,
      -0.8290154337882996,
      -0.13427434861660004,
      -0.07096404582262039,
      0.507605791091919,
      0.21556207537651062,
      -0.16129323840141296,
      -0.39891740679740906,
      0.6030302047729492,
      -0.5162657499313354,
      0.2391894906759262,
      -1.7205349206924438,
      0.8812971711158752,
      -3.411407232284546,
      -0.965907871723175,
      -0.11257786303758621,
      0.05325085297226906,
      -0.16800546646118164,
      0.019147077575325966,
      -0.06424842029809952,
      -0.00496308971196413,
      -1.3585419654846191,
      0.4111059308052063,
      0.22064027190208435,
      -0.23696847259998322,
      -0.40413251519203186,
      0.06260944902896881,
      0.14050856232643127,
      0.21029336750507355,
      -0.031522609293460846,
      0.5133341550827026,
      0.007393507286906242,
      2.2488160133361816,
      -1.7626283168792725,
      -0.00503727188333869,
      -2.2739243507385254,
      0.4590563476085663,
      1.9898052215576172,
      -0.14871624112129211,
      1.1042897701263428,
      0.3663225769996643,
      -0.6412566304206848,
      -0.39930662512779236,
      -0.24106353521347046,
      -1.2560235261917114,
      0.07214304059743881,
      -0.2434183806180954,
      1.2292324304580688,
      0.21119742095470428,
      0.05830100551247597,
      0.6075847744941711,
      3.4262306690216064,
      -0.1210191622376442,
      0.28906938433647156,
      -0.047767188400030136,
      0.010125511325895786,
      0.2717224657535553,
      0.1611049473285675,
      0.1464412957429886,
      -0.11912056058645248,
      0.24155348539352417,
      -0.21083912253379822,
      -0.3193645775318146,
      0.23314760625362396,
      0.21275103092193604,
      -0.15685828030109406
    ],
    [
      0.11174295842647552,
      0.2325320541858673,
      0.10632171481847763,
      -0.16972951591014862,
      -0.21323823928833008,
      -0.056642673909664154,
      0.060071911662817,
      0.5697379112243652,
      -0.04556348919868469,
      0.28309139609336853,
      -0.442758709192276,
      -0.31758853793144226,
      0.10434503853321075,
      0.030715737491846085,
      0.09906016290187836,
      -0.28975075483322144,
      0.08737517148256302,
      -0.0547189936041832,
      -0.041849903762340546,
      0.13041315972805023,
      0.16297297179698944,
      0.06520616263151169,
      0.008168824948370457,
      0.1311132311820984,
      0.07915890961885452,
      -0.3556244373321533,
      -0.1620021015405655,
      0.289873868227005,
      -0.049494922161102295,
      -0.06280210614204407,
      -0.28211039304733276,
      0.16680032014846802,
      -0.22559472918510437,
      0.19981656968593597,
      -0.23954233527183533,
      0.5244798064231873,
      -0.472567617893219,
      0.2793596386909485,
      -0.9121690988540649,
      -0.18366806209087372,
      -0.039508040994405746,
      0.5422171354293823,
      0.4069844186306,
      -0.11152838915586472,
      0.3373715281486511,
      0.5546393394470215,
      -0.4430083632469177,
      -0.25372910499572754,
      0.23562976717948914,
      -0.06652773916721344,
      0.5548132061958313,
      0.02850981056690216,
      0.22834277153015137,
      0.1507832556962967,
      0.14817790687084198,
      -0.04156050458550453,
      -0.04975246265530586,
      -0.174300417304039,
      -0.023408979177474976,
      -0.06798022985458374,
      -0.19555847346782684,
      0.08568863570690155,
      -0.006530368234962225,
      -0.01066824235022068,
      -0.06344883888959885,
      0.3448953330516815,
      0.1960056573152542,
      -0.1440623700618744,
      0.2711431682109833,
      -0.006647712551057339,
      0.18812929093837738,
      -0.10470850020647049,
      -0.0805569738149643,
      0.24856367707252502,
      0.9126495718955994,
      -0.022207096219062805,
      0.019046470522880554,
      -0.16116167604923248,
      0.02554255723953247,
      0.278635710477829,
      0.125828355550766,
      0.18091902136802673,
      -0.43744751811027527,
      0.07781491428613663,
      -0.13759195804595947,
      0.2689502239227295,
      -0.601427435874939,
      -0.8907954096794128,
      -0.21779216825962067,
      -0.6109389066696167,
      -0.1175515204668045,
      -0.4520833492279053,
      -0.3809933364391327,
      0.15855377912521362,
      -0.08710048347711563,
      0.22949880361557007,
      0.4242018163204193,
      0.38876500725746155,
      -0.16628497838974,
      0.28147339820861816,
      0.6627333760261536,
      0.08732666075229645,
      0.28303706645965576,
      0.2853910028934479,
      0.3184632360935211,
      -0.12101295590400696,
      -0.06695916503667831,
      -0.31859344244003296,
      -0.014044786803424358,
      0.37060385942459106,
      0.13181066513061523,
      0.07743534445762634,
      -0.09137436747550964,
      0.25188198685646057,
      0.0534927137196064,
      0.12454807013273239,
      0.07005956023931503,
      -0.4125012755393982,
      -0.07337956875562668,
      0.05528537929058075,
      0.2759653925895691,
      0.026720194146037102,
      0.06586268544197083,
      0.22704662382602692,
      -0.18103978037834167,
      0.08512634038925171,
      0.19073380529880524,
      0.32103171944618225,
      0.2898434102535248,
      -0.1426433026790619,
      -0.11216732859611511,
      -0.19864174723625183,
      -0.6509926915168762,
      -0.3120536804199219,
      0.2499569058418274,
      -0.19179947674274445,
      -0.17242179811000824,
      -0.466389536857605,
      0.48270127177238464,
      -0.19140279293060303,
      0.2255687117576599,
      0.124437615275383,
      -0.31799086928367615,
      0.1424972265958786,
      -0.12305142730474472,
      0.23139162361621857,
      -0.2106655240058899,
      -0.41577497124671936,
      0.21215179562568665,
      0.1462501734495163,
      0.18969227373600006,
      -0.09038402140140533,
      -0.38181477785110474,
      0.05336349830031395,
      0.06253157556056976,
      0.17074429988861084,
      0.15496130287647247,
      0.023243827745318413,
      0.13328756392002106,
      -0.255336195230484,
      0.29849040508270264,
      0.10456319898366928,
      -0.18934455513954163,
      -0.3537874221801758,
      0.14360301196575165,
      0.13834290206432343,
      -0.19417501986026764,
      0.2889425456523895,
      -0.037264514714479446,
      -0.14048978686332703,
      0.7567167282104492,
      0.3478712737560272,
      -0.2917255461215973,
      -0.031927939504384995,
      -0.0979306697845459,
      0.006825272925198078,
      0.27011385560035706,
      -0.07172556966543198,
      -0.412494033575058,
      -0.135390967130661,
      -0.3352777361869812,
      0.12498762458562851,
      0.9327571988105774,
      0.08536738157272339,
      -0.09977345913648605,
      1.1147648096084595,
      -0.09330464154481888,
      0.038610801100730896,
      0.47897496819496155,
      0.7803006172180176,
      -0.019939234480261803,
      0.14168651401996613,
      0.3172265887260437,
      -0.030103011056780815,
      -0.3034512996673584,
      0.11366568505764008,
      0.13446003198623657,
      -0.3860643208026886,
      -1.11118483543396,
      -0.16849994659423828,
      0.0272060576826334,
      -0.07031979411840439,
      0.17900383472442627,
      -0.2809486389160156,
      -0.08089574426412582,
      0.4310725927352905,
      -0.21826764941215515,
      0.3382515609264374,
      0.06203056126832962,
      0.7284896969795227,
      -0.09639158099889755,
      -0.26787737011909485,
      -0.3881586790084839,
      0.9431761503219604,
      0.27111491560935974,
      -0.38075271248817444,
      0.5387561917304993,
      -0.06443274021148682,
      0.6924780011177063,
      -0.3557736873626709,
      0.348880797624588,
      -0.003072059480473399,
      0.4583625793457031,
      0.22671586275100708,
      -0.09862449020147324,
      0.39287522435188293,
      -0.0914369523525238,
      0.617276132106781,
      0.10223597288131714,
      0.08302688598632812,
      0.9059288501739502,
      -0.0016902863280847669,
      -0.02954166755080223,
      -0.3874305784702301,
      0.49223437905311584,
      0.04406490921974182,
      0.205886572599411,
      -0.07094047218561172,
      0.419870525598526,
      -0.49378323554992676,
      0.2916232943534851,
      0.08744663000106812,
      0.044155705720186234,
      0.017132898792624474,
      -0.059136658906936646,
      0.1393958181142807,
      -0.08618385344743729,
      -0.046125371009111404,
      -0.1076933816075325,
      0.1557510644197464,
      -0.1932460367679596,
      0.1616436243057251,
      0.2618582248687744,
      0.028973083943128586,
      0.26469162106513977,
      -0.08804462850093842
    ]
  ],
  "actor_encoder_biases": [
    [
      -0.06130901351571083,
      -0.30486977100372314,
      -0.24029792845249176,
      -0.0018064521718770266,
      -0.05037735030055046,
      -0.07559247314929962,
      -0.02095901221036911,
      0.07898019254207611,
      -0.003957117907702923,
      -0.2082207053899765,
      0.27050936222076416,
      -0.1392274796962738,
      0.08112682402133942,
      0.02418746054172516,
      0.10025995224714279,
      0.25096839666366577
    ],
    [
      -0.021220199763774872,
      0.2022112011909485,
      0.15801773965358734,
      0.09032761305570602,
      0.02489408850669861,
      0.31764888763427734,
      -0.13680855929851532,
      0.21442221105098724,
      -0.020890789106488228,
      0.12351948022842407,
      0.16949133574962616,
      0.09689068049192429,
      -0.38307252526283264,
      -0.11554362624883652,
      -0.08504928648471832,
      0.42432692646980286
    ]
  ],
  "actor_head_weights": [
    [
      0.2957875728607178,
      -0.13068066537380219,
      -1.0130797624588013,
      -1.6327311992645264,
      -0.14130276441574097,
      -0.06178570166230202,
      0.10084651410579681,
      -0.2248375564813614,
      1.2702648639678955,
      -0.04790094494819641,
      -0.5185598731040955,
      0.3348913788795471,
      -0.08900684118270874,
      -0.21373391151428223,
      0.06060178205370903,
      -0.4202842116355896,
      1.0139901638031006,
      -0.35804441571235657,
      1.3481394052505493,
      0.6174864768981934,
      0.18035250902175903,
      -1.2067564725875854,
      0.38569116592407227,
      -0.011666394770145416,
      -0.5293196439743042,
      -0.26374688744544983,
      0.5017431378364563,
      -0.28041261434555054,
      -0.09609047323465347,
      0.15979820489883423,
      0.3076392412185669,
      -0.36673733592033386,
      -0.5388098359107971,
      -0.7252680063247681,
      -0.7665404677391052,
      0.7618565559387207,
      -0.11443083733320236,
      0.07112792134284973,
      -0.821315586566925,
      0.32353803515434265,
      0.16910439729690552,
      0.1584147810935974,
      0.16745255887508392,
      -0.6139525771141052,
      -0.17270910739898682,
      -0.14605261385440826,
      -0.6582230925559998,
      -1.7989325523376465,
      -0.3701322078704834,
      -0.0018997875740751624,
      0.9887111186981201,
      -0.554710328578949,
      1.0499086380004883,
      -0.1639980524778366,
      -0.22475206851959229,
      0.051895689219236374,
      -0.1101519837975502,
      -0.27503523230552673,
      1.6405222415924072,
      1.4274439811706543,
      -0.2809891402721405,
      0.024945015087723732,
      -0.3375006318092346,
      0.3507383167743683
    ]
  ],
  "actor_head_biases": [
    [
      0.8090121150016785,
      0.29665714502334595,
      0.9590378999710083,
      0.32812172174453735
    ]
  ],
  "gru_weight_ih": [
    -0.7877150774002075,
    -0.18257015943527222,
    1.423182487487793,
    -0.5058542490005493,
    -0.6368100643157959,
    1.47926926612854,
    0.9637541770935059,
    0.25960829854011536,
    -0.4258420765399933,
    -0.5051832795143127,
    -0.47539442777633667,
    -1.1767034530639648,
    -0.05655540153384209,
    -0.5328249931335449,
    1.900571584701538,
    0.31325265765190125,
    -0.5712587237358093,
    -0.3929576873779297,
    0.566956102848053,
    -0.16891534626483917,
    1.0922118425369263,
    -0.8381732702255249,
    -3.1449830532073975,
    0.8804022669792175,
    0.7466381788253784,
    -0.646011471748352,
    0.1911250203847885,
    -0.10370586812496185,
    -0.2970048189163208,
    -0.48824915289878845,
    -2.4699268341064453,
    -0.0560121089220047,
    0.6663203239440918,
    0.07914027571678162,
    0.33422979712486267,
    -0.18465442955493927,
    0.9549064636230469,
    0.015392877161502838,
    0.2983946204185486,
    -0.32396599650382996,
    -0.48279720544815063,
    0.11491962522268295,
    0.16824275255203247,
    0.8628942370414734,
    0.15891744196414948,
    -0.36338868737220764,
    -0.3676627278327942,
    0.23826217651367188,
    -0.3665250241756439,
    0.06570061296224594,
    0.547659158706665,
    -0.49440979957580566,
    0.3327840566635132,
    0.9411826729774475,
    0.29708102345466614,
    0.19749963283538818,
    -1.2045224905014038,
    -0.23962372541427612,
    -1.1181573867797852,
    0.32058072090148926,
    -1.4979145526885986,
    0.048288989812135696,
    0.2685447633266449,
    -0.026234496384859085,
    -1.2663456201553345,
    -1.9420263767242432,
    1.3519859313964844,
    -0.25510942935943604,
    1.2927730083465576,
    1.4053568840026855,
    -0.7427799105644226,
    -2.4104888439178467,
    0.6019666790962219,
    1.238013744354248,
    -1.1989758014678955,
    0.530841052532196,
    -1.6056751012802124,
    -0.006089408416301012,
    0.06997169554233551,
    -0.3113320767879486,
    1.6293882131576538,
    -1.236680030822754,
    -2.8319356441497803,
    -1.2798480987548828,
    0.034624796360731125,
    0.8238681554794312,
    1.3764647245407104,
    0.20270976424217224,
    -1.3977702856063843,
    0.07603160291910172,
    -0.0025213405024260283,
    -0.7739327549934387,
    -0.21879440546035767,
    -0.2954660952091217,
    0.49317851662635803,
    -0.24825073778629303,
    0.3286451995372772,
    -0.88655024766922,
    -0.6030610799789429,
    -0.6756150722503662,
    0.4083828628063202,
    0.1285576969385147,
    -0.8225498199462891,
    -0.12292762845754623,
    0.8080736994743347,
    0.9044437408447266,
    -0.12808053195476532,
    0.6166765093803406,
    -0.05786916986107826,
    1.0794306993484497,
    -2.0524816513061523,
    -0.008466027677059174,
    -0.4247435927391052,
    -1.3996241092681885,
    -0.5972020030021667,
    -1.6792746782302856,
    1.0059152841567993,
    1.0776140689849854,
    0.2073386013507843,
    -2.0028302669525146,
    -1.4419606924057007,
    0.09819488972425461,
    -1.4421309232711792,
    -0.2707819640636444,
    -2.38692569732666,
    -1.6279672384262085,
    1.2592575550079346,
    1.1286545991897583,
    -0.3417454957962036,
    -0.025774966925382614,
    0.1942116767168045,
    -1.150315284729004,
    -0.9913535714149475,
    1.361441731452942,
    0.27218401432037354,
    -0.6721497774124146,
    0.4037855565547943,
    0.0857381746172905,
    -0.8386936783790588,
    0.10776732861995697,
    0.3368825912475586,
    -0.6936658024787903,
    0.21524813771247864,
    -1.825499176979065,
    -0.8382634520530701,
    -0.7930172681808472,
    -0.5298888087272644,
    1.611902117729187,
    -0.5950640439987183,
    0.8815715312957764,
    -0.8921902775764465,
    0.06900357455015182,
    1.5396977663040161,
    -1.5503634214401245,
    1.2923016548156738,
    -1.6462373733520508,
    2.5851340293884277,
    -0.21792501211166382,
    -0.8832194805145264,
    -1.36447274684906,
    0.2535536289215088,
    0.41575971245765686,
    -0.6352623105049133,
    -0.2235606461763382,
    0.3999667167663574,
    -0.4638442099094391,
    -1.157944917678833,
    0.22807009518146515,
    0.7079991698265076,
    -0.9447086453437805,
    -0.8067948222160339,
    -0.047878965735435486,
    0.04793959856033325,
    -0.5277817845344543,
    0.6413465142250061,
    -0.4488159418106079,
    0.09454010426998138,
    1.0261207818984985,
    0.08146591484546661,
    -0.26319584250450134,
    -0.3352698087692261,
    -0.3233000636100769,
    0.40099677443504333,
    0.13277371227741241,
    -0.04194994270801544,
    -0.47885459661483765,
    0.4436858594417572,
    -0.22079409658908844,
    -0.6168779134750366,
    0.21371950209140778,
    0.05595776438713074,
    0.2784365713596344,
    -1.8799183368682861,
    0.253349244594574,
    -0.6483591794967651,
    0.5588229298591614,
    0.16877304017543793,
    2.75203537940979,
    -0.6500269174575806,
    0.5397629737854004,
    2.878936529159546,
    -0.16059571504592896,
    0.9984457492828369,
    -0.44876328110694885,
    1.4430272579193115,
    0.5704650282859802,
    -1.562730073928833,
    -1.5857982635498047,
    2.309758186340332,
    -0.938869059085846,
    0.0623730830848217,
    -0.2764374613761902,
    -1.416150450706482,
    1.3523989915847778,
    1.2831735610961914,
    -1.9127123355865479,
    0.4548567533493042,
    1.1670001745224,
    -0.5332185626029968,
    1.5501813888549805,
    -0.8084574937820435,
    -1.4338481426239014,
    -0.17266592383384705,
    -0.5204055309295654,
    -0.8645816445350647,
    -0.4520350694656372,
    1.4312431812286377,
    -0.2455344796180725,
    0.1630009412765503,
    -0.2908494174480438,
    0.47843608260154724,
    -0.15821634232997894,
    0.3903219699859619,
    0.14860449731349945,
    0.13418802618980408,
    -0.27503418922424316,
    0.27380508184432983,
    0.02165311947464943,
    2.5364115238189697,
    -0.21605241298675537,
    0.5033748149871826,
    -0.3757217824459076,
    0.02082688920199871,
    -0.6846181750297546,
    0.3416086435317993,
    -0.5212439298629761,
    -0.215047687292099,
    0.30054086446762085,
    0.4173088073730469,
    0.0653197392821312,
    0.4081692397594452,
    -0.4779127240180969,
    0.3236268162727356,
    0.21561512351036072,
    -0.5670650601387024,
    -0.20215599238872528,
    0.748979389667511,
    -0.3091756999492645,
    -0.37861233949661255,
    -0.4050549566745758,
    -0.13172903656959534,
    0.0951157882809639,
    0.34340137243270874,
    0.18558914959430695,
    -0.6543387174606323,
    0.4459596574306488,
    -0.02511749416589737,
    -0.03711971640586853,
    0.20064137876033783,
    -0.23121388256549835,
    -0.39253586530685425,
    -0.45949292182922363,
    0.15638597309589386,
    -0.6690424084663391,
    -0.5114210844039917,
    -0.3985675871372223,
    -0.3682306408882141,
    0.36247870326042175,
    -0.5319725871086121,
    -0.36401888728141785,
    1.6134146451950073,
    0.06340370327234268,
    -0.3520576059818268,
    -0.6168827414512634,
    0.547893226146698,
    -0.5004149675369263,
    -0.2779940962791443,
    0.43404921889305115,
    -0.1432906836271286,
    0.12842240929603577,
    -0.3636188805103302,
    -0.19844980537891388,
    -0.39202067255973816,
    0.47812384366989136,
    -0.622326672077179,
    -0.21073156595230103,
    0.2993127405643463,
    0.06384086608886719,
    0.11168986558914185,
    -0.24519923329353333,
    -0.22352924942970276,
    -0.10438188910484314,
    0.1197667047381401,
    0.16150382161140442,
    0.20390856266021729,
    -1.0278879404067993,
    -0.31657591462135315,
    -0.3274286389350891,
    0.4841325581073761,
    1.3202235698699951,
    -0.5019822120666504,
    -0.0534716434776783,
    0.8940873742103577,
    0.11139951646327972,
    -0.03421197459101677,
    -0.30192843079566956,
    0.10614655911922455,
    -1.7922778129577637,
    -1.0468090772628784,
    -0.34979721903800964,
    0.7836286425590515,
    0.8544955253601074,
    -0.6276870965957642,
    0.7143982648849487,
    -0.012519396841526031,
    -1.7925777435302734,
    0.7482166290283203,
    0.3380031883716583,
    -0.7980747222900391,
    0.844886064529419,
    -0.02242523990571499,
    -0.5408173203468323,
    0.13543857634067535,
    1.2551376819610596,
    0.6528531312942505,
    -0.9542750716209412,
    0.3940817713737488,
    -0.38690444827079773,
    -0.21538501977920532,
    -0.11311812698841095,
    0.16955967247486115,
    1.2493780851364136,
    -0.44628918170928955,
    -0.5384420156478882,
    0.4096941351890564,
    -0.8708738684654236,
    0.03815688192844391,
    0.4547957181930542,
    -1.5000660419464111,
    -1.0250496864318848,
    0.10332094877958298,
    0.24432852864265442,
    0.29754742980003357,
    -0.10632893443107605,
    0.09239760786294937,
    -1.4351515769958496,
    -1.5406451225280762,
    -0.6220642924308777,
    -1.6171762943267822,
    0.13965767621994019,
    -0.8657590746879578,
    0.28496241569519043,
    -0.0598207488656044,
    0.12683947384357452,
    -1.03298819065094,
    -0.6607426404953003,
    0.9525746703147888,
    -0.2906595766544342,
    0.9290477633476257,
    -0.9494017362594604,
    -1.0807971954345703,
    -0.6543685793876648,
    0.2300630807876587,
    1.5854958295822144,
    0.7402645945549011,
    1.9324389696121216,
    1.1250733137130737,
    -0.2599462866783142,
    0.8456918597221375,
    -0.15603265166282654,
    0.16744601726531982,
    0.5809211134910583,
    -0.32293829321861267,
    -0.756307065486908,
    0.1194344311952591,
    0.006891104392707348,
    -0.513222336769104,
    -0.25353044271469116,
    -0.7876284718513489,
    0.538439154624939,
    0.04567776992917061,
    -1.0333526134490967,
    0.7857233881950378,
    -0.6881438493728638,
    0.7630784511566162,
    -0.6729790568351746,
    -0.024421783164143562,
    1.2949693202972412,
    0.49425968527793884,
    -0.5977872014045715,
    -0.427973210811615,
    0.3443734645843506,
    0.6637397408485413,
    -0.5240679383277893,
    -0.34663546085357666,
    0.14359788596630096,
    0.10879632085561752,
    0.8780422210693359,
    0.20046694576740265,
    0.5816344618797302,
    0.7198026180267334,
    -0.39993008971214294,
    1.2079333066940308,
    -0.7447653412818909,
    0.1239558532834053,
    -0.16073109209537506,
    0.9284862279891968,
    0.48803195357322693,
    0.3409890830516815,
    -0.9233868718147278,
    -0.5803917050361633,
    -1.6059635877609253,
    -0.42313432693481445,
    -0.2337455004453659,
    -0.08398288488388062,
    1.1694895029067993,
    -1.0506150722503662,
    0.6233142018318176,
    -0.6676219701766968,
    0.6698275208473206,
    0.22604411840438843,
    0.6618794798851013,
    0.3516589403152466,
    -0.0014944674912840128,
    0.17914141714572906,
    -0.2803792357444763,
    -0.11285842210054398,
    0.4181794226169586,
    -0.022116459906101227,
    -9.731516911415383e-05,
    0.1688501536846161,
    0.11018729954957962,
    -0.11073770374059677,
    -0.09226623177528381,
    0.011533125303685665,
    -0.1559433490037918,
    -0.15333029627799988,
    -0.15774399042129517,
    -0.8618515729904175,
    -0.11012041568756104,
    0.11264646798372269,
    -1.1272680759429932,
    1.2105201482772827,
    -1.0736007690429688,
    -0.3047853112220764,
    0.4752543866634369,
    3.079861640930176,
    1.2443101406097412,
    0.7741296887397766,
    0.12762351334095,
    0.9856818914413452,
    -0.2327924519777298,
    0.5205782651901245,
    -1.134942889213562,
    0.26475250720977783,
    0.38964900374412537,
    0.2140272855758667,
    0.018270792439579964,
    0.5860922932624817,
    0.09798615425825119,
    1.1190825700759888,
    1.8481146097183228,
    0.1778479367494583,
    0.6380212306976318,
    0.5893744230270386,
    0.9284251928329468,
    0.11370301991701126,
    -0.05833395943045616,
    -0.5071743726730347,
    1.0490520000457764,
    0.41132280230522156,
    -0.39752206206321716,
    -0.590351402759552,
    0.04683252051472664,
    -0.32164621353149414,
    0.18922114372253418,
    -0.3057066798210144,
    -0.6362559199333191,
    0.6070806980133057,
    0.1717405915260315,
    -0.3094157576560974,
    -0.17936283349990845,
    0.049704451113939285,
    -0.5186126232147217,
    0.22794394195079803,
    -0.4658331871032715,
    0.44648200273513794,
    -1.741133213043213,
    0.3437620997428894,
    -1.4102741479873657,
    -0.616197407245636,
    0.723172664642334,
    -1.5664514303207397,
    -0.8384001851081848,
    -0.21043671667575836,
    -0.25577566027641296,
    0.033713698387145996,
    -1.6686862707138062,
    0.7103366851806641,
    0.23673048615455627,
    -0.5710768699645996,
    -0.6951701045036316,
    -0.3511575758457184,
    0.26850125193595886,
    0.013347201980650425,
    0.11389873921871185,
    -0.2834978699684143,
    -0.21125160157680511,
    -0.22193685173988342,
    -0.025310460478067398,
    0.22705911099910736,
    -0.01652120240032673,
    0.007733995094895363,
    -0.008911466225981712,
    0.347160667181015,
    -0.09852727502584457,
    -0.20222708582878113,
    -0.04103304073214531,
    0.3037600517272949,
    0.23951034247875214,
    -0.3446890413761139,
    -0.011261498555541039,
    -0.7310363054275513,
    -0.9845638275146484,
    0.1356111466884613,
    0.007890582084655762,
    -0.16256384551525116,
    -0.19516360759735107,
    -0.6201469302177429,
    0.21444283425807953,
    -0.18689964711666107,
    0.7111726403236389,
    0.0854785367846489,
    0.30665215849876404,
    0.02762739360332489,
    -0.10214798152446747,
    0.7086703181266785,
    -0.08258885145187378,
    -0.2566244900226593,
    -0.2759322226047516,
    -0.2246517390012741,
    -0.20559333264827728,
    0.09459391981363297,
    -0.026165636256337166,
    0.006615163292735815,
    1.0306346416473389,
    0.0016796683194115758,
    0.054204899817705154,
    0.07318241894245148,
    0.045445796102285385,
    -0.1593240350484848,
    -0.04285690188407898,
    -0.33952927589416504,
    -0.0922325998544693,
    0.2130327671766281,
    0.019479630514979362,
    0.24960437417030334,
    -0.25446417927742004,
    0.36235737800598145,
    -0.011847831308841705,
    0.38258931040763855,
    0.3887508511543274,
    0.18121874332427979,
    -0.5753316283226013,
    0.23305870592594147,
    -0.1054438129067421,
    0.28601977229118347,
    -0.22646483778953552,
    0.4089648723602295,
    -0.19885358214378357,
    -0.6203403472900391,
    0.08511482924222946,
    0.26137667894363403,
    -0.09071976691484451,
    0.2109684944152832,
    0.2560116648674011,
    -0.5116025805473328,
    0.1092093288898468,
    1.1388753652572632,
    0.9983165860176086,
    -0.3010081946849823,
    0.2954680025577545,
    -0.2961438000202179,
    -0.29119133949279785,
    -0.9474180936813354,
    -0.3692757189273834,
    0.3269686996936798,
    -0.29782402515411377,
    -0.5860676765441895,
    0.3143875002861023,
    -0.06065298989415169,
    0.49319303035736084,
    -0.08589184284210205,
    -0.2099817842245102,
    -0.3801165223121643,
    1.0592859983444214,
    0.24226966500282288,
    -0.07058195024728775,
    -0.2173437923192978,
    -0.028654497116804123,
    0.15571489930152893,
    0.03602004423737526,
    0.25039637088775635,
    0.5480434894561768,
    0.4027913212776184,
    -0.1398364156484604,
    -0.468912810087204,
    0.04485082998871803,
    0.013540943153202534,
    0.4583618640899658,
    -0.465000182390213,
    0.1735495775938034,
    0.511809229850769,
    0.10622765123844147,
    0.9542104601860046,
    0.5237361788749695,
    -0.07829898595809937,
    0.03375621885061264,
    -1.2440329790115356,
    -0.4606108069419861,
    -0.09405268728733063,
    -0.08552975207567215,
    -0.4619584083557129,
    -0.47492527961730957,
    1.889849066734314,
    -0.8683273792266846,
    0.7416839599609375,
    -2.0750553607940674,
    -0.23316186666488647,
    -1.5535411834716797,
    0.12559233605861664,
    -0.18189948797225952,
    0.3532056212425232,
    -0.07451843470335007,
    -0.23901379108428955,
    0.2676498591899872,
    -0.5243392586708069,
    -0.4443831741809845,
    0.0804983451962471,
    -0.2769449055194855,
    0.10415094345808029,
    -1.3447452783584595,
    -0.11948505789041519,
    0.21081915497779846,
    -0.07417628914117813,
    -0.18218031525611877,
    0.14537286758422852,
    -0.24063655734062195,
    -0.21316589415073395,
    -0.30428338050842285,
    -0.1510528028011322,
    0.29679083824157715,
    -0.3723211884498596,
    -0.5297998189926147,
    0.7452107667922974,
    -0.3839225172996521,
    -0.5776887536048889,
    0.8308414220809937,
    -1.7291371822357178,
    0.266225665807724,
    0.42230668663978577,
    0.18312357366085052,
    -0.1592203825712204,
    0.1620529294013977,
    0.15284095704555511,
    -0.049533914774656296,
    -0.013831228949129581,
    0.3355104625225067,
    0.2814868986606598,
    0.16228872537612915,
    -0.11700219660997391,
    -0.3127916753292084,
    -0.22356687486171722,
    0.23720185458660126,
    0.3008262813091278,
    0.1977682113647461,
    -0.38864532113075256,
    -0.1215391606092453,
    -0.32944148778915405,
    0.01835787110030651,
    0.5279440879821777,
    -0.0767119973897934,
    0.36955633759498596,
    0.3807390332221985,
    -0.10192544013261795,
    -0.055692415684461594,
    -0.006872449070215225,
    0.15053392946720123,
    0.6955444812774658,
    0.12760165333747864,
    0.07714363187551498,
    0.6021072864532471,
    -0.01401425153017044,
    0.0001049629645422101,
    -0.5433324575424194,
    0.21336789429187775,
    0.028102653101086617,
    0.4065409302711487,
    0.7203531265258789,
    -2.1039023399353027,
    -0.3772001564502716,
    0.6328221559524536,
    0.3508283495903015,
    0.20001652836799622,
    -0.05627333000302315,
    0.36883217096328735,
    -0.00931520201265812,
    0.7593725919723511,
    0.7313222289085388,
    0.6219297647476196,
    -0.18262295424938202,
    -0.15005114674568176,
    -0.8079251050949097,
    1.21225905418396,
    0.4134373068809509,
    -0.8443585634231567,
    -0.39793288707733154,
    1.635973334312439,
    1.3294867277145386,
    1.3911728858947754,
    0.13815253973007202,
    -0.6887121200561523,
    0.4098813235759735,
    -0.6192052960395813,
    0.4509616494178772,
    0.8536239862442017,
    0.14302700757980347,
    0.2016621232032776,
    0.1671392023563385,
    0.016549795866012573,
    0.2932988405227661,
    -0.3912270665168762,
    0.41008174419403076,
    0.4713544547557831,
    0.049491144716739655,
    -0.39291098713874817,
    -0.3195488452911377,
    -0.0865798145532608,
    0.36284664273262024,
    0.11240527033805847,
    0.7288608551025391,
    -0.05072448030114174,
    0.20318806171417236,
    -0.16330507397651672,
    -0.16640324890613556,
    0.05603383108973503,
    -0.10269869118928909,
    0.3737928867340088,
    0.18776454031467438,
    -0.21125450730323792,
    0.20431140065193176,
    0.10096277296543121,
    -0.04346131905913353,
    0.31413501501083374,
    -0.057996537536382675,
    0.3266565799713135,
    0.15059450268745422,
    -0.02989407442510128
  ],
  "gru_weight_hh": [
    -2.0240588188171387,
    0.42481744289398193,
    -0.28615468740463257,
    0.5727717280387878,
    0.5017469525337219,
    -0.784591794013977,
    0.10224772244691849,
    0.99142986536026,
    0.013063074089586735,
    0.10750290751457214,
    -0.25489798188209534,
    0.6664711833000183,
    -0.00143271719571203,
    0.5277657508850098,
    -0.07652747631072998,
    0.6037867665290833,
    -0.9590083360671997,
    -0.2997913062572479,
    -1.5792256593704224,
    -0.7128011584281921,
    0.4882500469684601,
    0.9989849925041199,
    0.4160425066947937,
    0.5300369262695312,
    1.882279396057129,
    -0.2607802748680115,
    0.5697227716445923,
    0.37766367197036743,
    0.27841097116470337,
    0.4520791172981262,
    -1.3509548902511597,
    0.08185731619596481,
    -0.6015864014625549,
    -0.3771420121192932,
    -0.6918056607246399,
    0.23256373405456543,
    0.042207442224025726,
    0.7073575854301453,
    -0.28371918201446533,
    -0.1406574249267578,
    -0.2689225971698761,
    0.19999179244041443,
    -1.4088507890701294,
    -0.32728973031044006,
    -0.6562591195106506,
    -0.5720744132995605,
    -1.0601128339767456,
    1.048612356185913,
    0.6306984424591064,
    0.13303671777248383,
    1.8255141973495483,
    1.7490590810775757,
    -0.9137052297592163,
    0.819267213344574,
    -0.707010805606842,
    -0.3440738916397095,
    -1.8032078742980957,
    -0.2945170998573303,
    1.0135329961776733,
    1.2793965339660645,
    -1.6233032941818237,
    -0.4417741894721985,
    0.7325815558433533,
    0.3820560574531555,
    0.4788239300251007,
    -0.9196289777755737,
    0.634637176990509,
    -0.31085214018821716,
    -0.6077030897140503,
    -0.29306691884994507,
    -0.07743103057146072,
    -0.1435520350933075,
    -0.8053045868873596,
    0.5091558694839478,
    -0.583365261554718,
    2.61439847946167,
    -1.0491970777511597,
    0.9636024236679077,
    0.9868177771568298,
    1.9588454961776733,
    1.0402897596359253,
    -0.06314216554164886,
    -0.4909553527832031,
    0.05312527343630791,
    -0.7612324357032776,
    -0.33228468894958496,
    0.449882447719574,
    -0.19556176662445068,
    -1.920710563659668,
    1.8305151462554932,
    0.9722638130187988,
    0.09435170143842697,
    -0.44338545203208923,
    -2.257765531539917,
    1.8768107891082764,
    0.6693883538246155,
    1.3981143236160278,
    0.4991680085659027,
    0.02932116389274597,
    0.6513721346855164,
    0.4835023581981659,
    0.5281963348388672,
    1.809509515762329,
    0.7833296060562134,
    0.8096882104873657,
    1.5197110176086426,
    -1.1310404539108276,
    0.26291438937187195,
    -0.3977951109409332,
    0.14713262021541595,
    -0.7637695074081421,
    1.4775733947753906,
    -0.16545607149600983,
    -0.9904496669769287,
    0.47832322120666504,
    0.6006951928138733,
    -3.2561705112457275,
    0.3383529484272003,
    -0.07345754653215408,
    0.23361460864543915,
    -1.2910174131393433,
    2.5952746868133545,
    -0.9248787760734558,
    1.9380698204040527,
    0.7281947731971741,
    -0.9557098150253296,
    -1.355852723121643,
    -0.9354692697525024,
    0.2406112551689148,
    -0.8517646193504333,
    2.558229684829712,
    -0.7768269181251526,
    -0.054961178451776505,
    0.14273901283740997,
    0.26720917224884033,
    -0.4515198767185211,
    -0.5246614813804626,
    -0.6875491142272949,
    1.1404067277908325,
    -0.967441201210022,
    -0.5685265064239502,
    -1.515344500541687,
    -0.18833011388778687,
    -0.8284973502159119,
    2.185154676437378,
    -0.45226070284843445,
    -2.028028726577759,
    0.2413584589958191,
    -1.2464603185653687,
    0.5874888300895691,
    -0.1611841470003128,
    -0.04380381852388382,
    2.710853099822998,
    0.2841947376728058,
    2.0693159103393555,
    1.3722939491271973,
    -0.9508037567138672,
    -0.5212600231170654,
    0.8379305005073547,
    -0.9324636459350586,
    0.1290690004825592,
    -0.04624417424201965,
    -0.40222132205963135,
    0.18829165399074554,
    0.33229875564575195,
    0.802216112613678,
    0.11011112481355667,
    0.3953070044517517,
    -0.9909690022468567,
    -0.7998014092445374,
    0.2865027189254761,
    -0.9501945972442627,
    0.35829782485961914,
    -0.19841746985912323,
    -0.9360652565956116,
    0.16839726269245148,
    -0.04580765217542648,
    0.5842439532279968,
    0.34461504220962524,
    0.2337111234664917,
    0.12676109373569489,
    -0.08053208142518997,
    0.23042847216129303,
    -0.001833785674534738,
    0.35773012042045593,
    0.6645392775535583,
    -0.19298498332500458,
    -0.0450473427772522,
    -0.23121508955955505,
    -1.1181854009628296,
    -0.5446271896362305,
    -0.013569815084338188,
    -1.0880118608474731,
    -0.37256622314453125,
    -3.357605218887329,
    1.4795397520065308,
    1.5671786069869995,
    0.8538479208946228,
    0.7739344239234924,
    -0.12809661030769348,
    1.157016396522522,
    0.016906678676605225,
    -0.6851201057434082,
    -0.902975857257843,
    -0.6444522142410278,
    1.7821801900863647,
    0.8069303631782532,
    -1.6001546382904053,
    1.7111254930496216,
    -1.9168846607208252,
    0.9249376654624939,
    -0.8910937309265137,
    0.028766147792339325,
    -1.2564524412155151,
    0.4026975631713867,
    -3.261831521987915,
    -1.806086540222168,
    -0.23435914516448975,
    -0.47007837891578674,
    -0.41434022784233093,
    1.0366061925888062,
    0.6223933100700378,
    -0.528187096118927,
    -2.0271172523498535,
    -0.5416789650917053,
    0.18060192465782166,
    1.4791375398635864,
    1.1708441972732544,
    0.4031514525413513,
    0.14479227364063263,
    -1.3910436630249023,
    -0.09987345337867737,
    -0.6436371803283691,
    -0.6655117869377136,
    0.5508558750152588,
    -0.8972547650337219,
    -0.23273004591464996,
    -0.516070544719696,
    -1.0546455383300781,
    -0.8213127851486206,
    0.2786062955856323,
    -0.14162713289260864,
    -0.7733931541442871,
    -0.2523781955242157,
    0.07877960056066513,
    -0.5519298315048218,
    0.16930626332759857,
    -0.7150460481643677,
    -0.7392747402191162,
    0.16022467613220215,
    -0.275073766708374,
    -0.4654477834701538,
    -0.1040845513343811,
    -0.3923236131668091,
    -0.4944649338722229,
    0.3914591073989868,
    1.3500053882598877,
    0.6949721574783325,
    1.1867554187774658,
    0.4775393605232239,
    -0.06781844794750214,
    0.07845864444971085,
    1.176619291305542,
    -0.06317031383514404,
    0.0423588789999485,
    -0.6269341707229614,
    0.4397101402282715,
    0.004985214676707983,
    -0.24898844957351685,
    -0.30483585596084595,
    -0.25284358859062195,
    0.8327904939651489,
    0.06854638457298279,
    0.8346102237701416,
    1.4591060876846313,
    0.10270209610462189,
    1.4012309312820435,
    0.6731518507003784,
    0.9188314080238342,
    -0.8362934589385986,
    1.5749295949935913,
    -2.644402265548706,
    0.13214834034442902,
    -1.1775598526000977,
    -0.40780624747276306,
    -1.8668051958084106,
    -1.0359705686569214,
    -0.5879051089286804,
    0.06538411974906921,
    -1.0281012058258057,
    -0.3245421051979065,
    -0.2959657907485962,
    -0.41458603739738464,
    -0.1403125375509262,
    -0.042817533016204834,
    -0.05052860453724861,
    -0.7202831506729126,
    -0.20669512450695038,
    0.34462425112724304,
    0.37319591641426086,
    -0.8909803628921509,
    0.053412169218063354,
    -0.02985016442835331,
    0.1767401248216629,
    1.0152665376663208,
    2.180866241455078,
    1.3097059726715088,
    -0.01067766547203064,
    0.49558496475219727,
    1.574052095413208,
    0.24886015057563782,
    1.5548802614212036,
    0.2959943115711212,
    -3.5530059337615967,
    -0.8264914751052856,
    -0.02175874263048172,
    2.6457860469818115,
    0.7359524369239807,
    -1.6902122497558594,
    -1.2515448331832886,
    -2.9110865592956543,
    1.681295394897461,
    -0.5137044787406921,
    0.4445168375968933,
    0.25141414999961853,
    -0.4410715401172638,
    -2.787033796310425,
    1.1283740997314453,
    1.6470024585723877,
    -1.8660434484481812,
    -2.693821668624878,
    1.753326177597046,
    2.125430107116699,
    2.447577714920044,
    0.9402440786361694,
    -0.18467018008232117,
    0.4151076078414917,
    0.4360397160053253,
    -1.1789357662200928,
    -0.3601990342140198,
    0.43177926540374756,
    1.747439980506897,
    0.0752994492650032,
    -0.025499626994132996,
    0.26039913296699524,
    -0.46508660912513733,
    -0.1623506247997284,
    -0.38917669653892517,
    -1.0247488021850586,
    0.5310621857643127,
    -0.014896927401423454,
    -0.6824600100517273,
    -0.9693130254745483,
    1.277945876121521,
    1.0673884153366089,
    -0.45816919207572937,
    0.843563437461853,
    1.06824791431427,
    2.457521438598633,
    0.11555462330579758,
    -1.2410907745361328,
    -1.455626130104065,
    2.2517013549804688,
    0.5261823534965515,
    2.595870018005371,
    0.09283490478992462,
    1.163723111152649,
    0.9652211666107178,
    -0.681359589099884,
    -1.8939342498779297,
    0.2116052806377411,
    0.62437504529953,
    -1.8877036571502686,
    -0.2812736928462982,
    0.05814603716135025,
    -3.4995319843292236,
    1.114985466003418,
    -2.122560501098633,
    1.5871933698654175,
    1.9093446731567383,
    -2.3149254322052,
    -0.07136207073926926,
    0.9769061207771301,
    -0.01311538740992546,
    0.09413106739521027,
    -0.1468411386013031,
    0.7217833399772644,
    -0.8941658735275269,
    -1.4539759159088135,
    -0.6970952749252319,
    -1.1194075345993042,
    0.28760096430778503,
    -0.37964287400245667,
    0.23252542316913605,
    -0.22124160826206207,
    -1.0770950317382812,
    0.25557881593704224,
    -0.6526679992675781,
    -0.11279250681400299,
    -0.8858270049095154,
    1.0400179624557495,
    0.7792990207672119,
    -0.26619282364845276,
    0.9570479989051819,
    -0.409837007522583,
    -0.1193566769361496,
    0.04640573635697365,
    -1.8272844552993774,
    -0.1260221004486084,
    0.532876193523407,
    -1.862560749053955,
    -0.19630011916160583,
    -0.2139521986246109,
    -2.457754373550415,
    0.4827507436275482,
    -0.7341902256011963,
    0.7683563828468323,
    -0.23659579455852509,
    -0.8958929777145386,
    -0.6434312462806702,
    0.5608088970184326,
    0.01874120905995369,
    -2.4296350479125977,
    2.003502368927002,
    2.8061373233795166,
    -2.171900510787964,
    0.6597471833229065,
    -0.01258364412933588,
    -0.49249908328056335,
    1.4255759716033936,
    -0.014468676410615444,
    -0.1868247240781784,
    0.0111762760207057,
    -0.914595365524292,
    0.11480196565389633,
    -0.1275390237569809,
    -0.6140273213386536,
    -0.27132683992385864,
    0.0684436708688736,
    -0.2729756832122803,
    -0.24495869874954224,
    -0.04327283427119255,
    -0.0747792050242424,
    0.27437084913253784,
    -0.6983646750450134,
    -0.08498747646808624,
    -0.41263678669929504,
    0.6967965364456177,
    -0.5804944634437561,
    0.6932886242866516,
    0.6169527769088745,
    1.4576021432876587,
    0.6881089210510254,
    -1.3623075485229492,
    -1.8076817989349365,
    -0.8129129409790039,
    1.3402636051177979,
    -3.067627429962158,
    -1.5200791358947754,
    0.05744573101401329,
    -2.2230935096740723,
    -0.5689613819122314,
    0.34862735867500305,
    -3.0860555171966553,
    -0.40221312642097473,
    -1.2737319469451904,
    -0.20598019659519196,
    0.5560262203216553,
    -0.845862865447998,
    0.39887189865112305,
    0.0903589203953743,
    -0.464013010263443,
    -2.317044734954834,
    -0.08987125754356384,
    0.24720151722431183,
    0.25227680802345276,
    -1.3160251379013062,
    -5.061180114746094,
    2.424034357070923,
    -1.6972492933273315,
    0.6046519875526428,
    -0.19356295466423035,
    0.994009256362915,
    -0.5702939629554749,
    0.28758716583251953,
    0.6159133911132812,
    0.06008650362491608,
    -0.27094751596450806,
    -0.07062333822250366,
    -0.5249204635620117,
    -0.03899690881371498,
    0.01036782655864954,
    -0.141133114695549,
    0.533461332321167,
    -0.02900458499789238,
    -0.5776915550231934,
    -1.570806860923767,
    -1.2456295490264893,
    -0.6481315493583679,
    1.7203149795532227,
    -0.9887734651565552,
    -0.9322254657745361,
    -1.1045767068862915,
    0.7578723430633545,
    -0.1412956863641739,
    -0.774699330329895,
    -1.4709891080856323,
    0.6052551865577698,
    0.9172029495239258,
    -2.2402288913726807,
    -0.7353494763374329,
    -0.8949616551399231,
    0.20123161375522614,
    -0.3671831488609314,
    0.5942959189414978,
    0.16210801899433136,
    -0.11448915302753448,
    0.5253269076347351,
    0.4264777898788452,
    0.07288669794797897,
    -1.6777487993240356,
    -0.12242027372121811,
    0.020085938274860382,
    -0.11722777038812637,
    -0.008398567326366901,
    -0.24705038964748383,
    0.25925254821777344,
    1.3220460414886475,
    -0.5935097336769104,
    -1.4088592529296875,
    0.37652188539505005,
    1.2529124021530151,
    -1.699642300605774,
    -0.9169201850891113,
    0.27104443311691284,
    0.12440148741006851,
    -0.021079150959849358,
    -2.022491693496704,
    -1.3007113933563232,
    -0.09050117433071136,
    0.3202626407146454,
    -0.1393309235572815,
    -0.12495046108961105,
    -1.011997103691101,
    -0.837234616279602,
    -0.46364742517471313,
    -0.5071617960929871,
    -1.1705427169799805,
    -0.5017045736312866,
    0.5504390001296997,
    -0.16991697251796722,
    0.076930470764637,
    1.0064163208007812,
    0.6165869832038879,
    -1.2743239402770996,
    -0.09128466993570328,
    0.004539001267403364,
    -0.23049074411392212,
    -0.3816545605659485,
    -0.9051318764686584,
    -0.07830116897821426,
    -0.09229716658592224,
    0.405905157327652,
    -0.34030061960220337,
    0.25421789288520813,
    0.07387775927782059,
    0.06765152513980865,
    0.041634347289800644,
    0.1423848569393158,
    0.41367316246032715,
    -0.10575128346681595,
    -0.882798969745636,
    0.12844562530517578,
    0.4340384602546692,
    -0.40280890464782715,
    0.0545705184340477,
    -0.7510269284248352,
    -0.2804347276687622,
    0.4781908690929413,
    -0.10935348272323608,
    -0.535789966583252,
    -0.19085390865802765,
    -0.4745789170265198,
    0.24900521337985992,
    0.6036195755004883,
    -0.5814603567123413,
    0.8825482726097107,
    0.4272531270980835,
    -0.029285989701747894,
    -0.029455125331878662,
    -0.187461256980896,
    0.05984777212142944,
    0.27130547165870667,
    -0.2816626727581024,
    -0.7256336212158203,
    0.4988020360469818,
    0.12494830042123795,
    -0.7132419347763062,
    0.2962377369403839,
    -0.2780025601387024,
    -0.37877732515335083,
    0.21531924605369568,
    0.811442494392395,
    0.4305259585380554,
    -0.07420098781585693,
    -0.5959668159484863,
    -0.2524242103099823,
    -0.8913136720657349,
    -0.1781354546546936,
    0.6931952834129333,
    0.16236428916454315,
    -0.4807845652103424,
    0.518409013748169,
    -0.706493079662323,
    -0.26574522256851196,
    0.45305135846138,
    0.04217233136296272,
    -0.33004510402679443,
    0.023438993841409683,
    0.23907330632209778,
    0.052941251546144485,
    -0.45521917939186096,
    0.2358376532793045,
    0.8771838545799255,
    0.5496304631233215,
    1.4805920124053955,
    -0.8542364239692688,
    -0.07873556017875671,
    0.38773012161254883,
    -0.2953389585018158,
    0.1782611459493637,
    -0.34021368622779846,
    0.7540930509567261,
    -2.466233968734741,
    0.32146725058555603,
    -2.7568156719207764,
    0.21045328676700592,
    1.7926928997039795,
    1.6465425491333008,
    0.7392813563346863,
    0.7460566163063049,
    0.3438291549682617,
    -0.5550678968429565,
    0.13705579936504364,
    0.37707969546318054,
    0.04490503668785095,
    0.1551647186279297,
    0.02170327678322792,
    -0.7112683057785034,
    0.12150248885154724,
    -0.032657723873853683,
    0.5113292336463928,
    0.563335120677948,
    0.4856613278388977,
    0.17693816125392914,
    0.3749646246433258,
    -0.3993757963180542,
    0.00859182607382536,
    -1.9849306344985962,
    0.010086906142532825,
    -0.8242353796958923,
    0.6004491448402405,
    -1.908296823501587,
    0.4099991023540497,
    0.8909274935722351,
    -2.1821138858795166,
    0.6286562085151672,
    -0.2419075071811676,
    0.12118112295866013,
    -0.27565982937812805,
    -0.24870121479034424,
    0.2092418074607849,
    -0.5704141855239868,
    0.4698518216609955,
    2.2771754264831543,
    -0.4105525612831116,
    0.3342541456222534,
    -0.05872967094182968,
    -0.03132734075188637,
    -0.25010934472084045,
    -0.44530409574508667,
    -0.6803668141365051,
    -0.2354082614183426,
    1.213465690612793,
    0.08728998899459839,
    -0.40078312158584595,
    0.09677038341760635,
    1.3974090814590454,
    -0.3746863305568695,
    0.11725518107414246,
    -0.39735910296440125,
    1.4077866077423096,
    -0.7401570081710815,
    -0.18799073994159698,
    -0.550469160079956,
    0.46992555260658264,
    -0.5782591700553894,
    0.5398638248443604,
    -0.727668285369873,
    -0.1764989048242569,
    -0.1835079789161682,
    -0.01610715128481388,
    0.9710950255393982,
    -1.2046294212341309,
    0.8296239376068115,
    2.6016504764556885,
    -0.21827742457389832,
    0.13535185158252716,
    -0.06750870496034622,
    -2.114255905151367,
    -1.4579012393951416,
    0.939774215221405,
    -0.3045893907546997,
    0.5777771472930908,
    -0.9206240177154541,
    -0.1995367407798767,
    -0.5986764430999756,
    0.8556445240974426,
    0.19974622130393982,
    0.24894572794437408,
    2.102308988571167,
    0.2571147084236145,
    1.0888943672180176,
    -0.5919682383537292,
    1.3639391660690308,
    -0.40076032280921936,
    0.03760445490479469,
    1.5705125331878662,
    -0.15183040499687195,
    -0.4608413875102997,
    2.0629146099090576,
    0.6673195958137512,
    0.6955450773239136,
    -0.2629776895046234,
    2.4474315643310547,
    -0.5760180354118347,
    0.4193555414676666,
    -1.285858392715454,
    -0.1314813792705536,
    1.054797887802124,
    -0.799034595489502,
    -0.29313385486602783,
    -0.46913114190101624,
    -0.21672311425209045,
    -0.2475138008594513,
    0.00629635201767087,
    -0.6424395442008972,
    0.05666399374604225,
    -0.3825575113296509,
    -0.8193470239639282,
    -0.6044909358024597,
    -1.5984361171722412,
    -0.6186244487762451,
    0.20248468220233917,
    0.21355223655700684,
    0.1923767775297165,
    0.27573126554489136,
    -5.1816485211020336e-05,
    -0.5963005423545837,
    0.510941207408905,
    0.21049219369888306,
    0.4496263861656189,
    -0.12247341871261597,
    0.7897730469703674,
    0.04953533411026001,
    0.13908016681671143,
    0.15851664543151855,
    -0.628826379776001
  ],
  "gru_bias_ih": [
    -0.4734295606613159,
    -0.34612467885017395,
    0.9858790636062622,
    1.3283149003982544,
    0.13986951112747192,
    0.9797308444976807,
    -0.2503310739994049,
    0.8313252329826355,
    -0.267707496881485,
    -0.7601655721664429,
    -0.7658469080924988,
    0.65631103515625,
    -1.0551989078521729,
    -1.2487833499908447,
    0.2605911195278168,
    -0.2395091950893402,
    -0.4543818235397339,
    -3.3156118392944336,
    -0.920592188835144,
    -2.8471524715423584,
    -2.9711554050445557,
    -1.293556571006775,
    0.09245701879262924,
    2.37404465675354,
    -2.398837089538574,
    2.379948377609253,
    -3.1386823654174805,
    -1.0740413665771484,
    -0.9354487657546997,
    2.9632813930511475,
    -0.16575124859809875,
    -3.27485990524292,
    -0.27191683650016785,
    -1.8178799152374268,
    -0.14383260905742645,
    -0.28729164600372314,
    -0.9591618180274963,
    -0.2304251492023468,
    0.6177186965942383,
    -0.40025174617767334,
    -0.39820244908332825,
    2.1590917110443115,
    0.3000050485134125,
    -0.00866296049207449,
    -2.245266914367676,
    -1.281823754310608,
    -0.3366581201553345,
    0.18082371354103088
  ],
  "gru_bias_hh": [
    -0.45222848653793335,
    -0.1166219636797905,
    0.9876284599304199,
    1.1788091659545898,
    0.320957213640213,
    0.8314141631126404,
    -0.6752440929412842,
    1.1395905017852783,
    -0.4768151342868805,
    -1.1152629852294922,
    -0.4457213878631592,
    0.7310591340065002,
    -1.4015055894851685,
    -1.4175409078598022,
    0.14947035908699036,
    0.0804671049118042,
    -0.18745605647563934,
    -3.0853099822998047,
    -0.9628981351852417,
    -2.5700769424438477,
    -3.0552890300750732,
    -1.4386845827102661,
    0.06877542287111282,
    2.2944140434265137,
    -2.263392686843872,
    2.1342501640319824,
    -3.3127541542053223,
    -1.1098988056182861,
    -0.9764584302902222,
    3.0939841270446777,
    -0.047594573348760605,
    -3.6339235305786133,
    1.9792660474777222,
    -1.2555161714553833,
    0.15821322798728943,
    -0.24223122000694275,
    0.1153508871793747,
    0.21443212032318115,
    -0.3074856996536255,
    -1.390500545501709,
    0.13926289975643158,
    0.9193158149719238,
    0.0043374039232730865,
    0.16446588933467865,
    -1.6698211431503296,
    -0.732261598110199,
    0.04228786379098892,
    -0.10954954475164413
  ],
  "example_input": [
    -1.0,
    -0.9411764740943909,
    -0.8823529481887817,
    -0.8235294222831726,
    -0.7647058963775635,
    -0.7058823704719543,
    -0.6470588445663452,
    -0.5882353186607361,
    -0.529411792755127,
    -0.47058823704719543,
    -0.4117647111415863,
    -0.3529411852359772,
    -0.29411762952804565,
    -0.23529411852359772,
    -0.1764705777168274,
    -0.11764705181121826,
    -0.05882352590560913,
    -3.725290298461914e-09,
    0.05882352590560913,
    0.11764705181121826,
    0.1764705777168274,
    0.23529411852359772,
    0.29411762952804565,
    0.3529411852359772,
    0.4117647111415863,
    0.47058823704719543,
    0.529411792755127,
    0.5882353186607361,
    0.6470588445663452,
    0.7058823704719543,
    0.7647058963775635,
    0.8235294222831726,
    0.8823529481887817,
    0.9411764740943909,
    1.0
  ],
  "example_output": [
    0.1781284511089325,
    0.23805813491344452,
    0.9861724972724915,
    0.026921246200799942
  ],
  "checkpoint_name": "best_checkpoint_model_981.pt",
  "checkpoint_step": -1,
  "requires_obs_normalization": false,
  "compat_reset_output": [
    0.806506335735321,
    0.7341012954711914,
    0.6768408417701721,
    0.7722238898277283
  ],
  "compat_hover_output": [
    0.806506335735321,
    0.7341012954711914,
    0.6768408417701721,
    0.7722238898277283
  ],
  "export_format": "rl_tools_checkpoint_blob",
  "policy_distribution": "BetaDistribution",
  "action_output_transform": "beta_mean_sigmoid"
}