{
  "observation_dim": 35,
  "action_dim": 4,
  "structure": "mlp_gru",
  "rnn_type": "gru",
  "gru_input_dim": 16,
  "gru_hidden_dim": 16,
  "gru_num_layers": 1,
  "activation": "elu",
  "use_observation_normalization": false,
  "normalization_folded_into_first_layer": false,
  "observation_mean": [
    0.0,
    0.0,
    0.0,
    0.0,
    0.0,
    0.0,
    0.0,
    0.0,
    0.0,
    0.0,
    0.0,
    0.0,
    0.0,
    0.0,
    0.0,
    0.0,
    0.0,
    0.0,
    0.0,
    0.0,
    0.0,
    0.0,
    0.0,
    0.0,
    0.0,
    0.0,
    0.0,
    0.0,
    0.0,
    0.0,
    0.0,
    0.0,
    0.0,
    0.0,
    0.0
  ],
  "observation_inv_std": [
    1.0,
    1.0,
    1.0,
    1.0,
    1.0,
    1.0,
    1.0,
    1.0,
    1.0,
    1.0,
    1.0,
    1.0,
    1.0,
    1.0,
    1.0,
    1.0,
    1.0,
    1.0,
    1.0,
    1.0,
    1.0,
    1.0,
    1.0,
    1.0,
    1.0,
    1.0,
    1.0,
    1.0,
    1.0,
    1.0,
    1.0,
    1.0,
    1.0,
    1.0,
    1.0
  ],
  "actor_encoder_dims": [
    35,
    16,
    16
  ],
  "actor_encoder_activations": [
    "elu",
    "identity"
  ],
  "actor_head_dims": [
    16,
    4
  ],
  "actor_head_activations": [
    "identity"
  ],
  "actor_encoder_weights": [
    [
      0.06419739872217178,
      -0.3128187954425812,
      0.31698077917099,
      -0.17616283893585205,
      -1.6816226243972778,
      0.024940116330981255,
      1.692471981048584,
      -0.10885483771562576,
      0.6399611830711365,
      0.4254821240901947,
      -0.12769471108913422,
      -0.02190977893769741,
      -1.1059544086456299,
      -0.16164849698543549,
      0.33914080262184143,
      0.3218330442905426,
      -0.12417077273130417,
      0.16315299272537231,
      -0.07335196435451508,
      -0.025581656023859978,
      0.7196692824363708,
      -0.040056321769952774,
      0.29653072357177734,
      0.041415877640247345,
      0.019368525594472885,
      -0.22869238257408142,
      0.11183243244886398,
      -0.1815756857395172,
      0.062422510236501694,
      -0.024097386747598648,
      0.02734372206032276,
      0.4592670202255249,
      -1.0599067211151123,
      -0.006259503774344921,
      -0.057195693254470825,
      0.25812405347824097,
      0.6107770204544067,
      -0.0689811185002327,
      -0.08069685846567154,
      0.9045111536979675,
      0.16178981959819794,
      -1.4715648889541626,
      -0.07749267667531967,
      0.28676697611808777,
      0.23118633031845093,
      -0.18736399710178375,
      -0.13379958271980286,
      -1.417741298675537,
      -1.8180224895477295,
      0.09245316684246063,
      0.17076891660690308,
      0.2264866977930069,
      0.10996601730585098,
      -0.15457721054553986,
      -0.061229951679706573,
      -0.41593971848487854,
      -0.12775930762290955,
      0.2032989263534546,
      0.03515428677201271,
      0.007465096656233072,
      0.08199188858270645,
      0.04229098558425903,
      -0.018909873440861702,
      0.05870179086923599,
      -0.033542193472385406,
      0.032521575689315796,
      0.1176338791847229,
      0.01158914528787136,
      0.7077268362045288,
      -0.5751922130584717,
      -0.05781283602118492,
      -0.39942434430122375,
      -1.9261882305145264,
      0.18424516916275024,
      -3.5160770416259766,
      0.16711464524269104,
      2.756497383117676,
      -0.09806356579065323,
      0.026205824688076973,
      0.3612534701824188,
      0.0009610912529751658,
      0.086690254509449,
      0.8612073659896851,
      1.0538809299468994,
      0.13557346165180206,
      -0.21746104955673218,
      0.10018676519393921,
      -2.084869384765625,
      0.4213607609272003,
      0.1250878870487213,
      1.43357515335083,
      0.045876048505306244,
      -0.03588137403130531,
      0.005670601036399603,
      -0.0016260779229924083,
      -0.043896012008190155,
      -0.20907893776893616,
      -0.006859505549073219,
      -0.0765712708234787,
      -0.018184544518589973,
      -0.05770326033234596,
      -0.11098164319992065,
      0.13542871177196503,
      0.010197377763688564,
      0.13079482316970825,
      0.04609182849526405,
      -0.8855611681938171,
      -0.02685638703405857,
      0.1861828714609146,
      0.2831604778766632,
      -0.4843962788581848,
      -0.07413319498300552,
      0.05318387597799301,
      -0.8617170453071594,
      0.046756938099861145,
      1.029354453086853,
      0.08001101762056351,
      -0.005827694199979305,
      -0.9606186747550964,
      0.22636711597442627,
      0.13091441988945007,
      -0.5605053305625916,
      0.36015409231185913,
      -0.26192334294319153,
      -0.15527655184268951,
      -0.1834852397441864,
      0.05370914191007614,
      -0.13692112267017365,
      -0.05691874027252197,
      -0.028413627296686172,
      -0.006940118502825499,
      -0.23462092876434326,
      -0.2087557017803192,
      -0.053618740290403366,
      0.05590837821364403,
      -0.03222018480300903,
      -0.3037191927433014,
      0.5117253065109253,
      0.4995969831943512,
      -0.4384925365447998,
      -0.5409789085388184,
      0.08707559108734131,
      0.08200936764478683,
      -0.11432325839996338,
      -3.726599931716919,
      -0.31297191977500916,
      3.730520725250244,
      0.07299017906188965,
      0.4357190728187561,
      0.6961516737937927,
      0.3635704219341278,
      0.14615952968597412,
      1.4304066896438599,
      -0.44491687417030334,
      -0.39281898736953735,
      -0.5142074227333069,
      -0.17114533483982086,
      -0.1460503190755844,
      -0.40738457441329956,
      -0.2737484574317932,
      1.961496114730835,
      -0.02103138156235218,
      -0.16980606317520142,
      0.001359029789455235,
      -0.0067550186067819595,
      0.25603756308555603,
      0.096613809466362,
      0.10306548327207565,
      0.16272467374801636,
      0.013462559320032597,
      -0.011558331549167633,
      0.08291952311992645,
      -0.1046377494931221,
      0.01897525228559971,
      -0.2226644903421402,
      -0.5249756574630737,
      0.13292360305786133,
      -0.022214962169528008,
      -0.08591040968894958,
      0.5787325501441956,
      -0.1390947848558426,
      -0.6912592649459839,
      -0.10122012346982956,
      0.07205577939748764,
      0.0746539831161499,
      -0.9521338939666748,
      -0.04036249220371246,
      -2.0097317695617676,
      0.023252880200743675,
      0.2559490203857422,
      -0.497118204832077,
      0.12314565479755402,
      0.412791907787323,
      -0.0898403450846672,
      0.16638894379138947,
      -0.4158860445022583,
      -0.7845559120178223,
      -0.6978297233581543,
      -0.20092272758483887,
      -0.002755173947662115,
      0.5376874804496765,
      0.14446966350078583,
      0.39138063788414,
      -0.08399725705385208,
      0.04976984113454819,
      0.18158935010433197,
      0.0655951127409935,
      0.07762911915779114,
      0.1862599104642868,
      0.09061674773693085,
      0.2503959536552429,
      -0.3423278331756592,
      0.3668469190597534,
      -0.43606987595558167,
      0.4112848937511444,
      1.1127899885177612,
      -0.7432669997215271,
      -0.5235106348991394,
      0.93855881690979,
      -1.2035871744155884,
      -1.1143674850463867,
      -0.15034957230091095,
      -0.4420958459377289,
      0.14605924487113953,
      0.6906265616416931,
      1.0514024496078491,
      0.7024539709091187,
      0.5458203554153442,
      0.15191979706287384,
      0.0006286919815465808,
      -0.5739712715148926,
      0.09205366671085358,
      -0.12088984251022339,
      -0.01891391910612583,
      0.0014582176227122545,
      -0.08366255462169647,
      -0.29306259751319885,
      -0.3928426206111908,
      -0.3996798098087311,
      0.12805414199829102,
      0.07460428029298782,
      0.3278503119945526,
      -0.07256721705198288,
      -0.11671797186136246,
      0.08321960270404816,
      0.23401737213134766,
      -0.34715592861175537,
      0.33749717473983765,
      -0.2652439475059509,
      0.3191453814506531,
      -0.3706984221935272,
      0.46217355132102966,
      -0.054990433156490326,
      -0.08850863575935364,
      -0.19007760286331177,
      -0.18062281608581543,
      0.10408131778240204,
      -3.1225991249084473,
      -0.3201267719268799,
      -0.12876750528812408,
      1.030761957168579,
      0.40954703092575073,
      -0.2166280299425125,
      0.05313078686594963,
      0.7238566875457764,
      -0.24300222098827362,
      0.06276041269302368,
      -0.02399398572742939,
      -0.0036727762781083584,
      -0.012737167067825794,
      -0.2860620617866516,
      0.3359942138195038,
      0.19605568051338196,
      0.04337093234062195,
      0.003311003325507045,
      0.0031791282817721367,
      0.12101832032203674,
      -0.13274937868118286,
      0.3840915858745575,
      -0.10454647243022919,
      -0.1348915845155716,
      -0.05871669948101044,
      0.1660643219947815,
      0.01180243119597435,
      -3.0202744007110596,
      0.34171271324157715,
      2.216066837310791,
      0.02401578240096569,
      -0.25670573115348816,
      0.30285337567329407,
      0.6719849109649658,
      -0.15375939011573792,
      0.3342953622341156,
      2.6408119201660156,
      -0.2926537096500397,
      -0.047621726989746094,
      -0.3248269855976105,
      0.09013339132070541,
      1.1142276525497437,
      -0.12111073732376099,
      2.2547881603240967,
      -0.013746505603194237,
      0.12468932569026947,
      0.002951241098344326,
      0.002122974954545498,
      -0.12992672622203827,
      0.10866359621286392,
      -0.04250011593103409,
      -0.07774234563112259,
      0.03450610116124153,
      0.019540056586265564,
      0.024164583534002304,
      -0.02366732805967331,
      -0.1707298755645752,
      0.06338628381490707,
      -0.5674703121185303,
      0.10239560157060623,
      -0.025359662249684334,
      -0.055420517921447754,
      0.6870445609092712,
      -0.10640121251344681,
      -0.9580091238021851,
      -0.1163586899638176,
      0.4210488498210907,
      0.7884731888771057,
      0.06790537387132645,
      0.008765337988734245,
      3.157801628112793,
      1.2031359672546387,
      -0.08134594559669495,
      -0.5333553552627563,
      -0.38194987177848816,
      0.3837435245513916,
      0.3286890387535095,
      -0.9146035313606262,
      -0.2307082712650299,
      -0.00789571925997734,
      -0.2442820519208908,
      -0.07387886941432953,
      0.04400322213768959,
      -0.47638052701950073,
      -0.31406623125076294,
      -0.1565365493297577,
      -0.052141960710287094,
      -0.003131866455078125,
      0.021036317571997643,
      0.2902972996234894,
      -0.09163235127925873,
      0.18992334604263306,
      0.14291425049304962,
      -1.4788280725479126,
      0.035528458654880524,
      -0.041408736258745193,
      -0.04141877964138985,
      1.0538840293884277,
      -0.6886898279190063,
      -1.488811731338501,
      0.17717760801315308,
      0.17624206840991974,
      0.7131699323654175,
      0.29919660091400146,
      0.01793467253446579,
      3.481478452682495,
      0.27868950366973877,
      -0.12292695790529251,
      -1.6057946681976318,
      0.11940941214561462,
      -0.31863561272621155,
      0.004870912060141563,
      -0.6022031307220459,
      -0.5667413473129272,
      0.04131438210606575,
      -0.0015861483989283442,
      -0.002264704555273056,
      -0.002879332983866334,
      0.016951093450188637,
      -0.0466945506632328,
      -0.059375058859586716,
      -0.10447141528129578,
      -0.0040938290767371655,
      -0.01928112655878067,
      -0.15456676483154297,
      0.061508819460868835,
      -0.06564293801784515,
      0.049884166568517685,
      0.43003708124160767,
      -0.6909627914428711,
      -2.584441900253296,
      0.05179435387253761,
      0.9427976608276367,
      -0.12700948119163513,
      -0.47088801860809326,
      0.13430990278720856,
      -0.6357210278511047,
      -0.2987160384654999,
      0.35684487223625183,
      0.005730867385864258,
      -0.9510685801506042,
      1.814835786819458,
      0.191726416349411,
      0.7380314469337463,
      -0.8550857305526733,
      -2.1318519115448,
      -0.05447990074753761,
      0.0076219141483306885,
      -0.45893552899360657,
      -0.04795597121119499,
      0.041731011122465134,
      0.0019849378149956465,
      0.00704993074759841,
      -0.12430385500192642,
      0.22851577401161194,
      0.06575880199670792,
      0.08695244789123535,
      0.008469230495393276,
      0.03573010489344597,
      0.12969449162483215,
      -0.014127938076853752,
      -0.0920415148139,
      -0.12311143428087234,
      0.07834386825561523,
      -0.10389015823602676,
      0.29751166701316833,
      -0.020649448037147522,
      -1.480999231338501,
      0.47039949893951416,
      1.0773807764053345,
      -0.13596393167972565,
      -0.7476575970649719,
      -0.5079270601272583,
      0.42746663093566895,
      -0.1420540064573288,
      -3.0120441913604736,
      0.23326289653778076,
      -0.01612488552927971,
      0.28865256905555725,
      0.06125914677977562,
      0.2920082211494446,
      -0.07369697093963623,
      1.1786624193191528,
      1.165985107421875,
      -0.1668604463338852,
      -0.46626824140548706,
      -0.08961136639118195,
      0.03166314586997032,
      0.5542660355567932,
      0.3428218960762024,
      0.04734702408313751,
      -0.031187262386083603,
      -0.05677023530006409,
      -0.011091973632574081,
      0.19482757151126862,
      0.17192384600639343,
      -0.17670118808746338,
      0.21387550234794617,
      -0.005499604623764753,
      -1.8601353168487549,
      -0.032190266996622086,
      -0.1517380177974701,
      -1.489877462387085,
      0.05048259347677231,
      0.7809863686561584,
      -0.13464245200157166,
      -0.6898466348648071,
      0.05789814889431,
      0.48446518182754517,
      -0.12531886994838715,
      0.5059743523597717,
      4.287951946258545,
      -0.25337648391723633,
      -0.17460685968399048,
      -1.759324550628662,
      -0.34470877051353455,
      0.6409528851509094,
      0.044533729553222656,
      0.2603604793548584,
      -0.013175572268664837,
      0.0649166852235794,
      0.02755252830684185,
      0.02283313311636448,
      -0.19932132959365845,
      -0.008184226229786873,
      0.025439847260713577,
      0.04541078954935074,
      -0.019237898290157318,
      -0.009381940588355064,
      0.23856450617313385,
      -0.012725794687867165,
      0.02197088487446308,
      0.2797364890575409,
      -0.22372788190841675,
      0.1521667242050171,
      0.5500204563140869,
      0.014616222120821476,
      0.9463303685188293,
      -0.19064320623874664,
      -0.893294632434845,
      0.043875135481357574,
      0.2746037244796753,
      0.0673605278134346,
      -0.8115484714508057,
      -0.026523640379309654,
      1.0825071334838867,
      -2.543318748474121,
      0.4774631857872009,
      -0.24759319424629211,
      0.5281701683998108,
      0.49918872117996216,
      -0.5341817736625671,
      -0.3545289933681488,
      -0.20836614072322845,
      0.06049466133117676,
      0.11545257270336151,
      0.06374895572662354,
      0.01394212432205677,
      0.31525444984436035,
      0.23919956386089325,
      -0.04523139074444771,
      0.2419438660144806,
      0.018958471715450287,
      0.06015975400805473,
      -0.4325672686100006,
      0.3951146602630615,
      -0.1010492667555809,
      0.07637372612953186,
      0.219474196434021,
      -0.36902716755867004,
      -0.05372648686170578,
      0.11682780086994171,
      0.8261468410491943,
      -0.45473843812942505,
      -1.5706042051315308,
      0.03680064529180527,
      -1.0022858381271362,
      0.20529985427856445,
      0.7851727604866028,
      -0.03778129070997238,
      0.5925248265266418,
      4.451358318328857,
      -0.09942881762981415,
      -0.19043315947055817,
      -0.4609209895133972,
      0.23864583671092987,
      1.6037812232971191,
      0.07039894163608551,
      -0.5130952596664429,
      -0.03956105560064316,
      -0.07271039485931396,
      0.0062552024610340595,
      0.010719845071434975,
      0.07670535892248154,
      -0.018952762708067894,
      0.0038182309363037348,
      0.03794628754258156,
      -0.01740671694278717,
      -0.00719217536970973,
      0.11323236674070358,
      -0.1597212255001068,
      -0.15605472028255463,
      0.12325061857700348
    ],
    [
      0.15490706264972687,
      -0.021633952856063843,
      0.3447420299053192,
      0.29545146226882935,
      0.2639513909816742,
      -0.47378721833229065,
      0.40828827023506165,
      -0.054356854408979416,
      0.10334104299545288,
      0.2673867642879486,
      0.39802053570747375,
      0.3038609027862549,
      0.01973683573305607,
      0.1027677059173584,
      -0.2856137752532959,
      0.3200858533382416,
      0.13321562111377716,
      0.4122168719768524,
      -0.29051533341407776,
      0.23475752770900726,
      0.6248531937599182,
      -0.005268958397209644,
      -0.2676164209842682,
      -0.07682424038648605,
      0.009839662350714207,
      -0.06648357212543488,
      -0.2978002727031708,
      -0.12123004347085953,
      0.45957276225090027,
      -0.6888657212257385,
      0.03747372701764107,
      -0.04660509526729584,
      -0.09238717705011368,
      -0.1835968792438507,
      -0.6276026964187622,
      0.012915577739477158,
      -0.11363387107849121,
      0.22615298628807068,
      -0.28309929370880127,
      0.1329272836446762,
      0.2592669725418091,
      -0.4462021291255951,
      -0.5389181971549988,
      -0.303182452917099,
      0.10169149935245514,
      0.3655572831630707,
      -0.05095363035798073,
      -0.08639870584011078,
      0.18192583322525024,
      -0.41890060901641846,
      0.293889582157135,
      -0.2610791325569153,
      0.6183360815048218,
      -0.13604937493801117,
      0.10499879717826843,
      -0.4583435356616974,
      0.46936431527137756,
      0.20930665731430054,
      0.05128014460206032,
      -0.22481264173984528,
      0.10613590478897095,
      0.5362920165061951,
      0.08951731026172638,
      -0.34859222173690796,
      -0.2479112446308136,
      -0.16469794511795044,
      0.4452155530452728,
      -0.22173093259334564,
      0.09463551640510559,
      -0.3025532364845276,
      -0.08870627731084824,
      -0.026300353929400444,
      0.41977155208587646,
      0.3048994541168213,
      0.4190674126148224,
      0.10285939276218414,
      -0.43334347009658813,
      -0.21310988068580627,
      -0.25492921471595764,
      -0.226425901055336,
      0.26204854249954224,
      -0.24031054973602295,
      -0.29956814646720886,
      -0.3277135193347931,
      -0.015955166891217232,
      0.016131851822137833,
      -0.12096239626407623,
      -0.3051111400127411,
      -0.2598334848880768,
      -0.21323604881763458,
      0.14385271072387695,
      0.29689279198646545,
      -0.07910027354955673,
      -0.05580393224954605,
      -0.2882971167564392,
      0.6932089924812317,
      -0.24705009162425995,
      -0.017142241820693016,
      -0.5394617915153503,
      0.298808217048645,
      0.08699417114257812,
      -0.2517361640930176,
      -0.07428842782974243,
      -0.15997615456581116,
      0.20005901157855988,
      0.16627787053585052,
      0.3881935477256775,
      -0.26379379630088806,
      -0.34450840950012207,
      -0.08174668997526169,
      0.07112816721200943,
      0.5033665895462036,
      0.055041223764419556,
      -0.07324335724115372,
      -0.16715458035469055,
      0.0756382942199707,
      -0.11472371965646744,
      -0.17021441459655762,
      0.19018980860710144,
      -0.14366208016872406,
      0.2756998836994171,
      0.28202348947525024,
      -0.3255126476287842,
      -0.597002387046814,
      -0.07304597645998001,
      0.3245285749435425,
      -0.11652332544326782,
      0.5560417771339417,
      -0.04791291058063507,
      0.11237582564353943,
      0.6138989329338074,
      0.2968011200428009,
      0.1637563407421112,
      0.41591134667396545,
      0.1647741198539734,
      0.009608612395823002,
      0.357916921377182,
      -0.2768523693084717,
      0.3181266486644745,
      0.000737431866582483,
      -0.0749642476439476,
      0.27271583676338196,
      0.31025877594947815,
      0.07653693854808807,
      0.07935542613267899,
      -0.30448323488235474,
      -0.2667507529258728,
      0.22638021409511566,
      -0.09517281502485275,
      -0.27699577808380127,
      -0.24944953620433807,
      -0.49079611897468567,
      -0.15153701603412628,
      -0.06676706671714783,
      -0.621951162815094,
      0.10621029883623123,
      0.055053193122148514,
      -0.2611429691314697,
      0.12824614346027374,
      -0.5436843633651733,
      0.28965750336647034,
      0.049548517912626266,
      0.26973795890808105,
      -0.06101455166935921,
      0.20833168923854828,
      0.13771747052669525,
      -0.021205682307481766,
      0.05609753355383873,
      -0.27148446440696716,
      0.1999935507774353,
      -0.20347991585731506,
      0.6354539394378662,
      0.05731410160660744,
      0.04251057654619217,
      -0.10102178156375885,
      -0.29942673444747925,
      0.24705816805362701,
      0.3445732891559601,
      -0.345787912607193,
      -0.03168516606092453,
      0.30242210626602173,
      0.22775888442993164,
      0.22092002630233765,
      0.24316129088401794,
      0.29329249262809753,
      -0.27898266911506653,
      -0.1786893606185913,
      -0.2633495330810547,
      -0.08254528045654297,
      0.5997601747512817,
      -0.1616845279932022,
      -0.1289888471364975,
      0.2596396505832672,
      -0.03246463090181351,
      0.13423873484134674,
      -0.16014087200164795,
      0.2940155863761902,
      0.4289870858192444,
      -0.2779989242553711,
      0.3829262852668762,
      0.3905162215232849,
      -0.2196635752916336,
      -0.23915143311023712,
      -0.4188134968280792,
      0.09341011941432953,
      -0.74839186668396,
      -0.14830850064754486,
      -0.1079653799533844,
      -0.10979828238487244,
      -0.0263711865991354,
      0.4131850600242615,
      0.32474127411842346,
      0.22877342998981476,
      -0.01433673407882452,
      0.11255607008934021,
      0.04509532451629639,
      0.22840151190757751,
      -0.30910173058509827,
      -0.5188661217689514,
      0.575113832950592,
      0.24300146102905273,
      0.3684684634208679,
      -0.11870802193880081,
      0.2765497863292694,
      -0.03575139120221138,
      0.13552318513393402,
      0.21345274150371552,
      -0.20227526128292084,
      -0.08122209459543228,
      0.05957881733775139,
      -0.1926683932542801,
      -0.08218652009963989,
      0.36295557022094727,
      -0.13530226051807404,
      -0.5504523515701294,
      0.1545402705669403,
      -0.1584290862083435,
      -0.7912759184837341,
      0.061346106231212616,
      0.16194884479045868,
      -0.3324042856693268,
      -0.10748838633298874,
      0.2540322542190552,
      -0.0498698353767395,
      0.302385151386261,
      -0.3528784215450287,
      0.0951472744345665,
      -0.12443266063928604,
      -0.15647836029529572,
      0.00032033558818511665,
      0.18121947348117828,
      -0.5957331657409668,
      -0.19067829847335815,
      -0.2349226474761963,
      -0.07265428453683853,
      -0.6590256690979004
    ]
  ],
  "actor_encoder_biases": [
    [
      0.1391962319612503,
      -0.05842139944434166,
      -0.04544016718864441,
      -0.07520138472318649,
      0.03348904103040695,
      -0.08785654604434967,
      -0.05221479386091232,
      0.08020873367786407,
      -0.23950479924678802,
      -0.11159876734018326,
      -0.1766343116760254,
      -0.04072437435388565,
      -0.05335405841469765,
      -0.11529615521430969,
      0.20633088052272797,
      -0.11584915965795517
    ],
    [
      -0.0631723552942276,
      -0.00021643174113705754,
      0.01457524485886097,
      -0.1941431611776352,
      -0.021229136735200882,
      0.00928798969835043,
      -0.3581357002258301,
      0.017759324982762337,
      0.17768049240112305,
      -0.09621213376522064,
      0.14754383265972137,
      0.07927538454532623,
      -0.010184133425354958,
      -0.08723892271518707,
      -0.2109714150428772,
      -0.11620157212018967
    ]
  ],
  "actor_head_weights": [
    [
      -0.18439511954784393,
      0.10810180008411407,
      0.003503910731524229,
      -0.4875437319278717,
      -0.9253734946250916,
      0.5621399283409119,
      -0.20204640924930573,
      0.4197319447994232,
      -0.14243876934051514,
      0.390835702419281,
      -0.22503912448883057,
      0.11344823986291885,
      -0.45921602845191956,
      -0.5133320093154907,
      0.04852483794093132,
      -0.5676725506782532,
      -0.3546641170978546,
      0.30971917510032654,
      0.019099920988082886,
      0.5396398305892944,
      0.12107876688241959,
      0.6040468215942383,
      0.09844893217086792,
      -0.6042839884757996,
      0.24013951420783997,
      0.017068862915039062,
      0.41584354639053345,
      0.04043014347553253,
      0.6686524748802185,
      0.2625923156738281,
      0.2978852391242981,
      -0.050373781472444534,
      -0.08965478837490082,
      -0.0781492367386818,
      -0.5476254820823669,
      0.18517975509166718,
      -0.29517608880996704,
      -0.11089221388101578,
      0.23692648112773895,
      0.16030895709991455,
      0.023037128150463104,
      0.47694599628448486,
      0.6019659638404846,
      -4.369083762867376e-05,
      0.36619818210601807,
      -0.6796774864196777,
      0.04492828622460365,
      -0.9915704131126404,
      -0.052781395614147186,
      -0.06014778092503548,
      0.4359464645385742,
      -0.19047389924526215,
      -0.1337636560201645,
      -0.012559281662106514,
      0.2182532101869583,
      -0.4635632634162903,
      -0.10520175099372864,
      0.1971813142299652,
      -0.2665511965751648,
      -0.597709596157074,
      0.1724483072757721,
      -0.1094161793589592,
      0.7223725914955139,
      0.5380359292030334
    ]
  ],
  "actor_head_biases": [
    [
      0.21980535984039307,
      0.2752605676651001,
      0.044642385095357895,
      0.2844352424144745
    ]
  ],
  "gru_weight_ih": [
    0.7431004047393799,
    -0.5968421101570129,
    0.19129832088947296,
    0.290165513753891,
    0.09549809992313385,
    0.016453728079795837,
    0.5206102728843689,
    0.4879579246044159,
    1.0249594449996948,
    -0.19390788674354553,
    -0.819696307182312,
    -0.04960549622774124,
    0.0324038565158844,
    1.282413125038147,
    0.3079860806465149,
    -0.03039146214723587,
    0.6878994703292847,
    0.6089634895324707,
    -0.4038470685482025,
    0.11652909219264984,
    -0.4555169939994812,
    0.8345626592636108,
    0.22736071050167084,
    0.544463574886322,
    -0.44581884145736694,
    -0.859864354133606,
    0.08311977982521057,
    0.1182171180844307,
    0.13885840773582458,
    0.2783694863319397,
    0.047599371522665024,
    -0.14737235009670258,
    -0.47744208574295044,
    -0.8380208015441895,
    0.5031735897064209,
    0.4099266529083252,
    0.02051779069006443,
    -0.645811915397644,
    -0.4196575880050659,
    -0.06837772578001022,
    0.26279202103614807,
    0.08068262785673141,
    0.1313931941986084,
    0.5612003803253174,
    0.0375986248254776,
    -0.3330215513706207,
    -0.5598835349082947,
    0.6709182262420654,
    0.5963479280471802,
    -0.9906678199768066,
    -0.7877999544143677,
    -0.13905204832553864,
    0.0450202152132988,
    -0.9976442456245422,
    -0.4360491931438446,
    -0.5217269062995911,
    0.910871148109436,
    0.11380183696746826,
    0.8729602694511414,
    0.44607970118522644,
    -1.4390935897827148,
    0.8328990936279297,
    -0.2647145688533783,
    -0.4264616370201111,
    0.27706509828567505,
    0.04789775237441063,
    0.16109010577201843,
    -0.2565429210662842,
    -0.2905411124229431,
    0.12965162098407745,
    -0.5067348480224609,
    -0.13084714114665985,
    -0.16329079866409302,
    0.5369249582290649,
    0.09429948031902313,
    0.1663917750120163,
    -0.9878418445587158,
    0.7622343897819519,
    -0.040562063455581665,
    0.05609253793954849,
    0.7687605619430542,
    0.288632869720459,
    -1.001001000404358,
    0.01591881364583969,
    -0.43872585892677307,
    -0.6976854801177979,
    0.6919823288917542,
    0.5820990800857544,
    0.18708506226539612,
    -0.5420051217079163,
    -0.7466418743133545,
    -0.5323618650436401,
    -0.38159722089767456,
    -0.111018106341362,
    -0.4583421051502228,
    0.3377208411693573,
    -0.4015013575553894,
    0.6265020370483398,
    -0.12971889972686768,
    -0.8904213309288025,
    -0.3133013844490051,
    0.7783684730529785,
    1.7344034910202026,
    0.18555602431297302,
    0.23253820836544037,
    0.016795260831713676,
    -0.7649886012077332,
    -0.26219069957733154,
    -0.06514641642570496,
    -1.153617024421692,
    0.3689243197441101,
    -0.369413286447525,
    0.10739190876483917,
    -0.029225558042526245,
    -0.5729692578315735,
    0.5828650593757629,
    0.7959586977958679,
    1.1607493162155151,
    -0.11394121497869492,
    -1.669028639793396,
    0.5687753558158875,
    -0.740948498249054,
    -0.004318941850215197,
    -0.3519834280014038,
    1.233640432357788,
    -0.6453314423561096,
    0.1651739627122879,
    0.5320831537246704,
    -0.5016419887542725,
    -0.15854234993457794,
    0.6946762204170227,
    -0.37414366006851196,
    0.18128317594528198,
    0.6915408372879028,
    0.08529572188854218,
    0.28012585639953613,
    -0.28817498683929443,
    0.16219556331634521,
    -0.6544269323348999,
    0.585853099822998,
    0.0596715547144413,
    -0.5154063105583191,
    -0.09462302178144455,
    -0.20826511085033417,
    -0.14600710570812225,
    0.7895436882972717,
    -0.06328427791595459,
    -0.23337799310684204,
    -0.5574414134025574,
    0.23242433369159698,
    0.09888894855976105,
    0.7063488960266113,
    -0.21529582142829895,
    -0.9813348054885864,
    0.176969513297081,
    0.5749973654747009,
    0.42623910307884216,
    0.08285780996084213,
    0.33905458450317383,
    -0.9224377274513245,
    0.08900436758995056,
    0.2497132122516632,
    0.3062739372253418,
    -0.12037314474582672,
    1.3655319213867188,
    0.44720110297203064,
    1.0535783767700195,
    1.0203250646591187,
    1.3739649057388306,
    -0.16308525204658508,
    -1.2419676780700684,
    0.7554035186767578,
    1.4698630571365356,
    -0.3670181334018707,
    0.47319701313972473,
    -0.862366795539856,
    -0.9891870617866516,
    0.10124898701906204,
    1.2152897119522095,
    -1.125564455986023,
    0.6128421425819397,
    1.2872834205627441,
    -0.6473288536071777,
    -0.954113245010376,
    -0.1260063797235489,
    1.6122347116470337,
    0.9213529825210571,
    0.3881896436214447,
    0.7807472944259644,
    -0.36560726165771484,
    -0.35433992743492126,
    0.40108218789100647,
    -0.036639466881752014,
    -0.5303845405578613,
    -0.24873429536819458,
    -0.10000787675380707,
    0.030593236908316612,
    -0.11755508929491043,
    -0.1174074038863182,
    0.018534621223807335,
    0.4909845292568207,
    -0.2476232349872589,
    -0.5295237898826599,
    -0.09119108319282532,
    0.05649478733539581,
    0.035116083920001984,
    0.7626964449882507,
    0.1998375803232193,
    0.07445693761110306,
    -0.3460593521595001,
    0.004697911441326141,
    0.037039998918771744,
    0.9412899613380432,
    0.770356297492981,
    0.6592922806739807,
    -0.5597787499427795,
    0.13995254039764404,
    -0.21116109192371368,
    -0.056421149522066116,
    -0.2968677878379822,
    -0.07277001440525055,
    -0.5191686749458313,
    0.05378479138016701,
    0.19767044484615326,
    0.201462984085083,
    -0.7166228890419006,
    -0.131535142660141,
    -0.3398102819919586,
    -0.31191062927246094,
    0.050759028643369675,
    0.2703462839126587,
    -0.20720677077770233,
    -0.0695616826415062,
    -0.47813770174980164,
    0.032116927206516266,
    0.5374262928962708,
    -0.019822917878627777,
    -0.07075228542089462,
    -0.3091711699962616,
    0.10542172193527222,
    -0.07266304641962051,
    0.19138267636299133,
    0.23092809319496155,
    -0.6416995525360107,
    0.3166358768939972,
    -0.40901950001716614,
    -0.1770249456167221,
    -0.564971387386322,
    -1.0289714336395264,
    0.6486423015594482,
    1.290908932685852,
    -0.7349628806114197,
    0.44604650139808655,
    0.9374304413795471,
    1.598478078842163,
    0.05807669088244438,
    -0.6133362650871277,
    0.4929369390010834,
    0.4006754755973816,
    0.5604300498962402,
    0.3733057677745819,
    0.4265013635158539,
    -0.7724323272705078,
    -1.2860174179077148,
    -0.47227609157562256,
    2.4562108516693115,
    -0.17964011430740356,
    -0.033682093024253845,
    0.07419659197330475,
    -0.1663801223039627,
    0.5527763366699219,
    1.4100979566574097,
    -0.1170891597867012,
    -0.09747426956892014,
    0.045542024075984955,
    0.1938224583864212,
    -0.2727060616016388,
    0.7672373652458191,
    -0.0482601523399353,
    -0.2898995280265808,
    -0.739528238773346,
    -0.13633976876735687,
    -0.7202429175376892,
    -0.5339828729629517,
    0.32683151960372925,
    -0.6685205101966858,
    -0.35133081674575806,
    0.36822184920310974,
    0.4806523323059082,
    0.3348427414894104,
    -0.47248342633247375,
    0.08240990340709686,
    -0.4872985780239105,
    0.08056969940662384,
    0.320170134305954,
    0.17754307389259338,
    -0.6856683492660522,
    -0.06366945803165436,
    0.22436273097991943,
    -0.39705777168273926,
    0.059936925768852234,
    0.6846954226493835,
    -0.04711998254060745,
    0.0724271684885025,
    -0.13919620215892792,
    -0.2322031855583191,
    0.29655054211616516,
    -0.3004470467567444,
    0.3136254847049713,
    0.15345853567123413,
    0.2046172171831131,
    -0.08909235149621964,
    0.019624225795269012,
    0.5553780794143677,
    0.47802257537841797,
    0.1718454360961914,
    -0.07401183247566223,
    -0.3724043369293213,
    -0.27283287048339844,
    0.09895259886980057,
    -0.0056592985056340694,
    0.47213268280029297,
    -0.6417243480682373,
    -0.3851706385612488,
    -0.11149973422288895,
    0.18411937355995178,
    0.5648183822631836,
    0.45455312728881836,
    -1.8204126358032227,
    0.016124868765473366,
    0.2070719301700592,
    -0.3020952343940735,
    0.2714148759841919,
    -0.6995109915733337,
    0.3184698820114136,
    0.022745639085769653,
    -0.0911722332239151,
    0.2755544185638428,
    -0.3504241108894348,
    0.40332502126693726,
    -0.7927133440971375,
    0.028577376157045364,
    -0.2261001467704773,
    -0.4023577868938446,
    0.7523453831672668,
    -1.1442458629608154,
    0.10664702951908112,
    -0.47478556632995605,
    0.5643227696418762,
    0.5950756669044495,
    0.23265282809734344,
    -0.3291812241077423,
    0.24900443851947784,
    -0.36466461420059204,
    -0.3766893148422241,
    0.2572173774242401,
    -0.022399503737688065,
    -0.02458442747592926,
    -0.42550045251846313,
    0.27170586585998535,
    -0.7202236652374268,
    -0.3538818657398224,
    0.5698095560073853,
    0.15795567631721497,
    -0.04550950601696968,
    0.008661739528179169,
    -0.16105063259601593,
    -0.5847092866897583,
    -0.21689294278621674,
    -0.19384385645389557,
    0.7809667587280273,
    -0.3331366181373596,
    0.4656360447406769,
    0.14867812395095825,
    -0.15572988986968994,
    -0.6296168565750122,
    0.362555593252182,
    -0.24947461485862732,
    0.035459429025650024,
    0.23236645758152008,
    0.14263582229614258,
    0.26227423548698425,
    -0.4141748547554016,
    -0.381466805934906,
    -0.37668392062187195,
    -0.14477132260799408,
    0.27166077494621277,
    0.6683980822563171,
    0.2585347592830658,
    0.355194091796875,
    0.10146864503622055,
    -0.5579633116722107,
    -0.026281122118234634,
    0.49441826343536377,
    0.2016357034444809,
    -0.2733982503414154,
    0.35003405809402466,
    -0.1414763480424881,
    0.3340670168399811,
    0.19664804637432098,
    -1.0436732769012451,
    -0.07791054993867874,
    0.37828245759010315,
    -0.3468613922595978,
    -1.0115506649017334,
    -0.07830365747213364,
    0.29766276478767395,
    0.0408313050866127,
    0.7730073928833008,
    -0.05950035899877548,
    -0.8544871807098389,
    -0.32509714365005493,
    0.7868296504020691,
    0.10097934305667877,
    0.4602634608745575,
    0.5423785448074341,
    -0.5453365445137024,
    -0.7311072945594788,
    -0.3960283696651459,
    0.12144897133111954,
    -0.1440257877111435,
    -0.5687665939331055,
    -0.027494942769408226,
    -0.4524528682231903,
    0.1520823836326599,
    -0.03785146027803421,
    -0.05301227048039436,
    0.5470579862594604,
    -0.24926389753818512,
    -0.43512481451034546,
    0.15524710714817047,
    0.10279823839664459,
    -1.1491857767105103,
    -0.5212386250495911,
    0.39576518535614014,
    -0.671671450138092,
    -0.11305882036685944,
    0.13819514214992523,
    0.005665898323059082,
    -0.20339100062847137,
    -0.9011315107345581,
    0.46271637082099915,
    -0.39185547828674316,
    0.1601153165102005,
    0.03414028137922287,
    -0.5781541466712952,
    1.1196422576904297,
    0.39040741324424744,
    0.43951570987701416,
    0.20230555534362793,
    -0.9611823558807373,
    0.44034940004348755,
    0.23191866278648376,
    0.26141515374183655,
    -0.23787634074687958,
    -0.515998363494873,
    -0.6595243215560913,
    -0.6911458373069763,
    0.4447871446609497,
    -0.08148099482059479,
    0.4859594702720642,
    -0.43145906925201416,
    -0.03533420339226723,
    0.2955072224140167,
    0.04344157502055168,
    -0.3394273817539215,
    -0.10736468434333801,
    -0.2806803286075592,
    0.14070668816566467,
    -0.9580205678939819,
    -0.2603573799133301,
    -0.044396575540304184,
    -0.515652596950531,
    -0.738685131072998,
    -0.17368929088115692,
    0.09260851889848709,
    -0.07183808833360672,
    0.7335540652275085,
    0.9343615174293518,
    0.11265679448843002,
    -0.018873736262321472,
    0.19837114214897156,
    -0.09744749218225479,
    0.41377878189086914,
    -0.18094295263290405,
    0.6412829756736755,
    0.30746105313301086,
    -0.5298247337341309,
    -0.3956785500049591,
    -0.46412819623947144,
    0.7108737230300903,
    0.09708103537559509,
    0.07638689875602722,
    0.33109956979751587,
    0.3389718532562256,
    -0.3946096897125244,
    -0.24823063611984253,
    -0.2879277169704437,
    -0.0014007750432938337,
    0.5057845711708069,
    0.15304473042488098,
    0.4437350928783417,
    -0.08729951828718185,
    -0.3139413893222809,
    1.0532556772232056,
    0.19910430908203125,
    -0.5331642627716064,
    -0.057525187730789185,
    -0.06814130395650864,
    -0.35626256465911865,
    -0.2612465023994446,
    0.05177126079797745,
    0.29741472005844116,
    0.3150845766067505,
    -0.11490415036678314,
    -0.10851792991161346,
    -0.09258207678794861,
    0.17501318454742432,
    -0.016899144276976585,
    0.05120283365249634,
    0.015302923507988453,
    0.03636530041694641,
    -0.029240136966109276,
    0.11167439073324203,
    0.1940852403640747,
    0.2082923948764801,
    0.3162148892879486,
    0.21414880454540253,
    0.21017901599407196,
    0.13648182153701782,
    0.04505819082260132,
    -0.27458763122558594,
    -0.056210052222013474,
    0.23159843683242798,
    0.26761478185653687,
    0.23659148812294006,
    -0.39620038866996765,
    0.38158532977104187,
    0.10992561280727386,
    -0.29462766647338867,
    -0.2952048182487488,
    -0.05567833036184311,
    0.22417275607585907,
    -0.33822548389434814,
    0.07920166850090027,
    0.3407774865627289,
    -0.1051490530371666,
    -0.5002029538154602,
    0.014413606375455856,
    -0.3279746472835541,
    -0.11380210518836975,
    -0.07185514271259308,
    0.22060498595237732,
    -0.24511927366256714,
    0.17815977334976196,
    0.3204107880592346,
    0.2006419152021408,
    -0.020205268636345863,
    -0.14312633872032166,
    0.028151817619800568,
    0.05608297884464264,
    0.047036312520504,
    -0.056513793766498566,
    -0.4053792357444763,
    -0.2875114381313324,
    -0.4782405197620392,
    0.41801369190216064,
    -0.11731835454702377,
    0.18095523118972778,
    -0.23266048729419708,
    -0.6577205657958984,
    -0.1261724978685379,
    -0.1858765333890915,
    0.6527889966964722,
    0.16159962117671967,
    0.23580551147460938,
    -0.06413449347019196,
    -0.16849832236766815,
    -0.028824850916862488,
    0.11268972605466843,
    -0.06383299827575684,
    -0.058630213141441345,
    -0.2712431848049164,
    -0.03732166439294815,
    -0.07127295434474945,
    -0.2557777464389801,
    0.06286586076021194,
    0.24225004017353058,
    0.2171475738286972,
    0.261817067861557,
    0.025353524833917618,
    -0.4714718461036682,
    -0.37203067541122437,
    -0.07699331641197205,
    0.41739749908447266,
    -0.5643095970153809,
    -0.2272881716489792,
    0.3062390983104706,
    0.21269604563713074,
    0.06363997608423233,
    -0.2539057731628418,
    -0.0007365206838585436,
    -0.25891438126564026,
    0.1706722527742386,
    -0.24631367623806,
    -0.3325563669204712,
    -0.27103909850120544,
    -0.3227584660053253,
    -0.2002883106470108,
    0.20174020528793335,
    0.3585900366306305,
    0.5278068780899048,
    -0.08334334194660187,
    -0.020634308457374573,
    -0.06663009524345398,
    0.016797605901956558,
    -0.07058681547641754,
    0.20410168170928955,
    0.04348023980855942,
    0.27816644310951233,
    -0.14386683702468872,
    -0.02080690488219261,
    -0.5367467403411865,
    0.21761059761047363,
    0.33476781845092773,
    0.23188039660453796,
    -0.30547067523002625,
    0.0004252744547557086,
    -0.31658297777175903,
    0.1810234785079956,
    0.28173258900642395,
    -0.29630446434020996,
    -0.17933298647403717,
    -0.04571988433599472,
    0.41703706979751587,
    0.5948663949966431,
    0.08877263963222504,
    -0.30099740624427795,
    0.12244027853012085,
    -0.5335404872894287,
    -0.3305341601371765,
    0.10835649818181992,
    0.225560262799263,
    0.07804886251688004,
    0.23304420709609985,
    -0.17170238494873047,
    0.28086215257644653,
    0.04240584000945091,
    0.20761340856552124,
    0.03843323141336441,
    -0.3020630180835724,
    -0.2149563878774643,
    -0.16066564619541168,
    0.27864736318588257,
    0.29883044958114624,
    -0.1678842455148697,
    0.05300317332148552,
    0.16595952212810516,
    0.1895407885313034,
    -0.41461873054504395,
    0.8227988481521606,
    0.23131369054317474,
    -0.12782564759254456,
    0.29782339930534363,
    0.20426948368549347,
    0.24703171849250793,
    -0.08495151251554489,
    0.41964203119277954,
    0.28020304441452026,
    -0.29006388783454895,
    -0.015242468565702438,
    0.22995387017726898,
    0.15729214251041412,
    -0.3736479878425598,
    -0.08784177154302597,
    0.0286454726010561,
    0.2677951753139496,
    0.08680476248264313,
    0.2923474907875061,
    0.5190906524658203,
    0.02162124589085579,
    -0.18161100149154663,
    -0.0873434767127037,
    0.0427871011197567,
    -0.007580270990729332,
    -0.04751326143741608,
    0.39567169547080994,
    -0.04826074466109276,
    0.3011542856693268,
    0.12833890318870544,
    -0.04762690141797066,
    0.07946662604808807,
    0.11629793792963028,
    0.2613368332386017,
    0.14675574004650116,
    0.29009321331977844,
    -0.45327508449554443,
    0.3229435682296753,
    0.16209109127521515,
    0.048992570489645004,
    -0.3773336112499237,
    0.12419071793556213,
    -0.23995481431484222,
    0.0880543664097786,
    -0.013139522634446621,
    0.21557670831680298,
    0.3679729402065277,
    -0.010639885440468788,
    -0.04910753667354584,
    0.4703831076622009,
    0.09621181339025497,
    0.13672031462192535,
    0.30395323038101196,
    0.012592201121151447,
    0.14671286940574646,
    0.214260533452034,
    0.29192063212394714,
    -0.03559848293662071,
    -0.0196746364235878,
    -0.498757928609848,
    -0.474334180355072,
    -0.031279582530260086,
    0.2036660611629486,
    -0.40859824419021606,
    -0.07298571616411209,
    0.3283820152282715,
    -0.37461796402931213,
    -0.41039368510246277,
    0.38959529995918274,
    -0.04713919386267662,
    0.06451226025819778,
    -0.1839555948972702,
    0.07970207184553146,
    0.03735179826617241,
    0.13050243258476257,
    -0.39456963539123535,
    -0.327871173620224,
    0.1876731514930725,
    0.3765803873538971,
    0.24733276665210724,
    -0.2902294993400574,
    -0.09142956137657166,
    -0.17313891649246216,
    0.03999180719256401,
    -0.12954972684383392,
    0.18429362773895264,
    -0.16308146715164185,
    0.18972954154014587,
    0.3112551271915436,
    0.17354711890220642,
    0.31291380524635315,
    0.009402877651154995,
    -0.20525963604450226,
    -0.4203820526599884,
    0.01687116175889969,
    0.2882293164730072,
    -0.20638597011566162,
    0.2890777289867401,
    -0.3866434395313263,
    0.237577885389328,
    -0.2043420970439911,
    0.29056549072265625,
    -0.37158897519111633,
    -0.3571650981903076,
    -0.01481240801513195,
    0.054013874381780624,
    0.05576057359576225,
    0.159628227353096
  ],
  "gru_weight_hh": [
    0.41398048400878906,
    -0.39096733927726746,
    -1.4067211151123047,
    -0.26922446489334106,
    0.8659224510192871,
    -0.11423569917678833,
    0.034507304430007935,
    0.057301368564367294,
    0.011269306764006615,
    -0.20449554920196533,
    -0.27215775847435,
    -0.12580949068069458,
    0.521354079246521,
    0.9411724209785461,
    -0.1400657594203949,
    0.6609392166137695,
    0.06833270937204361,
    -0.2701442241668701,
    0.22018899023532867,
    -0.654542863368988,
    0.6092019081115723,
    -0.4880387485027313,
    0.3118230104446411,
    0.4407166540622711,
    -1.307538628578186,
    -0.6421239376068115,
    -1.0942625999450684,
    0.5277719497680664,
    0.259894460439682,
    -0.3406326472759247,
    -0.23606719076633453,
    0.09393160790205002,
    0.004223571624606848,
    -0.519731342792511,
    -0.23468241095542908,
    -0.1322057843208313,
    0.14333555102348328,
    -0.01854509860277176,
    -0.2260064035654068,
    0.30811822414398193,
    -0.015402162447571754,
    -0.43312132358551025,
    -0.29311954975128174,
    -0.10211718082427979,
    -0.015982525423169136,
    -0.23557724058628082,
    0.16940023005008698,
    0.360724538564682,
    0.4236115515232086,
    0.09121403843164444,
    0.15096065402030945,
    0.0889628455042839,
    0.2737385332584381,
    -0.6458518505096436,
    0.20101918280124664,
    0.3469666540622711,
    0.022537970915436745,
    -0.06803108751773834,
    -1.4220103025436401,
    0.05157789587974548,
    -1.2325528860092163,
    0.2657274603843689,
    -0.6218358278274536,
    0.7436621189117432,
    -0.12968894839286804,
    0.21563521027565002,
    -0.4534039795398712,
    1.21034574508667,
    0.13705848157405853,
    -0.09453269094228745,
    -0.08536197245121002,
    0.20099592208862305,
    -0.7020949721336365,
    -0.2694958448410034,
    -0.40649810433387756,
    -0.11651502549648285,
    -0.6299607157707214,
    -0.8249132633209229,
    -0.17701664566993713,
    0.2569834589958191,
    -0.5536618828773499,
    -0.4835700988769531,
    -0.06188024580478668,
    -1.1580294370651245,
    0.2710740566253662,
    0.7327920198440552,
    -0.6213487982749939,
    -0.3220894932746887,
    0.5613824725151062,
    -0.8332404494285583,
    -0.07823638617992401,
    -0.42432716488838196,
    -0.3161675035953522,
    0.7815791964530945,
    0.6822165250778198,
    -0.9857508540153503,
    -0.36647480726242065,
    -0.28071776032447815,
    0.056672289967536926,
    -0.17767086625099182,
    0.3331942856311798,
    0.005569260101765394,
    0.5196129679679871,
    -0.19013264775276184,
    -0.33849185705184937,
    0.039456117898225784,
    0.33131352066993713,
    -0.3868880569934845,
    0.8704524040222168,
    -0.5667887330055237,
    0.14495523273944855,
    -0.40328776836395264,
    0.39984214305877686,
    -0.22826765477657318,
    0.38820743560791016,
    -0.36484047770500183,
    1.2925901412963867,
    0.11645113676786423,
    -0.17388518154621124,
    -0.39104121923446655,
    -0.7998498678207397,
    -0.10339699685573578,
    -0.6205322742462158,
    0.3915506899356842,
    0.7432907819747925,
    1.0515618324279785,
    -0.7325454354286194,
    0.9685477614402771,
    -0.6945697069168091,
    -0.27707356214523315,
    0.14982730150222778,
    0.6014521718025208,
    0.022810878232121468,
    0.09761583805084229,
    -0.03573063388466835,
    -0.35323670506477356,
    0.5312355160713196,
    -0.006596670486032963,
    0.40543583035469055,
    -0.24473752081394196,
    0.5130746364593506,
    0.5736898183822632,
    -0.4750048518180847,
    0.32569757103919983,
    -0.3802434206008911,
    -0.15997448563575745,
    0.3949267566204071,
    1.1779730319976807,
    -1.521164894104004,
    -0.50206458568573,
    -0.4105629026889801,
    0.15891171991825104,
    -0.5745664238929749,
    0.2261827141046524,
    0.08944810926914215,
    -1.0307438373565674,
    -0.8900163173675537,
    0.08773064613342285,
    0.3383500277996063,
    0.6059142351150513,
    -1.2283077239990234,
    0.7872611284255981,
    -1.4018784761428833,
    0.6065598726272583,
    1.5374959707260132,
    -0.25989073514938354,
    -0.03765876591205597,
    1.6383949518203735,
    -0.31437963247299194,
    -0.082952119410038,
    -0.33945193886756897,
    -0.7835198044776917,
    0.2379029244184494,
    -0.7046438455581665,
    -0.6635516285896301,
    0.8746187686920166,
    -0.14576080441474915,
    0.4993888735771179,
    -0.19647325575351715,
    0.7507194876670837,
    -0.6313278079032898,
    0.2600966989994049,
    -0.6110431551933289,
    0.3617265224456787,
    0.16849127411842346,
    1.6941949129104614,
    -0.8908625841140747,
    0.4730289876461029,
    -0.16119754314422607,
    0.6892885565757751,
    -0.2470911741256714,
    1.8324099779129028,
    -0.25657910108566284,
    -0.044682107865810394,
    -0.024084940552711487,
    -0.23933522403240204,
    -0.4908420443534851,
    -0.2771490216255188,
    -0.1069343090057373,
    0.6301550269126892,
    1.2419501543045044,
    -0.6946097612380981,
    -0.38027721643447876,
    -0.41934144496917725,
    -0.31713706254959106,
    -0.2915118634700775,
    0.018049541860818863,
    0.4602788984775543,
    -0.3179068863391876,
    0.005578881595283747,
    -0.8135737776756287,
    -0.3470624089241028,
    -0.2623450458049774,
    0.2770991921424866,
    0.33815035223960876,
    0.6934780478477478,
    0.081207774579525,
    0.18310242891311646,
    -0.16875408589839935,
    -0.19272387027740479,
    -1.1920479536056519,
    1.0057178735733032,
    -0.610914409160614,
    0.3322964310646057,
    0.03200394660234451,
    0.057553067803382874,
    0.3547377288341522,
    0.22146447002887726,
    -0.400920569896698,
    -0.2573106586933136,
    0.0971933901309967,
    0.8862625360488892,
    -0.45477116107940674,
    -0.4884830713272095,
    -0.2739880084991455,
    -0.19700384140014648,
    -0.18856513500213623,
    0.03368040919303894,
    -0.11472261697053909,
    0.7313287258148193,
    0.3347146213054657,
    0.20440229773521423,
    -1.1316484212875366,
    0.31348055601119995,
    0.004770088475197554,
    -0.7776899933815002,
    -0.7131921648979187,
    -0.2494886964559555,
    -0.5900498628616333,
    0.2281155288219452,
    0.14674396812915802,
    0.11965363472700119,
    -0.35081204771995544,
    -0.6086577773094177,
    0.2530205249786377,
    0.40200114250183105,
    0.5432539582252502,
    -0.17279011011123657,
    0.6013947129249573,
    0.270480751991272,
    0.0008475980721414089,
    -0.3958144783973694,
    -0.04456903040409088,
    0.4261271059513092,
    0.8904666900634766,
    0.8058321475982666,
    0.801515519618988,
    0.4866546094417572,
    -1.232693076133728,
    1.807849645614624,
    -0.014614284038543701,
    0.16233691573143005,
    0.8266283869743347,
    0.5651883482933044,
    0.024292487651109695,
    -1.5283989906311035,
    -0.39412617683410645,
    -0.3611867129802704,
    0.3516034483909607,
    -0.016890237107872963,
    0.6630167961120605,
    -0.4422069489955902,
    -0.8491330742835999,
    0.12375666201114655,
    0.21282364428043365,
    0.3758399784564972,
    0.0002167659840779379,
    -0.6510571837425232,
    0.3390429615974426,
    -0.17120343446731567,
    0.13747885823249817,
    -0.5752338171005249,
    -0.45486342906951904,
    0.0740693062543869,
    -0.272100031375885,
    -0.961223840713501,
    0.5281131863594055,
    -0.5953294634819031,
    0.03846132755279541,
    0.11834463477134705,
    -0.0712142065167427,
    -0.1572653204202652,
    -1.0449182987213135,
    -1.3918899297714233,
    -0.5548652410507202,
    0.07029112428426743,
    0.22546157240867615,
    1.4693948030471802,
    0.11940553039312363,
    -0.48429903388023376,
    0.5400932431221008,
    1.1472785472869873,
    -0.599768340587616,
    0.2828826308250427,
    0.020694518461823463,
    -0.11833910644054413,
    0.40853163599967957,
    0.0187448188662529,
    -0.1526850014925003,
    1.89162278175354,
    -0.3738146424293518,
    -0.14943207800388336,
    -1.0033670663833618,
    -1.907727837562561,
    0.013729941099882126,
    -0.13895800709724426,
    0.015540966764092445,
    -0.10243774205446243,
    -0.264375776052475,
    -0.5474510192871094,
    -0.6025843620300293,
    0.00991679634898901,
    -0.7596155405044556,
    0.3527865707874298,
    -0.1151350662112236,
    -0.7634508013725281,
    0.3778100311756134,
    0.9036470651626587,
    0.6772825717926025,
    -0.38902270793914795,
    0.281880259513855,
    0.5170068740844727,
    -0.2503223419189453,
    -0.7454128265380859,
    -0.40846532583236694,
    -1.1143287420272827,
    0.36405473947525024,
    0.6855519413948059,
    0.06004263833165169,
    0.4627978503704071,
    0.7550236582756042,
    -1.423378348350525,
    0.44061386585235596,
    -0.42782536149024963,
    0.9238893985748291,
    -0.7528734803199768,
    -0.9708499908447266,
    -0.19198764860630035,
    -0.7639526724815369,
    -0.7240347266197205,
    -1.5253366231918335,
    -0.3807859420776367,
    -0.8679323792457581,
    0.07286030054092407,
    -0.06528859585523605,
    0.1374376118183136,
    0.7883074283599854,
    -0.05115383863449097,
    -0.47838452458381653,
    0.20172211527824402,
    0.27737289667129517,
    1.3371938467025757,
    -0.7225586771965027,
    0.034534987062215805,
    -0.060072094202041626,
    0.6369258165359497,
    -0.19347228109836578,
    0.5586735606193542,
    0.16828995943069458,
    -0.130837082862854,
    -0.5345572233200073,
    -0.16459715366363525,
    0.16163566708564758,
    0.994379997253418,
    1.8757092952728271,
    -0.6962082386016846,
    -0.4460529386997223,
    -1.0376224517822266,
    -0.19593189656734467,
    0.3810204863548279,
    -0.6768325567245483,
    -1.5356298685073853,
    -0.04928967356681824,
    -0.5699536204338074,
    0.039021413773298264,
    0.8755661249160767,
    -0.853542149066925,
    0.7184121012687683,
    -0.8964835405349731,
    -1.1997923851013184,
    -0.034904081374406815,
    -0.030199237167835236,
    -0.9494830965995789,
    0.7030051350593567,
    1.4408258199691772,
    0.6556940078735352,
    0.4551873207092285,
    -0.8108909726142883,
    0.4727744162082672,
    -0.36193951964378357,
    -0.018901031464338303,
    0.5958877205848694,
    -0.7909734845161438,
    -0.39827191829681396,
    0.20196999609470367,
    -0.3560638427734375,
    2.08282470703125,
    -0.45207393169403076,
    0.3271309733390808,
    -0.3220829665660858,
    0.2559608221054077,
    0.2523018419742584,
    0.08763758093118668,
    -0.8685523271560669,
    0.02908201515674591,
    -0.10946695506572723,
    0.6802977919578552,
    -1.2264434099197388,
    -0.37903591990470886,
    0.12177778035402298,
    -0.10824055969715118,
    -0.8047616481781006,
    1.6024510860443115,
    -1.1927993297576904,
    1.0784717798233032,
    -0.19356177747249603,
    0.4342638850212097,
    -0.6676585078239441,
    0.08691317588090897,
    -0.8360294103622437,
    -0.2815747559070587,
    0.5742623805999756,
    0.13875506818294525,
    0.6809646487236023,
    -0.060622550547122955,
    0.34321603178977966,
    0.7473210692405701,
    0.16774818301200867,
    0.7659648060798645,
    -0.2319418489933014,
    -0.6894515752792358,
    -0.6847614049911499,
    -0.0431651771068573,
    -0.184707373380661,
    0.08292847871780396,
    0.016828950494527817,
    -0.10303295403718948,
    -1.1875704526901245,
    -0.8081400394439697,
    -0.5663111209869385,
    -0.448161244392395,
    0.11330725997686386,
    -0.9652562737464905,
    -0.6726866960525513,
    0.6139782667160034,
    0.841852068901062,
    -0.27566152811050415,
    -0.2960311472415924,
    -1.5596299171447754,
    -0.23580406606197357,
    1.4179699420928955,
    -0.14323578774929047,
    0.5470532774925232,
    -0.442410409450531,
    -1.0798797607421875,
    0.1205538809299469,
    -1.247624158859253,
    1.030288577079773,
    -0.08667607605457306,
    -0.8882942795753479,
    0.8762733340263367,
    -0.1897825002670288,
    -0.8792383074760437,
    0.1798408031463623,
    -0.6531553268432617,
    0.11061199754476547,
    -0.8343552350997925,
    -0.7286099195480347,
    -0.012387263588607311,
    -0.4880228340625763,
    0.18912971019744873,
    0.7512165904045105,
    -0.23369896411895752,
    -0.2441161572933197,
    -0.2710712254047394,
    0.76369309425354,
    -0.3100888133049011,
    0.30060485005378723,
    0.14635424315929413,
    0.7014256715774536,
    -0.3016741871833801,
    0.5761296153068542,
    -0.1433449238538742,
    1.899397373199463,
    -0.21237586438655853,
    0.6521861553192139,
    0.06842245161533356,
    -0.13892140984535217,
    -0.06120998039841652,
    -0.355817586183548,
    -0.42959463596343994,
    1.590126872062683,
    -0.13535962998867035,
    1.217215657234192,
    -0.692393958568573,
    0.40543651580810547,
    -0.07999923080205917,
    0.1260533332824707,
    0.7909844517707825,
    0.1664813607931137,
    -0.46278417110443115,
    0.7466703057289124,
    -0.6441509127616882,
    0.48642799258232117,
    0.7984322905540466,
    -0.44030752778053284,
    0.11319784075021744,
    -0.2998459041118622,
    -0.30911973118782043,
    -0.15153943002223969,
    0.3320092260837555,
    -0.10487750917673111,
    -0.6464815139770508,
    -1.4142050743103027,
    0.009711425751447678,
    0.08543780446052551,
    -0.7226644158363342,
    0.6490522623062134,
    -0.49127715826034546,
    0.41552433371543884,
    -0.009085909463465214,
    -0.7975913882255554,
    0.058980073779821396,
    -0.1861245036125183,
    0.017410626634955406,
    0.018822919577360153,
    0.3441481590270996,
    -0.7376741766929626,
    0.1519826203584671,
    0.04057198017835617,
    0.03856966644525528,
    -0.42882320284843445,
    -0.12649665772914886,
    -0.37337934970855713,
    0.35442277789115906,
    0.3388708233833313,
    0.14130650460720062,
    -0.5055540800094604,
    0.3070400059223175,
    0.4314592182636261,
    -0.31392213702201843,
    0.42696768045425415,
    0.4663786292076111,
    0.3159279525279999,
    -0.9383145570755005,
    -0.11769869178533554,
    0.3647707402706146,
    0.6008232235908508,
    0.663695752620697,
    0.8980929851531982,
    -0.4102056324481964,
    -0.14424239099025726,
    -0.9900450706481934,
    0.027193300426006317,
    -0.02808132953941822,
    0.24646681547164917,
    -0.23021012544631958,
    -0.009629265405237675,
    0.08491752296686172,
    0.717563807964325,
    -0.25617802143096924,
    0.31860819458961487,
    0.15702448785305023,
    -0.061054397374391556,
    -0.18487772345542908,
    0.7615947127342224,
    0.045089174062013626,
    0.19765909016132355,
    0.06586126238107681,
    -0.2606308162212372,
    0.1028493121266365,
    0.2870287299156189,
    -0.06548158824443817,
    -0.8303605318069458,
    -0.7999366521835327,
    0.35493791103363037,
    0.4105324447154999,
    -0.3373032510280609,
    0.4714677333831787,
    -0.9483724236488342,
    -0.27867841720581055,
    -0.14184914529323578,
    -0.2739229202270508,
    -0.45447301864624023,
    -0.09605971723794937,
    0.39170992374420166,
    0.12460936605930328,
    0.28814321756362915,
    0.5358769297599792,
    0.25595390796661377,
    0.06589582562446594,
    0.4749549627304077,
    0.6222378015518188,
    0.006352860480546951,
    0.25664442777633667,
    -0.3636454939842224,
    -0.030651718378067017,
    0.09791465848684311,
    -0.7184469699859619,
    0.10267972201108932,
    0.2961711585521698,
    -0.02718912623822689,
    0.41445669531822205,
    -0.3426227867603302,
    -0.7302350997924805,
    0.3188318610191345,
    0.26087698340415955,
    0.5663326382637024,
    -0.046359941363334656,
    0.26856622099876404,
    0.07057453691959381,
    -0.08671987801790237,
    -0.01992836967110634,
    0.7076321244239807,
    -0.04813312366604805,
    0.012493016198277473,
    0.9167565703392029,
    0.010735804215073586,
    -0.009872647933661938,
    0.6488169431686401,
    -0.13377243280410767,
    -0.15703503787517548,
    0.0931747704744339,
    -0.6973338723182678,
    0.35052379965782166,
    -0.1404687762260437,
    0.4108477532863617,
    0.6654680371284485,
    0.09115947782993317,
    -0.07790670543909073,
    0.11558216065168381,
    0.24520866572856903,
    0.20988968014717102,
    0.41498813033103943,
    0.07342126965522766,
    -0.27411672472953796,
    -0.0940314307808876,
    -0.004124317783862352,
    -0.15920811891555786,
    0.19893020391464233,
    -0.4170817732810974,
    0.26414480805397034,
    -0.49119335412979126,
    -0.4543255567550659,
    0.5014147758483887,
    -0.1487065851688385,
    -0.3796110153198242,
    0.2696641683578491,
    -0.24640443921089172,
    1.0771676301956177,
    -0.549304187297821,
    -1.0666550397872925,
    -0.17224781215190887,
    0.2366771250963211,
    -0.9351275563240051,
    -0.24625402688980103,
    0.2163378894329071,
    0.16624876856803894,
    0.886775553226471,
    -0.5353952646255493,
    -0.5236507058143616,
    -0.04335985705256462,
    -0.6000085473060608,
    0.03831825405359268,
    -0.05007154494524002,
    0.05686120316386223,
    -0.17090551555156708,
    -1.0331660509109497,
    0.5006272792816162,
    -0.567887544631958,
    -0.4177149832248688,
    -0.06671139597892761,
    0.31818392872810364,
    0.08895007520914078,
    -0.43880370259284973,
    -0.007413266692310572,
    -0.7647232413291931,
    0.0023489613085985184,
    0.5598971247673035,
    -0.17042525112628937,
    -0.5241624712944031,
    0.5904690027236938,
    -0.5012343525886536,
    0.15289051830768585,
    0.24704024195671082,
    -0.12237713485956192,
    0.35062265396118164,
    -0.12628844380378723,
    0.0021758137736469507,
    -0.2857530117034912,
    -0.28030848503112793,
    -0.7664215564727783,
    -0.8589374423027039,
    -0.3464283049106598,
    -0.1308072805404663,
    0.19766393303871155,
    -0.16208848357200623,
    -0.21407797932624817,
    -0.14437854290008545,
    -0.9381533861160278,
    0.559015691280365,
    0.3895488679409027,
    0.33925020694732666,
    0.20442000031471252,
    -0.042398907244205475,
    -0.15291990339756012,
    0.07821516692638397,
    0.29645755887031555,
    -0.4728773534297943,
    0.4030013978481293,
    0.14265736937522888,
    -0.282757967710495,
    0.06406688690185547,
    -0.2324492186307907,
    -0.29453665018081665,
    0.4778749942779541,
    -0.17806977033615112,
    0.304060161113739,
    -0.17593149840831757,
    -0.46491989493370056,
    0.10406536608934402,
    -0.09435631334781647,
    -0.9416766166687012,
    -0.699569046497345,
    -0.24526305496692657,
    -0.2563706338405609,
    0.6080901622772217,
    0.9845945835113525,
    -0.020546551793813705,
    -0.06342974305152893,
    -0.7718008160591125,
    0.38062784075737,
    -0.4289783537387848,
    0.6009839773178101,
    -0.42036372423171997,
    0.05541117116808891,
    -0.29178762435913086,
    -0.30984166264533997,
    0.08542328327894211,
    0.24191123247146606,
    0.6416012048721313,
    0.8384958505630493,
    0.048025958240032196,
    0.2576555609703064,
    0.05091612786054611,
    -0.25270363688468933,
    0.06111718341708183,
    -0.2981759011745453
  ],
  "gru_bias_ih": [
    0.04370785504579544,
    -0.1357969045639038,
    0.07778085023164749,
    -0.1685795783996582,
    -0.16805313527584076,
    0.03593778982758522,
    -0.03632505238056183,
    -0.4054665267467499,
    -0.25870636105537415,
    0.018919477239251137,
    0.2195613831281662,
    0.12646012008190155,
    0.01930852420628071,
    -0.3926055133342743,
    -0.17077021300792694,
    -0.2864919602870941,
    -0.41554027795791626,
    -0.5413118004798889,
    -0.7260076999664307,
    1.340815782546997,
    -0.7875861525535583,
    -1.0163028240203857,
    -0.5513426065444946,
    0.9346674084663391,
    -0.26191702485084534,
    -1.0262166261672974,
    -0.7588041424751282,
    -0.6735014915466309,
    -1.0816569328308105,
    -0.9154714941978455,
    -0.656950831413269,
    1.1122971773147583,
    -0.2301531881093979,
    0.0026537596713751554,
    0.29663026332855225,
    -0.06339793652296066,
    -0.3377453684806824,
    -0.05387425422668457,
    0.2187017798423767,
    -0.1245763823390007,
    0.08113371580839157,
    0.45272600650787354,
    0.1271105259656906,
    -0.06808839738368988,
    0.054747626185417175,
    -0.15505562722682953,
    0.11024373769760132,
    -0.316541463136673
  ],
  "gru_bias_hh": [
    -0.09490908682346344,
    -0.28143972158432007,
    0.06986317783594131,
    -0.24358569085597992,
    -0.019272036850452423,
    -0.2288518100976944,
    -0.17550238966941833,
    -0.43492040038108826,
    -0.4812712073326111,
    0.16295643150806427,
    0.1721327155828476,
    0.16586078703403473,
    0.16093671321868896,
    -0.37358230352401733,
    -0.07451268285512924,
    -0.0649094209074974,
    -0.2690093517303467,
    -0.6685121059417725,
    -0.759135365486145,
    1.0812441110610962,
    -1.1463549137115479,
    -1.2193212509155273,
    -0.2894968092441559,
    0.9346725344657898,
    0.11318021267652512,
    -1.271606206893921,
    -0.9651607275009155,
    -0.776670515537262,
    -1.1186720132827759,
    -1.0961618423461914,
    -1.0353542566299438,
    1.0519791841506958,
    -0.10149797052145004,
    0.13025328516960144,
    0.2861977219581604,
    0.09933734685182571,
    0.06667552888393402,
    0.25727754831314087,
    -0.20189358294010162,
    0.3379511535167694,
    -0.14554934203624725,
    0.3633732199668884,
    0.10430234670639038,
    -0.15862242877483368,
    0.07884035259485245,
    -0.255218505859375,
    0.2849295735359192,
    -0.0476590059697628
  ],
  "example_input": [
    -1.0,
    -0.9411764740943909,
    -0.8823529481887817,
    -0.8235294222831726,
    -0.7647058963775635,
    -0.7058823704719543,
    -0.6470588445663452,
    -0.5882353186607361,
    -0.529411792755127,
    -0.47058823704719543,
    -0.4117647111415863,
    -0.3529411852359772,
    -0.29411762952804565,
    -0.23529411852359772,
    -0.1764705777168274,
    -0.11764705181121826,
    -0.05882352590560913,
    -3.725290298461914e-09,
    0.05882352590560913,
    0.11764705181121826,
    0.1764705777168274,
    0.23529411852359772,
    0.29411762952804565,
    0.3529411852359772,
    0.4117647111415863,
    0.47058823704719543,
    0.529411792755127,
    0.5882353186607361,
    0.6470588445663452,
    0.7058823704719543,
    0.7647058963775635,
    0.8235294222831726,
    0.8823529481887817,
    0.9411764740943909,
    1.0
  ],
  "example_output": [
    -1.5950254201889038,
    0.6868636012077332,
    -1.2865651845932007,
    1.3177917003631592
  ],
  "checkpoint_name": "best_checkpoint_model_699.pt",
  "checkpoint_step": -1,
  "requires_obs_normalization": false,
  "compat_reset_output": [
    0.6194801926612854,
    0.6048930883407593,
    -0.09697447717189789,
    1.1760841608047485
  ],
  "compat_hover_output": [
    0.6194801926612854,
    0.6048930883407593,
    -0.09697447717189789,
    1.1760841608047485
  ],
  "export_format": "rl_tools_checkpoint_blob"
}
